tree
version=v4
num_class=1
num_tree_per_iteration=1
label_index=0
max_feature_idx=66
objective=binary sigmoid:1
feature_names=rsi macd macd_signal bb_upper bb_middle bb_lower atr volume_ratio momentum adx breakout_up breakout_down price_position body_size upper_wick lower_wick bullish_candle atr_pct volatility_regime bb_width bb_squeeze trend_alignment roc_5 roc_10 roc_20 momentum_alignment volume_trend volume_spike obv_momentum rsi_momentum macd_hist macd_hist_momentum stoch_k stoch_d stoch_cross willr cci mfi roc_60 roc_240 mtf_momentum_align return_5 return_20 return_60 atr_percentile vol_expanding vol_contracting price_percentile_50 price_percentile_100 dist_from_high_50 dist_from_low_50 momentum_accel rsi_accel roc_accel volume_accel hour day_of_week is_us_session is_asia_session strong_trend weak_trend rsi_oversold rsi_overbought bb_oversold bb_overbought bullish_divergence bearish_divergence
feature_infos=[3.855378735238979:92.615149368415914] [-615.2780581163388:825.58996251525241] [-489.36573680886795:727.0309866072547] [75055.154664669477:124457.96117470771] [74778.500200000097:124080.57712296734] [74424.731056299002:123754.95149819521] [3.1900053123447698:1383.7249522188374] [0:19.999999941394265] [-3388.3760000000038:2998.3369999999995] [5.289836063872019:72.503548198979445] none none none [0:9.7188461124070162] [0:9.0376894193929065] [0:9.3441555559353162] [0:1] [0.0027345227021537714:1.3212580829992109] [0.45959017012571968:5.4827355384808847] [0.00022176572529819286:0.061114291378171808] [0:1] [0:3] [-2.8262639203106232:3.6278568867043059] [-3.1905697928390042:3.8587674811444428] [-3.5055344951983591:4.6929564881492247] [-1:1] none [0:1] none [-47.168022848414516:53.156920606874699] [-310.29009934418843:289.75950403055805] none [-1.3234598602214949e-12:100.00000000000001] [-1.9397816686250735e-12:99.999999999999901] [0:1] [-99.999999999999986:0] [-579.79317828360922:504.60272472015316] [-8.8823942203913749e-09:100.00000000069653] [-4.2753409262260451:6.3583545248905526] [-5.8898203517386838:7.0051620429342876] [0:1] none none none [0.01:1] [0:1] [0:1] none none none none [-3718.9445000000123:3346.7264999999898] [-47.168022848414516:53.156920606874699] [-4.7162679011932163:4.1757552938162306] [-19.999999941394265:19.999999941394265] [0:23] [0:6] [0:1] [0:1] [0:1] [0:1] [0:1] [0:1] [0:1] [0:1] none none
tree_sizes=6175

Tree=0
num_leaves=58
num_cat=0
split_feature=19 39 6 6 4 38 3 6 13 40 52 38 5 4 40 3 5 38 13 39 15 53 9 38 8 2 2 2 37 2 18 38 34 13 1 19 4 33 44 36 5 44 4 2 9 22 9 9 6 0 0 0 0 0 2 0 0
split_gain=1.87882e+06 361218 221692 200089 232469 125868 122436 83494 81767.4 74585.6 65357.4 62768.6 62303.4 60503.9 82515.4 50494.5 49246.8 44707.6 44374.5 43336.5 42121.2 40328.5 54941.1 42690.4 38400.4 36420.7 31959 31788.3 29211 27897.6 27147.6 27033 27003.5 25565.4 24659.8 23956.1 23693.2 23234.5 47330.1 22991.6 22886.8 54479.5 20481.3 12816.9 8825.79 4673.14 4207.23 19548.1 1648.92 1.77636e-15 8.88178e-16 8.88178e-16 4.44089e-16 4.44089e-16 4.44089e-16 2.22045e-16 5.55112e-17
threshold=0.0056972599992341872 0.88880070357129093 113.96962039925909 74.856284478522937 103776.36626249911 0.20615512559433172 84084.750527995697 65.137123158407775 1.2584562711817893 0.95000000000000007 -10.73137927369862 0.38926642928052152 118947.44430379946 103852.67237499885 0.95000000000000007 112832.59595634574 115520.02427349222 -1.5209278796984413 0.055341246489292818 -2.6600297709008731 1.0000000180025095e-35 0.21249771069866699 14.044636144667509 0.035746245775214465 -205.49100000000178 24.05143889545619 65.286081783229363 153.08123078361965 99.475611685608342 -43.333254425318422 1.1065264263776995 0.90236140710268098 1.0000000180025095e-35 0.13055000698800348 -131.60258624148261 0.0038228995804938707 118637.58212499785 12.850369643577071 0.37500000000000006 22.386796672391572 82192.162449792304 0.52500000000000013 83642.039887500243 37.58179435202549 25.507352924704715 -0.38362316441792327 15.960283947814036 13.115708289701727 249.69540578886631 66.859774367053987 58.583877820244538 64.483593656874532 63.297991035577859 69.833851170793508 -46.756776350444532 59.292200808050204 55.211914442416251
decision_type=2 2 2 2 2 2 2 2 2 2 2 2 2 2 2 2 2 2 2 2 2 2 2 2 2 2 2 2 2 2 2 2 2 2 2 2 2 2 2 2 2 2 2 2 2 2 2 2 2 2 2 2 2 2 2 2 2
left_child=1 3 5 21 24 6 18 11 17 19 50 49 -11 29 27 33 40 -8 52 -6 51 37 23 -23 -5 -17 -26 -15 36 54 -10 -24 -16 -12 -20 -31 -13 38 -1 -39 46 53 -43 -30 56 -46 47 -4 -48 -3 -7 -18 -2 -42 -9 -52 -22
right_child=2 7 16 4 9 10 8 13 30 12 15 28 -14 14 32 25 20 -19 34 -21 44 22 31 -25 26 -27 -28 -29 43 35 -32 -33 -34 -35 -36 -37 -38 39 -40 -41 41 42 -44 -45 45 -47 48 -49 -50 -51 55 -53 -54 -55 -56 -57 -58
leaf_value=-5.2257918618311692 -5.2257918618311692 -5.2257918618311692 -3.5096445788969048 -5.2257918618311692 -3.5709510577256673 -5.2257918618311692 -3.5173423164337057 -5.2257918618311692 -5.2257918618311692 -4.7973755299569918 -4.0185398881795811 -5.2257918618311692 -3.5606157182568117 -4.9370356030365761 -4.7430805215363252 -3.657989147018943 -5.2257918618311692 -5.0035428778157867 -5.2257918618311692 -4.9847351573005891 -5.2257918618311692 -5.2257918618311692 -5.2257918618311692 -3.8176185322419647 -3.8943948177488306 -5.2257918618311692 -5.2257918618311692 -3.7298289942439302 -5.2257918618311692 -4.2180049472151566 -3.6564511136506841 -3.6175340118396755 -3.8331465518812724 -3.635417625716225 -3.6457038549611953 -3.6878825221260083 -3.5629236016118115 -5.2257918618311692 -4.5170189866533814 -4.9973665362687401 -5.2257918618311692 -5.2257918618311692 -3.6188236165477936 -3.7565448000546779 -3.4134701558885814 -4.0798816140020655 -3.4741236579159027 -5.2257918618311692 -3.3903057970115857 -5.2257918618311692 -5.2257918618311692 -5.2257918618311692 -5.2257918618311692 -5.2257918618311692 -5.2257918618311692 -5.2257918618311692 -5.2257918618311692
leaf_weight=17.233133763074875 1.987612061202529 12.366170175373554 5.3651450946927062 2.4603414162993422 2.225562520325183 1.992983985692262 2.1557275019586077 1.3161214999854562 1.2731461040675629 8.5966649651527423 22.880175914615393 3.7872067652642718 7.7411215007305136 19.131801780313257 3.8148592785000828 2.3491167835891238 2.6322429999709116 33.142573740333319 1.0314095020294249 84.030992742627859 0.2739681489765643 2.8148884326219585 11.984763536602257 9.1539376415312272 47.025925647467375 4.0128275938332081 1.8748016469180573 2.4619271978735915 0.64463093876838495 10.963483303785322 8.2138508558273298 1.1450128071010102 22.4788673594594 72.946967445313931 23.3085224032402 38.316450268030167 1.1074093356728552 87.583856880664825 20.784947052598 88.677707426249981 2.0574470795691009 0.80041674897074599 87.090808358043432 7.5200797058641911 3.0482598580420017 1.606998313218355 95.665549356490374 0.75744135305285443 31.101162787526846 0.34917509183287698 0.1235542632639407 0.60165554285049427 0.11818233877420414 0.14504196122288693 0.10743848979473014 1.1281041428446767 0.10743848979473114
leaf_count=3208 370 2302 83 458 48 371 35 245 237 1234 1512 705 159 3012 527 71 490 5437 192 13628 51 524 2231 422 2527 747 349 92 120 942 247 30 1071 2041 676 1272 23 16304 2404 14493 383 149 2293 301 18 116 1142 141 112 65 23 112 22 27 20 210 20
internal_value=-4.28876 -4.68868 -3.78121 -4.83721 -4.55597 -4.04793 -4.37267 -4.21892 -4.69126 -4.83091 -3.82853 -4.72568 -4.21138 -4.08644 -4.34134 -3.78417 -3.57745 -4.91278 -3.83315 -4.94826 -4.33517 -5.01809 -4.63883 -4.1488 -4.00677 -4.64689 -3.94544 -4.7994 -4.23873 -3.84569 -3.86706 -5.08554 -3.96517 -3.72689 -3.71266 -3.80582 -4.84957 -5.06251 -4.8383 -5.11087 -3.54934 -3.67239 -3.63346 -3.87255 -3.76334 -3.64352 -3.46593 -3.72195 -3.45356 -5.22579 -5.22579 -5.22579 -5.22579 -5.22579 -5.22579 -5.22579 -5.22579
internal_weight=925.618 517.699 407.918 393.334 153.955 176.665 71.231 124.366 44.7853 102.594 105.434 25.7747 16.3378 98.5909 47.8875 102.189 231.254 35.2983 26.4457 86.2566 8.27056 239.378 25.0986 11.9688 51.3611 6.36194 48.9007 21.5937 13.0593 50.7035 9.487 13.1298 26.2937 95.8271 24.3399 49.2799 4.89462 214.28 38.0181 176.262 222.983 90.0937 87.8912 8.16471 5.03666 4.65526 132.889 6.12259 126.767 12.7153 3.24464 3.2339 2.10579 2.20249 1.42356 1.25166 0.381407
internal_count=86044 68716 17328 58019 18403 12191 7216 10697 5956 15069 4975 3516 1393 7181 4702 4371 5137 5472 1260 13676 807 39616 3207 946 3334 818 2876 3104 1149 2479 484 2261 1598 3553 868 2214 728 36409 5612 30797 4330 2852 2442 421 205 134 1478 224 1254 2367 604 602 392 410 265 233 71
is_linear=0
shrinkage=1


end of trees

feature_importances:
rsi=7
macd_signal=6
roc_60=5
bb_middle=4
atr=4
adx=4
bb_lower=3
body_size=3
bb_upper=2
bb_width=2
roc_240=2
mtf_momentum_align=2
atr_percentile=2
macd=1
momentum=1
lower_wick=1
volatility_regime=1
roc_5=1
stoch_d=1
stoch_cross=1
cci=1
mfi=1
rsi_accel=1
roc_accel=1

parameters:
[boosting: gbdt]
[objective: binary]
[metric: binary_logloss]
[tree_learner: serial]
[device_type: cpu]
[data_sample_strategy: bagging]
[data: ]
[valid: ]
[num_iterations: 200]
[learning_rate: 0.01]
[num_leaves: 63]
[num_threads: 0]
[seed: 0]
[deterministic: 0]
[force_col_wise: 0]
[force_row_wise: 0]
[histogram_pool_size: -1]
[max_depth: 6]
[min_data_in_leaf: 20]
[min_sum_hessian_in_leaf: 0.001]
[bagging_fraction: 0.7]
[pos_bagging_fraction: 1]
[neg_bagging_fraction: 1]
[bagging_freq: 1]
[bagging_seed: 3]
[bagging_by_query: 0]
[feature_fraction: 0.8]
[feature_fraction_bynode: 1]
[feature_fraction_seed: 2]
[extra_trees: 0]
[extra_seed: 6]
[early_stopping_round: 0]
[early_stopping_min_delta: 0]
[first_metric_only: 0]
[max_delta_step: 0]
[lambda_l1: 0]
[lambda_l2: 0]
[linear_lambda: 0]
[min_gain_to_split: 0]
[drop_rate: 0.1]
[max_drop: 50]
[skip_drop: 0.5]
[xgboost_dart_mode: 0]
[uniform_drop: 0]
[drop_seed: 4]
[top_rate: 0.2]
[other_rate: 0.1]
[min_data_per_group: 100]
[max_cat_threshold: 32]
[cat_l2: 10]
[cat_smooth: 10]
[max_cat_to_onehot: 4]
[top_k: 20]
[monotone_constraints: ]
[monotone_constraints_method: basic]
[monotone_penalty: 0]
[feature_contri: ]
[forcedsplits_filename: ]
[refit_decay_rate: 0.9]
[cegb_tradeoff: 1]
[cegb_penalty_split: 0]
[cegb_penalty_feature_lazy: ]
[cegb_penalty_feature_coupled: ]
[path_smooth: 0]
[interaction_constraints: ]
[verbosity: -1]
[saved_feature_importance_type: 0]
[use_quantized_grad: 0]
[num_grad_quant_bins: 4]
[quant_train_renew_leaf: 0]
[stochastic_rounding: 1]
[linear_tree: 0]
[max_bin: 255]
[max_bin_by_feature: ]
[min_data_in_bin: 3]
[bin_construct_sample_cnt: 200000]
[data_random_seed: 1]
[is_enable_sparse: 1]
[enable_bundle: 1]
[use_missing: 1]
[zero_as_missing: 0]
[feature_pre_filter: 0]
[pre_partition: 0]
[two_round: 0]
[header: 0]
[label_column: ]
[weight_column: ]
[group_column: ]
[ignore_column: ]
[categorical_feature: ]
[forcedbins_filename: ]
[precise_float_parser: 0]
[parser_config_file: ]
[objective_seed: 5]
[num_class: 1]
[is_unbalance: 1]
[scale_pos_weight: 1]
[sigmoid: 1]
[boost_from_average: 1]
[reg_sqrt: 0]
[alpha: 0.9]
[fair_c: 1]
[poisson_max_delta_step: 0.7]
[tweedie_variance_power: 1.5]
[lambdarank_truncation_level: 30]
[lambdarank_norm: 1]
[label_gain: ]
[lambdarank_position_bias_regularization: 0]
[eval_at: ]
[multi_error_top_k: 1]
[auc_mu_weights: ]
[num_machines: 1]
[local_listen_port: 12400]
[time_out: 120]
[machine_list_filename: ]
[machines: ]
[gpu_platform_id: -1]
[gpu_device_id: -1]
[gpu_use_dp: 0]
[num_gpu: 1]

end of parameters

pandas_categorical:[]
