{"learner":{"attributes":{"best_iteration":"48","best_score":"0.18107010303380106"},"feature_names":["rsi","macd","macd_signal","bb_upper","bb_middle","bb_lower","atr","volume_ratio","momentum","adx","breakout_up","breakout_down","price_position","body_size","upper_wick","lower_wick","bullish_candle","atr_pct","volatility_regime","bb_width","bb_squeeze","trend_alignment","roc_5","roc_10","roc_20","momentum_alignment","volume_trend","volume_spike","obv_momentum","rsi_momentum","macd_hist","macd_hist_momentum","stoch_k","stoch_d","stoch_cross","willr","cci","mfi"],"feature_types":["float","float","float","float","float","float","float","float","float","float","float","float","float","float","float","float","float","float","float","float","float","float","float","float","float","float","float","float","float","float","float","float","float","float","float","float","float","float"],"gradient_booster":{"model":{"gbtree_model_param":{"num_parallel_tree":"1","num_trees":"69"},"iteration_indptr":[0,1,2,3,4,5,6,7,8,9,10,11,12,13,14,15,16,17,18,19,20,21,22,23,24,25,26,27,28,29,30,31,32,33,34,35,36,37,38,39,40,41,42,43,44,45,46,47,48,49,50,51,52,53,54,55,56,57,58,59,60,61,62,63,64,65,66,67,68,69],"tree_info":[0,0,0,0,0,0,0,0,0,0,0,0,0,0,0,0,0,0,0,0,0,0,0,0,0,0,0,0,0,0,0,0,0,0,0,0,0,0,0,0,0,0,0,0,0,0,0,0,0,0,0,0,0,0,0,0,0,0,0,0,0,0,0,0,0,0,0,0,0],"trees":[{"base_weights":[-6.207071E-1,-7.172149E-1,1.4023149E-1,-8.8525814E-1,-6.274279E-1,3.0340286E-2,1.0908356E0,-9.269197E-2,-6.784206E-2,-6.9571495E-2,-4.7991794E-2,2.7102623E-2,-1.3151484E-2,4.044427E-1,9.0219475E-2],"categories":[],"categories_nodes":[],"categories_segments":[],"categories_sizes":[],"default_left":[0,0,0,0,0,0,0,0,0,0,0,0,0,0,0],"id":0,"left_children":[1,3,5,7,9,11,13,-1,-1,-1,-1,-1,-1,-1,-1],"loss_changes":[7.7605273E2,1.4092822E2,1.24288345E2,2.7489746E1,6.126367E1,4.163342E1,6.504581E1,0E0,0E0,0E0,0E0,0E0,0E0,0E0,0E0],"parents":[2147483647,0,0,1,1,2,2,3,3,4,4,5,5,6,6],"right_children":[2,4,6,8,10,12,14,-1,-1,-1,-1,-1,-1,-1,-1],"split_conditions":[1.5043984E-1,7.876332E-2,2.6733428E-1,1.8731763E0,1.13148324E-1,9.31686E0,2.2063765E3,-9.269197E-2,-6.784206E-2,-6.9571495E-2,-4.7991794E-2,2.7102623E-2,-1.3151484E-2,4.044427E-1,9.0219475E-2],"split_indices":[17,17,17,1,17,37,3,0,0,0,0,0,0,0,0],"split_type":[0,0,0,0,0,0,0,0,0,0,0,0,0,0,0],"sum_hessian":[1.0565297E4,9.376197E3,1.1891001E3,3.262089E3,6.114108E3,1.0668075E3,1.2229257E2,2.712293E3,5.4979614E2,4.1768115E3,1.9372964E3,4.2867447E2,6.3813306E2,6.1146283E0,1.1617794E2],"tree_param":{"num_deleted":"0","num_feature":"38","num_nodes":"15","size_leaf_vector":"1"}},{"base_weights":[-5.813402E-1,-6.683416E-1,-5.0638042E-2,-7.886647E-1,-5.933568E-1,-1.8058597E-1,6.967201E-1,-8.241597E-2,-6.0302783E-2,-6.688215E-2,-5.103129E-2,5.531557E-3,-3.5699632E-2,9.495385E-2,-2.7962131E-2],"categories":[],"categories_nodes":[],"categories_segments":[],"categories_sizes":[],"default_left":[0,0,0,0,0,0,0,0,0,0,0,0,0,0,0],"id":1,"left_children":[1,3,5,7,9,11,13,-1,-1,-1,-1,-1,-1,-1,-1],"loss_changes":[4.664995E2,7.78562E1,1.3844429E2,2.1444336E1,3.319995E1,5.054386E1,5.238906E1,0E0,0E0,0E0,0E0,0E0,0E0,0E0,0E0],"parents":[2147483647,0,0,1,1,2,2,3,3,4,4,5,5,6,6],"right_children":[2,4,6,8,10,12,14,-1,-1,-1,-1,-1,-1,-1,-1],"split_conditions":[9.406341E-3,5.230899E-3,1.7992644E-2,2.1889584E0,5.2337917E-3,-2.4068825E0,4.2569775E3,-8.241597E-2,-6.0302783E-2,-6.688215E-2,-5.103129E-2,5.531557E-3,-3.5699632E-2,9.495385E-2,-2.7962131E-2],"split_indices":[19,13,19,2,19,2,5,0,0,0,0,0,0,0,0],"split_type":[0,0,0,0,0,0,0,0,0,0,0,0,0,0,0],"sum_hessian":[1.0103292E4,8.680057E3,1.4232362E3,3.328889E3,5.3511675E3,1.2130703E3,2.1016588E2,2.7916648E3,5.3722394E2,2.7998232E3,2.5513442E3,5.1931384E2,6.937565E2,1.6695996E2,4.3205925E1],"tree_param":{"num_deleted":"0","num_feature":"38","num_nodes":"15","size_leaf_vector":"1"}},{"base_weights":[-5.500762E-1,-6.378709E-1,2.4224129E-2,-8.681803E-1,-5.633075E-1,4.012321E-1,-1.9710001E-1,-1.0001228E-1,-7.999156E-2,-6.374742E-2,-4.1434925E-2,1.7878933E-1,2.989316E-2,-3.7279915E-2,6.868904E-3],"categories":[],"categories_nodes":[],"categories_segments":[],"categories_sizes":[],"default_left":[0,0,0,0,0,0,0,0,0,0,0,0,0,0,0],"id":2,"left_children":[1,3,5,7,9,11,13,-1,-1,-1,-1,-1,-1,-1,-1],"loss_changes":[4.900476E2,1.4427979E2,1.07693085E2,1.7753784E1,7.012366E1,6.718664E1,3.800628E1,0E0,0E0,0E0,0E0,0E0,0E0,0E0,0E0],"parents":[2147483647,0,0,1,1,2,2,3,3,4,4,5,5,6,6],"right_children":[2,4,6,8,10,12,14,-1,-1,-1,-1,-1,-1,-1,-1],"split_conditions":[5.332549E0,2.1181824E0,3.7152124E3,1.6118135E0,3.8026931E0,2.2445925E3,7.0220866E0,-1.0001228E-1,-7.999156E-2,-6.374742E-2,-4.1434925E-2,1.7878933E-1,2.989316E-2,-3.7279915E-2,6.868904E-3],"split_indices":[6,6,5,6,6,5,6,0,0,0,0,0,0,0,0],"split_type":[0,0,0,0,0,0,0,0,0,0,0,0,0,0,0],"sum_hessian":[9.717897E3,8.429195E3,1.2887024E3,2.0589426E3,6.3702524E3,4.7639267E2,8.123097E2,6.973839E2,1.3615588E3,4.2505933E3,2.1196592E3,3.1598942E1,4.4479373E2,4.8879227E2,3.2351743E2],"tree_param":{"num_deleted":"0","num_feature":"38","num_nodes":"15","size_leaf_vector":"1"}},{"base_weights":[-5.0666404E-1,-6.051134E-1,1.8957996E-1,-7.705509E-1,-4.9783134E-1,9.57522E-3,5.424684E-1,-9.632007E-2,-7.215396E-2,-5.7259608E-2,-3.659782E-2,9.856486E-3,-3.450569E-2,1.440084E-1,4.300181E-2],"categories":[],"categories_nodes":[],"categories_segments":[],"categories_sizes":[],"default_left":[0,0,0,0,0,0,0,0,0,0,0,0,0,0,0],"id":3,"left_children":[1,3,5,7,9,11,13,-1,-1,-1,-1,-1,-1,-1,-1],"loss_changes":[6.4024585E2,1.4483789E2,7.3533356E1,2.9678589E1,4.874829E1,2.4260183E1,3.8850883E1,0E0,0E0,0E0,0E0,0E0,0E0,0E0,0E0],"parents":[2147483647,0,0,1,1,2,2,3,3,4,4,5,5,6,6],"right_children":[2,4,6,8,10,12,14,-1,-1,-1,-1,-1,-1,-1,-1],"split_conditions":[1.5195885E-1,8.2090676E-2,2.0159684E-1,1.6118135E0,1.13148324E-1,4.308678E3,2.2445925E3,-9.632007E-2,-7.215396E-2,-5.7259608E-2,-3.659782E-2,9.856486E-3,-3.450569E-2,1.440084E-1,4.300181E-2],"split_indices":[17,17,17,6,17,4,5,0,0,0,0,0,0,0,0],"split_type":[0,0,0,0,0,0,0,0,0,0,0,0,0,0,0],"sum_hessian":[9.337878E3,8.181184E3,1.1566938E3,3.2158704E3,4.9653135E3,7.666571E2,3.9003674E2,6.48428E2,2.5674424E3,3.1664802E3,1.7988333E3,6.1344446E2,1.5321265E2,4.210827E1,3.4792847E2],"tree_param":{"num_deleted":"0","num_feature":"38","num_nodes":"15","size_leaf_vector":"1"}},{"base_weights":[-4.798009E-1,-5.457604E-1,1.9844791E-1,-6.4296716E-1,-3.3581114E-1,5.50552E-1,-1.9115998E-1,-7.941494E-2,-5.704561E-2,-1.0536651E-3,-4.8111998E-2,8.59903E-2,2.638124E-2,4.513217E-2,-3.0059678E-2],"categories":[],"categories_nodes":[],"categories_segments":[],"categories_sizes":[],"default_left":[0,0,0,0,0,0,0,0,0,0,0,0,0,0,0],"id":4,"left_children":[1,3,5,7,9,11,13,-1,-1,-1,-1,-1,-1,-1,-1],"loss_changes":[4.0126636E2,1.6657349E2,1.0923203E2,6.0772705E1,1.2234061E2,3.686103E1,2.6739563E1,0E0,0E0,0E0,0E0,0E0,0E0,0E0,0E0],"parents":[2147483647,0,0,1,1,2,2,3,3,4,4,5,5,6,6],"right_children":[2,4,6,8,10,12,14,-1,-1,-1,-1,-1,-1,-1,-1],"split_conditions":[6.0964694E0,3.7486255E0,4.275252E3,2.1181824E0,3.6096438E3,-3.4048765E0,1.2916487E1,-7.941494E-2,-5.704561E-2,-1.0536651E-3,-4.8111998E-2,8.59903E-2,2.638124E-2,4.513217E-2,-3.0059678E-2],"split_indices":[6,6,5,6,5,2,32,0,0,0,0,0,0,0,0],"split_type":[0,0,0,0,0,0,0,0,0,0,0,0,0,0,0],"sum_hessian":[8.966041E3,8.171555E3,7.9448596E2,5.584064E3,2.5874915E3,4.171121E2,3.7737384E2,1.8068716E3,3.7771921E3,7.993084E2,1.788183E3,1.996834E2,2.174287E2,5.44696E1,3.2290424E2],"tree_param":{"num_deleted":"0","num_feature":"38","num_nodes":"15","size_leaf_vector":"1"}},{"base_weights":[-4.5025957E-1,-5.4863006E-1,1.1571608E-1,-7.142148E-1,-4.4461447E-1,-2.430932E-2,4.154318E-1,-8.558526E-2,-6.598453E-2,2.895813E-2,-4.5760106E-2,4.9161837E-3,-3.123181E-2,4.8626915E-2,-4.6851415E-2],"categories":[],"categories_nodes":[],"categories_segments":[],"categories_sizes":[],"default_left":[0,0,0,0,0,0,0,0,0,0,0,0,0,0,0],"id":5,"left_children":[1,3,5,7,9,11,13,-1,-1,-1,-1,-1,-1,-1,-1],"loss_changes":[4.8265698E2,1.2687207E2,5.3909637E1,2.1362915E1,4.3403137E1,1.855802E1,2.5838737E1,0E0,0E0,0E0,0E0,0E0,0E0,0E0,0E0],"parents":[2147483647,0,0,1,1,2,2,3,3,4,4,5,5,6,6],"right_children":[2,4,6,8,10,12,14,-1,-1,-1,-1,-1,-1,-1,-1],"split_conditions":[1.47864E-1,8.181268E-2,2.0159684E-1,6.419494E-2,2.6771294E1,4.275252E3,4.6595034E3,-8.558526E-2,-6.598453E-2,2.895813E-2,-4.5760106E-2,4.9161837E-3,-3.123181E-2,4.8626915E-2,-4.6851415E-2],"split_indices":[17,17,17,17,0,5,3,0,0,0,0,0,0,0,0],"split_type":[0,0,0,0,0,0,0,0,0,0,0,0,0,0,0],"sum_hessian":[8.667002E3,7.383695E3,1.2833065E3,2.8464688E3,4.537226E3,8.752935E2,4.0801303E2,7.854792E2,2.0609897E3,7.849016E1,4.458736E3,6.9805E2,1.7724355E2,3.781582E2,2.985481E1],"tree_param":{"num_deleted":"0","num_feature":"38","num_nodes":"15","size_leaf_vector":"1"}},{"base_weights":[-4.1397917E-1,-5.717111E-1,-1.5740483E-1,-8.181859E-1,-5.1903373E-1,1.3789247E-1,-2.8967878E-1,-9.60899E-2,-7.361647E-2,-5.2827626E-2,3.3408638E-2,6.713312E-2,3.8444444E-3,-3.9917756E-2,7.1369084E-3],"categories":[],"categories_nodes":[],"categories_segments":[],"categories_sizes":[],"default_left":[0,0,0,0,0,0,0,0,0,0,0,0,0,0,0],"id":6,"left_children":[1,3,5,7,9,11,13,-1,-1,-1,-1,-1,-1,-1,-1],"loss_changes":[3.3889917E2,6.69209E1,1.24655655E2,9.963745E0,3.3895264E1,5.2368443E1,8.715042E1,0E0,0E0,0E0,0E0,0E0,0E0,0E0,0E0],"parents":[2147483647,0,0,1,1,2,2,3,3,4,4,5,5,6,6],"right_children":[2,4,6,8,10,12,14,-1,-1,-1,-1,-1,-1,-1,-1],"split_conditions":[3.8026931E0,1.8031367E0,3.5963381E3,1.4830436E0,4.5539752E-1,-8.1500643E-1,6.2664237E0,-9.60899E-2,-7.361647E-2,-5.2827626E-2,3.3408638E-2,6.713312E-2,3.8444444E-3,-3.9917756E-2,7.1369084E-3],"split_indices":[6,6,5,6,22,24,6,0,0,0,0,0,0,0,0],"split_type":[0,0,0,0,0,0,0,0,0,0,0,0,0,0,0],"sum_hessian":[8.375315E3,5.1859604E3,3.1893552E3,9.1063104E2,4.2753296E3,9.8664966E2,2.2027058E3,3.2844226E2,5.821888E2,4.229885E3,4.544483E1,1.5413258E2,8.325171E2,1.6900431E3,5.1266266E2],"tree_param":{"num_deleted":"0","num_feature":"38","num_nodes":"15","size_leaf_vector":"1"}},{"base_weights":[-3.994755E-1,-5.6265336E-1,-9.123351E-2,-7.2322696E-1,-4.951398E-1,-2.0166561E-1,2.861823E-1,-7.774011E-2,-4.2465806E-2,-5.2991576E-2,-2.1502996E-2,3.659306E-2,-2.2244273E-2,3.4390107E-2,-5.7536997E-2],"categories":[],"categories_nodes":[],"categories_segments":[],"categories_sizes":[],"default_left":[0,0,0,0,0,0,0,0,0,0,0,0,0,0,0],"id":7,"left_children":[1,3,5,7,9,11,13,-1,-1,-1,-1,-1,-1,-1,-1],"loss_changes":[4.0775806E2,5.711145E1,1.1707703E2,2.5015076E1,3.6270996E1,2.5703804E1,3.1823116E1,0E0,0E0,0E0,0E0,0E0,0E0,0E0,0E0],"parents":[2147483647,0,0,1,1,2,2,3,3,4,4,5,5,6,6],"right_children":[2,4,6,8,10,12,14,-1,-1,-1,-1,-1,-1,-1,-1],"split_conditions":[1.13148324E-1,7.319131E-2,1.816344E-1,1.8731763E0,3.0584473E1,2.7785488E1,4.6352397E3,-7.774011E-2,-4.2465806E-2,-5.2991576E-2,-2.1502996E-2,3.659306E-2,-2.2244273E-2,3.4390107E-2,-5.7536997E-2],"split_indices":[17,17,17,1,9,0,4,0,0,0,0,0,0,0,0],"split_type":[0,0,0,0,0,0,0,0,0,0,0,0,0,0,0],"sum_hessian":[8.10682E3,5.3001753E3,2.8066443E3,1.5659714E3,3.734204E3,2.171676E3,6.3496814E2,1.3241129E3,2.4185858E2,3.3210059E3,4.1319812E2,7.610137E1,2.0955747E3,5.9566315E2,3.930497E1],"tree_param":{"num_deleted":"0","num_feature":"38","num_nodes":"15","size_leaf_vector":"1"}},{"base_weights":[-3.6717865E-1,-5.218958E-1,-8.580301E-2,-6.5238124E-1,-4.3052727E-1,-1.9337353E-1,2.194425E-1,-7.101848E-2,-3.51793E-2,-4.74169E-2,-1.1814061E-2,2.27709E-3,-2.4473399E-2,7.093438E-2,1.5134077E-2],"categories":[],"categories_nodes":[],"categories_segments":[],"categories_sizes":[],"default_left":[0,0,0,0,0,0,0,0,0,0,0,0,0,0,0],"id":8,"left_children":[1,3,5,7,9,11,13,-1,-1,-1,-1,-1,-1,-1,-1],"loss_changes":[3.4174512E2,6.011194E1,9.1542854E1,3.596411E1,4.0601624E1,2.2885681E1,2.4134403E1,0E0,0E0,0E0,0E0,0E0,0E0,0E0,0E0],"parents":[2147483647,0,0,1,1,2,2,3,3,4,4,5,5,6,6],"right_children":[2,4,6,8,10,12,14,-1,-1,-1,-1,-1,-1,-1,-1],"split_conditions":[1.13148324E-1,7.876332E-2,1.7546812E-1,2.013269E0,3.0584473E1,-4.3451886E0,-1.2778292E0,-7.101848E-2,-3.51793E-2,-4.74169E-2,-1.1814061E-2,2.27709E-3,-2.4473399E-2,7.093438E-2,1.5134077E-2],"split_indices":[17,17,17,1,9,1,24,0,0,0,0,0,0,0,0],"split_type":[0,0,0,0,0,0,0,0,0,0,0,0,0,0,0],"sum_hessian":[7.850169E3,5.0645312E3,2.785638E3,2.0832532E3,2.9812778E3,2.0600347E3,7.256032E2,1.746111E3,3.371423E2,2.6153804E3,3.6589755E2,3.9562985E2,1.6644048E3,8.740741E1,6.381958E2],"tree_param":{"num_deleted":"0","num_feature":"38","num_nodes":"15","size_leaf_vector":"1"}},{"base_weights":[-3.355315E-1,-4.80661E-1,-1.1884674E-1,-6.587931E-1,-4.0386048E-1,-2.0071079E-1,1.8224376E-1,-8.0683075E-2,-5.716709E-2,-2.990563E-2,-5.090604E-2,-5.0158275E-4,-3.0899828E-2,4.5646284E-2,-1.502638E-2],"categories":[],"categories_nodes":[],"categories_segments":[],"categories_sizes":[],"default_left":[0,0,0,0,0,0,0,0,0,0,0,0,0,0,0],"id":9,"left_children":[1,3,5,7,9,11,13,-1,-1,-1,-1,-1,-1,-1,-1],"loss_changes":[2.3927502E2,6.208362E1,7.5314224E1,1.7226257E1,3.4986877E1,5.08928E1,5.964432E1,0E0,0E0,0E0,0E0,0E0,0E0,0E0,0E0],"parents":[2147483647,0,0,1,1,2,2,3,3,4,4,5,5,6,6],"right_children":[2,4,6,8,10,12,14,-1,-1,-1,-1,-1,-1,-1,-1],"split_conditions":[3.8026931E0,2.1181824E0,6.466359E0,1.6608518E0,3.1325366E3,3.632912E3,4.308678E3,-8.0683075E-2,-5.716709E-2,-2.990563E-2,-5.090604E-2,-5.0158275E-4,-3.0899828E-2,4.5646284E-2,-1.502638E-2],"split_indices":[6,6,6,6,4,4,4,0,0,0,0,0,0,0,0],"split_type":[0,0,0,0,0,0,0,0,0,0,0,0,0,0,0],"sum_hessian":[7.609563E3,4.5565156E3,3.0530474E3,1.3704044E3,3.1861113E3,2.4006606E3,6.523866E2,5.0464786E2,8.6575653E2,1.5979823E3,1.5881292E3,8.5555865E2,1.545102E3,3.5732654E2,2.950601E2],"tree_param":{"num_deleted":"0","num_feature":"38","num_nodes":"15","size_leaf_vector":"1"}},{"base_weights":[-3.2026213E-1,-4.6172914E-1,-6.430557E-2,-7.6788193E-1,-4.2412633E-1,-1.5419567E-1,1.8660708E-1,5.5867344E-2,-7.806431E-2,-4.5921262E-2,-2.2223055E-2,7.0245224E-3,-2.0191832E-2,1.376674E-2,7.692944E-2],"categories":[],"categories_nodes":[],"categories_segments":[],"categories_sizes":[],"default_left":[0,0,0,0,0,0,0,0,0,0,0,0,0,0,0],"id":10,"left_children":[1,3,5,7,9,11,13,-1,-1,-1,-1,-1,-1,-1,-1],"loss_changes":[2.6758856E2,5.447058E1,5.939262E1,9.229309E0,2.9943115E1,2.0775562E1,1.9703701E1,0E0,0E0,0E0,0E0,0E0,0E0,0E0,0E0],"parents":[2147483647,0,0,1,1,2,2,3,3,4,4,5,5,6,6],"right_children":[2,4,6,8,10,12,14,-1,-1,-1,-1,-1,-1,-1,-1],"split_conditions":[1.14787556E-1,1.6900567E0,1.7847773E-1,2.2626042E3,6.1747974E1,1.6194946E1,3.30235E1,5.5867344E-2,-7.806431E-2,-4.5921262E-2,-2.2223055E-2,7.0245224E-3,-2.0191832E-2,1.376674E-2,7.692944E-2],"split_indices":[17,6,17,3,0,9,8,0,0,0,0,0,0,0,0],"split_type":[0,0,0,0,0,0,0,0,0,0,0,0,0,0,0],"sum_hessian":[7.3898496E3,4.7588394E3,2.6310105E3,5.184365E2,4.240403E3,1.9373392E3,6.9367126E2,4.53209E0,5.139044E2,3.6115056E3,6.288971E2,3.396209E2,1.5977184E3,6.4106476E2,5.2606506E1],"tree_param":{"num_deleted":"0","num_feature":"38","num_nodes":"15","size_leaf_vector":"1"}},{"base_weights":[-2.89537E-1,-4.287617E-1,-9.3151964E-2,-7.082037E-1,-3.8213295E-1,-1.828446E-1,1.606039E-1,-8.306025E-2,-5.6111783E-2,-3.918785E-2,4.409502E-2,1.5449146E-3,-2.8377453E-2,3.715634E-2,-1.1607814E-2],"categories":[],"categories_nodes":[],"categories_segments":[],"categories_sizes":[],"default_left":[0,0,0,0,0,0,0,0,0,0,0,0,0,0,0],"id":11,"left_children":[1,3,5,7,9,11,13,-1,-1,-1,-1,-1,-1,-1,-1],"loss_changes":[1.9771185E2,5.4871887E1,6.834737E1,1.0407959E1,2.9282043E1,4.4399727E1,4.5829105E1,0E0,0E0,0E0,0E0,0E0,0E0,0E0,0E0],"parents":[2147483647,0,0,1,1,2,2,3,3,4,4,5,5,6,6],"right_children":[2,4,6,8,10,12,14,-1,-1,-1,-1,-1,-1,-1,-1],"split_conditions":[3.8026931E0,1.7625415E0,6.1824713E0,1.5685673E-1,4.5539752E-1,3.6153794E3,4.308678E3,-8.306025E-2,-5.6111783E-2,-3.918785E-2,4.409502E-2,1.5449146E-3,-2.8377453E-2,3.715634E-2,-1.1607814E-2],"split_indices":[6,6,6,2,22,4,4,0,0,0,0,0,0,0,0],"split_type":[0,0,0,0,0,0,0,0,0,0,0,0,0,0,0],"sum_hessian":[7.231623E3,4.230957E3,3.0006663E3,6.030061E2,3.627951E3,2.2172395E3,7.8342676E2,3.2658688E2,2.7641922E2,3.5860154E3,4.1935543E1,7.4817377E2,1.4690657E3,4.4431247E2,3.3911426E2],"tree_param":{"num_deleted":"0","num_feature":"38","num_nodes":"15","size_leaf_vector":"1"}},{"base_weights":[-2.6925975E-1,-4.0756205E-1,-4.5626536E-2,-5.433709E-1,-3.180702E-1,-1.2625961E-1,1.4947043E-1,-6.1625786E-2,-1.789806E-2,-3.6124524E-2,-5.6958436E-3,5.861177E-2,-1.4151429E-2,3.3193603E-2,-8.8283996E-4],"categories":[],"categories_nodes":[],"categories_segments":[],"categories_sizes":[],"default_left":[0,0,0,0,0,0,0,0,0,0,0,0,0,0,0],"id":12,"left_children":[1,3,5,7,9,11,13,-1,-1,-1,-1,-1,-1,-1,-1],"loss_changes":[2.1764081E2,5.2673584E1,4.2339832E1,4.572357E1,2.9554657E1,2.0774586E1,2.2739882E1,0E0,0E0,0E0,0E0,0E0,0E0,0E0,0E0],"parents":[2147483647,0,0,1,1,2,2,3,3,4,4,5,5,6,6],"right_children":[2,4,6,8,10,12,14,-1,-1,-1,-1,-1,-1,-1,-1],"split_conditions":[1.13148324E-1,7.876332E-2,1.7287633E-1,2.0521705E0,2.9694735E1,2.87563E0,-2.7294881E0,-6.1625786E-2,-1.789806E-2,-3.6124524E-2,-5.6958436E-3,5.861177E-2,-1.4151429E-2,3.3193603E-2,-8.8283996E-4],"split_indices":[17,17,17,1,9,6,2,0,0,0,0,0,0,0,0],"split_type":[0,0,0,0,0,0,0,0,0,0,0,0,0,0,0],"sum_hessian":[7.036391E3,4.347147E3,2.6892444E3,1.7247185E3,2.6224282E3,1.9030652E3,7.8617914E2,1.4366603E3,2.8805823E2,2.250005E3,3.724235E2,3.9112896E1,1.8639524E3,3.647024E2,4.2147675E2],"tree_param":{"num_deleted":"0","num_feature":"38","num_nodes":"15","size_leaf_vector":"1"}},{"base_weights":[-2.4836116E-1,-3.909281E-1,-5.6465108E-2,-6.6084653E-1,-3.5273486E-1,-1.6708979E-1,7.826506E-2,-7.59333E-2,1.7839007E-2,2.4006398E-2,-3.6258664E-2,3.5111893E-2,-2.0293329E-2,4.531953E-3,5.9634652E-2],"categories":[],"categories_nodes":[],"categories_segments":[],"categories_sizes":[],"default_left":[0,0,0,0,0,0,0,0,0,0,0,0,0,0,0],"id":13,"left_children":[1,3,5,7,9,11,13,-1,-1,-1,-1,-1,-1,-1,-1],"loss_changes":[1.8930249E2,4.069684E1,4.3995773E1,4.0718933E1,2.0412231E1,3.017606E1,2.2694584E1,0E0,0E0,0E0,0E0,0E0,0E0,0E0,0E0],"parents":[2147483647,0,0,1,1,2,2,3,3,4,4,5,5,6,6],"right_children":[2,4,6,8,10,12,14,-1,-1,-1,-1,-1,-1,-1,-1],"split_conditions":[1.08679E-1,6.419494E-2,1.47864E-1,1.8731763E0,2.8614538E1,3.1617908E1,9.4587845E-1,-7.59333E-2,1.7839007E-2,2.4006398E-2,-3.6258664E-2,3.5111893E-2,-2.0293329E-2,4.531953E-3,5.9634652E-2],"split_indices":[17,17,17,1,0,0,23,0,0,0,0,0,0,0,0],"split_type":[0,0,0,0,0,0,0,0,0,0,0,0,0,0,0],"sum_hessian":[6.919256E3,3.969285E3,2.9499712E3,4.9000778E2,3.479277E3,1.6197673E3,1.3302039E3,4.3862885E2,5.137895E1,5.6495163E1,3.422782E3,1.0421916E2,1.5155481E3,1.2516943E3,7.8509544E1],"tree_param":{"num_deleted":"0","num_feature":"38","num_nodes":"15","size_leaf_vector":"1"}},{"base_weights":[-2.2953048E-1,-3.3946142E-1,-2.314082E-3,-4.91366E-1,-2.5793013E-1,1.9319375E-1,-8.4024735E-2,-5.580808E-2,-2.2045147E-2,-2.632322E-2,1.954479E-1,-1.2353248E-2,2.8695876E-2,-1.1473548E-2,4.5259427E-2],"categories":[],"categories_nodes":[],"categories_segments":[],"categories_sizes":[],"default_left":[0,0,0,0,0,0,0,0,0,0,0,0,0,0,0],"id":14,"left_children":[1,3,5,7,9,11,13,-1,-1,-1,-1,-1,-1,-1,-1],"loss_changes":[1.6842953E2,5.6156006E1,3.5156296E1,2.8544434E1,3.5228424E1,1.9299337E1,2.5629143E1,0E0,0E0,0E0,0E0,0E0,0E0,0E0,0E0],"parents":[2147483647,0,0,1,1,2,2,3,3,4,4,5,5,6,6],"right_children":[2,4,6,8,10,12,14,-1,-1,-1,-1,-1,-1,-1,-1],"split_conditions":[1.224476E-1,7.876332E-2,1E0,1.8731763E0,6.5854305E-1,4.5468926E0,3.30235E1,-5.580808E-2,-2.2045147E-2,-2.632322E-2,1.954479E-1,-1.2353248E-2,2.8695876E-2,-1.1473548E-2,4.5259427E-2],"split_indices":[17,17,21,1,22,6,8,0,0,0,0,0,0,0,0],"split_type":[0,0,0,0,0,0,0,0,0,0,0,0,0,0,0],"sum_hessian":[6.7421177E3,4.5434365E3,2.1986814E3,1.5851136E3,2.958323E3,6.476632E2,1.5510182E3,1.2710482E3,3.1406537E2,2.9521292E3,6.1938114E0,1.4786765E2,4.9979553E2,1.4678019E3,8.3216225E1],"tree_param":{"num_deleted":"0","num_feature":"38","num_nodes":"15","size_leaf_vector":"1"}},{"base_weights":[-2.0081814E-1,-3.352604E-1,-3.128499E-2,-4.5065072E-1,-2.5463578E-1,-5.6641966E-2,3.8334724E-1,-5.1078465E-2,-1.0656095E-2,-2.9069802E-2,1.2283925E-3,1.0209381E-2,-1.0864517E-2,-1.014151E-1,4.676515E-2],"categories":[],"categories_nodes":[],"categories_segments":[],"categories_sizes":[],"default_left":[0,0,0,0,0,0,0,0,0,0,0,0,0,0,0],"id":15,"left_children":[1,3,5,7,9,11,13,-1,-1,-1,-1,-1,-1,-1,-1],"loss_changes":[1.5077759E2,3.4210785E1,3.0796711E1,3.132019E1,2.093283E1,2.2788311E1,2.0363821E1,0E0,0E0,0E0,0E0,0E0,0E0,0E0,0E0],"parents":[2147483647,0,0,1,1,2,2,3,3,4,4,5,5,6,6],"right_children":[2,4,6,8,10,12,14,-1,-1,-1,-1,-1,-1,-1,-1],"split_conditions":[1.082268E-1,7.876332E-2,2.6733428E-1,2.1071222E0,3.08208E1,-4.043531E0,6.424494E-14,-5.1078465E-2,-1.0656095E-2,-2.9069802E-2,1.2283925E-3,1.0209381E-2,-1.0864517E-2,-1.014151E-1,4.676515E-2],"split_indices":[17,17,17,2,9,1,37,0,0,0,0,0,0,0,0],"split_type":[0,0,0,0,0,0,0,0,0,0,0,0,0,0,0],"sum_hessian":[6.614712E3,3.6886116E3,2.9261E3,1.5153069E3,2.1733047E3,2.75828E3,1.6782014E2,1.2894716E3,2.2583542E2,1.9145499E3,2.587548E2,6.8041187E2,2.0778682E3,8.920287E0,1.5889986E2],"tree_param":{"num_deleted":"0","num_feature":"38","num_nodes":"15","size_leaf_vector":"1"}},{"base_weights":[-1.963803E-1,-3.1164196E-1,-5.172762E-2,-6.516697E-1,-2.7628762E-1,3.587349E-1,-8.272636E-2,1.0084672E-1,-6.7127995E-2,3.2470427E-2,-2.9257422E-2,8.600798E-2,7.48739E-3,-1.3884469E-3,-2.1220855E-2],"categories":[],"categories_nodes":[],"categories_segments":[],"categories_sizes":[],"default_left":[0,0,0,0,0,0,0,0,0,0,0,0,0,0,0],"id":16,"left_children":[1,3,5,7,9,11,13,-1,-1,-1,-1,-1,-1,-1,-1],"loss_changes":[1.0840111E2,4.332263E1,3.6735886E1,1.1748718E1,3.2196777E1,2.8790354E1,2.3913538E1,0E0,0E0,0E0,0E0,0E0,0E0,0E0,0E0],"parents":[2147483647,0,0,1,1,2,2,3,3,4,4,5,5,6,6],"right_children":[2,4,6,8,10,12,14,-1,-1,-1,-1,-1,-1,-1,-1],"split_conditions":[3.8026931E0,1.6608518E0,2.5053215E3,2.2626042E3,-3.608449E-1,5.964703E0,4.28032E3,1.0084672E-1,-6.7127995E-2,3.2470427E-2,-2.9257422E-2,8.600798E-2,7.48739E-3,-1.3884469E-3,-2.1220855E-2],"split_indices":[6,6,3,3,22,37,5,0,0,0,0,0,0,0,0],"split_type":[0,0,0,0,0,0,0,0,0,0,0,0,0,0,0],"sum_hessian":[6.5015967E3,3.617755E3,2.883842E3,3.3908667E2,3.2786682E3,2.0175659E2,2.6820854E3,3.3699849E0,3.357167E2,8.600648E1,3.1926616E3,7.220349E1,1.295531E2,1.7518077E3,9.302775E2],"tree_param":{"num_deleted":"0","num_feature":"38","num_nodes":"15","size_leaf_vector":"1"}},{"base_weights":[-1.7625931E-1,-2.8673476E-1,-2.0186123E-2,-6.5759075E-1,-2.575527E-1,4.2536464E-1,-4.3727774E-2,-7.034236E-2,-7.9161435E-4,-2.846446E-2,-3.5081853E-3,-8.2610967E-4,7.55939E-2,-6.4797937E-3,4.6477824E-2],"categories":[],"categories_nodes":[],"categories_segments":[],"categories_sizes":[],"default_left":[0,0,0,0,0,0,0,0,0,0,0,0,0,0,0],"id":17,"left_children":[1,3,5,7,9,11,13,-1,-1,-1,-1,-1,-1,-1,-1],"loss_changes":[1.1025047E2,4.0351013E1,2.7829102E1,8.10807E0,2.0920258E1,1.909342E1,2.7022045E1,0E0,0E0,0E0,0E0,0E0,0E0,0E0,0E0],"parents":[2147483647,0,0,1,1,2,2,3,3,4,4,5,5,6,6],"right_children":[2,4,6,8,10,12,14,-1,-1,-1,-1,-1,-1,-1,-1],"split_conditions":[1.13148324E-1,1.6118135E0,2.7785488E1,1.8731763E0,3.0584473E1,3.7441443E-12,9.4587845E-1,-7.034236E-2,-7.9161435E-4,-2.846446E-2,-3.5081853E-3,-8.2610967E-4,7.55939E-2,-6.4797937E-3,4.6477824E-2],"split_indices":[17,6,0,1,9,37,23,0,0,0,0,0,0,0,0],"split_type":[0,0,0,0,0,0,0,0,0,0,0,0,0,0,0],"sum_hessian":[6.393539E3,3.7431418E3,2.650397E3,2.7148453E2,3.4716575E3,1.3215498E2,2.5182422E3,2.5351682E2,1.7967693E1,3.094534E3,3.7712338E2,5.7588795E1,7.4566185E1,2.418887E3,9.935505E1],"tree_param":{"num_deleted":"0","num_feature":"38","num_nodes":"15","size_leaf_vector":"1"}},{"base_weights":[-1.5773335E-1,-2.5015545E-1,1.538071E-2,-4.360488E-1,-2.0800596E-1,5.2540797E-1,-7.6217414E-3,-4.9709763E-2,2.3448938E-3,-2.3343163E-2,4.1051265E-3,8.668466E-2,-1.22109335E-2,1.3873733E-2,-7.0090243E-3],"categories":[],"categories_nodes":[],"categories_segments":[],"categories_sizes":[],"default_left":[0,0,0,0,0,0,0,0,0,0,0,0,0,0,0],"id":18,"left_children":[1,3,5,7,9,11,13,-1,-1,-1,-1,-1,-1,-1,-1],"loss_changes":[1.0073967E2,3.2071625E1,2.5724669E1,2.1268784E1,2.1210632E1,2.1026106E1,1.919824E1,0E0,0E0,0E0,0E0,0E0,0E0,0E0,0E0],"parents":[2147483647,0,0,1,1,2,2,3,3,4,4,5,5,6,6],"right_children":[2,4,6,8,10,12,14,-1,-1,-1,-1,-1,-1,-1,-1],"split_conditions":[1.224476E-1,7.061087E-2,2.2445925E3,2.1071222E0,3.298181E1,1.5584774E0,1E0,-4.9709763E-2,2.3448938E-3,-2.3343163E-2,4.1051265E-3,8.668466E-2,-1.22109335E-2,1.3873733E-2,-7.0090243E-3],"split_indices":[17,17,5,2,9,2,21,0,0,0,0,0,0,0,0],"split_type":[0,0,0,0,0,0,0,0,0,0,0,0,0,0,0],"sum_hessian":[6.2951616E3,4.1037876E3,2.191374E3,7.5678156E2,3.3470059E3,9.3624374E1,2.0977498E3,6.6795526E2,8.882628E1,3.037026E3,3.0998007E2,6.1078632E1,3.254574E1,6.271538E2,1.470596E3],"tree_param":{"num_deleted":"0","num_feature":"38","num_nodes":"15","size_leaf_vector":"1"}},{"base_weights":[-1.5439567E-1,-3.6654744E-1,-9.6759334E-2,-4.2021474E-1,-6.6863045E-2,-1.4250733E-1,7.9591036E-2,7.5506516E-2,-4.338488E-2,1.7541865E-1,-1.7746342E-2,1.9397313E-2,-1.5964193E-2,1.8307608E-2,-8.511919E-3],"categories":[],"categories_nodes":[],"categories_segments":[],"categories_sizes":[],"default_left":[0,0,0,0,0,0,0,0,0,0,0,0,0,0,0],"id":19,"left_children":[1,3,5,7,9,11,13,-1,-1,-1,-1,-1,-1,-1,-1],"loss_changes":[7.5831726E1,2.1284714E1,3.938486E1,1.8333572E1,4.1087467E1,2.2374954E1,1.716138E1,0E0,0E0,0E0,0E0,0E0,0E0,0E0,0E0],"parents":[2147483647,0,0,1,1,2,2,3,3,4,4,5,5,6,6],"right_children":[2,4,6,8,10,12,14,-1,-1,-1,-1,-1,-1,-1,-1],"split_conditions":[7.876332E-2,2.1513782E0,1.6157551E-1,2.4007039E3,5.906728E-2,-1.7688188E2,3.517412E1,7.5506516E-2,-4.338488E-2,1.7541865E-1,-1.7746342E-2,1.9397313E-2,-1.5964193E-2,1.8307608E-2,-8.511919E-3],"split_indices":[17,2,17,5,17,36,9,0,0,0,0,0,0,0,0],"split_type":[0,0,0,0,0,0,0,0,0,0,0,0,0,0,0],"sum_hessian":[6.2035605E3,1.3241561E3,4.879405E3,1.1227013E3,2.0145482E2,3.8744934E3,1.0049111E3,1.2251123E1,1.1104502E3,1.0683816E1,1.90771E2,1.8724042E2,3.6872532E3,6.170906E2,3.878205E2],"tree_param":{"num_deleted":"0","num_feature":"38","num_nodes":"15","size_leaf_vector":"1"}},{"base_weights":[-1.409909E-1,-2.1249926E-1,2.3557672E-3,-6.852195E-1,-1.9465241E-1,5.5789703E-1,-2.347508E-2,-9.237868E-2,-4.7414776E-2,-2.5284154E-2,-1.0326038E-2,4.1123807E-2,1.6011249E-1,1.2316761E-1,-3.5704977E-3],"categories":[],"categories_nodes":[],"categories_segments":[],"categories_sizes":[],"default_left":[0,0,0,0,0,0,0,0,0,0,0,0,0,0,0],"id":20,"left_children":[1,3,5,7,9,11,13,-1,-1,-1,-1,-1,-1,-1,-1],"loss_changes":[6.2871384E1,3.439006E1,2.9320805E1,7.038414E0,2.0951614E1,1.3231239E1,3.0016365E1,0E0,0E0,0E0,0E0,0E0,0E0,0E0,0E0],"parents":[2147483647,0,0,1,1,2,2,3,3,4,4,5,5,6,6],"right_children":[2,4,6,8,10,12,14,-1,-1,-1,-1,-1,-1,-1,-1],"split_conditions":[1.2583445E-1,1.4830436E0,5.815862E0,-6.18635E-2,6.590788E1,4.5433563E1,-3.9864376E-11,-9.237868E-2,-4.7414776E-2,-2.5284154E-2,-1.0326038E-2,4.1123807E-2,1.6011249E-1,1.2316761E-1,-3.5704977E-3],"split_indices":[17,6,32,2,37,9,37,0,0,0,0,0,0,0,0],"split_type":[0,0,0,0,0,0,0,0,0,0,0,0,0,0,0],"sum_hessian":[6.1324556E3,4.0911213E3,2.0413344E3,1.4747472E2,3.9436467E3,8.9783005E1,1.9515514E3,6.764321E1,7.98315E1,2.4084346E3,1.535212E3,7.993919E1,9.843806E0,1.7869785E1,1.9336816E3],"tree_param":{"num_deleted":"0","num_feature":"38","num_nodes":"15","size_leaf_vector":"1"}},{"base_weights":[-1.22186415E-1,-3.4612507E-1,-8.200976E-2,1.7275652E-1,-3.5714158E-1,-1.18927985E-1,8.4757596E-2,-6.9369815E-2,-3.0788044E-2,3.159587E-2,-1.35655375E-2,3.368279E-2,-3.0582661E-3],"categories":[],"categories_nodes":[],"categories_segments":[],"categories_sizes":[],"default_left":[0,0,0,0,0,0,0,0,0,0,0,0,0],"id":21,"left_children":[1,3,5,-1,7,9,11,-1,-1,-1,-1,-1,-1],"loss_changes":[5.421247E1,2.156025E1,3.1489185E1,0E0,1.4918991E1,3.049855E1,2.6970757E1,0E0,0E0,0E0,0E0,0E0,0E0],"parents":[2147483647,0,0,1,1,2,2,4,4,5,5,6,6],"right_children":[2,4,6,-1,8,10,12,-1,-1,-1,-1,-1,-1],"split_conditions":[2.1586008E0,-6.789371E-1,1.0950698E-2,1.7275652E-1,1.4341332E0,2.4048848E3,1.0304153E0,-6.9369815E-2,-3.0788044E-2,3.159587E-2,-1.35655375E-2,3.368279E-2,-3.0582661E-3],"split_indices":[6,24,19,0,6,5,18,0,0,0,0,0,0],"split_type":[0,0,0,0,0,0,0,0,0,0,0,0,0],"sum_hessian":[6.0277E3,9.157625E2,5.1119375E3,4.0158844E0,9.117466E2,4.1856284E3,9.263093E2,1.14741325E2,7.9700525E2,1.5436931E2,4.031259E3,2.9019107E2,6.361182E2],"tree_param":{"num_deleted":"0","num_feature":"38","num_nodes":"13","size_leaf_vector":"1"}},{"base_weights":[-1.2692611E-1,-1.7164162E-1,3.2637473E-2,2.6915407E-1,-1.8923177E-1,1.75792E-2,1.2199816E0,-4.0738615E-3,8.603994E-2,-6.4253345E-2,-1.7338939E-2,4.002279E-2,-2.2260686E-3,2.2830375E-2,1.7939828E-1],"categories":[],"categories_nodes":[],"categories_segments":[],"categories_sizes":[],"default_left":[0,0,0,0,0,0,0,0,0,0,0,0,0,0,0],"id":22,"left_children":[1,3,5,7,9,11,13,-1,-1,-1,-1,-1,-1,-1,-1],"loss_changes":[4.2670258E1,3.6267517E1,2.3396076E1,3.2951828E1,3.2149124E1,1.974108E1,8.918907E0,0E0,0E0,0E0,0E0,0E0,0E0,0E0,0E0],"parents":[2147483647,0,0,1,1,2,2,3,3,4,4,5,5,6,6],"right_children":[2,4,6,8,10,12,14,-1,-1,-1,-1,-1,-1,-1,-1],"split_conditions":[9.406341E-3,2.4048848E3,2.440878E2,2.3149067E3,2.4376316E3,2.6771294E1,2.8617475E0,-4.0738615E-3,8.603994E-2,-6.4253345E-2,-1.7338939E-2,4.002279E-2,-2.2260686E-3,2.2830375E-2,1.7939828E-1],"split_indices":[19,5,36,3,3,0,30,0,0,0,0,0,0,0,0],"split_type":[0,0,0,0,0,0,0,0,0,0,0,0,0,0,0],"sum_hessian":[5.978657E3,4.669905E3,1.3087524E3,1.7865457E2,4.4912505E3,1.2933644E3,1.5388049E1,1.1782788E2,6.082669E1,1.5032768E2,4.3409224E3,1.2110883E2,1.1722555E3,6.153921E0,9.234128E0],"tree_param":{"num_deleted":"0","num_feature":"38","num_nodes":"15","size_leaf_vector":"1"}},{"base_weights":[-1.0148717E-1,-3.294642E-1,-6.2756084E-2,-6.3381E-1,-2.8047904E-1,-1.0235683E-1,4.2048182E-2,-8.355729E-2,-4.4320277E-3,-3.7548263E-2,-9.233176E-3,1.5005599E-3,-1.6859304E-2,5.88257E-2,-8.5243996E-4],"categories":[],"categories_nodes":[],"categories_segments":[],"categories_sizes":[],"default_left":[0,0,0,0,0,0,0,0,0,0,0,0,0,0,0],"id":23,"left_children":[1,3,5,7,9,11,13,-1,-1,-1,-1,-1,-1,-1,-1],"loss_changes":[5.233611E1,1.265612E1,2.1045248E1,1.406329E1,1.3251503E1,2.8607307E1,3.8428722E1,0E0,0E0,0E0,0E0,0E0,0E0,0E0,0E0],"parents":[2147483647,0,0,1,1,2,2,3,3,4,4,5,5,6,6],"right_children":[2,4,6,8,10,12,14,-1,-1,-1,-1,-1,-1,-1,-1],"split_conditions":[2.145341E0,5.638246E-2,3E0,1.0140653E0,5.0135193E1,1E0,2.4501505E0,-8.355729E-2,-4.4320277E-3,-3.7548263E-2,-9.233176E-3,1.5005599E-3,-1.6859304E-2,5.88257E-2,-8.5243996E-4],"split_indices":[6,17,21,18,37,21,6,0,0,0,0,0,0,0,0],"split_type":[0,0,0,0,0,0,0,0,0,0,0,0,0,0,0],"sum_hessian":[5.9285566E3,8.59849E2,5.068708E3,1.1755266E2,7.422963E2,3.6787134E3,1.3899945E3,8.7266685E1,3.0285969E1,4.925774E2,2.4971892E2,1.3274349E3,2.3512783E3,1.1689024E2,1.2731042E3],"tree_param":{"num_deleted":"0","num_feature":"38","num_nodes":"15","size_leaf_vector":"1"}},{"base_weights":[-9.459009E-2,-1.4357263E-1,5.0822567E-2,3.3093223E-1,-1.5764812E-1,1.8394311E-1,-4.259106E-2,2.5154432E-2,2.1143535E-1,-2.1370556E-2,-2.6213329E-3,2.7012E-2,-9.883403E-3,-6.304237E-4,-6.130379E-2],"categories":[],"categories_nodes":[],"categories_segments":[],"categories_sizes":[],"default_left":[0,0,0,0,0,0,0,0,0,0,0,0,0,0,0],"id":24,"left_children":[1,3,5,7,9,11,13,-1,-1,-1,-1,-1,-1,-1,-1],"loss_changes":[4.1860306E1,2.941043E1,1.8428734E1,1.744307E1,3.1453255E1,1.4916916E1,1.803196E1,0E0,0E0,0E0,0E0,0E0,0E0,0E0,0E0],"parents":[2147483647,0,0,1,1,2,2,3,3,4,4,5,5,6,6],"right_children":[2,4,6,8,10,12,14,-1,-1,-1,-1,-1,-1,-1,-1],"split_conditions":[1.4219049E-1,2.9341534E1,9.31686E0,5.003829E1,3E0,5.134726E1,4.627118E3,2.5154432E-2,2.1143535E-1,-2.1370556E-2,-2.6213329E-3,2.7012E-2,-9.883403E-3,-6.304237E-4,-6.130379E-2],"split_indices":[17,0,37,9,21,0,4,0,0,0,0,0,0,0,0],"split_type":[0,0,0,0,0,0,0,0,0,0,0,0,0,0,0],"sum_hessian":[5.87502E3,4.3946772E3,1.4803428E3,1.2595764E2,4.2687197E3,6.1003455E2,8.703083E2,1.2168208E2,4.2755575E0,2.991996E3,1.2767235E3,4.6758255E2,1.4245198E2,8.192085E2,5.109981E1],"tree_param":{"num_deleted":"0","num_feature":"38","num_nodes":"15","size_leaf_vector":"1"}},{"base_weights":[-8.2911566E-2,-2.293192E-1,-3.5771836E-2,1.025229E0,-2.4902046E-1,2.889801E-1,-5.5250965E-2,4.0763053E-1,1.9269286E-2,-3.180642E-2,-4.371109E-3,5.624781E-2,9.244475E-3,-9.701253E-3,2.8748268E-3],"categories":[],"categories_nodes":[],"categories_segments":[],"categories_sizes":[],"default_left":[0,0,0,0,0,0,0,0,0,0,0,0,0,0,0],"id":25,"left_children":[1,3,5,7,9,11,13,-1,-1,-1,-1,-1,-1,-1,-1],"loss_changes":[4.005429E1,3.5194405E1,2.7800442E1,5.522795E1,1.9726105E1,1.3316282E1,1.4541386E1,0E0,0E0,0E0,0E0,0E0,0E0,0E0,0E0],"parents":[2147483647,0,0,1,1,2,2,3,3,4,4,5,5,6,6],"right_children":[2,4,6,8,10,12,14,-1,-1,-1,-1,-1,-1,-1,-1],"split_conditions":[8.2090676E-2,2.4007039E3,-1.7330873E2,-1.4801469E0,1.7456813E0,-2.4617565E0,1.4219049E-1,4.0763053E-1,1.9269286E-2,-3.180642E-2,-4.371109E-3,5.624781E-2,9.244475E-3,-9.701253E-3,2.8748268E-3],"split_indices":[17,5,36,2,1,2,17,0,0,0,0,0,0,0,0],"split_type":[0,0,0,0,0,0,0,0,0,0,0,0,0,0,0],"sum_hessian":[5.8037993E3,1.4126122E3,4.3911875E3,2.105139E1,1.3915608E3,2.4770285E2,4.1434844E3,3.6775744E0,1.7373816E1,1.0409493E3,3.506114E2,1.0279361E2,1.4490924E2,2.7674485E3,1.376036E3],"tree_param":{"num_deleted":"0","num_feature":"38","num_nodes":"15","size_leaf_vector":"1"}},{"base_weights":[-7.8705125E-2,-2.841023E-1,-4.6779394E-2,-3.3938733E-1,3.6228057E-2,-9.167098E-2,5.459988E-2,1.2470998E-2,-4.0121574E-2,-5.544577E-2,4.8343025E-2,-7.7521703E-3,-4.6330873E-2,1.9018264E-2,-4.091907E-3],"categories":[],"categories_nodes":[],"categories_segments":[],"categories_sizes":[],"default_left":[0,0,0,0,0,0,0,0,0,0,0,0,0,0,0],"id":26,"left_children":[1,3,5,7,9,11,13,-1,-1,-1,-1,-1,-1,-1,-1],"loss_changes":[3.790409E1,1.3784393E1,2.2786167E1,1.9083107E1,3.0742344E1,1.8209509E1,1.991177E1,0E0,0E0,0E0,0E0,0E0,0E0,0E0,0E0],"parents":[2147483647,0,0,1,1,2,2,3,3,4,4,5,5,6,6],"right_children":[2,4,6,8,10,12,14,-1,-1,-1,-1,-1,-1,-1,-1],"split_conditions":[7.319131E-2,2.1071222E0,1.4008102E-1,1.0590943E1,9.333146E-1,6.478759E0,9.31686E0,1.2470998E-2,-4.0121574E-2,-5.544577E-2,4.8343025E-2,-7.7521703E-3,-4.6330873E-2,1.9018264E-2,-4.091907E-3],"split_indices":[17,2,17,9,18,1,37,0,0,0,0,0,0,0,0],"split_type":[0,0,0,0,0,0,0,0,0,0,0,0,0,0,0],"sum_hessian":[5.7813325E3,7.7666785E2,5.0046646E3,6.6230304E2,1.143648E2,3.468763E3,1.5359015E3,7.7741486E1,5.845616E2,4.9173836E1,6.519096E1,3.3427056E3,1.26057495E2,6.344091E2,9.014924E2],"tree_param":{"num_deleted":"0","num_feature":"38","num_nodes":"15","size_leaf_vector":"1"}},{"base_weights":[-7.653673E-2,2.2674574E-1,-8.9032665E-2,3.6786193E-1,-2.6036146E-1,-1.2836678E-1,7.1457685E-3,2.8655166E-2,1.964359E-1,1.1777966E-2,-5.40076E-2,1.8669656E-2,-1.47813875E-2,-3.544649E-2,4.95184E-3],"categories":[],"categories_nodes":[],"categories_segments":[],"categories_sizes":[],"default_left":[0,0,0,0,0,0,0,0,0,0,0,0,0,0,0],"id":27,"left_children":[1,3,5,7,9,11,13,-1,-1,-1,-1,-1,-1,-1,-1],"loss_changes":[2.1828117E1,1.5767741E1,2.091153E1,2.2438967E1,5.5424814E0,2.4064377E1,2.461515E1,0E0,0E0,0E0,0E0,0E0,0E0,0E0,0E0],"parents":[2147483647,0,0,1,1,2,2,3,3,4,4,5,5,6,6],"right_children":[2,4,6,8,10,12,14,-1,-1,-1,-1,-1,-1,-1,-1],"split_conditions":[2.8614538E1,4.2566177E3,3E0,4.0554229E3,-1.7688188E2,2.4048848E3,2.457628E3,2.8655166E-2,1.964359E-1,1.1777966E-2,-5.40076E-2,1.8669656E-2,-1.47813875E-2,-3.544649E-2,4.95184E-3],"split_indices":[0,3,21,3,36,5,5,0,0,0,0,0,0,0,0],"split_type":[0,0,0,0,0,0,0,0,0,0,0,0,0,0,0],"sum_hessian":[5.753379E3,2.269933E2,5.5263853E3,1.761942E2,5.07991E1,3.9220493E3,1.6043363E3,1.6877777E2,7.4164343E0,2.1845495E1,2.8953604E1,2.2751218E2,3.694537E3,1.675016E2,1.4368347E3],"tree_param":{"num_deleted":"0","num_feature":"38","num_nodes":"15","size_leaf_vector":"1"}},{"base_weights":[-7.504327E-2,-1.4305046E-1,-3.0307851E-3,-1.7062469E-1,5.3935997E-2,1.764646E-1,-5.29452E-2,-2.5307471E-2,-1.10925175E-2,2.0787265E-2,-4.0958166E-2,7.665996E-2,1.2751545E-2,-2.1456173E-2,4.261868E-4],"categories":[],"categories_nodes":[],"categories_segments":[],"categories_sizes":[],"default_left":[0,0,0,0,0,0,0,0,0,0,0,0,0,0,0],"id":28,"left_children":[1,3,5,7,9,11,13,-1,-1,-1,-1,-1,-1,-1,-1],"loss_changes":[2.7898739E1,1.5923378E1,2.4808342E1,1.2623627E1,2.580913E1,1.730556E1,2.0031143E1,0E0,0E0,0E0,0E0,0E0,0E0,0E0,0E0],"parents":[2147483647,0,0,1,1,2,2,3,3,4,4,5,5,6,6],"right_children":[2,4,6,8,10,12,14,-1,-1,-1,-1,-1,-1,-1,-1],"split_conditions":[1.082268E-1,2.9507019E1,5.8028037E-3,-1.3634802E-1,4.1795884E3,2.9013834E0,1.3037106E-1,-2.5307471E-2,-1.10925175E-2,2.0787265E-2,-4.0958166E-2,7.665996E-2,1.2751545E-2,-2.1456173E-2,4.261868E-4],"split_indices":[17,9,19,2,4,6,17,0,0,0,0,0,0,0,0],"split_type":[0,0,0,0,0,0,0,0,0,0,0,0,0,0,0],"sum_hessian":[5.6957705E3,2.9288423E3,2.7669285E3,2.5693215E3,3.5952057E2,6.014698E2,2.1654587E3,1.0776952E3,1.4916265E3,2.7030304E2,8.921752E1,4.494524E1,5.5652454E2,5.65397E2,1.6000618E3],"tree_param":{"num_deleted":"0","num_feature":"38","num_nodes":"15","size_leaf_vector":"1"}},{"base_weights":[-4.9328815E-2,-5.324406E-1,-3.9913494E-2,-5.926474E-1,1.11465566E-1,-2.1653496E-2,-2.4808787E-1,-8.6255394E-2,-3.571802E-2,-2.778774E-3,7.536247E-2,-7.185513E-2,-1.5963884E-2],"categories":[],"categories_nodes":[],"categories_segments":[],"categories_sizes":[],"default_left":[0,0,0,0,0,0,0,0,0,0,0,0,0],"id":29,"left_children":[1,3,5,7,-1,9,11,-1,-1,-1,-1,-1,-1],"loss_changes":[2.5775496E1,1.1403629E1,2.1144714E1,6.3756447E0,0E0,2.4353088E1,1.8552048E1,0E0,0E0,0E0,0E0,0E0,0E0],"parents":[2147483647,0,0,1,1,2,2,3,3,5,5,6,6],"right_children":[2,4,6,8,-1,10,12,-1,-1,-1,-1,-1,-1],"split_conditions":[1.4830436E0,2.0872495E0,4.5982773E3,-6.18635E-2,1.11465566E-1,4.04725E1,3.7134523E0,-8.6255394E-2,-3.571802E-2,-2.778774E-3,7.536247E-2,-7.185513E-2,-1.5963884E-2],"split_indices":[6,1,3,2,0,8,6,0,0,0,0,0,0],"split_type":[0,0,0,0,0,0,0,0,0,0,0,0,0],"sum_hessian":[5.6702944E3,1.0733341E2,5.562961E3,1.04165985E2,3.1674225E0,5.1153706E3,4.4759036E2,4.7292892E1,5.6873096E1,5.0761704E3,3.920009E1,6.970471E1,3.7788565E2],"tree_param":{"num_deleted":"0","num_feature":"38","num_nodes":"13","size_leaf_vector":"1"}},{"base_weights":[-5.272857E-2,-1.8640815E-1,-2.090002E-2,-2.6313356E-1,6.330562E-2,-6.63723E-2,8.1056274E-2,4.9213134E-3,-3.553613E-2,2.872767E-2,-3.3046078E-2,2.8649459E-2,-9.086343E-3,1.322282E-2,-2.8344655E-2],"categories":[],"categories_nodes":[],"categories_segments":[],"categories_sizes":[],"default_left":[0,0,0,0,0,0,0,0,0,0,0,0,0,0,0],"id":30,"left_children":[1,3,5,7,9,11,13,-1,-1,-1,-1,-1,-1,-1,-1],"loss_changes":[2.4023388E1,2.0820877E1,2.1156647E1,2.3951176E1,2.2674038E1,2.7297184E1,2.6292492E1,0E0,0E0,0E0,0E0,0E0,0E0,0E0,0E0],"parents":[2147483647,0,0,1,1,2,2,3,3,4,4,5,5,6,6],"right_children":[2,4,6,8,10,12,14,-1,-1,-1,-1,-1,-1,-1,-1],"split_conditions":[7.876332E-2,1.8731763E0,9.2171104E1,1.22344265E1,2.7752795E0,2.4048848E3,4.4648916E3,4.9213134E-3,-3.553613E-2,2.872767E-2,-3.3046078E-2,2.8649459E-2,-9.086343E-3,1.322282E-2,-2.8344655E-2],"split_indices":[17,1,37,9,6,5,5,0,0,0,0,0,0,0,0],"split_type":[0,0,0,0,0,0,0,0,0,0,0,0,0,0,0],"sum_hessian":[5.6460635E3,1.0848496E3,4.561214E3,8.298283E2,2.5502133E2,3.1546125E3,1.4066012E3,1.892759E2,6.405524E2,1.6273146E2,9.228986E1,2.0404504E2,2.9505676E3,1.2339994E3,1.726018E2],"tree_param":{"num_deleted":"0","num_feature":"38","num_nodes":"15","size_leaf_vector":"1"}},{"base_weights":[-4.19329E-2,-1.02898456E-1,2.1441111E-2,-1.1347259E-1,7.355843E-1,4.934392E-1,2.0371592E-3,-1.0166601E-2,-6.96429E-2,1.4402603E-1,-4.7438904E-3,1.02314554E-1,4.567303E-3,3.5312255E-3,-2.1641418E-2],"categories":[],"categories_nodes":[],"categories_segments":[],"categories_sizes":[],"default_left":[0,0,0,0,0,0,0,0,0,0,0,0,0,0,0],"id":31,"left_children":[1,3,5,7,9,11,13,-1,-1,-1,-1,-1,-1,-1,-1],"loss_changes":[2.1740978E1,2.5511105E1,2.527307E1,1.9428425E1,1.9849909E1,2.5797756E1,1.9282295E1,0E0,0E0,0E0,0E0,0E0,0E0,0E0,0E0],"parents":[2147483647,0,0,1,1,2,2,3,3,4,4,5,5,6,6],"right_children":[2,4,6,8,10,12,14,-1,-1,-1,-1,-1,-1,-1,-1],"split_conditions":[3.7486255E0,4.5539752E-1,3.5862275E-3,4.6183813E3,3.075744E0,1.4903331E1,4.57475E3,-1.0166601E-2,-6.96429E-2,1.4402603E-1,-4.7438904E-3,1.02314554E-1,4.567303E-3,3.5312255E-3,-2.1641418E-2],"split_indices":[6,22,19,4,6,9,4,0,0,0,0,0,0,0,0],"split_type":[0,0,0,0,0,0,0,0,0,0,0,0,0,0,0],"sum_hessian":[5.625513E3,2.8669216E3,2.7585916E3,2.832071E3,3.485065E1,1.07963615E2,2.650628E3,2.777003E3,5.506803E1,1.7901222E1,1.694943E1,4.886795E1,5.909567E1,2.3009756E3,3.496524E2],"tree_param":{"num_deleted":"0","num_feature":"38","num_nodes":"15","size_leaf_vector":"1"}},{"base_weights":[-3.3449106E-2,-3.7168556E-1,-2.0081628E-2,-5.268954E-1,1.4439313E-2,1.7798609E-1,-3.9987292E-2,-3.2772746E-2,-8.4628396E-2,-3.609194E-2,1.8367198E-1,1.392208E-1,1.51415905E-2,-7.0552863E-3,9.97674E-3],"categories":[],"categories_nodes":[],"categories_segments":[],"categories_sizes":[],"default_left":[0,0,0,0,0,0,0,0,0,0,0,0,0,0,0],"id":32,"left_children":[1,3,5,7,9,11,13,-1,-1,-1,-1,-1,-1,-1,-1],"loss_changes":[2.53162E1,1.2765615E1,2.1254179E1,9.38345E0,4.3078148E1,1.5672332E1,2.0928406E1,0E0,0E0,0E0,0E0,0E0,0E0,0E0,0E0],"parents":[2147483647,0,0,1,1,2,2,3,3,4,4,5,5,6,6],"right_children":[2,4,6,8,10,12,14,-1,-1,-1,-1,-1,-1,-1,-1],"split_conditions":[1.6608518E0,1.006092E0,-1.4891647E2,6.591455E1,1.2275978E0,8.407997E-1,6.2113132E1,-3.2772746E-2,-8.4628396E-2,-3.609194E-2,1.8367198E-1,1.392208E-1,1.51415905E-2,-7.0552863E-3,9.97674E-3],"split_indices":[6,18,36,32,2,18,0,0,0,0,0,0,0,0,0],"split_type":[0,0,0,0,0,0,0,0,0,0,0,0,0,0,0],"sum_hessian":[5.599885E3,2.1188052E2,5.3880044E3,1.5087074E2,6.1009785E1,4.9131558E2,4.896689E3,9.4172005E1,5.669873E1,5.1254227E1,9.755556E0,9.42036E0,4.8189523E2,4.0183384E3,8.783505E2],"tree_param":{"num_deleted":"0","num_feature":"38","num_nodes":"15","size_leaf_vector":"1"}},{"base_weights":[-3.299656E-2,-1.8987659E-1,-8.400752E-3,5.1614255E-1,-2.2478928E-1,2.5236044E-2,-1.4235398E-1,-2.0597856E-2,1.3743894E-1,1.02984846E-1,-2.4561152E-2,9.3986474E-2,1.1778382E-3,-5.7550515E-3,-6.351139E-2],"categories":[],"categories_nodes":[],"categories_segments":[],"categories_sizes":[],"default_left":[0,0,0,0,0,0,0,0,0,0,0,0,0,0,0],"id":33,"left_children":[1,3,5,7,9,11,13,-1,-1,-1,-1,-1,-1,-1,-1],"loss_changes":[2.154203E1,1.8767178E1,2.1755672E1,2.2568108E1,1.9107185E1,4.749488E1,4.04598E1,0E0,0E0,0E0,0E0,0E0,0E0,0E0,0E0],"parents":[2147483647,0,0,1,1,2,2,3,3,4,4,5,5,6,6],"right_children":[2,4,6,8,10,12,14,-1,-1,-1,-1,-1,-1,-1,-1],"split_conditions":[2.1586008E0,9.622065E0,4.314661E3,1.5899323E-1,-1.1744351E0,-2.8890947E-13,3.4863396E1,-2.0597856E-2,1.3743894E-1,1.02984846E-1,-2.4561152E-2,9.3986474E-2,1.1778382E-3,-5.7550515E-3,-6.351139E-2],"split_indices":[6,9,4,1,30,37,9,0,0,0,0,0,0,0,0],"split_type":[0,0,0,0,0,0,0,0,0,0,0,0,0,0,0],"sum_hessian":[5.5822876E3,7.556687E2,4.826619E3,3.4957603E1,7.2071106E2,3.8585227E3,9.680963E2,1.9397076E1,1.5560527E1,1.0974701E1,7.097364E2,5.49521E1,3.8035708E3,8.269038E2,1.411925E2],"tree_param":{"num_deleted":"0","num_feature":"38","num_nodes":"15","size_leaf_vector":"1"}},{"base_weights":[-3.5222888E-2,-6.0367886E-2,1.2622756E-1,-6.5607704E-2,5.859815E-1,2.5997603E-1,-8.1897356E-2,4.3377735E-2,-7.2061345E-3,1.7529881E-1,3.058598E-2,2.3126788E-2,1.8360208E-1,-3.2428253E-2,1.712569E-2],"categories":[],"categories_nodes":[],"categories_segments":[],"categories_sizes":[],"default_left":[0,0,0,0,0,0,0,0,0,0,0,0,0,0,0],"id":34,"left_children":[1,3,5,7,9,11,13,-1,-1,-1,-1,-1,-1,-1,-1],"loss_changes":[2.2593578E1,1.6343801E1,2.0899754E1,1.5425663E1,1.2153117E1,2.0245647E1,1.8107498E1,0E0,0E0,0E0,0E0,0E0,0E0,0E0,0E0],"parents":[2147483647,0,0,1,1,2,2,3,3,4,4,5,5,6,6],"right_children":[2,4,6,8,10,12,14,-1,-1,-1,-1,-1,-1,-1,-1],"split_conditions":[6.2664237E0,6.5854305E-1,3.517412E1,-8.798412E0,1.2381482E-1,3.7206414E-1,1.7992644E-2,4.3377735E-2,-7.2061345E-3,1.7529881E-1,3.058598E-2,2.3126788E-2,1.8360208E-1,-3.2428253E-2,1.712569E-2],"split_indices":[6,22,9,1,17,17,19,0,0,0,0,0,0,0,0],"split_type":[0,0,0,0,0,0,0,0,0,0,0,0,0,0,0],"sum_hessian":[5.5624946E3,4.8134526E3,7.49042E2,4.775636E3,3.781657E1,4.5584845E2,2.9319357E2,6.008426E1,4.715552E3,6.302396E0,3.1514174E1,4.488198E2,7.0286536E0,1.496391E2,1.4355447E2],"tree_param":{"num_deleted":"0","num_feature":"38","num_nodes":"15","size_leaf_vector":"1"}},{"base_weights":[-3.5801563E-2,-4.7648662E-1,-2.8008869E-2,-8.2213134E-1,-1.8138862E-1,1.0946005E-1,-5.0013512E-2,2.1396182E-2,-9.046768E-2,-5.2518446E-2,1.0061287E-1,-9.476153E-4,5.1998552E-2,-1.7243983E-2,-1.65978E-3],"categories":[],"categories_nodes":[],"categories_segments":[],"categories_sizes":[],"default_left":[0,0,0,0,0,0,0,0,0,0,0,0,0,0,0],"id":35,"left_children":[1,3,5,7,9,11,13,-1,-1,-1,-1,-1,-1,-1,-1],"loss_changes":[1.9000393E1,9.657335E0,1.6465963E1,3.956314E0,2.2226248E1,3.6681187E1,1.9189514E1,0E0,0E0,0E0,0E0,0E0,0E0,0E0,0E0],"parents":[2147483647,0,0,1,1,2,2,3,3,4,4,5,5,6,6],"right_children":[2,4,6,8,10,12,14,-1,-1,-1,-1,-1,-1,-1,-1],"split_conditions":[1.4830436E0,9.438623E-1,2.4980825E3,-1.21055715E-1,2.516819E3,2.4644927E3,2.6801162E3,2.1396182E-2,-9.046768E-2,-5.2518446E-2,1.0061287E-1,-9.476153E-4,5.1998552E-2,-1.7243983E-2,-1.65978E-3],"split_indices":[6,18,4,22,5,4,3,0,0,0,0,0,0,0,0],"split_type":[0,0,0,0,0,0,0,0,0,0,0,0,0,0,0],"sum_hessian":[5.535708E3,9.514268E1,5.4405654E3,4.2996014E1,5.2146667E1,7.501573E2,4.690408E3,3.0552375E0,3.9940777E1,4.087172E1,1.1274946E1,5.8240234E2,1.6775494E2,1.0048272E3,3.685581E3],"tree_param":{"num_deleted":"0","num_feature":"38","num_nodes":"15","size_leaf_vector":"1"}},{"base_weights":[-2.6576338E-2,-3.3487454E-2,3.6703983E-1,1.8962535E-1,-4.6457555E-2,1.5174091E0,2.6283932E-1,8.823016E-2,1.4194714E-2,3.3043053E-2,-5.4336274E-3,2.2388373E-1,2.9186508E-2,4.692955E-2,-2.528263E-2],"categories":[],"categories_nodes":[],"categories_segments":[],"categories_sizes":[],"default_left":[0,0,0,0,0,0,0,0,0,0,0,0,0,0,0],"id":36,"left_children":[1,3,5,7,9,11,13,-1,-1,-1,-1,-1,-1,-1,-1],"loss_changes":[1.5008459E1,1.5688641E1,1.1013223E1,9.712372E0,1.5225857E1,6.152561E0,9.54126E0,0E0,0E0,0E0,0E0,0E0,0E0,0E0,0E0],"parents":[2147483647,0,0,1,1,2,2,3,3,4,4,5,5,6,6],"right_children":[2,4,6,8,10,12,14,-1,-1,-1,-1,-1,-1,-1,-1],"split_conditions":[3.30235E1,-1.7330873E2,9.279528E-1,1.2647581E1,2.2445925E3,4.65932E-1,4.2569775E3,8.823016E-2,1.4194714E-2,3.3043053E-2,-5.4336274E-3,2.2388373E-1,2.9186508E-2,4.692955E-2,-2.528263E-2],"split_indices":[8,36,18,9,5,13,5,0,0,0,0,0,0,0,0],"split_type":[0,0,0,0,0,0,0,0,0,0,0,0,0,0,0],"sum_hessian":[5.5116343E3,5.41743E3,9.420435E1,2.968786E2,5.1205513E3,6.69786E0,8.750649E1,1.7991411E1,2.788872E2,1.0401317E2,5.016538E3,3.6955996E0,3.0022604E0,6.255241E1,2.4954084E1],"tree_param":{"num_deleted":"0","num_feature":"38","num_nodes":"15","size_leaf_vector":"1"}},{"base_weights":[-2.3040514E-2,-5.754268E-2,5.2928977E-2,2.3722652E-1,-7.521598E-2,9.801129E-2,-2.82619E-1,-7.588967E-2,3.837007E-2,-4.0007588E-2,-5.3943736E-3,7.538916E-3,8.1388965E-2,-6.788351E-2,-1.0350123E-2],"categories":[],"categories_nodes":[],"categories_segments":[],"categories_sizes":[],"default_left":[0,0,0,0,0,0,0,0,0,0,0,0,0,0,0],"id":37,"left_children":[1,3,5,7,9,11,13,-1,-1,-1,-1,-1,-1,-1,-1],"loss_changes":[1.4455692E1,1.9774105E1,2.6086208E1,3.162504E1,2.470811E1,2.4543728E1,1.4427805E1,0E0,0E0,0E0,0E0,0E0,0E0,0E0,0E0],"parents":[2147483647,0,0,1,1,2,2,3,3,4,4,5,5,6,6],"right_children":[2,4,6,8,10,12,14,-1,-1,-1,-1,-1,-1,-1,-1],"split_conditions":[9.2171104E1,2.4048848E3,4.4648916E3,1.4267563E1,2.457628E3,1.1365155E1,4.5982773E3,-7.588967E-2,3.837007E-2,-4.0007588E-2,-5.3943736E-3,7.538916E-3,8.1388965E-2,-6.788351E-2,-1.0350123E-2],"split_indices":[37,5,5,9,5,2,3,0,0,0,0,0,0,0,0],"split_type":[0,0,0,0,0,0,0,0,0,0,0,0,0,0,0],"sum_hessian":[5.5129375E3,3.7913206E3,1.7216168E3,2.1375323E2,3.5775674E3,1.5183304E3,2.0328633E2,2.6865894E1,1.8688733E2,2.1877222E2,3.3587952E3,1.4728916E3,4.5438835E1,6.2420242E1,1.4086609E2],"tree_param":{"num_deleted":"0","num_feature":"38","num_nodes":"15","size_leaf_vector":"1"}},{"base_weights":[-1.6841244E-2,-2.3613011E-2,3.6011502E-1,1.3301049E-1,-3.8889285E-2,-7.1887356E-1,4.8746586E-1,5.42784E-3,6.0480684E-2,-4.4369334E-3,4.143996E-2,-3.9799772E-2,-9.930586E-2,3.3166196E-2,1.366641E-1],"categories":[],"categories_nodes":[],"categories_segments":[],"categories_sizes":[],"default_left":[0,0,0,0,0,0,0,0,0,0,0,0,0,0,0],"id":38,"left_children":[1,3,5,7,9,11,13,-1,-1,-1,-1,-1,-1,-1,-1],"loss_changes":[1.4021932E1,1.2910495E1,1.3671042E1,1.7780615E1,1.2228054E1,5.4068136E-1,1.1505367E1,0E0,0E0,0E0,0E0,0E0,0E0,0E0,0E0],"parents":[2147483647,0,0,1,1,2,2,3,3,4,4,5,5,6,6],"right_children":[2,4,6,8,10,12,14,-1,-1,-1,-1,-1,-1,-1,-1],"split_conditions":[6.5854305E-1,3.366865E1,-5.3901815E0,4.5433563E1,9.922774E1,3.6163823E3,4.426612E3,5.42784E-3,6.0480684E-2,-4.4369334E-3,4.143996E-2,-3.9799772E-2,-9.930586E-2,3.3166196E-2,1.366641E-1],"split_indices":[22,0,1,9,32,3,3,0,0,0,0,0,0,0,0],"split_type":[0,0,0,0,0,0,0,0,0,0,0,0,0,0,0],"sum_hessian":[5.4887354E3,5.392795E3,9.594059E1,4.7855838E2,4.9142363E3,9.637912E0,8.630268E1,4.1107443E2,6.748395E1,4.856427E3,5.7809772E1,5.570445E0,4.0674667E0,7.448074E1,1.1821937E1],"tree_param":{"num_deleted":"0","num_feature":"38","num_nodes":"15","size_leaf_vector":"1"}},{"base_weights":[-2.5395894E-2,-2.8390912E-2,6.926932E-1,-1.3980718E-1,-1.2637638E-2,1.8127401E-1,2.3167835E-1,9.391102E-2,-1.6162986E-2,-4.6763094E-3,6.2261787E-3,-4.5579072E-2,8.85264E-2],"categories":[],"categories_nodes":[],"categories_segments":[],"categories_sizes":[],"default_left":[0,0,0,0,0,0,0,0,0,0,0,0,0],"id":39,"left_children":[1,3,5,7,9,-1,11,-1,-1,-1,-1,-1,-1],"loss_changes":[1.18378525E1,9.604642E0,1.1385576E1,1.6112852E1,1.2262153E1,0E0,8.196088E0,0E0,0E0,0E0,0E0,0E0,0E0],"parents":[2147483647,0,0,1,1,2,2,3,3,4,4,6,6],"right_children":[2,4,6,8,10,-1,12,-1,-1,-1,-1,-1,-1],"split_conditions":[3.043859E0,7.319131E-2,-6.294285E-1,-3.6402886E-12,9.2171104E1,1.8127401E-1,1.3231804E0,9.391102E-2,-1.6162986E-2,-4.6763094E-3,6.2261787E-3,-4.5579072E-2,8.85264E-2],"split_indices":[13,17,22,37,37,0,18,0,0,0,0,0,0],"split_type":[0,0,0,0,0,0,0,0,0,0,0,0,0],"sum_hessian":[5.4940664E3,5.472203E3,2.18631E1,6.769E2,4.795303E3,5.5200176E0,1.6343082E1,1.2586514E1,6.6431354E2,3.2946018E3,1.5007012E3,8.112569E0,8.230513E0],"tree_param":{"num_deleted":"0","num_feature":"38","num_nodes":"13","size_leaf_vector":"1"}},{"base_weights":[-2.1506017E-2,1.9675946E-1,-3.4299135E-2,2.0062821E-2,3.8395366E-1,-5.4060146E-2,5.6488186E-2,-4.138621E-2,2.2517828E-2,1.5312414E-1,2.7490053E-2,1.9223206E-2,-7.0065684E-3,1.1305495E-1,3.5717734E-3],"categories":[],"categories_nodes":[],"categories_segments":[],"categories_sizes":[],"default_left":[0,0,0,0,0,0,0,0,0,0,0,0,0,0,0],"id":40,"left_children":[1,3,5,7,9,11,13,-1,-1,-1,-1,-1,-1,-1,-1],"loss_changes":[1.5374854E1,1.0076587E1,9.331883E0,1.4146251E1,1.809435E1,1.6849463E1,2.070652E1,0E0,0E0,0E0,0E0,0E0,0E0,0E0,0E0],"parents":[2147483647,0,0,1,1,2,2,3,3,4,4,5,5,6,6],"right_children":[2,4,6,8,10,12,14,-1,-1,-1,-1,-1,-1,-1,-1],"split_conditions":[-1.7330873E2,3.5291987E3,6.1925938E1,-1.6352892E0,1.3047749E1,2.4048848E3,-1.6281148E-2,-4.138621E-2,2.2517828E-2,1.5312414E-1,2.7490053E-2,1.9223206E-2,-7.0065684E-3,1.1305495E-1,3.5717734E-3],"split_indices":[36,5,0,30,9,5,23,0,0,0,0,0,0,0,0],"split_type":[0,0,0,0,0,0,0,0,0,0,0,0,0,0,0],"sum_hessian":[5.5027515E3,3.0387698E2,5.1988745E3,1.5689119E2,1.469858E2,4.269885E3,9.2898987E2,5.0031364E1,1.06859825E2,1.1626679E1,1.3535912E2,2.598786E2,4.010006E3,1.6610552E1,9.1237933E2],"tree_param":{"num_deleted":"0","num_feature":"38","num_nodes":"15","size_leaf_vector":"1"}},{"base_weights":[-1.6417466E-2,-2.0664963E-3,-1.9570896E-1,1.2569742E-1,-3.0031942E-2,-3.0662146E-1,1.5669513E-1,4.4961985E-2,5.6336178E-3,-3.9669904E-3,4.8383158E-2,-4.711954E-2,-9.302609E-3,-1.9243658E-2,5.859399E-2],"categories":[],"categories_nodes":[],"categories_segments":[],"categories_sizes":[],"default_left":[0,0,0,0,0,0,0,0,0,0,0,0,0,0,0],"id":41,"left_children":[1,3,5,7,9,11,13,-1,-1,-1,-1,-1,-1,-1,-1],"loss_changes":[1.4032717E1,1.8050121E1,1.584611E1,2.0357327E1,2.0545675E1,1.0774893E1,1.4712319E1,0E0,0E0,0E0,0E0,0E0,0E0,0E0,0E0],"parents":[2147483647,0,0,1,1,2,2,3,3,4,4,5,5,6,6],"right_children":[2,4,6,8,10,12,14,-1,-1,-1,-1,-1,-1,-1,-1],"split_conditions":[4.583143E3,-3.6716988E0,1E0,9.578624E-1,8.545106E0,1.1637435E-1,4.714687E3,4.4961985E-2,5.6336178E-3,-3.9669904E-3,4.8383158E-2,-4.711954E-2,-9.302609E-3,-1.9243658E-2,5.859399E-2],"split_indices":[4,1,20,18,6,17,3,0,0,0,0,0,0,0,0],"split_type":[0,0,0,0,0,0,0,0,0,0,0,0,0,0,0],"sum_hessian":[5.452977E3,5.04979E3,4.0318716E2,9.061996E2,4.1435903E3,3.0676776E2,9.641942E1,1.5885449E2,7.473451E2,4.0682102E3,7.538004E1,1.7258559E2,1.3418217E2,5.3475845E1,4.2943573E1],"tree_param":{"num_deleted":"0","num_feature":"38","num_nodes":"15","size_leaf_vector":"1"}},{"base_weights":[-1.3614342E-2,-4.0079452E-2,6.942188E-2,-7.279649E-2,2.6072811E-2,1.6080482E-1,-6.1660767E-2,-1.0680988E-2,4.0557147E-3,2.1871928E-2,-2.545199E-4,1.4315535E-2,8.876275E-2,-1.6272634E-2,1.1490109E-2],"categories":[],"categories_nodes":[],"categories_segments":[],"categories_sizes":[],"default_left":[0,0,0,0,0,0,0,0,0,0,0,0,0,0,0],"id":42,"left_children":[1,3,5,7,9,11,13,-1,-1,-1,-1,-1,-1,-1,-1],"loss_changes":[1.19920025E1,8.957258E0,1.5809108E1,1.0679494E1,7.5534067E0,9.845837E0,9.699379E0,0E0,0E0,0E0,0E0,0E0,0E0,0E0,0E0],"parents":[2147483647,0,0,1,1,2,2,3,3,4,4,5,5,6,6],"right_children":[2,4,6,8,10,12,14,-1,-1,-1,-1,-1,-1,-1,-1],"split_conditions":[7.8026575E-1,1E0,5.0689183E-2,5.8136677E1,-5.883788E-1,9.1149765E-1,3.6349216E-1,-1.0680988E-2,4.0557147E-3,2.1871928E-2,-2.545199E-4,1.4315535E-2,8.876275E-2,-1.6272634E-2,1.1490109E-2],"split_indices":[13,16,22,0,24,15,23,0,0,0,0,0,0,0,0],"split_type":[0,0,0,0,0,0,0,0,0,0,0,0,0,0,0],"sum_hessian":[5.4546895E3,4.1367515E3,1.3179384E3,2.7677834E3,1.3689678E3,7.764307E2,5.4150757E2,2.129003E3,6.3878046E2,1.7620105E2,1.1927667E3,7.591922E2,1.7238539E1,3.4443076E2,1.9707684E2],"tree_param":{"num_deleted":"0","num_feature":"38","num_nodes":"15","size_leaf_vector":"1"}},{"base_weights":[-1.5224432E-2,-4.809323E-2,5.596776E-2,5.4167673E-2,-8.646387E-2,1.01278774E-1,-2.9812896E-1,1.843488E-2,-2.1742502E-2,-2.0422784E-3,-1.8027885E-2,-2.1164926E-2,1.3918908E-2,8.33559E-3,-4.430693E-2],"categories":[],"categories_nodes":[],"categories_segments":[],"categories_sizes":[],"default_left":[0,0,0,0,0,0,0,0,0,0,0,0,0,0,0],"id":43,"left_children":[1,3,5,7,9,11,13,-1,-1,-1,-1,-1,-1,-1,-1],"loss_changes":[1.2785722E1,1.46714115E1,2.7722275E1,3.6120266E1,1.6838543E1,1.8190834E1,1.0877344E1,0E0,0E0,0E0,0E0,0E0,0E0,0E0,0E0],"parents":[2147483647,0,0,1,1,2,2,3,3,4,4,5,5,6,6],"right_children":[2,4,6,8,10,12,14,-1,-1,-1,-1,-1,-1,-1,-1],"split_conditions":[9.2171104E1,-2.8547776E0,4.477865E3,4.1920986E3,5.8635436E-3,2.439998E3,9.979856E1,1.843488E-2,-2.1742502E-2,-2.0422784E-3,-1.8027885E-2,-2.1164926E-2,1.3918908E-2,8.33559E-3,-4.430693E-2],"split_indices":[37,2,4,4,19,4,37,0,0,0,0,0,0,0,0],"split_type":[0,0,0,0,0,0,0,0,0,0,0,0,0,0,0],"sum_hessian":[5.4618296E3,3.7368733E3,1.7249565E3,1.0194756E3,2.7173977E3,1.5299009E3,1.9505559E2,6.893664E2,3.3010922E2,1.595478E3,1.1219196E3,1.6482027E2,1.3650807E3,5.382152E1,1.4123407E2],"tree_param":{"num_deleted":"0","num_feature":"38","num_nodes":"15","size_leaf_vector":"1"}},{"base_weights":[-1.4463367E-2,-4.397933E-1,-7.5424896E-3,-6.5288174E-1,8.1588216E-2,2.1581942E-1,-1.7455623E-2,-7.7936985E-2,9.788291E-3,-3.1932976E-2,1.5218389E-1,1.4963894E-2,8.471836E-2,-1.8649293E-2,-3.6204094E-4],"categories":[],"categories_nodes":[],"categories_segments":[],"categories_sizes":[],"default_left":[0,0,0,0,0,0,0,0,0,0,0,0,0,0,0],"id":44,"left_children":[1,3,5,7,9,11,13,-1,-1,-1,-1,-1,-1,-1,-1],"loss_changes":[1.6005123E1,9.725256E0,1.1854757E1,5.95545E0,1.5583351E1,9.3799305E0,1.1986649E1,0E0,0E0,0E0,0E0,0E0,0E0,0E0,0E0],"parents":[2147483647,0,0,1,1,2,2,3,3,4,4,5,5,6,6],"right_children":[2,4,6,8,10,12,14,-1,-1,-1,-1,-1,-1,-1,-1],"split_conditions":[1.4830436E0,1.0140653E0,4.790755E0,2.5514077E3,2.52308E3,-8.725294E-2,-1.7398978E0,-7.7936985E-2,9.788291E-3,-3.1932976E-2,1.5218389E-1,1.4963894E-2,8.471836E-2,-1.8649293E-2,-3.6204094E-4],"split_indices":[6,18,32,4,4,24,30,0,0,0,0,0,0,0,0],"split_type":[0,0,0,0,0,0,0,0,0,0,0,0,0,0,0],"sum_hessian":[5.4372847E3,8.6056305E1,5.351228E3,6.0910137E1,2.5146168E1,2.2652028E2,5.124708E3,5.2095104E1,8.815033E0,2.0279352E1,4.866816E0,2.0614851E2,2.0371765E1,3.867654E2,4.7379424E3],"tree_param":{"num_deleted":"0","num_feature":"38","num_nodes":"15","size_leaf_vector":"1"}},{"base_weights":[-1.3336849E-2,-1.5058492E-1,7.2567477E-3,3.5725126E-1,-1.8811913E-1,1.1582994E-1,-1.5990948E-2,1.5151362E-1,-1.0228629E-2,-3.847606E-2,-9.168562E-3,9.892401E-3,1.763543E-1,-1.5367813E-2,2.7801276E-3],"categories":[],"categories_nodes":[],"categories_segments":[],"categories_sizes":[],"default_left":[0,0,0,0,0,0,0,0,0,0,0,0,0,0,0],"id":45,"left_children":[1,3,5,7,9,11,13,-1,-1,-1,-1,-1,-1,-1,-1],"loss_changes":[1.5355478E1,1.3578083E1,1.1927137E1,2.629553E1,1.2493208E1,2.3039318E1,2.3473198E1,0E0,0E0,0E0,0E0,0E0,0E0,0E0,0E0],"parents":[2147483647,0,0,1,1,2,2,3,3,4,4,5,5,6,6],"right_children":[2,4,6,8,10,12,14,-1,-1,-1,-1,-1,-1,-1,-1],"split_conditions":[2.1586008E0,7.640628E0,2.81796E0,2.4648525E3,-3.4328514E-1,8.7013334E-1,3.5512598E0,1.5151362E-1,-1.0228629E-2,-3.847606E-2,-9.168562E-3,9.892401E-3,1.763543E-1,-1.5367813E-2,2.7801276E-3],"split_indices":[6,33,6,5,2,24,6,0,0,0,0,0,0,0,0],"split_type":[0,0,0,0,0,0,0,0,0,0,0,0,0,0,0],"sum_hessian":[5.4314277E3,7.0781464E2,4.7236133E3,4.812792E1,6.596867E2,8.323457E2,3.8912676E3,1.3021328E1,3.510659E1,2.1607979E2,4.436069E2,8.249416E2,7.4040594E0,9.38384E2,2.9528835E3],"tree_param":{"num_deleted":"0","num_feature":"38","num_nodes":"15","size_leaf_vector":"1"}},{"base_weights":[-1.5600173E-2,1.4144805E-1,-2.9391944E-2,2.525615E-1,-3.1760073E-1,-1.979455E-1,-1.3783539E-2,7.626172E-2,1.8301234E-2,-3.967669E-2,9.471149E-2,-2.6130233E-2,1.2969094E-2,5.0829716E-2,-2.138395E-3],"categories":[],"categories_nodes":[],"categories_segments":[],"categories_sizes":[],"default_left":[0,0,0,0,0,0,0,0,0,0,0,0,0,0,0],"id":46,"left_children":[1,3,5,7,9,11,13,-1,-1,-1,-1,-1,-1,-1,-1],"loss_changes":[1.1766078E1,2.2449474E1,1.3132486E1,1.2405722E1,8.977237E0,8.816185E0,1.8147457E1,0E0,0E0,0E0,0E0,0E0,0E0,0E0,0E0],"parents":[2147483647,0,0,1,1,2,2,3,3,4,4,5,5,6,6],"right_children":[2,4,6,8,10,12,14,-1,-1,-1,-1,-1,-1,-1,-1],"split_conditions":[8.527152E-1,4.3446207E-1,6.9521874E-2,-3.2508914E0,3.5162765E-1,1.0441315E0,2.5266437E-3,7.626172E-2,1.8301234E-2,-3.967669E-2,9.471149E-2,-2.6130233E-2,1.2969094E-2,5.0829716E-2,-2.138395E-3],"split_indices":[18,24,17,2,14,18,19,0,0,0,0,0,0,0,0],"split_type":[0,0,0,0,0,0,0,0,0,0,0,0,0,0,0],"sum_hessian":[5.4293174E3,4.375571E2,4.9917603E3,3.5264792E2,8.490916E1,4.2208E2,4.5696807E3,4.111991E1,3.11528E2,8.055313E1,4.3560243E0,3.538555E2,6.822447E1,6.462521E1,4.505055E3],"tree_param":{"num_deleted":"0","num_feature":"38","num_nodes":"15","size_leaf_vector":"1"}},{"base_weights":[3.1046737E-3,5.8061514E-2,-3.6308944E-2,5.9157964E-3,2.608922E-1,3.9018357E-1,-4.6150908E-2,-2.1569624E-3,2.7585877E-2,2.2603339E-2,2.0528677E-1,-8.106207E-2,5.8320995E-2,-6.052303E-2,-3.6544388E-3],"categories":[],"categories_nodes":[],"categories_segments":[],"categories_sizes":[],"default_left":[0,0,0,0,0,0,0,0,0,0,0,0,0,0,0],"id":47,"left_children":[1,3,5,7,9,11,13,-1,-1,-1,-1,-1,-1,-1,-1],"loss_changes":[1.1727734E1,2.391533E1,1.3253241E1,1.335982E1,2.8422411E1,1.69823E1,1.6535429E1,0E0,0E0,0E0,0E0,0E0,0E0,0E0,0E0],"parents":[2147483647,0,0,1,1,2,2,3,3,4,4,5,5,6,6],"right_children":[2,4,6,8,10,12,14,-1,-1,-1,-1,-1,-1,-1,-1],"split_conditions":[-2.1190386E-1,1E0,2.2526787E3,4.1774605E1,8.242101E0,1.4267563E1,2.2936707E3,-2.1569624E-3,2.7585877E-2,2.2603339E-2,2.0528677E-1,-8.106207E-2,5.8320995E-2,-6.052303E-2,-3.6544388E-3],"split_indices":[30,20,4,9,1,9,5,0,0,0,0,0,0,0,0],"split_type":[0,0,0,0,0,0,0,0,0,0,0,0,0,0,0],"sum_hessian":[5.412373E3,2.2602683E3,3.1521047E3,1.7988352E3,4.6143314E2,7.022723E1,3.0818774E3,1.6334395E3,1.6539568E2,4.5373294E2,7.700212E0,9.2824135E0,6.0944813E1,5.1013233E1,3.0308643E3],"tree_param":{"num_deleted":"0","num_feature":"38","num_nodes":"15","size_leaf_vector":"1"}},{"base_weights":[1.27506E-3,-1.7541949E-2,1.1820713E-1,-2.328976E-2,5.936673E-1,4.468999E-1,1.5607819E-2,1.529941E-3,-1.2201085E-2,1.15830354E-1,-7.886952E-3,1.9312198E-1,3.811951E-2,1.5349346E-2,-1.789243E-2],"categories":[],"categories_nodes":[],"categories_segments":[],"categories_sizes":[],"default_left":[0,0,0,0,0,0,0,0,0,0,0,0,0,0,0],"id":48,"left_children":[1,3,5,7,9,11,13,-1,-1,-1,-1,-1,-1,-1,-1],"loss_changes":[1.1936051E1,1.6429974E1,2.5351551E1,1.7641087E1,1.6637148E1,1.6705936E1,1.5426835E1,0E0,0E0,0E0,0E0,0E0,0E0,0E0,0E0],"parents":[2147483647,0,0,1,1,2,2,3,3,4,4,5,5,6,6],"right_children":[2,4,6,8,10,12,14,-1,-1,-1,-1,-1,-1,-1,-1],"split_conditions":[6.2664237E0,6.5854305E-1,9.428213E-1,5.240914E-1,3.6258194E0,-4.130716E0,5.7795612E1,1.529941E-3,-1.2201085E-2,1.15830354E-1,-7.886952E-3,1.9312198E-1,3.811951E-2,1.5349346E-2,-1.789243E-2],"split_indices":[6,22,18,30,2,30,37,0,0,0,0,0,0,0,0],"split_type":[0,0,0,0,0,0,0,0,0,0,0,0,0,0,0],"sum_hessian":[5.422767E3,4.6718164E3,7.5095074E2,4.629245E3,4.257153E1,1.7784404E2,5.731067E2,3.3288665E3,1.3003784E3,2.2749569E1,1.9821959E1,6.3351827E0,1.7150887E2,3.3550763E2,2.3759906E2],"tree_param":{"num_deleted":"0","num_feature":"38","num_nodes":"15","size_leaf_vector":"1"}},{"base_weights":[-6.12724E-3,-4.8732919E-1,-2.4322815E-4,-6.7359626E-1,1.9987836E-1,-6.6301906E-3,2.586991E-1,-2.036482E-2,-8.590742E-2,-8.639762E-2,9.244429E-2,4.5478102E-4,-2.2145882E-2,3.8535435E-2,-9.0378776E-2],"categories":[],"categories_nodes":[],"categories_segments":[],"categories_sizes":[],"default_left":[0,0,0,0,0,0,0,0,0,0,0,0,0,0,0],"id":49,"left_children":[1,3,5,7,9,11,13,-1,-1,-1,-1,-1,-1,-1,-1],"loss_changes":[1.5314133E1,8.498049E0,8.840556E0,4.3256283E0,1.2133144E1,1.2528186E1,1.9293625E1,0E0,0E0,0E0,0E0,0E0,0E0,0E0,0E0],"parents":[2147483647,0,0,1,1,2,2,3,3,4,4,5,5,6,6],"right_children":[2,4,6,8,10,12,14,-1,-1,-1,-1,-1,-1,-1,-1],"split_conditions":[1.4341332E0,1.0441315E0,9.833527E0,-6.702834E-2,-5.122377E-2,6.478759E0,4.6183813E3,-2.036482E-2,-8.590742E-2,-8.639762E-2,9.244429E-2,4.5478102E-4,-2.2145882E-2,3.8535435E-2,-9.0378776E-2],"split_indices":[6,18,2,23,1,1,4,0,0,0,0,0,0,0,0],"split_type":[0,0,0,0,0,0,0,0,0,0,0,0,0,0,0],"sum_hessian":[5.407724E3,6.433704E1,5.343387E3,5.0632854E1,1.3704187E1,5.215713E3,1.2767419E2,1.4922213E1,3.5710644E1,5.474196E0,8.229992E0,4.958681E3,2.570321E2,1.1573332E2,1.1940865E1],"tree_param":{"num_deleted":"0","num_feature":"38","num_nodes":"15","size_leaf_vector":"1"}},{"base_weights":[-2.8449958E-3,-2.3279935E-1,7.569284E-3,-3.4343308E-1,4.8106235E-1,1.3903053E-1,-1.0348692E-2,-5.2955277E-2,-4.869966E-3,3.750826E-1,-2.0854732E-2,-1.2746209E-2,2.7143916E-2,-2.4451778E-4,-4.40062E-2],"categories":[],"categories_nodes":[],"categories_segments":[],"categories_sizes":[],"default_left":[0,0,0,0,0,0,0,0,0,0,0,0,0,0,0],"id":50,"left_children":[1,3,5,7,9,11,13,-1,-1,-1,-1,-1,-1,-1,-1],"loss_changes":[1.3002737E1,1.8743952E1,1.2237356E1,1.1179024E1,7.289747E1,2.202324E1,1.5527969E1,0E0,0E0,0E0,0E0,0E0,0E0,0E0,0E0],"parents":[2147483647,0,0,1,1,2,2,3,3,4,4,5,5,6,6],"right_children":[2,4,6,8,10,12,14,-1,-1,-1,-1,-1,-1,-1,-1],"split_conditions":[6.419494E-2,3.9003674E3,3.5862275E-3,9.804076E-1,2.4501505E0,-3.3268301E0,4.7384595E3,-5.2955277E-2,-4.869966E-3,3.750826E-1,-2.0854732E-2,-1.2746209E-2,2.7143916E-2,-2.4451778E-4,-4.40062E-2],"split_indices":[17,3,19,18,6,29,5,0,0,0,0,0,0,0,0],"split_type":[0,0,0,0,0,0,0,0,0,0,0,0,0,0,0],"sum_hessian":[5.427815E3,2.3424187E2,5.1935728E3,2.0325975E2,3.0982128E1,6.221561E2,4.5714165E3,1.240974E2,7.9162346E1,4.6230445E0,2.6359083E1,2.0652678E2,4.1562936E2,4.489843E3,8.157387E1],"tree_param":{"num_deleted":"0","num_feature":"38","num_nodes":"15","size_leaf_vector":"1"}},{"base_weights":[-1.8832669E-2,1.5615389E-1,-3.4469347E-2,1.0013773E0,1.0752822E-1,-6.564893E-2,7.027418E-2,6.511612E-2,2.1688116E-1,1.9506073E-2,-2.1198971E-2,-4.2486344E-3,-2.0482372E-2,2.3067263E-1,6.0634324E-3],"categories":[],"categories_nodes":[],"categories_segments":[],"categories_sizes":[],"default_left":[0,0,0,0,0,0,0,0,0,0,0,0,0,0,0],"id":51,"left_children":[1,3,5,7,9,11,13,-1,-1,-1,-1,-1,-1,-1,-1],"loss_changes":[1.4848748E1,1.818872E1,1.627062E1,8.440006E0,1.184604E1,1.2365677E1,2.4502043E1,0E0,0E0,0E0,0E0,0E0,0E0,0E0,0E0],"parents":[2147483647,0,0,1,1,2,2,3,3,4,4,5,5,6,6],"right_children":[2,4,6,8,10,12,14,-1,-1,-1,-1,-1,-1,-1,-1],"split_conditions":[8.527152E-1,-3.309551E-1,3.3134133E-1,-8.7558824E-1,4.1218057E-1,7.896471E1,-2.153E1,6.511612E-2,2.1688116E-1,1.9506073E-2,-2.1198971E-2,-4.2486344E-3,-2.0482372E-2,2.3067263E-1,6.0634324E-3],"split_indices":[18,23,24,29,24,32,8,0,0,0,0,0,0,0,0],"split_type":[0,0,0,0,0,0,0,0,0,0,0,0,0,0,0],"sum_hessian":[5.4237935E3,4.441725E2,4.979621E3,2.3097225E1,4.2107526E2,3.8376267E3,1.1419941E3,1.8965559E1,4.131667E0,3.3083258E2,9.024267E1,3.2911865E3,5.464403E2,3.8785489E0,1.1381156E3],"tree_param":{"num_deleted":"0","num_feature":"38","num_nodes":"15","size_leaf_vector":"1"}},{"base_weights":[3.6483223E-3,3.9381906E-2,-4.5823533E-2,2.043559E-2,3.6139625E-1,-9.558509E-1,-3.2668557E-2,5.1085926E-3,-1.1737197E-2,-2.3562703E-2,6.420566E-2,-4.848419E-2,-1.0168176E-1,-5.2083214E-3,2.8724948E-2],"categories":[],"categories_nodes":[],"categories_segments":[],"categories_sizes":[],"default_left":[0,0,0,0,0,0,0,0,0,0,0,0,0,0,0],"id":52,"left_children":[1,3,5,7,9,11,13,-1,-1,-1,-1,-1,-1,-1,-1],"loss_changes":[9.588869E0,1.9206532E1,2.720161E1,1.2573523E1,2.9464262E1,4.3682098E-1,1.3949229E1,0E0,0E0,0E0,0E0,0E0,0E0,0E0,0E0],"parents":[2147483647,0,0,1,1,2,2,3,3,4,4,5,5,6,6],"right_children":[2,4,6,8,10,12,14,-1,-1,-1,-1,-1,-1,-1,-1],"split_conditions":[2.144E0,4.3386448E1,-1.0130208E1,1.1219902E0,6.1517263E-12,9.291863E-3,5.7527715E-1,5.1085926E-3,-1.1737197E-2,-2.3562703E-2,6.420566E-2,-4.848419E-2,-1.0168176E-1,-5.2083214E-3,2.8724948E-2],"split_indices":[8,9,2,18,37,19,14,0,0,0,0,0,0,0,0],"split_type":[0,0,0,0,0,0,0,0,0,0,0,0,0,0,0],"sum_hessian":[5.4221406E3,3.1483135E3,2.273827E3,2.974374E3,1.739394E2,3.1379976E1,2.242447E3,2.4337117E3,5.406624E2,5.5672596E1,1.18266815E2,4.622282E0,2.6757694E1,2.1149365E3,1.2751055E2],"tree_param":{"num_deleted":"0","num_feature":"38","num_nodes":"15","size_leaf_vector":"1"}},{"base_weights":[-8.631895E-3,-2.3938168E-2,1.4582269E-1,4.8143387E-2,-5.1964007E-2,5.977994E-3,3.676465E-1,6.4446493E-3,-5.3487886E-2,-4.207602E-2,-4.22876E-3,-2.0635365E-2,9.937916E-3,-4.9525615E-2,4.1314762E-2],"categories":[],"categories_nodes":[],"categories_segments":[],"categories_sizes":[],"default_left":[0,0,0,0,0,0,0,0,0,0,0,0,0,0,0],"id":53,"left_children":[1,3,5,7,9,11,13,-1,-1,-1,-1,-1,-1,-1,-1],"loss_changes":[1.2785024E1,9.941316E0,1.5123808E1,1.313122E1,1.262577E1,5.9717593E0,7.606657E0,0E0,0E0,0E0,0E0,0E0,0E0,0E0,0E0],"parents":[2147483647,0,0,1,1,2,2,3,3,4,4,5,5,6,6],"right_children":[2,4,6,8,10,12,14,-1,-1,-1,-1,-1,-1,-1,-1],"split_conditions":[4.4167224E-1,-7.825998E1,7.662946E1,4.7336724E3,-9.003335E0,-8.273002E1,-6.586389E-1,6.4446493E-3,-5.3487886E-2,-4.207602E-2,-4.22876E-3,-2.0635365E-2,9.937916E-3,-4.9525615E-2,4.1314762E-2],"split_indices":[14,36,37,4,2,35,24,0,0,0,0,0,0,0,0],"split_type":[0,0,0,0,0,0,0,0,0,0,0,0,0,0,0],"sum_hessian":[5.4054565E3,4.9188496E3,4.8660736E2,1.3768689E3,3.5419805E3,2.9908298E2,1.8752437E2,1.34028E3,3.6588917E1,8.947163E1,3.4525088E3,9.1000206E1,2.0808278E2,8.897823E0,1.7862654E2],"tree_param":{"num_deleted":"0","num_feature":"38","num_nodes":"15","size_leaf_vector":"1"}},{"base_weights":[-8.956381E-3,-1.2145746E-2,6.875551E-1,-4.536539E-1,-8.000965E-3,1.1286396E0,2.1173513E-2,-3.363778E-2,-1.094973E-1,3.8734846E-2,-1.3316011E-3,1.6759937E-1,5.807913E-2,-5.902962E-2,8.110286E-2],"categories":[],"categories_nodes":[],"categories_segments":[],"categories_sizes":[],"default_left":[0,0,0,0,0,0,0,0,0,0,0,0,0,0,0],"id":54,"left_children":[1,3,5,7,9,11,13,-1,-1,-1,-1,-1,-1,-1,-1],"loss_changes":[1.2000201E1,9.831711E0,7.2137365E0,3.3898897E0,1.1195984E1,3.463831E0,5.707541E0,0E0,0E0,0E0,0E0,0E0,0E0,0E0,0E0],"parents":[2147483647,0,0,1,1,2,2,3,3,4,4,5,5,6,6],"right_children":[2,4,6,8,10,12,14,-1,-1,-1,-1,-1,-1,-1,-1],"split_conditions":[3.043859E0,7.6704484E-1,2.983724E0,1.0950698E-2,7.9713494E-1,6.9384165E-3,2.764066E1,-3.363778E-2,-1.094973E-1,3.8734846E-2,-1.3316011E-3,1.6759937E-1,5.807913E-2,-5.902962E-2,8.110286E-2],"split_indices":[13,18,7,19,18,19,9,0,0,0,0,0,0,0,0],"split_type":[0,0,0,0,0,0,0,0,0,0,0,0,0,0,0],"sum_hessian":[5.3972607E3,5.373637E3,2.3623617E1,4.8968674E1,5.3246685E3,1.3797339E1,9.826278E0,4.268712E1,6.2815576E0,6.96813E1,5.254987E3,5.871703E0,7.9256363E0,5.6809773E0,4.145301E0],"tree_param":{"num_deleted":"0","num_feature":"38","num_nodes":"15","size_leaf_vector":"1"}},{"base_weights":[-4.2572916E-3,-2.4715682E-2,9.590084E-2,1.7686144E-2,-9.759592E-2,2.1188824E-1,-1.1667681E-1,-1.164304E-3,2.1990802E-2,5.0330307E-2,-1.1650597E-2,1.4537863E-1,1.735271E-2,-3.50773E-2,1.6441112E-2],"categories":[],"categories_nodes":[],"categories_segments":[],"categories_sizes":[],"default_left":[0,0,0,0,0,0,0,0,0,0,0,0,0,0,0],"id":55,"left_children":[1,3,5,7,9,11,13,-1,-1,-1,-1,-1,-1,-1,-1],"loss_changes":[1.1071792E1,1.3866664E1,2.2622066E1,1.6830437E1,1.8812069E1,2.8013634E1,2.138909E1,0E0,0E0,0E0,0E0,0E0,0E0,0E0,0E0],"parents":[2147483647,0,0,1,1,2,2,3,3,4,4,5,5,6,6],"right_children":[2,4,6,8,10,12,14,-1,-1,-1,-1,-1,-1,-1,-1],"split_conditions":[6.1925938E1,1.2554799E-1,6.2636976E0,5.4996216E1,-8.054716E1,6.7989426E1,1.5397929E-2,-1.164304E-3,2.1990802E-2,5.0330307E-2,-1.1650597E-2,1.4537863E-1,1.735271E-2,-3.50773E-2,1.6441112E-2],"split_indices":[0,30,1,0,35,36,19,0,0,0,0,0,0,0,0],"split_type":[0,0,0,0,0,0,0,0,0,0,0,0,0,0,0],"sum_hessian":[5.401157E3,4.4856646E3,9.154927E2,2.836274E3,1.6493907E3,5.923149E2,3.231778E2,2.477843E3,3.5843076E2,4.954051E1,1.5998502E3,1.66423E1,5.7567255E2,1.7619272E2,1.4698508E2],"tree_param":{"num_deleted":"0","num_feature":"38","num_nodes":"15","size_leaf_vector":"1"}},{"base_weights":[-1.5787004E-3,-6.5701725E-3,3.9859927E-1,3.518487E-1,-1.2161829E-2,5.387082E-2,6.371665E-1,1.4944089E-2,8.846577E-2,1.5878027E-2,-2.3426355E-3,-5.313009E-2,3.330181E-2,1.517047E-1,2.9043708E-2],"categories":[],"categories_nodes":[],"categories_segments":[],"categories_sizes":[],"default_left":[0,0,0,0,0,0,0,0,0,0,0,0,0,0,0],"id":56,"left_children":[1,3,5,7,9,11,13,-1,-1,-1,-1,-1,-1,-1,-1],"loss_changes":[1.0794751E1,1.0701066E1,5.441016E0,8.713333E0,1.0125125E1,4.8033404E0,1.1535214E1,0E0,0E0,0E0,0E0,0E0,0E0,0E0,0E0],"parents":[2147483647,0,0,1,1,2,2,3,3,4,4,5,5,6,6],"right_children":[2,4,6,8,10,12,14,-1,-1,-1,-1,-1,-1,-1,-1],"split_conditions":[9.922774E1,1.9141381E0,1.3297162E0,2.7822021E1,2.4048848E3,1.6682451E1,8.7060235E-2,1.4944089E-2,8.846577E-2,1.5878027E-2,-2.3426355E-3,-5.313009E-2,3.330181E-2,1.517047E-1,2.9043708E-2],"split_indices":[32,32,30,9,5,9,17,0,0,0,0,0,0,0,0],"split_type":[0,0,0,0,0,0,0,0,0,0,0,0,0,0,0],"sum_hessian":[5.401882E3,5.336305E3,6.557684E1,8.102107E1,5.255284E3,2.7322206E1,3.825464E1,5.964364E1,2.1377436E1,3.2408685E2,4.9311973E3,8.532458E0,1.8789747E1,9.859445E0,2.8395195E1],"tree_param":{"num_deleted":"0","num_feature":"38","num_nodes":"15","size_leaf_vector":"1"}},{"base_weights":[-1.1156584E-2,-1.530228E-2,5.0665915E-1,-7.801391E-2,1.5425916E-2,-1.1957079E-1,6.810603E-1,1.4098701E-2,-1.8086093E-2,7.632176E-2,1.8313546E-4,3.9507717E-2,-4.7880024E-2,1.378185E-1,3.334672E-2],"categories":[],"categories_nodes":[],"categories_segments":[],"categories_sizes":[],"default_left":[0,0,0,0,0,0,0,0,0,0,0,0,0,0,0],"id":57,"left_children":[1,3,5,7,9,11,13,-1,-1,-1,-1,-1,-1,-1,-1],"loss_changes":[1.1584923E1,1.0312907E1,4.762762E0,3.9665047E1,3.6516693E1,2.0726044E0,7.700591E0,0E0,0E0,0E0,0E0,0E0,0E0,0E0,0E0],"parents":[2147483647,0,0,1,1,2,2,3,3,4,4,5,5,6,6],"right_children":[2,4,6,8,10,12,14,-1,-1,-1,-1,-1,-1,-1,-1],"split_conditions":[2.556355E0,2.651386E3,1.1479884E0,9.395935E-1,2.7182693E3,1.0701429E0,7.033328E-3,1.4098701E-2,-1.8086093E-2,7.632176E-2,1.8313546E-4,3.9507717E-2,-4.7880024E-2,1.378185E-1,3.334672E-2],"split_indices":[13,5,18,18,5,18,19,0,0,0,0,0,0,0,0],"split_type":[0,0,0,0,0,0,0,0,0,0,0,0,0,0,0],"sum_hessian":[5.3919907E3,5.3501274E3,4.1863323E1,1.7589125E3,3.5912148E3,9.187554E0,3.267577E1,5.619447E2,1.1969677E3,6.3136635E1,3.5280781E3,3.7357554E0,5.451799E0,9.885234E0,2.2790535E1],"tree_param":{"num_deleted":"0","num_feature":"38","num_nodes":"15","size_leaf_vector":"1"}},{"base_weights":[-1.5827201E-2,-8.239507E-2,1.6449256E-2,1.293713E-1,-1.6169773E-1,5.213088E-1,6.5879477E-3,-7.157941E-2,1.7168147E-2,2.3116358E-3,-2.2295846E-2,-1.5564658E-2,1.7573182E-1,2.8263468E-3,-1.4876773E-2],"categories":[],"categories_nodes":[],"categories_segments":[],"categories_sizes":[],"default_left":[0,0,0,0,0,0,0,0,0,0,0,0,0,0,0],"id":58,"left_children":[1,3,5,7,9,11,13,-1,-1,-1,-1,-1,-1,-1,-1],"loss_changes":[1.1584121E1,2.9586172E1,1.8075775E1,1.7294767E1,1.4511761E1,5.847567E1,1.2001774E1,0E0,0E0,0E0,0E0,0E0,0E0,0E0,0E0],"parents":[2147483647,0,0,1,1,2,2,3,3,4,4,5,5,6,6],"right_children":[2,4,6,8,10,12,14,-1,-1,-1,-1,-1,-1,-1,-1],"split_conditions":[2.651386E3,9.235824E-1,2.7182693E3,1.4592754E0,2.1426044E-14,7.015474E1,3.6246418E1,-7.157941E-2,1.7168147E-2,2.3116358E-3,-2.2295846E-2,-1.5564658E-2,1.7573182E-1,2.8263468E-3,-1.4876773E-2],"split_indices":[5,18,5,6,37,32,9,0,0,0,0,0,0,0,0],"split_type":[0,0,0,0,0,0,0,0,0,0,0,0,0,0,0],"sum_hessian":[5.389906E3,1.7595035E3,3.630402E3,4.7921017E2,1.2802933E3,6.855962E1,3.5618425E3,2.2087343E1,4.5712283E2,3.1888617E2,9.6140717E2,4.4862667E1,2.3696957E1,3.1264521E3,4.3539047E2],"tree_param":{"num_deleted":"0","num_feature":"38","num_nodes":"15","size_leaf_vector":"1"}},{"base_weights":[-6.0020857E-3,4.1819215E-1,-1.0757032E-2,6.5735614E-1,-1.9856216E-1,-2.6756503E-2,6.795747E-2,4.467384E-2,2.2937624E-1,-6.296907E-2,3.5893332E-2,1.3289568E-3,-9.301779E-3,3.7341412E-2,-9.465444E-4],"categories":[],"categories_nodes":[],"categories_segments":[],"categories_sizes":[],"default_left":[0,0,0,0,0,0,0,0,0,0,0,0,0,0,0],"id":59,"left_children":[1,3,5,7,9,11,13,-1,-1,-1,-1,-1,-1,-1,-1],"loss_changes":[1.0877419E1,8.9484415E0,6.7166405E0,1.3901739E1,4.4254627E0,1.1761171E1,2.1310472E1,0E0,0E0,0E0,0E0,0E0,0E0,0E0,0E0],"parents":[2147483647,0,0,1,1,2,2,3,3,4,4,5,5,6,6],"right_children":[2,4,6,8,10,12,14,-1,-1,-1,-1,-1,-1,-1,-1],"split_conditions":[1.1402609E0,4.2566177E3,6.2113132E1,4.0554229E3,4.5434956E3,2.644987E-2,9.581528E1,4.467384E-2,2.2937624E-1,-6.296907E-2,3.5893332E-2,1.3289568E-3,-9.301779E-3,3.7341412E-2,-9.465444E-4],"split_indices":[32,3,0,3,4,23,36,0,0,0,0,0,0,0,0],"split_type":[0,0,0,0,0,0,0,0,0,0,0,0,0,0,0],"sum_hessian":[5.3895845E3,5.878027E1,5.330804E3,4.2308224E1,1.6472048E1,4.4308516E3,8.9995264E2,3.8611618E1,3.6966054E0,9.2157345E0,7.2563133E0,2.7622444E3,1.6686073E3,1.8120833E2,7.187443E2],"tree_param":{"num_deleted":"0","num_feature":"38","num_nodes":"15","size_leaf_vector":"1"}},{"base_weights":[-2.3951721E-3,1.8440557E-1,-1.38582615E-2,5.5051017E-1,1.2505595E-1,-6.239428E-2,3.182644E-2,2.5951853E-2,1.6342108E-1,3.370665E-2,-5.2539664E-3,-5.068324E-3,-7.8741424E-2,2.5208775E-2,-1.3243248E-3],"categories":[],"categories_nodes":[],"categories_segments":[],"categories_sizes":[],"default_left":[0,0,0,0,0,0,0,0,0,0,0,0,0,0,0],"id":60,"left_children":[1,3,5,7,9,11,13,-1,-1,-1,-1,-1,-1,-1,-1],"loss_changes":[1.15359335E1,6.699072E0,1.1256478E1,1.3185289E1,1.0158356E1,2.085885E1,2.5965538E1,0E0,0E0,0E0,0E0,0E0,0E0,0E0,0E0],"parents":[2147483647,0,0,1,1,2,2,3,3,4,4,5,5,6,6],"right_children":[2,4,6,8,10,12,14,-1,-1,-1,-1,-1,-1,-1,-1],"split_conditions":[-1.7330873E2,2.385698E1,3.678505E0,-1.5874612E0,1.9776136E1,4.6183813E3,1.6331121E1,2.5951853E-2,1.6342108E-1,3.370665E-2,-5.2539664E-3,-5.068324E-3,-7.8741424E-2,2.5208775E-2,-1.3243248E-3],"split_indices":[36,0,6,30,9,4,9,0,0,0,0,0,0,0,0],"split_type":[0,0,0,0,0,0,0,0,0,0,0,0,0,0,0],"sum_hessian":[5.3851235E3,3.104813E2,5.074642E3,4.215678E1,2.6832452E2,2.4603591E3,2.6142832E3,3.421024E1,7.946543E0,1.2190204E2,1.4642247E2,2.4223022E3,3.8056866E1,4.4328748E2,2.1709956E3],"tree_param":{"num_deleted":"0","num_feature":"38","num_nodes":"15","size_leaf_vector":"1"}},{"base_weights":[-5.285552E-3,-1.2340719E-1,1.1708688E-2,2.3357189E-1,-1.9772135E-1,3.1675596E-2,-9.008335E-2,7.686188E-2,-1.4832544E-2,-3.9264955E-2,-1.0361365E-2,5.3932695E-3,-1.5085137E-2,3.834929E-3,-2.6661212E-2],"categories":[],"categories_nodes":[],"categories_segments":[],"categories_sizes":[],"default_left":[0,0,0,0,0,0,0,0,0,0,0,0,0,0,0],"id":61,"left_children":[1,3,5,7,9,11,13,-1,-1,-1,-1,-1,-1,-1,-1],"loss_changes":[1.0795132E1,1.7989548E1,9.558733E0,2.4021383E1,1.0238989E1,1.597929E1,1.7496338E1,0E0,0E0,0E0,0E0,0E0,0E0,0E0,0E0],"parents":[2147483647,0,0,1,1,2,2,3,3,4,4,5,5,6,6],"right_children":[2,4,6,8,10,12,14,-1,-1,-1,-1,-1,-1,-1,-1],"split_conditions":[7.395919E-2,1.1698725E1,1.1594038E0,2.5909343E3,2.539992E3,3.6640316E1,3.5833533E3,7.686188E-2,-1.4832544E-2,-3.9264955E-2,-1.0361365E-2,5.3932695E-3,-1.5085137E-2,3.834929E-3,-2.6661212E-2],"split_indices":[17,9,18,5,5,9,5,0,0,0,0,0,0,0,0],"split_type":[0,0,0,0,0,0,0,0,0,0,0,0,0,0,0],"sum_hessian":[5.375982E3,6.753782E2,4.700604E3,1.1600205E2,5.593761E2,3.930341E3,7.702629E2,4.7891846E1,6.811021E1,1.8109537E2,3.7828073E2,3.503797E3,4.265439E2,4.4632446E2,3.2393845E2],"tree_param":{"num_deleted":"0","num_feature":"38","num_nodes":"15","size_leaf_vector":"1"}},{"base_weights":[-8.7424304E-4,-5.6527057E-3,3.0188352E-1,2.6439056E-1,-1.1461601E-2,-3.6636487E-1,5.400703E-1,-7.9674385E-2,4.364266E-2,-4.200209E-2,-3.432727E-4,-5.1953816E-3,-9.6305154E-2,6.4894795E-2,-4.2631015E-2],"categories":[],"categories_nodes":[],"categories_segments":[],"categories_sizes":[],"default_left":[0,0,0,0,0,0,0,0,0,0,0,0,0,0,0],"id":62,"left_children":[1,3,5,7,9,11,13,-1,-1,-1,-1,-1,-1,-1,-1],"loss_changes":[7.8106103E0,8.340087E0,1.3549957E1,2.0786453E1,1.7068518E1,4.1971574E0,6.826191E0,0E0,0E0,0E0,0E0,0E0,0E0,0E0,0E0],"parents":[2147483647,0,0,1,1,2,2,3,3,4,4,5,5,6,6],"right_children":[2,4,6,8,10,12,14,-1,-1,-1,-1,-1,-1,-1,-1],"split_conditions":[2.2832405E2,2.2526787E3,2.5335278E3,1.4267563E1,2.3039258E3,2.5023818E3,3.8096622E1,-7.9674385E-2,4.364266E-2,-4.200209E-2,-3.432727E-4,-5.1953816E-3,-9.6305154E-2,6.4894795E-2,-4.2631015E-2],"split_indices":[36,4,5,9,4,4,9,0,0,0,0,0,0,0,0],"split_type":[0,0,0,0,0,0,0,0,0,0,0,0,0,0,0],"sum_hessian":[5.396674E3,5.313787E3,8.2886826E1,1.10960335E2,5.2028267E3,2.163902E1,6.1247803E1,1.4973167E1,9.598717E1,9.9284744E1,5.103542E3,1.4883536E1,6.7554846E0,5.5341236E1,5.906565E0],"tree_param":{"num_deleted":"0","num_feature":"38","num_nodes":"15","size_leaf_vector":"1"}},{"base_weights":[-3.0717817E-3,-4.445391E-2,3.5891607E-2,-4.8231713E-2,2.382534E-1,1.7967637E-1,-4.8483927E-3,-3.766836E-3,-5.5088867E-2,3.4310635E-2,1.6629084E-3,1.2391465E-2,-7.5144656E-3],"categories":[],"categories_nodes":[],"categories_segments":[],"categories_sizes":[],"default_left":[0,0,0,0,0,0,0,0,0,0,0,0,0],"id":63,"left_children":[1,3,5,7,-1,9,11,-1,-1,-1,-1,-1,-1],"loss_changes":[8.679907E0,2.4050383E1,1.624279E1,1.3824356E1,0E0,1.6307297E1,1.9574354E1,0E0,0E0,0E0,0E0,0E0,0E0],"parents":[2147483647,0,0,1,1,2,2,3,3,5,5,6,6],"right_children":[2,4,6,8,-1,10,12,-1,-1,-1,-1,-1,-1],"split_conditions":[1.0688357E-1,4.8211733E3,5.744019E-3,4.744277E3,2.382534E-1,3.5885461E3,-3.322454E0,-3.766836E-3,-5.5088867E-2,3.4310635E-2,1.6629084E-3,1.2391465E-2,-7.5144656E-3],"split_indices":[17,4,19,4,0,5,2,0,0,0,0,0,0],"split_type":[0,0,0,0,0,0,0,0,0,0,0,0,0],"sum_hessian":[5.3812715E3,2.609568E3,2.7717036E3,2.606491E3,3.0770872E0,6.111932E2,2.1605105E3,2.5538958E3,5.2595272E1,3.0468683E2,3.0650635E2,7.6269836E2,1.3978121E3],"tree_param":{"num_deleted":"0","num_feature":"38","num_nodes":"13","size_leaf_vector":"1"}},{"base_weights":[-2.1228916E-3,-1.1298515E-1,1.6159587E-2,8.171521E-1,-1.3888444E-1,1.5901124E-1,-1.1362929E-2,-5.6678414E-2,1.5847231E-1,1.2514117E-1,-1.5412505E-2,1.3803348E-2,1.6725747E-1,-1.1972566E-2,2.6358915E-3],"categories":[],"categories_nodes":[],"categories_segments":[],"categories_sizes":[],"default_left":[0,0,0,0,0,0,0,0,0,0,0,0,0,0,0],"id":64,"left_children":[1,3,5,7,9,11,13,-1,-1,-1,-1,-1,-1,-1,-1],"loss_changes":[1.087387E1,1.840953E1,1.8109173E1,2.2908493E1,1.5867842E1,2.3393757E1,1.579167E1,0E0,0E0,0E0,0E0,0E0,0E0,0E0,0E0],"parents":[2147483647,0,0,1,1,2,2,3,3,4,4,5,5,6,6],"right_children":[2,4,6,8,10,12,14,-1,-1,-1,-1,-1,-1,-1,-1],"split_conditions":[2.2326522E0,-1.1017629E0,2.81796E0,1.12514476E-13,-6.3961947E-1,8.2088834E-1,3.6129138E0,-5.6678414E-2,1.5847231E-1,1.2514117E-1,-1.5412505E-2,1.3803348E-2,1.6725747E-1,-1.1972566E-2,2.6358915E-3],"split_indices":[6,30,6,37,24,24,6,0,0,0,0,0,0,0,0],"split_type":[0,0,0,0,0,0,0,0,0,0,0,0,0,0,0],"sum_hessian":[5.363045E3,7.584904E2,4.6045547E3,1.9720072E1,7.387704E2,7.4305536E2,3.861499E3,7.12865E0,1.2591422E1,7.1311846E0,7.3163916E2,7.3397375E2,9.081567E0,9.965519E2,2.8649473E3],"tree_param":{"num_deleted":"0","num_feature":"38","num_nodes":"15","size_leaf_vector":"1"}},{"base_weights":[7.358351E-3,1.2773741E-2,-2.9143113E-1,8.5770525E-3,4.11176E-1,-6.00915E-1,1.3776806E-1,-1.799739E-3,6.5947757E-3,2.6032165E-1,7.091371E-3,-2.7813107E-2,-9.824515E-2,7.002439E-2,-7.687694E-2],"categories":[],"categories_nodes":[],"categories_segments":[],"categories_sizes":[],"default_left":[0,0,0,0,0,0,0,0,0,0,0,0,0,0,0],"id":65,"left_children":[1,3,5,7,9,11,13,-1,-1,-1,-1,-1,-1,-1,-1],"loss_changes":[8.7245035E0,8.848987E0,1.2832806E1,7.9908066E0,4.096512E1,6.618231E0,2.1459251E1,0E0,0E0,0E0,0E0,0E0,0E0,0E0,0E0],"parents":[2147483647,0,0,1,1,2,2,3,3,4,4,5,5,6,6],"right_children":[2,4,6,8,10,12,14,-1,-1,-1,-1,-1,-1,-1,-1],"split_conditions":[4.7384595E3,4.709627E3,2.1251426E0,9.2171104E1,1.3701975E1,4.7897915E3,1.893639E-1,-1.799739E-3,6.5947757E-3,2.6032165E-1,7.091371E-3,-2.7813107E-2,-9.824515E-2,7.002439E-2,-7.687694E-2],"split_indices":[5,5,1,37,9,4,23,0,0,0,0,0,0,0,0],"split_type":[0,0,0,0,0,0,0,0,0,0,0,0,0,0,0],"sum_hessian":[5.3886465E3,5.293659E3,9.4987335E1,5.2394893E3,5.4170193E1,5.495831E1,4.0029026E1,3.5812976E3,1.6581915E3,6.3851447E0,4.778505E1,3.0707996E1,2.4250313E1,2.4842596E1,1.5186431E1],"tree_param":{"num_deleted":"0","num_feature":"38","num_nodes":"15","size_leaf_vector":"1"}},{"base_weights":[7.99941E-3,-9.07529E-3,1.1225799E-1,-1.2462099E-2,1.5978875E0,2.5570282E-1,-1.22495465E-1,5.7261493E-2,-1.893742E-3,-3.6283474E-2,3.4979218E-1,4.6263743E-2,-5.66385E-4,-3.712879E-2,1.073311E-2],"categories":[],"categories_nodes":[],"categories_segments":[],"categories_sizes":[],"default_left":[0,0,0,0,0,0,0,0,0,0,0,0,0,0,0],"id":66,"left_children":[1,3,5,7,9,11,13,-1,-1,-1,-1,-1,-1,-1,-1],"loss_changes":[9.575425E0,2.517712E1,2.5520744E1,1.7489952E1,3.7515125E1,2.5432133E1,1.6494452E1,0E0,0E0,0E0,0E0,0E0,0E0,0E0,0E0],"parents":[2147483647,0,0,1,1,2,2,3,3,4,4,5,5,6,6],"right_children":[2,4,6,8,10,12,14,-1,-1,-1,-1,-1,-1,-1,-1],"split_conditions":[6.2664237E0,4.8211733E3,3.5501762E1,-8.31213E0,2.6669724E0,-3.901695E-1,1.7992644E-2,5.7261493E-2,-1.893742E-3,-3.6283474E-2,3.4979218E-1,4.6263743E-2,-5.66385E-4,-3.712879E-2,1.073311E-2],"split_indices":[6,4,9,2,2,2,19,0,0,0,0,0,0,0,0],"split_type":[0,0,0,0,0,0,0,0,0,0,0,0,0,0,0],"sum_hessian":[5.3773247E3,4.621382E3,7.559428E2,4.6126523E3,8.72931E0,4.6916986E2,2.8677295E2,4.953454E1,4.563118E3,4.694206E0,4.0351033E0,2.6142166E2,2.0774821E2,1.3740906E2,1.493639E2],"tree_param":{"num_deleted":"0","num_feature":"38","num_nodes":"15","size_leaf_vector":"1"}},{"base_weights":[9.932413E-4,-2.936691E-1,5.0471528E-3,-7.735832E-1,-4.847377E-2,9.6626714E-2,-9.743975E-3,-8.787002E-2,-1.6956286E-3,6.8013586E-2,-4.8357885E-2,-8.588547E-3,2.5779366E-2,-3.0715836E-4,-4.079071E-2],"categories":[],"categories_nodes":[],"categories_segments":[],"categories_sizes":[],"default_left":[0,0,0,0,0,0,0,0,0,0,0,0,0,0,0],"id":67,"left_children":[1,3,5,7,9,11,13,-1,-1,-1,-1,-1,-1,-1,-1],"loss_changes":[6.406433E0,8.527136E0,7.166718E0,1.9372606E0,1.593863E1,2.1662512E1,1.2101081E1,0E0,0E0,0E0,0E0,0E0,0E0,0E0,0E0],"parents":[2147483647,0,0,1,1,2,2,3,3,4,4,5,5,6,6],"right_children":[2,4,6,8,10,12,14,-1,-1,-1,-1,-1,-1,-1,-1],"split_conditions":[1.4830436E0,-6.139745E-2,3.6273587E-3,2.2556675E1,5.3563976E1,-6.001652E-1,4.7384595E3,-8.787002E-2,-1.6956286E-3,6.8013586E-2,-4.8357885E-2,-8.588547E-3,2.5779366E-2,-3.0715836E-4,-4.079071E-2],"split_indices":[6,24,19,9,33,29,5,0,0,0,0,0,0,0,0],"split_type":[0,0,0,0,0,0,0,0,0,0,0,0,0,0,0],"sum_hessian":[5.3608774E3,7.178354E1,5.289094E3,2.354486E1,4.8238678E1,7.346933E2,4.554401E3,2.053116E1,3.0136998E0,1.7825558E1,3.041312E1,3.4475055E2,3.8994275E2,4.4803276E3,7.407332E1],"tree_param":{"num_deleted":"0","num_feature":"38","num_nodes":"15","size_leaf_vector":"1"}},{"base_weights":[-6.6510397E-3,-3.7983194E-2,7.2710246E-2,1.8933688E-1,-5.3892773E-2,2.6037204E-1,3.836702E-3,-1.1712611E-3,5.2588213E-2,-5.0158303E-2,-4.2675044E-3,-3.261046E-2,3.9120656E-2,-2.4689002E-2,5.5176388E-3],"categories":[],"categories_nodes":[],"categories_segments":[],"categories_sizes":[],"default_left":[0,0,0,0,0,0,0,0,0,0,0,0,0,0,0],"id":68,"left_children":[1,3,5,7,9,11,13,-1,-1,-1,-1,-1,-1,-1,-1],"loss_changes":[1.339119E1,1.3973495E1,1.9701668E1,1.7108706E1,1.8104046E1,3.1529701E1,1.4380897E1,0E0,0E0,0E0,0E0,0E0,0E0,0E0,0E0],"parents":[2147483647,0,0,1,1,2,2,3,3,4,4,5,5,6,6],"right_children":[2,4,6,8,10,12,14,-1,-1,-1,-1,-1,-1,-1,-1],"split_conditions":[3E0,2.4048848E3,2.6927116E0,2.3039258E3,2.4225684E3,2.457628E3,1.1770512E-10,-1.1712611E-3,5.2588213E-2,-5.0158303E-2,-4.2675044E-3,-3.261046E-2,3.9120656E-2,-2.4689002E-2,5.5176388E-3],"split_indices":[21,5,6,4,5,5,37,0,0,0,0,0,0,0,0],"split_type":[0,0,0,0,0,0,0,0,0,0,0,0,0,0,0],"sum_hessian":[5.383317E3,3.8599246E3,1.5233923E3,2.5176349E2,3.608161E3,4.082476E2,1.1151448E3,1.582133E2,9.3550186E1,8.713076E1,3.5210303E3,7.41904E1,3.340572E2,1.8888438E2,9.262603E2],"tree_param":{"num_deleted":"0","num_feature":"38","num_nodes":"15","size_leaf_vector":"1"}}]},"name":"gbtree"},"learner_model_param":{"base_score":"1.53732E-1","boost_from_average":"1","num_class":"0","num_feature":"38","num_target":"1"},"objective":{"name":"binary:logistic","reg_loss_param":{"scale_pos_weight":"1"}}},"version":[2,1,4]}