tree
version=v4
num_class=1
num_tree_per_iteration=1
label_index=0
max_feature_idx=37
objective=binary sigmoid:1
feature_names=rsi macd macd_signal bb_upper bb_middle bb_lower atr volume_ratio momentum adx breakout_up breakout_down price_position body_size upper_wick lower_wick bullish_candle atr_pct volatility_regime bb_width bb_squeeze trend_alignment roc_5 roc_10 roc_20 momentum_alignment volume_trend volume_spike obv_momentum rsi_momentum macd_hist macd_hist_momentum stoch_k stoch_d stoch_cross willr cci mfi
feature_infos=[3.855378735238979:92.615149368415914] [-615.2780581163388:825.58996251525241] [-489.36573680886795:727.0309866072547] [75055.154664635033:124457.96117470771] [74778.500200000126:124080.57712296734] [74424.731056318677:123754.95149819521] [3.1900053123447698:1383.7249522188374] [0:19.999999941394265] [-3388.3760000000038:2998.3369999999995] [5.289836063872019:72.503548198979445] none none none [0:9.7188461124070162] [0:9.0376894193929065] [0:9.3441555559353162] [0:1] [0.0027345227021537714:1.3212580829992109] [0.45959017012571968:5.4827355384808847] [0.00022176572529819286:0.061114291378132408] [0:1] [0:3] [-2.8262639203106232:3.6278568867043059] [-3.1905697928390042:3.8587674811444428] [-3.5055344951983591:4.6929564881492247] [-1:1] none [0:1] none [-47.168022848414516:53.156920606874699] [-310.29009934418843:289.75950403055805] none [-1.3234598602214949e-12:100.00000000000001] [-1.9397816686250735e-12:99.999999999999901] [0:1] [-99.999999999999986:0] [-579.79317828366425:504.60272472013213] [-8.8823942203913749e-09:100.00000000069653]
tree_sizes=3360

Tree=0
num_leaves=31
num_cat=0
split_feature=17 1 17 17 1 37 13 5 13 5 29 19 17 23 2 2 18 5 13 24 1 37 37 37 21 17 3 9 24 9
split_gain=2.48086e+06 348143 252883 206444 109222 86862.9 79801.8 94141.1 71848 79436 57341.8 56055.2 55418.5 53297.9 51135.1 47606 41867.2 41160.5 45277.7 38217.1 55951.5 34977.2 64414.9 33565 32182.7 30876 27885.9 25874.5 25025 24329.5
threshold=0.088997803919097437 75.343559940032733 0.10842459978421469 0.064311919902093354 46.166350022875129 -4.7224091139212625e-11 1.5759702345783075 82997.273365862493 1.4349230399821453 82195.824400010883 -10.727622010303248 0.0077268364455346369 0.054849786008772487 -0.46277809615541393 127.84370801110124 -27.334030653974846 0.95319255023432847 109428.85473987347 0.77124567614315509 0.1273290911771863 31.86024062433717 99.999999999986656 99.949806135515402 99.999999999999162 2.5000000000000004 0.070738195943513521 88639.155383927922 28.548564774493098 1.1019501612653084 14.368604773870592
decision_type=2 2 2 2 2 2 2 2 2 2 2 2 2 2 2 2 2 2 2 2 2 2 2 2 2 2 2 2 2 2
left_child=1 3 4 19 6 15 7 -2 9 -7 -3 17 -12 -9 29 -5 -17 -4 -19 -1 26 22 -14 -22 -10 -23 -21 -20 -16 -6
right_child=2 10 11 5 14 8 -8 13 24 -11 12 -13 21 -15 28 16 -18 18 27 20 23 25 -24 -25 -26 -27 -28 -29 -30 -31
leaf_value=-5.1406691153981967 -3.8570239519482437 -5.2273607892184355 -3.7525012688028836 -5.2273607892184355 -5.2273607892184355 -4.1321781054283608 -3.6246047903880463 -3.9183192308150927 -4.463950888168954 -4.8169974178775377 -5.2273607892184355 -3.538305127594839 -4.1227342679446961 -4.965672615940333 -5.2273607892184355 -5.2273607892184355 -3.6419731223091842 -5.2273607892184355 -5.2273607892184355 -5.2273607892184355 -5.2273607892184355 -4.4971823207133186 -5.2273607892184355 -4.1945283557828672 -3.6521088797859114 -3.6300470584611455 -4.2617203099251872 -3.4812779942800591 -3.4768336050304987 -3.7134208716432582
leaf_weight=170.20019376510754 13.459227031562476 5.1865947633050373 92.539791193325073 2.7837049453519311 1.0834458554163564 18.524801718536764 10.356727508362381 5.6357796997763208 12.07979787606746 197.75685141189024 4.5375999687239519 248.96502258162946 60.10830564936623 35.239793933928013 3.6311526936478904 1.8718940769322241 15.123605086468158 4.1514212479814869 1.061991482041776 3.6204255069606033 26.442515184171501 5.0518264775164452 5.7873172177933148 3.5714747146703294 8.1958778430707753 21.938696869648993 17.189945428166538 4.2251546503975987 1.0536068659275768 52.385038448497653
leaf_count=30265 675 967 3679 519 202 1436 280 317 1335 28799 846 4594 4603 5653 677 349 435 774 198 675 4930 575 1079 299 244 605 1554 54 13 1879
internal_value=-4.29271 -4.73127 -3.75588 -4.84486 -4.14637 -4.65175 -4.42908 -4.58242 -4.70498 -4.75834 -4.20282 -3.61919 -4.14827 -4.82127 -3.83187 -4.01514 -3.81659 -3.81666 -4.44573 -5.06881 -4.82818 -4.09556 -4.21975 -5.10446 -4.13579 -3.79235 -4.42971 -3.832 -4.83367 -3.7441
internal_weight=1053.76 579.971 473.788 477.361 122.845 256.337 64.6915 54.3348 236.557 216.282 102.61 350.943 97.4237 40.8756 58.1532 19.7792 16.9955 101.978 9.43857 221.025 50.8244 92.8861 65.8956 30.014 20.2757 26.9905 20.8104 5.28715 4.68476 53.4685
internal_count=98510 79515 18995 70840 9696 33117 6925 6645 31814 30235 8675 9299 7708 5970 2771 1303 784 4705 1026 37723 7458 6862 5682 5229 1579 1180 2229 252 690 2081
is_linear=0
shrinkage=1


end of trees

feature_importances:
atr_pct=5
mfi=4
macd=3
bb_lower=3
body_size=3
macd_signal=2
adx=2
roc_20=2
bb_upper=1
volatility_regime=1
bb_width=1
trend_alignment=1
roc_10=1
rsi_momentum=1

parameters:
[boosting: gbdt]
[objective: binary]
[metric: binary_logloss]
[tree_learner: serial]
[device_type: cpu]
[data_sample_strategy: bagging]
[data: ]
[valid: ]
[num_iterations: 200]
[learning_rate: 0.01]
[num_leaves: 31]
[num_threads: 0]
[seed: 0]
[deterministic: 0]
[force_col_wise: 0]
[force_row_wise: 0]
[histogram_pool_size: -1]
[max_depth: 6]
[min_data_in_leaf: 30]
[min_sum_hessian_in_leaf: 0.001]
[bagging_fraction: 0.8]
[pos_bagging_fraction: 1]
[neg_bagging_fraction: 1]
[bagging_freq: 1]
[bagging_seed: 3]
[bagging_by_query: 0]
[feature_fraction: 0.8]
[feature_fraction_bynode: 1]
[feature_fraction_seed: 2]
[extra_trees: 0]
[extra_seed: 6]
[early_stopping_round: 0]
[early_stopping_min_delta: 0]
[first_metric_only: 0]
[max_delta_step: 0]
[lambda_l1: 0]
[lambda_l2: 0]
[linear_lambda: 0]
[min_gain_to_split: 0]
[drop_rate: 0.1]
[max_drop: 50]
[skip_drop: 0.5]
[xgboost_dart_mode: 0]
[uniform_drop: 0]
[drop_seed: 4]
[top_rate: 0.2]
[other_rate: 0.1]
[min_data_per_group: 100]
[max_cat_threshold: 32]
[cat_l2: 10]
[cat_smooth: 10]
[max_cat_to_onehot: 4]
[top_k: 20]
[monotone_constraints: ]
[monotone_constraints_method: basic]
[monotone_penalty: 0]
[feature_contri: ]
[forcedsplits_filename: ]
[refit_decay_rate: 0.9]
[cegb_tradeoff: 1]
[cegb_penalty_split: 0]
[cegb_penalty_feature_lazy: ]
[cegb_penalty_feature_coupled: ]
[path_smooth: 0]
[interaction_constraints: ]
[verbosity: -1]
[saved_feature_importance_type: 0]
[use_quantized_grad: 0]
[num_grad_quant_bins: 4]
[quant_train_renew_leaf: 0]
[stochastic_rounding: 1]
[linear_tree: 0]
[max_bin: 255]
[max_bin_by_feature: ]
[min_data_in_bin: 3]
[bin_construct_sample_cnt: 200000]
[data_random_seed: 1]
[is_enable_sparse: 1]
[enable_bundle: 1]
[use_missing: 1]
[zero_as_missing: 0]
[feature_pre_filter: 0]
[pre_partition: 0]
[two_round: 0]
[header: 0]
[label_column: ]
[weight_column: ]
[group_column: ]
[ignore_column: ]
[categorical_feature: ]
[forcedbins_filename: ]
[precise_float_parser: 0]
[parser_config_file: ]
[objective_seed: 5]
[num_class: 1]
[is_unbalance: 1]
[scale_pos_weight: 1]
[sigmoid: 1]
[boost_from_average: 1]
[reg_sqrt: 0]
[alpha: 0.9]
[fair_c: 1]
[poisson_max_delta_step: 0.7]
[tweedie_variance_power: 1.5]
[lambdarank_truncation_level: 30]
[lambdarank_norm: 1]
[label_gain: ]
[lambdarank_position_bias_regularization: 0]
[eval_at: ]
[multi_error_top_k: 1]
[auc_mu_weights: ]
[num_machines: 1]
[local_listen_port: 12400]
[time_out: 120]
[machine_list_filename: ]
[machines: ]
[gpu_platform_id: -1]
[gpu_device_id: -1]
[gpu_use_dp: 0]
[num_gpu: 1]

end of parameters

pandas_categorical:[]
