tree
version=v4
num_class=3
num_tree_per_iteration=3
label_index=0
max_feature_idx=73
objective=multiclass num_class:3
feature_names=rsi macd macd_signal bb_upper bb_middle bb_lower atr volume_ratio momentum adx breakout_up breakout_down price_position body_size upper_wick lower_wick bullish_candle atr_pct volatility_regime bb_width bb_squeeze trend_alignment roc_5 roc_10 roc_20 momentum_alignment volume_trend volume_spike obv_momentum rsi_momentum macd_hist macd_hist_momentum stoch_k stoch_d stoch_cross willr cci mfi roc_60 roc_240 mtf_momentum_align return_5 return_20 return_60 atr_percentile vol_expanding vol_contracting price_percentile_50 price_percentile_100 dist_from_high_50 dist_from_low_50 momentum_accel rsi_accel roc_accel volume_accel hour day_of_week is_us_session is_asia_session strong_trend weak_trend rsi_oversold rsi_overbought bb_oversold bb_overbought bullish_divergence bearish_divergence btc_momentum_5 btc_momentum_15 btc_return_5 btc_rsi btc_volume_ratio btc_macd_hist btc_trend
feature_infos=[9.5590158011269342:90.968786753907523] [-0.68575320023381181:0.77817899305204818] [-0.55908068823334223:0.64800261683280236] [10.513795362863027:30.965292882025381] [10.349040000000112:30.352970500000044] [10.013735920236096:30.018531162931573] [0.0097412622916342208:1.1739125155344534] [0:19.999999999987942] [-3.4899999999999984:2.2487500000000011] [7.2119964190684076:80.069792935934714] none none none [0:8.9448626135326652] [0:10.47259721099342] [0:11.288786716592412] [0:1] [0.073898211892233501:8.7491150775811697] [0.54098945384473618:4.9405881892627379] [0.0024627309890934957:0.20739359318892725] [0:1] [0:3] [-14.302478357911298:14.697349252370939] [-15.246743503175653:15.154679192086462] [-17.642666800744124:16.566809797088666] [-1:1] none [0:1] none [-39.944473588043031:49.585635700650165] [-0.26094980595387168:0.19939571872481993] none [-9.4028488698919931e-13:100.00000000000072] [0.014693703079633379:100.00000000000067] [0:1] [-99.999999999999986:0] [-632.3891694956377:654.87132579508864] [-7.3255532001060061e-09:100.00000000102544] [-20.523774866569621:22.414627960063637] [-28.155627243759142:37.749767130502931] [0:1] none none none [0.01:1] [0:1] [0:1] none none none none [-3.318950000000001:3.1876999999999995] [-39.944473588043031:49.585635700650165] [-16.033375363206314:17.09571221624083] [-19.999999999987942:19.999999999987942] [0:23] [0:6] [0:1] [0:1] [0:1] [0:1] [0:1] [0:1] [0:1] [0:1] none none [-4.8251547561499191:5.2903956005184938] [-5.9540568547569839:7.3911591160583878] [-4.8251547561499191:5.2903956005184938] [8.0124359070263331:93.497523647556235] [0:20.000000000000455] [-498.1791119800456:641.24819741280123] [-1:1]
tree_sizes=3360 3434 3379 3455 3503 3489 3473 3501 3450 3477 3499 3448 3476 3492 3462 3448 3509 3494 3462 3503 3493 3474 3507 3479 3479 3496 3509 3455 3493 3472 3501 3516 3489 3489 3523 3486 3482 3500 3492 3498 3494 3501 3459 3503 3484 3477 3510 3483 3489 3524 3467 3489 3498 3483 3487 3495 3481 3491 3500 3473 3489 3514 3489 3498 3503 3512 3485 3514 3458 3508 3518 3481 3492 3495 3492 3463 3497 3473 3474 3522 3505 3482 3516 3483 3483 3500 3460 3485 3509 3472 3481 3512 3479 3501 3506 3459 3491 3496 3457 3484 3524 3511 3468 3511 3491 3504 3508 3506 3501 3519 3485 3457 3483 3475 3466 3517 3472 3483 3497 3452 3504 3505 3482 3460 3484 3491 3480 3516 3498 3455 3493 3463 3493 3479 3466 3490 3536 3478 3504 3497 3505 3473 3501 3453 3466 3496 3472 3456 3484 3491 3483 3478 3479 3484 3514 3469 3468 3510 3515 3477 3495 3512 3479 3498 3460 3490 3504 3470 3472 3525 3500 3460 3495 3442 3505 3492 3438 3504 3494 3461 3463 3490 3463 3471 3496 3468 3454 3495 3497 3494 3511 3496 3482 3484 3249 3477 3509 3475 3485 3498 3503 3498 3508 3438 3476 3476 3468 3484 3501 3462 3452 3468 3468 3494 3478 3480 3508 3517 3442 3421 3479 3495

Tree=0
num_leaves=31
num_cat=0
split_feature=6 6 6 6 19 6 5 5 6 30 24 1 3 19 18 4 39 6 55 18 38 44 53 38 56 32 2 38 37 22
split_gain=1094.78 233.835 171.451 57.2416 36.3712 32.06 30.0925 28.9897 31.9352 28.2155 27.8655 25.053 29.0341 24.7376 21.2644 19.9709 18.8812 25.3397 18.6051 18.496 20.416 18.3185 17.508 18.7606 16.9185 21.9104 18.8816 15.9999 15.708 15.5746
threshold=0.060558341805512839 0.13406538922665454 0.039486146919080152 0.077113562513229317 0.037044117220770438 0.0282345110658546 29.116140912788513 17.382788991030349 0.048215888514726864 0.023230294479683136 1.3018984586152029 -0.22253893008009837 25.176848522375323 0.028029911245639264 1.1586684775161291 16.733678750000099 -11.574595546514308 0.10173844515929728 21.500000000000004 0.85683761819822768 -3.9666176953839725 0.095000000000000015 0.53104551113131737 -2.2982741364395314 1.0000000180025095e-35 56.203845920250949 -0.14951523670507952 1.4717739823764122 100.0000000000026 0.75389395830104411
decision_type=2 2 2 2 2 2 2 2 2 2 2 2 2 2 2 2 2 2 2 2 2 2 2 2 2 2 2 2 2 2
left_child=2 3 5 4 14 -1 9 8 -4 24 -9 -11 -13 16 15 -2 17 -5 21 -10 -21 -15 -6 -24 25 -3 -26 -8 -20 -7
right_child=1 6 7 13 22 29 27 10 19 11 -12 12 -14 18 -16 -17 -18 -19 28 20 -22 -23 23 -25 26 -27 -28 -29 -30 -31
leaf_value=-1.6290316004504426 -1.5950087028144593 -1.5728977997702906 -1.610621044259356 -1.5173734462245194 -1.5810222122381723 -1.6202102019232096 -1.5564320260318913 -1.6170088648060721 -1.6154501999492146 -1.5015901228095969 -1.5779163471100044 -1.5732643598617038 -1.5460691539317415 -1.5418895838670368 -1.5854771037464077 -1.6059739049193047 -1.5921547933565507 -1.6208195879844101 -1.6129505057557385 -1.5417914122201246 -1.5983726512954981 -1.5814323200206875 -1.593829155541975 -1.4943914051597924 -1.6001974472190801 -1.5347928071810448 -1.5778759541045382 -1.4990565846447073 -1.5195260827004478 -1.5948537581415339
leaf_weight=1448.4201641976833 615.373445302248 212.8468151986599 1416.3242158740759 18.581864818930629 45.368708908557892 2215.3444030880928 30.889333724975586 991.35455423593521 165.54752293229103 16.168635621666908 47.781938105821609 319.51154571771622 141.65655387938023 30.406687885522842 205.60712760686874 1276.839568272233 2572.2610013633966 8.6876251101493818 66.363802924752235 16.168635621666908 1141.4574103057384 796.36563509702682 6.9983646720647839 14.720698103308676 108.83663679659367 45.851354748010635 731.44976969063282 20.029802337288857 4.8264583945274344 62.261313289403915
leaf_count=6002 2550 882 5869 77 188 9180 128 4108 686 67 198 1324 587 126 852 5291 10659 36 275 67 4730 3300 29 61 451 190 3031 83 20 258
internal_value=-1.6022 -1.5884 -1.61561 -1.5932 -1.59959 -1.62322 -1.57169 -1.6081 -1.6054 -1.57292 -1.61521 -1.56277 -1.56491 -1.58924 -1.60075 -1.60241 -1.59172 -1.55033 -1.58209 -1.59982 -1.59758 -1.57998 -1.56335 -1.52643 -1.57732 -1.56614 -1.58077 -1.53386 -1.60662 -1.61952
internal_weight=14794.3 7289.64 7504.66 5662.4 2164.91 3726.03 1627.24 3778.63 2739.5 1576.32 1039.14 477.337 461.168 3497.49 2097.82 1892.21 2599.53 27.2695 897.963 1323.17 1157.63 826.772 67.0878 21.7191 1098.98 258.698 840.286 50.9191 71.1903 2277.61
internal_count=61305 30207 31098 23464 8971 15440 6743 15658 11352 6532 4306 1978 1911 14493 8693 7841 10772 113 3721 5483 4797 3426 278 90 4554 1072 3482 211 295 9438
is_linear=0
shrinkage=1


Tree=1
num_leaves=31
num_cat=0
split_feature=17 17 17 17 17 17 19 5 17 25 3 39 24 17 18 17 23 4 51 23 5 18 3 18 23 13 17 5 19 38
split_gain=2736.48 550.291 368.681 97.4714 77.9081 72.6396 36.9486 35.5774 34.9159 32.1603 30.3877 26.9849 25.9186 25.7316 24.9814 23.9615 20.6976 20.4529 20.1673 17.055 16.762 16.7177 18.8305 16.3985 16.0498 14.6039 14.5106 14.4658 13.2268 12.7643
threshold=0.34673359516819774 0.535813095542786 0.25490700834321939 0.6970264087765865 0.41731256252623267 0.20343066912473382 0.024167960378994515 17.807191796584696 0.31122674623023477 -1.0000000180025095e-35 20.681273704606731 6.2342719124839805 1.4509325389704399 0.93653336483345029 1.1767713806244608 0.14278355337909146 -1.2628973530608654 19.957861250000054 0.11140000000000062 -0.96189152156475599 12.508482820060818 0.89442026692207965 17.027610218173511 1.0252701893507672 0.81777609762033754 1.1680380406421891 0.49026258679158979 14.466849164079486 0.010314275147071384 1.4157498122294834
decision_type=2 2 2 2 2 2 2 2 2 2 2 2 2 2 2 2 2 2 2 2 2 2 2 2 2 2 2 2 2 2
left_child=2 4 5 7 10 15 28 9 11 29 16 23 -12 20 -7 -1 -2 -18 19 -17 -8 22 -6 -4 -10 -11 -23 -13 -5 -3
right_child=1 3 8 6 21 14 13 -9 24 25 12 27 -14 -15 -16 18 17 -19 -20 -21 -22 26 -24 -25 -26 -27 -28 -29 -30 -31
leaf_value=-0.47179853149219803 -0.53610677847219257 -0.55074963427933288 -0.50050236092220757 -0.49257256002349731 -0.51340882253065145 -0.49321751140792247 -0.53089290466012129 -0.5457005618671591 -0.51046894538828913 -0.52522868844084503 -0.52407166688609264 -0.50062624320770344 -0.55250838829457283 -0.56498320838952532 -0.51614732145097209 -0.53533554290060736 -0.51587022859924636 -0.48573545520302919 -0.50735323242927277 -0.48330677953377243 -0.55469523836573953 -0.52915568608626928 -0.53014512024856497 -0.50801357453674201 -0.52378253513655582 -0.55687968424143341 -0.53709888115701698 -0.53251147085676898 -0.54261372155393806 -0.51761690002521221
leaf_weight=427.59616836905479 123.76834240555763 253.31013518571854 2227.108482003212 13.711944639682768 299.136897534132 2758.265916466713 80.828305244445801 1207.7336502373219 1903.7952610254288 649.87400779128075 855.914018034935 50.156850129365921 88.405958861112595 766.42553722858429 124.12918305397034 15.876988530158995 2276.5436508357525 57.734503746032715 94.540249884128571 1982.8193630278111 871.06932526826859 1897.6609700024128 383.57360926270485 1078.5526981055737 256.91854166984558 38.609949380159378 824.88172227144241 122.32497981190681 357.23224192857742 32.836499005556107
leaf_count=1185 343 702 6172 38 829 7644 224 3347 5276 1801 2372 139 245 2124 344 44 6309 160 262 5495 2414 5259 1063 2989 712 107 2286 339 990 91
internal_value=-0.515732 -0.533288 -0.498117 -0.547356 -0.524461 -0.488783 -0.555075 -0.539966 -0.50706 -0.532859 -0.51911 -0.503959 -0.526734 -0.558164 -0.494205 -0.482584 -0.516181 -0.515125 -0.484787 -0.48372 -0.552674 -0.529808 -0.522812 -0.502953 -0.512052 -0.527004 -0.531562 -0.523239 -0.540764 -0.546948
internal_weight=22121.3 11079.3 11042.1 4271.63 6807.62 5403.23 2089.27 2182.36 5638.86 974.631 3402.37 3478.14 944.32 1718.32 2882.4 2520.83 2458.05 2334.28 2093.24 1998.7 951.898 3405.25 682.711 3305.66 2160.71 688.484 2722.54 172.482 370.944 286.147
internal_count=61305 30704 30601 11838 18866 14974 5790 6048 15627 2701 9429 9639 2617 4762 7988 6986 6812 6469 5801 5539 2638 9437 1892 9161 5988 1908 7545 478 1028 793
is_linear=0
shrinkage=1


Tree=2
num_leaves=31
num_cat=0
split_feature=17 17 17 21 39 17 30 17 6 39 72 19 9 18 51 38 5 18 3 55 19 19 17 19 70 51 19 6 55 44
split_gain=923.602 232.281 145.967 53.1027 48.8744 37.908 36.3356 33.5494 28.5011 27.3082 25.9525 25.9234 25.5962 22.2662 22.1673 21.5614 20.7609 20.7571 20.5148 19.2724 25.1402 18.4065 15.7336 15.0307 14.2173 13.6303 13.3693 12.7755 12.1392 12.1128
threshold=0.37049188920941356 0.6970264087765865 0.26444246379041286 1.0000000180025095e-35 -15.368995818998341 0.20343066912473382 0.005820648602083125 0.52351159244818535 0.22870636085622109 9.2262143136748644 180.202714042661 0.02378671800574338 16.368564685910243 0.90743211891408837 0.11844999999999752 -2.0103904647439936 21.234836161892389 1.1816584841230753 26.172251545650742 13.500000000000002 0.032950864669977049 0.01070363671240534 0.55877428005120378 0.023168039809577299 30.787045093446508 0.57167500000000004 0.02378671800574338 0.09616208202708118 3.5000000000000004 0.03500000000000001
decision_type=2 2 2 2 2 2 2 2 2 2 2 2 2 2 2 2 2 2 2 2 2 2 2 2 2 2 2 2 2 2
left_child=2 3 5 7 16 14 11 19 25 17 -10 15 21 -14 -1 -6 28 -7 -13 20 -2 -5 -15 27 -9 -8 -23 -4 -3 -29
right_child=1 4 23 12 6 9 8 24 10 -11 -12 18 13 22 -16 -17 -18 -19 -20 -21 -22 26 -24 -25 -26 -27 -28 29 -30 -31
leaf_value=-1.6269438853553435 -1.5787243704982197 -1.5448638203057499 -1.6080371083034188 -1.6107597263607127 -1.544419666758782 -1.6173577768210643 -1.5909444027209685 -1.5539553620688178 -1.5710917740895955 -1.5138498392977091 -1.5111081507361779 -1.5560282253727198 -1.6059368823710858 -1.5981158268568161 -1.5935139975006911 -1.5944036132231298 -1.588334848542335 -1.5936992965855159 -1.5810926426281666 -1.5977209568456843 -1.6146152382035157 -1.5876368508294181 -1.5883871798008746 -1.5974837400209201 -1.5775097798429321 -1.5604585448437394 -1.5645795571351955 -1.6136473029374447 -1.4840119909525922 -1.5234457492630682
leaf_weight=1634.0873502194881 404.54155392944813 12.061465531587599 3842.5416890531778 78.881984576582909 27.017682790756226 2229.9237474799156 384.76075045764446 77.434608712792397 163.79470191895962 6.5131913870573035 20.263262093067169 509.47630405426025 714.52121809124947 1778.8249365985394 51.140613853931427 107.10581392049789 8.9254844933748227 96.732953563332558 97.215412184596062 436.38382293283939 55.482741445302963 602.10835933685303 542.28349030017853 384.03706252574921 371.0106797516346 40.526524186134338 70.197729393839836 6.5131913870573035 25.570306926965714 8.6842551827430707
leaf_count=6774 1677 50 15929 327 112 9244 1595 321 679 27 84 2112 2962 7374 212 444 37 401 403 1809 230 2496 2248 1592 1538 168 291 27 106 36
internal_value=-1.60228 -1.58822 -1.61339 -1.59314 -1.57014 -1.62022 -1.57188 -1.58461 -1.58093 -1.61609 -1.56449 -1.56444 -1.59617 -1.59822 -1.62593 -1.58433 -1.51978 -1.61637 -1.56004 -1.59019 -1.58305 -1.58791 -1.59584 -1.60692 -1.57344 -1.58804 -1.58523 -1.60786 -1.50352 -1.5621
internal_weight=14788.6 6528.39 8260.17 5131.67 1396.72 4018.4 1350.16 1344.85 609.345 2333.17 184.058 740.815 3786.82 3035.63 1685.23 134.123 46.5573 2326.66 606.692 896.408 460.024 751.188 2321.11 4241.78 448.445 425.287 672.306 3857.74 37.6318 15.1974
internal_count=61305 27063 34242 21273 5790 16658 5597 5575 2526 9672 763 3071 15698 12584 6986 556 193 9645 2515 3716 1907 3114 9622 17584 1859 1763 2787 15992 156 63
is_linear=0
shrinkage=1


Tree=3
num_leaves=31
num_cat=0
split_feature=17 6 17 17 0 17 5 39 3 38 3 17 4 30 23 39 70 30 68 4 39 3 70 2 18 70 2 39 38 70
split_gain=1036.34 201.425 146.638 59.7665 31.7866 27.9726 25.7939 27.4678 25.3272 21.3736 26.7031 21.0887 28.324 23.173 20.9824 20.7602 20.6553 20.0059 19.7496 16.7576 16.6379 29.4887 16.3395 15.2967 15.0036 14.8386 14.7591 13.8652 13.0977 12.9182
threshold=0.34514011649733012 0.13406538922665454 0.25490700834321939 0.44023605997635473 71.302675358927218 0.2015258231032834 24.079473768284881 -7.4748338357708048 14.013511929587613 1.1284996167704844 24.681949867758277 0.30445232582308118 13.860293750000123 0.025351185378847816 -1.0518747683987804 0.66169332184241603 42.645702712105013 0.0016693866488293717 0.54618632847703863 25.516097500000047 12.823153254294853 21.079113702801042 41.045965842401337 0.085359540544637694 0.77353339525252218 80.254373021658736 0.13154425476395828 -9.7329528011251742 -1.9695940247380248 37.635931464028239
decision_type=2 2 2 2 2 2 2 2 2 2 2 2 2 2 2 2 2 2 2 2 2 2 2 2 2 2 2 2 2 2
left_child=2 3 5 17 20 -1 7 8 28 10 -8 12 -4 19 -10 -9 -12 27 -6 -14 23 -22 -11 -5 -24 29 -20 -2 -3 -19
right_child=1 6 11 4 18 -7 9 15 14 22 16 -13 13 -15 -16 -17 -18 25 26 -21 21 -23 24 -25 -26 -27 -28 -29 -30 -31
leaf_value=-0.025493060563543418 0.060661457403360236 -0.020907713497456529 -0.020009297785476641 0.01120467706357217 0.018486728683165463 -0.016575347130564098 0.12894692638138933 0.012156534670019502 0.027622390039354225 0.022216524686479236 0.043237808685922183 -0.0022067019535602275 -0.0081621006072888948 0.033772929650741822 0.0598142352980017 0.028324877942454047 0.017131787109591519 0.03173505585613294 0.077308601992408715 0.026368857883982379 0.019984870562304843 0.10650443049645515 0.11948631865048127 0.024752276283100019 0.049941430710297219 0.084424387475817472 -0.00049208000596945474 -0.0006965442867909753 0.068385028924413657 0.0066953362494257722
leaf_weight=1598.8403134793043 9.2635894715785962 23.551550835371021 508.32105852663517 2634.2701573222876 42.984025955200195 1954.1147003769875 6.430893972516059 451.23187272250652 93.946934148669243 55.809950903058052 115.35612452030182 1671.2946897298098 1447.2809243500233 35.113082259893417 109.75025597214699 354.52245318889618 220.78819009661674 53.686411559581757 39.780837804079056 36.008644849061966 42.796001926064491 12.792269498109816 8.033639654517172 226.25585146248341 223.91444045305252 6.3337707072496405 7.1989417225122443 1509.5292371809483 4.9741805642843238 1269.9878348708153
leaf_count=6805 38 95 2136 10768 175 8244 26 1820 380 223 465 6949 6058 146 440 1425 887 221 161 150 175 52 32 922 895 26 29 6230 20 5239
internal_value=0.00015453 0.0131552 -0.0133342 0.00878799 0.0137058 -0.0205883 0.0284818 0.023637 0.0387878 0.0364599 0.0280215 -0.00636467 -0.00979345 -0.00637346 0.0449671 0.0192704 0.0260907 0.00359869 0.0429783 -0.00732382 0.0128027 0.0398952 0.0465058 0.0122762 0.0523502 0.00807624 0.0653868 -0.000322303 -0.00533727 0.00771091
internal_weight=14774.2 7523.19 7250.97 5854.88 3006.08 3552.96 1668.31 1037.98 232.223 630.333 342.575 3698.02 2026.72 1518.4 203.697 805.754 336.144 2848.8 89.9638 1483.29 2916.11 55.5883 287.758 2860.53 231.948 1330.01 46.9798 1518.79 28.5257 1323.67
internal_count=61232 30744 30488 24036 12282 15049 6708 4180 935 2528 1378 15439 8490 6354 820 3245 1352 11754 365 6208 11917 227 1150 11690 927 5486 190 6268 115 5460
is_linear=0
shrinkage=0.05


Tree=4
num_leaves=31
num_cat=0
split_feature=17 6 17 17 6 19 6 25 6 30 17 0 35 5 55 55 52 17 8 22 33 6 1 30 67 0 19 38 17 15
split_gain=2402.95 472.982 336.874 103.786 69.9672 47.768 43.2537 36.3521 30.9582 30.7747 29.1686 20.088 18.6946 17.9266 17.7542 17.1552 18.1155 17.0781 16.42 15.4073 17.5782 14.1876 14.0854 13.3571 13.0414 13.0167 12.7406 12.1998 11.5906 11.5524
threshold=0.34673359516819774 0.12802529135441396 0.25490700834321939 0.43003617876049965 0.02389591830356223 0.026649323194250344 0.047877614678526893 -1.0000000180025095e-35 0.075037207244880541 0.014390986763581469 0.88249001791303383 64.746489232511138 -1.0000000180025095e-35 13.266553739291878 1.5000000000000002 1.0000000180025095e-35 -0.29052886638801562 0.20713319672233879 -0.25682500000000003 1.6421484021315493 88.206906853644782 0.018388102730104862 0.037240610269920545 -0.012743909167189229 -0.41301003265264419 57.610292283286192 0.054949628356512646 -0.9340862394826287 0.50412634790447031 0.90526409151272635
decision_type=2 2 2 2 2 2 2 2 2 2 2 2 2 2 2 2 2 2 2 2 2 2 2 2 2 2 2 2 2 2
left_child=2 3 4 8 21 28 15 13 18 14 26 -10 -8 -5 23 16 25 -16 -2 20 -9 -1 27 -6 -15 -4 -7 -11 -3 -17
right_child=1 5 6 7 9 10 12 19 11 22 -12 -13 -14 24 17 29 -18 -19 -20 -21 -22 -23 -24 -25 -26 -27 -28 -29 -30 -31
leaf_value=0.045126228203393709 -0.029279195521590941 -0.0040399540270723852 -0.012150329230893524 -0.036384489992624669 0.050329678561379744 -0.031259197344632637 0.0046161264275506536 -0.013402355218329118 -0.008511568483582822 -0.017411297628808053 -0.045988886417004812 -0.028800136209787882 -0.0155419736372415 -0.029030449654190646 0.028776366176534014 0.01369530023389804 0.011659487135842144 0.02183587445293058 -0.00054871519647550781 -0.02997534578211963 -0.0015927519003078726 0.032926309689477115 -0.020309665358572943 0.0091448411128560864 -0.016847058214010457 -0.06691479268967758 -0.048666259307670795 0.01878643675643827 -0.026502962153496613 -0.019866785793227003
leaf_weight=342.80544662475586 50.763878524303436 61.763801097869873 38.473935216665268 200.0456101000309 21.140920341014862 881.15179440379143 2758.2606332600117 2740.0809768736362 1183.1797270774841 29.710373193025589 836.10285419225693 136.03086772561073 120.02009242773056 300.67538869380951 1430.3402052223682 2619.8197550773621 65.092656999826431 2330.418870985508 2444.2664607465267 124.62179324030876 356.03961953520775 781.74472084641457 48.878443002700806 286.23634746670723 815.06406825780869 15.112336546182631 119.35746383666992 107.49938523769379 817.72899335622787 25.893102705478668
leaf_count=964 140 170 107 550 59 2416 7661 7556 3269 83 2284 375 333 827 4007 7288 181 6507 6770 343 982 2193 136 800 2245 42 327 300 2245 72
internal_value=7.482e-05 -0.0163828 0.0166003 -0.0104878 0.0255537 -0.0345075 0.00806571 -0.0155989 -0.00440873 0.0226217 -0.039096 -0.0106036 0.00377556 -0.0226015 0.0235312 0.0125326 -0.00606479 0.0244756 -0.00113327 -0.0127381 -0.0120443 0.0366453 0.00273811 0.0119775 -0.0201303 -0.0275949 -0.0333358 0.0109485 -0.0249255 0.0133668
internal_weight=22088.3 11066.9 11021.4 8350.77 5378.77 2716.1 5642.67 4536.53 3814.24 4254.22 1836.61 1319.21 2878.28 1315.79 4068.14 2764.39 118.679 3760.76 2495.03 3220.74 3096.12 1124.55 186.088 307.377 1115.74 53.5863 1000.51 137.21 879.493 2645.71
internal_count=61232 30499 30733 23057 15049 7442 15684 12503 10554 11892 5027 3644 7994 3622 11373 7690 330 10514 6910 8881 8538 3157 519 859 3072 149 2743 383 2415 7360
is_linear=0
shrinkage=0.05


Tree=5
num_leaves=31
num_cat=0
split_feature=17 17 17 0 8 17 17 39 39 67 17 23 17 39 60 24 19 3 59 39 17 68 19 24 68 57 4 17 68 51
split_gain=788.504 169.705 140.29 41.5752 38.6772 33.3975 23.1401 21.6346 23.7423 21.3402 25.0121 20.3805 19.9659 26.1124 23.2497 20.8374 19.4543 18.7897 18.1758 23.2297 18.0665 17.9773 17.8372 17.1771 15.4938 15.0784 14.9035 14.569 13.7309 13.572
threshold=0.37049188920941356 0.6970264087765865 0.26717458378125808 47.315801052528194 -0.24837499999999932 0.20343066912473382 0.93653336483345029 9.5674983270799832 -10.745915306316947 -0.027408684762797449 0.55877428005120378 -1.3371333083839918 0.50047419658724324 -1.4463645194707162 1.0000000180025095e-35 -1.6671033178524861 0.037809048364832371 14.926497785072415 1.0000000180025095e-35 4.1467084372772591 0.97442764657006264 0.63532272412174529 0.032452260427864595 4.5924993537819656 0.23440150496140125 1.0000000180025095e-35 13.201127500000114 0.38188874264811101 -0.51489427802256504 0.12090000000000158
decision_type=2 2 2 2 2 2 2 2 2 2 2 2 2 2 2 2 2 2 2 2 2 2 2 2 2 2 2 2 2 2
left_child=2 3 5 12 7 29 21 8 20 18 24 -4 14 17 22 -15 28 -14 19 -5 -3 23 -2 -6 -11 -18 -10 -16 -8 -1
right_child=1 4 11 9 6 -7 16 -9 26 10 -12 -13 13 15 27 -17 25 -19 -20 -21 -22 -23 -24 -25 -26 -27 -28 -29 -30 -31
leaf_value=-0.023434187288924345 0.0091705953061378392 0.02219527600332406 0.01958635914871619 0.011220269072846688 0.020585971370716653 -0.013438381590419924 0.043436975382529483 0.081231967135216562 0.075058350333331844 0.0040128932598116089 0.012317017248209029 -0.0046229548968055719 0.0089061323916880646 0.024837516401643896 -0.0066833375985417111 0.0020458552738706246 0.026540158910575259 0.033494414769260121 0.0032896205152705086 0.036144085034670155 0.081202671634864443 0.0030061762553582538 -0.012202722160901413 0.083376174441152931 -0.0058162861649325359 0.05080014682093642 0.028319393450445735 0.033378709839935038 0.009851777026957706 0.0033524936208603495
leaf_weight=1610.3127268403769 993.42700004577637 17.822215810418129 88.851682186126709 395.56382444500923 463.25978110730648 2421.3278216719627 40.861180558800697 31.985755249857903 18.316435903310776 761.31104391813278 437.76360526680946 4028.0230927318335 100.13300628960133 161.50047346949577 27.006059855222702 264.56858462095261 110.99762307107449 346.76330523192883 439.87717789411545 122.42041467130184 47.663317814469337 167.44793966412544 108.25339466333389 11.154225513339041 846.94488719105721 151.42799973487854 247.80000655353069 142.11381042003632 119.24399177730083 48.717951774597168
leaf_count=6853 4082 71 368 1625 1871 10181 164 128 73 3136 1790 16773 407 656 111 1078 441 1406 1811 503 187 678 448 45 3489 604 989 582 481 201
internal_value=-0.000266414 0.0126311 -0.0106125 0.00840043 0.0278818 -0.0171827 0.0230724 0.0419612 0.0381732 0.0046044 0.00172087 -0.00410046 0.0137195 0.0195414 0.00972019 0.010685 0.0321589 0.0279851 0.0107637 0.0171108 0.0651435 0.0170909 0.00707041 0.0220623 -0.00116338 0.0405389 0.0315364 0.0269814 0.0184232 -0.0226476
internal_weight=14772.9 6575.63 8197.23 5147.65 1427.98 4080.36 1064.39 363.588 331.602 3003.88 2046.02 4116.87 2143.77 872.965 1270.8 426.069 422.531 446.896 957.861 517.984 65.4855 641.862 1101.68 474.414 1608.26 262.426 266.116 169.12 160.105 1659.03
internal_count=61232 26856 34376 21124 5732 17235 4284 1448 1320 12354 8415 17141 8770 3547 5223 1734 1690 1813 3939 2128 258 2594 4530 1916 6625 1045 1062 693 645 7054
is_linear=0
shrinkage=0.05


Tree=6
num_leaves=31
num_cat=0
split_feature=17 17 17 4 19 17 38 4 0 17 30 37 4 37 56 17 4 18 19 8 52 38 18 19 38 18 4 4 17 55
split_gain=911.328 164.103 139.882 72.5495 36.8974 27.9773 27.3819 21.681 16.642 16.3403 16.2198 20.3047 19.5798 16.0059 15.9154 17.4842 15.6607 15.4235 15.2977 15.129 15.1225 14.9799 14.0983 21.7741 13.9153 13.7024 12.517 12.5006 11.8415 11.7655
threshold=0.34824557408384155 0.44023605997635473 0.25490700834321939 24.251681250000029 0.032950864669977049 0.21069685580895547 2.0801073904978877 13.927155000000107 71.302675358927218 0.30300022066421534 -0.0029182420439770791 100.00000000001016 25.637062500000052 39.990582709869123 1.5000000000000002 0.52351159244818535 25.761136250000074 1.1539572777543146 0.010314275147071384 0.17910000000000095 -19.721248830452929 10.850627267189141 0.91101330958737936 0.035671318209416214 2.8233690799149729 0.86974121063222565 20.305863750000047 24.158735000000018 0.14278355337909146 1.5000000000000002
decision_type=2 2 2 2 2 2 2 2 2 2 2 2 2 2 2 2 2 2 2 2 2 2 2 2 2 2 2 2 2 2
left_child=2 8 5 4 14 28 22 9 25 24 12 26 17 -14 15 -3 -8 -9 -16 -13 -6 -18 23 -5 -4 -2 -12 -22 -1 -7
right_child=1 3 7 6 20 29 16 10 -10 -11 11 19 13 -15 18 -17 21 -19 -20 -21 27 -23 -24 -25 -26 -27 -28 -29 -30 -31
leaf_value=-0.033610624755526661 -0.0072389536515711636 0.0093582436487587434 -0.019785121512140239 0.047381940308865056 0.055034971673886414 -0.0011412052098513244 0.032257513175099888 -0.01088011703745255 0.023111039253804044 -0.004596412948373152 -0.0040441576972536425 0.017758885457294451 0.0097642890414912763 0.087808781104139144 -0.023075191185539762 0.023359477058132162 0.06045067877743221 0.011070326371746111 0.0094524290843914019 0.088669035985138478 0.020633377945024407 0.0094612086602937871 0.020175985538210137 -0.0016767283730429842 0.027658505080894003 0.0032531444621454273 0.0061608166074218589 0.07375960926546303 -0.022344380429348578 -0.016329199182096393
leaf_weight=274.63148747384548 360.15618242323399 411.06087402999401 508.2045381218195 117.33625954389572 33.855924800038338 139.37980295717716 174.76709114015102 1092.9999565631151 95.134602069854736 367.98899231851101 1216.3396663814783 41.28130216896534 29.086147397756577 8.4863192141056043 36.925144270062447 487.30486282706261 125.76755280792713 86.349481537938118 1713.1792703419924 9.1979985982179624 1162.1824053227901 16.267207562923431 485.73529034852982 28.018574655056 15.940052747726439 2288.3114115148783 399.06406219303608 11.179198563098906 1547.1806704998016 1497.4738373309374
leaf_count=1215 1486 1663 2171 462 134 596 681 4585 386 1546 5103 173 120 35 150 1945 484 361 6907 38 4601 63 1914 109 68 9402 1659 44 6737 6427
internal_value=0.00016541 0.0123201 -0.0125162 0.0178921 0.0148454 -0.0197802 0.0302851 -0.00586079 0.00256441 -0.0126724 -0.00375284 -0.00054735 -0.00814093 0.0273918 0.0115431 0.016953 0.0422794 -0.00927295 0.00876613 0.0306797 0.0220901 0.0546109 0.0242641 0.0379254 -0.0183423 0.00182636 -0.00152315 0.0211395 -0.0240427 -0.0150359
internal_weight=14780.8 7547.18 7233.6 4803.58 3855.69 3458.67 947.892 3774.94 2743.6 892.134 2882.8 1665.88 1216.92 37.5725 2648.47 898.366 316.802 1179.35 1750.1 50.4793 1207.22 142.035 631.09 145.355 524.145 2648.47 1615.4 1173.36 1821.81 1636.85
internal_count=61265 30431 30834 19157 15444 14975 3713 15859 11274 3785 12074 6973 5101 155 10665 3608 1228 4946 7057 211 4779 547 2485 571 2239 10888 6762 4645 7952 7023
is_linear=0
shrinkage=0.05


Tree=7
num_leaves=31
num_cat=0
split_feature=17 17 17 6 6 6 6 25 18 6 18 13 55 5 18 67 8 55 55 6 5 4 8 55 6 18 37 70 8 6
split_gain=2168.33 373.692 350.086 99.104 63.8043 43.5414 35.8818 31.3953 31.2026 30.3746 27.3635 25.3076 21.6611 20.8377 17.002 20.7903 16.9322 16.5495 16.2351 16.1152 15.6063 14.4905 14.4802 14.2818 13.5578 13.0413 12.7828 12.574 12.4181 12.1699
threshold=0.35883330310714318 0.50412634790447031 0.25490700834321939 0.12802529135441396 0.02389591830356223 0.048215888514726864 0.075037207244880541 -1.0000000180025095e-35 1.1767713806244608 0.20170363561321794 0.99130530017056406 1.1855480196219756 1.5000000000000002 11.772003910977494 1.0338733104323732 -0.41301003265264419 0.086749999999999453 14.500000000000002 12.500000000000002 0.09616208202708118 28.405873548299656 11.652633750000122 -0.12677500000000028 1.0000000180025095e-35 0.018388102730104862 1.1539572777543146 45.362277019332076 26.245016853849801 0.031062500000000885 0.053232369437491926
decision_type=2 2 2 2 2 2 2 2 2 2 2 2 2 2 2 2 2 2 2 2 2 2 2 2 2 2 2 2 2 2
left_child=2 6 4 7 24 14 10 -3 12 17 28 19 -6 -14 15 -4 20 -5 27 -9 -7 -12 -23 -17 -1 -8 -19 -16 -2 -18
right_child=1 3 5 9 8 16 25 11 -10 -11 21 -13 13 -15 18 23 29 26 -20 -21 -22 22 -24 -25 -26 -27 -28 -29 -30 -31
leaf_value=0.0431071284562368 -0.0022078466574143299 -0.027813231096808957 -0.027100178064824638 -0.033653990067167787 0.0093718277714015738 0.005216812055718216 -0.010294493158556788 -0.0081120582969283969 -0.0011072533397303035 -0.040412679144524816 -0.064017366232820103 -0.038718751859043721 -0.047799943254323893 0.023427334850101997 -0.038906540943277723 -0.01091745275555191 0.0083175852037292181 -0.018486820813459235 -0.0019398364447709563 -0.018287251671546774 -0.04340595090415042 -0.018016619236669033 -0.0052108049464162842 0.015272782434566404 0.031147438298129521 -0.021227005730006864 -0.03100838331858026 0.012402773575531737 0.0077106284138840275 -0.006472335136254447
leaf_weight=341.93182560801506 790.36571905016899 706.77106082439423 30.443721979856491 959.40433585643768 305.00025570392609 2537.9041333496571 2452.214857339859 716.37846091389656 149.12169519066811 909.06065103411674 11.61279648542404 107.48231735825539 10.29668605327606 3719.5109712481499 12.208338141441343 53.541735589504242 176.74813079833984 462.71605789661407 398.91696402430534 851.82691812515259 16.610918194055557 279.98971202969551 1043.3414618372917 1871.6899476647377 771.9568218588829 306.92711406946182 364.2820055782795 544.23690715432167 525.33254781365395 652.81780049204826
leaf_count=978 2184 1929 85 2610 858 7058 6745 1968 417 2459 32 294 29 10498 34 149 491 1259 1113 2334 46 771 2882 5231 2195 843 991 1518 1453 1811
internal_value=-0.000190076 -0.0166635 0.0147128 -0.0264052 0.0241842 0.00674192 -0.0075194 -0.0189754 0.021353 -0.0329722 -0.00336481 -0.0152477 0.0221831 0.0232307 0.0112254 0.0138961 0.00288516 -0.0291859 0.00575827 -0.0136391 0.00490064 -0.00840825 -0.00792025 0.0145444 0.0348187 -0.0115106 -0.0240024 0.0112771 0.00175241 -0.00332118
internal_weight=22080.6 10487.7 11592.9 5077.92 5297.82 6295.12 5409.78 2382.46 4183.93 2695.46 2650.64 1675.69 4034.81 3729.81 2911.04 1955.68 3384.08 1786.4 955.362 1568.21 2554.52 1334.94 1323.33 1925.23 1113.89 2759.14 826.998 556.445 1315.7 829.566
internal_count=61265 28754 32511 13844 14975 17536 14910 6525 11802 7319 7322 4596 11385 10527 8130 5465 9406 4860 2665 4302 7104 3685 3653 5380 3173 7588 2250 1552 3637 2302
is_linear=0
shrinkage=0.05


Tree=8
num_leaves=31
num_cat=0
split_feature=17 17 17 23 0 17 36 18 9 67 17 55 17 9 1 55 8 54 30 39 18 55 9 72 9 5 39 39 4 5
split_gain=739.015 146.623 127.047 43.5506 35.4888 28.5778 21.8695 18.7234 18.5765 24.4334 25.2297 21.4012 18.5514 21.5623 19.6391 17.3177 16.9765 26.1096 20.218 16.7541 16.1204 15.25 15.0054 16.5794 20.1239 15.9175 14.4898 14.0406 14.0071 13.3289
threshold=0.37049188920941356 0.6970264087765865 0.26444246379041286 -1.5333949789862131 47.315801052528194 0.17637061856491734 274.03990161269797 1.2243109554502587 32.126482269988763 -0.053724680131123075 0.55877428005120378 15.500000000000002 0.53994567766583135 19.074499442811657 -0.074729295583545671 13.500000000000002 0.68717499999999998 1.7065721752523442 0.0081744216961254623 -15.368995818998341 0.95487888159285339 20.500000000000004 41.409240849849269 -2.3708984502158503 16.858725523249479 23.989389755240939 6.0798759363027814 -2.0145732156891687 29.552555000000037 11.772003910977494
decision_type=2 2 2 2 2 2 2 2 2 2 2 2 2 2 2 2 2 2 2 2 2 2 2 2 2 2 2 2 2 2
left_child=2 4 5 22 12 -1 7 29 9 11 -11 -6 13 15 -14 -2 18 21 28 -20 -15 -18 23 25 -25 -3 -16 -24 -5 -7
right_child=1 3 -4 16 8 6 -8 -9 -10 10 -12 -13 14 20 26 -17 17 -19 19 -21 -22 -23 27 24 -26 -27 -28 -29 -30 -31
leaf_value=-0.024835428331059117 0.02776331500755988 0.038855711277920445 -0.0040545976523112997 0.028223650766285475 0.022898161136412177 0.047608406752349661 0.074630298026206285 0.011385903858289236 -0.0021770019433840684 0.00087920497063561872 0.016086502783396916 0.0040755260465597269 0.030063712743340784 -0.0024542676401162335 0.016175463122877216 0.0080606086431066187 0.037395293811540498 0.10249047865141328 0.057589617751938195 0.011318066452508338 0.010628425358002368 -0.042857121614988419 0.050051995091092955 0.14901956701053665 0.051041132779691523 0.0063003480691427478 -0.015379414041559888 0.1015221042022259 -0.016926121827124708 -0.01534531736521714
leaf_weight=830.46756984293461 263.18409970402718 160.69492775201797 4196.0284412205219 529.37004870176315 382.67539571225643 8.4319539070129377 6.8867855817079535 67.914807066321373 706.21578425168991 1350.7668778002262 341.74247658252716 249.45520161092281 289.63487994670868 345.4074772298336 315.53350882232189 193.54081554710865 69.156720221042633 15.124340072274206 20.337754458189011 513.45196942985058 739.73459659516811 6.4737515598535529 53.081242114305496 6.2510866820812216 32.424038976430893 48.99386890232563 41.121742069721222 17.657695591449738 17.754281356930733 2955.6686930656433
leaf_count=3633 1061 616 17552 2073 1554 36 29 284 2896 5547 1378 1014 1146 1409 1260 785 267 58 77 2033 3007 25 201 24 124 191 166 68 71 12680
internal_value=0.000118584 0.0123785 -0.0100807 0.026208 0.00842826 -0.0166156 -0.0143693 -0.0145715 0.00492496 0.0070825 0.00394978 0.0154703 0.0132808 0.0103001 0.0203917 0.0194141 0.0217481 0.0425189 0.0200042 0.013081 0.00646412 0.0305259 0.0425836 0.0367972 0.0668775 0.0312491 0.0125372 0.0628998 0.0267585 -0.0151662
internal_weight=14775.2 6709.78 8065.4 1490.77 5219.01 3869.37 3038.9 3032.02 3030.86 2324.64 1692.51 632.131 2188.16 1541.87 646.29 456.725 1171.67 90.7548 1080.91 533.79 1085.14 75.6305 319.103 248.364 38.6751 209.689 356.655 70.7389 547.124 2964.1
internal_count=61265 27051 34214 5828 21223 16662 13029 13000 12389 9493 6925 2568 8834 6262 2572 1846 4604 350 4254 2110 4416 292 1224 955 148 807 1426 269 2144 12716
is_linear=0
shrinkage=0.05


Tree=9
num_leaves=31
num_cat=0
split_feature=6 6 17 17 30 17 6 0 4 39 18 4 0 18 17 39 55 37 37 55 67 2 39 2 37 39 55 68 38 18
split_gain=816.395 138.585 137.45 54.5377 34.4638 33.2645 21.9806 20.5575 19.3164 26.5303 25.0466 20.3276 19.9419 19.3114 19.298 17.5832 16.8088 16.6601 32.2157 16.5937 20.9341 20.7731 16.0929 15.8434 15.5361 14.8888 14.8706 14.4454 13.892 17.0658
threshold=0.061297967219106006 0.13191698042769648 0.25490700834321939 0.44023605997635473 -0.0046261257977782263 0.31122674623023477 0.019333524598392781 71.302675358927218 24.38868375000003 -7.2346089294423539 0.77353339525252218 14.220171250000124 47.083999498092957 0.88056536089647375 0.80114699758356778 -1.0295784949097773 1.0000000180025095e-35 99.850217382449685 9.2142686727998626 8.5000000000000018 0.47350247187152311 0.088505430466521026 12.823153254294853 -0.0064140928957294166 100.00000000000402 5.4403057373133015 3.5000000000000004 0.054173702642368322 2.5275726825443328 0.89176477612507665
decision_type=2 2 2 2 2 2 2 2 2 2 2 2 2 2 2 2 2 2 2 2 2 2 2 2 2 2 2 2 2 2
left_child=2 3 6 4 28 22 -1 17 9 11 -10 -3 27 -7 -14 -11 -17 18 -5 21 -21 -6 -4 -13 25 -9 -19 -12 -2 -30
right_child=1 8 5 7 19 13 -8 24 10 15 12 23 14 -15 -16 16 -18 26 -20 20 -22 -23 -24 -25 -26 -27 -28 -29 29 -31
leaf_value=-0.032826510366515106 -0.0061023619060531081 0.0018946681964253226 -0.010246017571739686 0.0092748615864509248 0.011836980913858118 -0.012231271105352137 -0.017908421793449373 0.074106403816595764 0.094406714052401988 0.0070619757952783751 0.025344837019530837 0.047094130206173618 0.043022613277508323 0.0012524229247759524 0.020938565657328559 0.075960398267375967 0.020047677669260418 0.024980782870420742 0.021570932987558702 0.0020728703311444336 0.038237468319258831 0.053694618152542242 0.08014435844339507 0.015140360380608868 -0.017020284134648785 0.027876495399941054 0.0007967868306584697 7.6958097599064753e-05 -0.015342665838124533 0.026867115671831938
leaf_weight=268.18327189981937 959.17403265833855 42.597484514117241 1948.805237621069 1449.312602236867 561.18026381731033 314.80859427154064 3114.0147649496794 27.776535525918007 14.814938426017759 369.50112053751945 206.26426830887794 166.88946995139122 287.39224126935005 1696.850057721138 150.84429204463959 13.866250604391096 439.10060226917267 73.487577497959137 842.26144602894783 985.73348566889763 41.708517372608185 31.293774828314781 4.9366213083267203 50.539665102958679 11.629399031400679 46.693369388580322 470.72895511984825 77.934815600514412 35.885710805654526 71.975163474678993
leaf_count=1231 3958 166 8321 5773 2303 1317 13735 107 54 1436 789 636 1084 7037 566 53 1688 292 3349 4041 169 126 21 191 45 181 1876 300 148 295
internal_value=0.000130821 0.0118193 -0.0116865 0.00792937 0.00278794 -0.00537075 -0.0190913 0.0126574 0.023809 0.0195577 0.0300511 0.0334789 0.0287314 -0.000857668 0.0354211 0.0151564 0.0217593 0.0119266 0.0137942 0.00738379 0.00354095 0.0140479 -0.0100176 0.0396667 0.0367266 0.0451198 0.00406244 0.0184157 -0.00418922 0.0128238
internal_weight=14776.2 7428.59 7347.6 5608.84 2686.95 3965.4 3382.2 2921.89 1819.75 1082.49 737.251 260.027 722.436 2011.66 438.237 822.468 452.967 2835.79 2291.57 1619.92 1027.44 592.474 1953.74 217.429 86.0993 74.4699 544.217 284.199 1067.03 107.861
internal_count=61288 29626 31662 22663 11040 16696 14966 11623 6963 4170 2793 993 2739 8354 1650 3177 1741 11290 9122 6639 4210 2429 8342 827 333 288 2168 1089 4401 443
is_linear=0
shrinkage=0.05


Tree=10
num_leaves=31
num_cat=0
split_feature=17 17 17 17 17 17 4 17 39 19 17 13 36 8 21 18 44 18 55 4 1 23 5 29 53 35 55 37 44 8
split_gain=1946.26 356.999 296.504 61.4674 54.2327 53.7646 26.8952 26.694 30.656 22.8328 21.637 21.2978 20.4258 18.8583 22.441 17.6124 17.3061 16.4701 16.3229 15.7671 23.4496 15.6981 14.1881 13.442 13.1674 13.13 12.6116 12.5447 12.2713 12.0176
threshold=0.34824557408384155 0.54911755657708838 0.25490700834321939 0.4351228658529544 0.20343066912473382 0.88249001791303383 20.560945000000043 0.30711579415446894 6.2342719124839805 0.026649323194250344 0.14278355337909146 0.64708177214372531 54.924951795034282 0.47204999999999947 1.0000000180025095e-35 1.079061813547421 0.97500000000000009 0.86056298180214974 15.500000000000002 20.305863750000047 0.021084488742259214 -0.96189152156475599 13.175533423809908 5.0633029599630257 0.56266144257514095 -1.0904406256383585 1.0000000180025095e-35 100.00000000000033 0.55500000000000016 -0.013299999999998311
decision_type=2 2 2 2 2 2 2 2 2 2 2 2 2 2 2 2 2 2 2 2 2 2 2 2 2 2 2 2 2 2
left_child=2 3 4 6 10 13 17 8 19 -7 -1 29 -8 14 23 -6 25 -2 -16 -4 -21 -12 -11 -3 -23 26 -9 -10 -14 -5
right_child=1 5 7 11 15 9 12 16 27 22 21 -13 28 -15 18 -17 -18 -19 -20 20 -22 24 -24 -25 -26 -27 -28 -29 -30 -31
leaf_value=0.03908292813691415 0.0091098925647985843 -0.031438331938959001 0.012613087975373466 -0.0144509000144332 0.020275799054947197 -0.019692772201835396 -0.0058048741285280526 -0.012795901983837586 -0.0079867944849943886 -0.022288960382994463 -0.02871836528023184 -0.019182442533991102 -0.013011563885753858 -0.038676176038918882 -0.023123982774646133 0.0092133741196937791 -0.012412086659796737 -0.0027104073060637314 -0.013931272799485915 0.0079933875001736779 -0.020257309305897919 0.02839165068518635 -0.041753282617303662 -0.011602287138353196 0.015334444033759879 -0.013564527225148233 0.0057290225096898592 -0.064829138902673042 -0.031990286976665734 -0.0067883471703346953
leaf_weight=422.15604215860367 334.58034417033195 733.02569684386253 2538.7802911996841 965.89574611186981 2393.7872692644596 174.33244416117668 756.10439234972 95.999743670225143 143.89983388781548 106.12145736813545 12.725441783666609 1036.7427904605865 222.84393352270126 185.46028828620911 1173.7169885635376 423.44381153583527 169.40382847189903 2472.373341858387 820.43875658512115 402.19307100772858 89.86696058511734 1799.202114969492 794.957888007164 96.670086622238159 216.29165127873421 100.23895311355591 2138.1754564642906 10.408394247293471 137.86404007673264 1088.1533822715282
leaf_count=1230 928 1983 7123 2640 6800 472 2079 267 401 286 36 2834 612 501 3187 1196 471 6829 2230 1122 250 5170 2135 262 618 278 5959 29 378 2982
internal_value=-0.000152521 -0.0149095 0.0147967 -0.00806668 0.0233446 -0.0266605 -0.00391259 0.00688194 0.0099186 -0.0362564 0.0287844 -0.0133403 -0.0104753 -0.0232313 -0.022217 0.0186131 0.00301895 -0.00130146 -0.0193419 0.0110254 0.00283385 0.0266409 -0.0394609 -0.0291272 0.0269904 0.00413875 0.00493303 -0.0118209 -0.0202653 -0.0103916
internal_weight=22055.9 11099.3 10956.6 7014.56 5267.61 4084.72 3923.77 5688.97 3185.15 1075.41 2450.38 3090.79 1116.81 3009.31 2823.85 2817.23 2503.82 2806.95 1994.16 3030.84 492.06 2028.22 901.079 829.696 2015.49 2334.41 2234.18 154.308 360.708 2054.05
internal_count=61288 30338 30950 19282 15050 11056 10826 15900 8925 2893 7054 8456 3069 8163 7662 7996 6975 7757 5417 8495 1372 5824 2421 2245 5788 6504 6226 430 990 5622
is_linear=0
shrinkage=0.05


Tree=11
num_leaves=31
num_cat=0
split_feature=6 6 6 68 6 3 5 18 6 38 9 39 2 9 9 39 39 9 38 3 18 20 51 39 32 1 37 8 53 68
split_gain=614.221 134.386 87.4099 37.0441 34.6714 26.847 26.7651 24.7055 22.2061 23.5875 26.7398 22.1768 23.6146 26.9508 20.9455 20.3578 23.1388 20.9006 20.0887 19.4508 19.4016 18.4579 18.1153 17.7861 24.1067 17.528 17.1204 16.9914 16.3373 16.2236
threshold=0.067930656969519346 0.043078058407565421 0.17021709003005175 -0.63493202652285519 0.030455149228720887 13.188887832774155 24.166728761517426 1.1816584841230753 0.090908658741318857 -2.7086349545110848 13.546719455581551 6.5411704099384353 0.00034681536423247116 22.108362763831035 52.312774969727336 1.6828546041964711 -15.368995818998341 23.720590282033079 -2.7735985545237312 13.659805876422228 0.82403937212858092 1.0000000180025095e-35 0.26469999999999866 -1.8376918882431534 89.065732424317574 0.018660906487233401 100.00000000000016 -0.1011999999999995 0.76018345693642531 0.6181800286693574
decision_type=2 2 2 2 2 2 2 2 2 2 2 2 2 2 2 2 2 2 2 2 2 2 2 2 2 2 2 2 2 2
left_child=1 4 3 22 -1 7 15 18 19 -10 -11 -7 13 -13 27 16 -4 -17 28 25 -21 -20 -2 -9 -25 -5 -18 -8 -3 -6
right_child=2 5 6 8 29 11 14 23 9 10 -12 12 -14 -15 -16 17 26 -19 21 20 -22 -23 -24 24 -26 -27 -28 -29 -30 -31
leaf_value=-0.02047108430990351 0.023468930299222892 0.058255496456186898 0.05979511350587137 0.037319051470468372 -0.012026040127114446 -0.0045784573914364347 0.024558763569287104 0.0021602724883586031 0.022479900127585169 0.026841497945727877 0.0071375496998607475 0.080337379970386161 0.0041327456709876311 -0.003835496543379785 0.07426098766250365 0.074802477491857478 0.02600823105536304 0.035907393408349718 -0.005705620534920311 -0.018291473743222257 0.0038595408160546278 0.022429114893498747 -0.0020891679571886971 0.12076996032917441 -0.0047751019333763696 0.0040513986385405142 -0.0048240537837910052 0.0034862704164428057 -0.033355346625043546 0.011312118910105829
leaf_weight=1750.9190188348293 570.78105202317238 28.898369580507278 44.754065603017807 80.38035774230957 2450.6774037033319 3463.576029419899 173.43077559769154 10.156089797616007 372.18865078687668 188.6125363856554 1976.7848090976477 23.766520753502846 185.50506262481213 15.852941259741781 14.443524986505507 46.185114532709122 329.27434000372887 136.97069965302944 199.06243628263474 104.00168479979038 1996.7645675987005 82.437607422471046 78.91687099635601 13.212607577443125 5.3808323740959159 78.029963433742523 52.155308574438095 213.33104485273361 5.852135255932807 76.798666298389435
leaf_count=7772 2231 117 162 321 10547 14520 668 41 1465 751 7904 99 772 66 54 175 1245 516 818 428 8196 339 309 54 22 316 198 832 24 326
internal_value=9.68885e-05 -0.00889013 0.0116659 0.00916001 -0.0150632 -0.00234256 0.0251715 0.0109955 0.00764243 0.0108524 0.00885382 -0.00359006 0.0116166 0.0466573 0.0151433 0.0317743 0.0257831 0.0457153 0.00696131 0.00403691 0.00276292 0.00253367 0.0203645 0.0553725 0.084438 0.020932 0.0217923 0.0129355 0.0428278 -0.0113169
internal_weight=14769.1 8312.1 6457.01 5446.46 4278.4 4033.7 1010.54 345 4796.76 2537.59 2165.4 3688.7 225.125 39.6195 401.205 609.34 426.184 183.156 316.251 2259.18 2100.77 281.5 649.698 28.7495 18.5934 158.41 381.43 386.762 34.7505 2527.48
internal_count=61288 35517 25771 21921 18645 16872 3850 1415 19381 10120 8655 15457 937 165 1554 2296 1605 691 1298 9261 8624 1157 2540 117 76 637 1443 1500 141 10873
is_linear=0
shrinkage=0.05


Tree=12
num_leaves=31
num_cat=0
split_feature=17 6 17 39 6 19 39 39 6 23 20 4 55 70 37 4 37 2 17 4 55 9 55 9 55 39 9 17 30 9
split_gain=748.193 135.234 107.807 26.8144 24.8398 24.5377 23.2424 28.5025 21.9413 21.3714 20.98 19.5566 17.9057 18.4741 17.8484 26.4348 17.6121 22.6721 17.2715 17.2191 17.1327 20.6003 20.4818 16.9355 16.0002 15.2922 15.028 14.7613 14.337 14.0602
threshold=0.34673359516819774 0.10458414197565848 0.25490700834321939 -9.3373068590391934 0.02302868190096596 0.036318557336253575 -1.0295784949097773 -7.4748338357708048 0.1429191446484773 -1.0518747683987804 1.0000000180025095e-35 20.395106250000044 1.5000000000000002 66.290889972560777 0.21324511949945896 25.391962500000044 0.94117182388779919 0.091972324791275997 0.30569124941193981 13.860293750000123 1.0000000180025095e-35 12.892067167759787 11.500000000000002 24.371799794043781 6.5000000000000009 -10.226235402424541 12.542892092540361 0.4555591373097061 -0.019034599392709389 45.903199507085851
decision_type=2 2 2 2 2 2 2 2 2 2 2 2 2 2 2 2 2 2 2 2 2 2 2 2 2 2 2 2 2 2
left_child=2 3 4 10 -1 20 7 8 25 -10 23 18 13 -6 15 27 17 -16 19 -4 21 -5 -22 26 -12 -3 -2 -8 -20 -18
right_child=1 6 11 5 12 -7 14 -9 9 -11 24 -13 -14 -15 16 -17 29 -19 28 -21 22 -23 -24 -25 -26 -27 -28 -29 -30 -31
leaf_value=-0.028101230610381375 -0.034646326662740083 -0.0097783175614112455 -0.018950560218564276 0.11948478699305017 -0.0058827421199556147 0.018923731976439137 -0.027245205418165976 0.0090617802696015669 0.017183550166488214 0.046957461482762371 0.097352165366058507 0.0013332530549037059 -0.017733129376739494 0.063632681770541127 0.036143978840415966 0.032002057034917653 0.027487879048168747 0.12225339199401371 -0.025618555657903413 -0.0079177564557626531 -0.0013201068873547265 0.016027089492780779 0.0059026888807518219 -0.0034790047963733288 0.03233158684156627 0.022853939208855922 0.048068720308117097 0.011365443323744066 -0.0022233625463653514 0.0098644311596617976
leaf_weight=562.55675972998142 6.3451178520917884 59.064826145768166 503.08380855619907 4.9501584917306891 201.06504474580288 281.56788274645805 26.428097829222679 918.84618271887302 104.96694228053093 141.53857451677322 15.355573505163191 713.603988468647 2541.5901480466127 10.034422487020491 27.771544277667999 176.51329050958157 928.25470155477524 10.547332435846327 69.242144748568535 1190.6382104158401 1630.7862845212221 171.86509881913662 2465.2903601378202 57.5562943816185 24.650180444121361 91.548039525747299 40.806627884507179 390.84973645210266 1207.0685989111662 128.88947720825672
leaf_count=2630 25 229 2204 20 886 1098 105 3550 395 519 60 2971 11423 44 106 665 3513 39 292 5115 6601 693 9949 226 96 357 160 1497 5080 486
internal_value=-0.000152434 0.0105977 -0.0119862 0.00530022 -0.0185275 0.00462696 0.0188813 0.0138994 0.0250925 0.0342791 0.026489 -0.00609917 -0.0165709 -0.00257839 0.0227623 0.0157815 0.0265462 0.0598457 -0.00788494 -0.0111948 0.00368486 0.0189235 0.00302705 0.0147214 0.0572887 0.0100568 0.0369379 0.00892006 -0.00349259 0.0253392
internal_weight=14703.3 7704.39 6998.88 4699.17 3315.25 4554.46 3005.22 1315.96 397.118 246.506 144.714 3683.64 2752.69 211.099 1689.25 593.791 1095.46 38.3189 2970.03 1693.72 4272.89 176.815 4096.08 104.708 40.0058 150.613 47.1517 417.278 1276.31 1057.14
internal_count=61034 30389 30645 18928 14983 18361 11461 5050 1500 914 567 15662 12353 930 6411 2267 4144 145 12691 7319 17263 713 16550 411 156 586 185 1602 5372 3999
is_linear=0
shrinkage=0.05


Tree=13
num_leaves=31
num_cat=0
split_feature=17 17 17 17 17 17 17 18 17 39 3 0 30 9 4 3 8 36 4 9 18 29 19 55 0 53 35 19 30 0
split_gain=1737.64 327.508 236.463 55.7416 52.8862 48.544 28.8311 26.7914 25.2388 24.9054 22.8049 23.0541 21.8764 18.1546 17.4355 17.1821 16.3501 14.3639 15.7057 13.8157 13.8014 13.4978 13.491 12.1564 13.0328 12.138 11.7081 11.6239 11.5126 11.3492
threshold=0.34673359516819774 0.55877428005120378 0.25490700834321939 0.44023605997635473 0.93653336483345029 0.2015258231032834 0.30711579415446894 0.94251371814643015 0.13672578662551579 6.2342719124839805 19.138386603827744 36.35099617075997 0.010297035878312523 31.916458542044278 26.148310000000041 15.605105422711356 0.21137499999999856 -6.197951824236517 18.14543125000014 16.045531472197265 1.0708593205531496 10.474543637487423 0.026649323194250344 1.0000000180025095e-35 57.476893644761866 0.56266144257514095 -1.0000000180025095e-35 0.054949628356512646 0.037726210023956541 43.085454301072033
decision_type=2 2 2 2 2 2 2 2 2 2 2 2 2 2 2 2 2 2 2 2 2 2 2 2 2 2 2 2 2 2
left_child=2 3 5 7 10 8 9 28 -1 14 11 -3 -7 -13 21 29 19 -5 -19 -9 -14 -4 -6 24 -8 -10 -25 -12 -2 -11
right_child=1 4 6 17 22 12 23 16 25 15 27 13 20 -15 -16 -17 -18 18 -20 -21 -22 -23 -24 26 -26 -27 -28 -29 -30 -31
leaf_value=0.040368575741549458 0.0021801510128356344 -0.032464330804972213 0.012889540271092546 -0.016157992018465125 -0.021890202650498992 0.019286712318683702 -0.0042048723179648802 -0.01323788578525603 0.026639046591028722 -0.050411637471215409 -0.025139797017129734 -0.019845960338775469 0.011604281939815475 -0.0070846597811458079 -0.037603821161653658 -0.026105469281610161 -0.017070151633332153 -0.0042516131349571423 -0.014272972662337229 -0.00346081181535807 -0.011609609725881948 0.0028713910394339184 -0.038771782916527636 0.0044978722930617016 -0.047219335237911636 0.013878314594781416 -0.014854231873921667 -0.041109777805047501 -0.04478930472030182 0.014263674572214682
leaf_weight=323.29235616326332 1423.5541058778763 219.98213040828705 2629.0300491154194 1498.5402741134167 140.20533707737923 2525.1929675042629 77.773638099431992 441.99742874503136 1789.0595531463623 7.5536652505397788 1485.7710683941841 707.43492451310158 256.38115394115448 459.87013602256775 18.106301426887512 76.648257434368134 332.46508517861366 774.88089120388031 789.13029220700264 1979.5989694595337 85.339747607707977 385.52847111225128 759.10613560676575 2222.9150410592556 22.763750731945038 208.02134361863136 81.005756169557571 123.40616750717163 13.166816025972365 66.494553178548813
leaf_count=962 3932 592 7403 4076 378 7235 216 1217 5212 21 3999 1917 733 1248 50 212 911 2120 2149 5453 241 1084 2030 6203 63 600 224 331 36 186
internal_value=2.53858e-05 -0.0138128 0.0143439 -0.00753235 -0.025506 0.0220315 0.00720729 -0.00378534 0.027408 0.0103287 -0.0223145 -0.0176166 0.01768 -0.0148185 0.0113145 -0.009511 -0.00667282 -0.0126597 -0.00930794 -0.00524535 0.00580696 0.0116083 -0.0361399 0.00307479 -0.0139442 0.0253099 0.00381745 -0.0263645 0.0017497 0.00766614
internal_weight=21924.2 11149.1 10775.1 7253.33 3895.78 5187.29 5587.82 4190.78 2320.37 3183.36 2996.46 1387.29 2866.91 1167.31 3032.66 150.696 2754.06 3062.55 1564.01 2421.6 341.721 3014.56 899.311 2404.46 100.537 1997.08 2303.92 1609.18 1436.72 74.0482
internal_count=61034 30389 30645 19894 10495 14983 15662 11549 6774 8956 8087 3757 8209 3165 8537 419 7581 8345 4269 6670 974 8487 2408 6706 279 5812 6427 4330 3968 207
is_linear=0
shrinkage=0.05


Tree=14
num_leaves=31
num_cat=0
split_feature=17 17 17 17 8 21 9 4 17 56 17 18 39 30 68 55 9 24 55 17 18 19 3 9 68 4 68 51 23 6
split_gain=577.245 151.925 65.9463 31.2369 27.4758 23.2936 20.4779 24.4703 18.9008 24.2416 18.4428 17.8816 26.2901 17.1885 20.8183 17.131 16.8416 16.8289 16.7941 16.6568 16.3495 16.1469 16.0363 15.558 15.3646 14.6745 14.9862 14.6204 13.7309 11.848
threshold=0.33076541411037752 0.6970264087765865 0.20343066912473382 0.50412634790447031 -0.34537499999999882 1.0000000180025095e-35 10.817445582483899 24.322673750000025 0.93653336483345029 1.0000000180025095e-35 0.2773830010438042 1.0833173574855113 4.7379803151020869 -0.0079813452935969392 0.7234612701077171 6.5000000000000009 34.654563348717836 0.126220438776703 22.500000000000004 1.444871402097891 1.2243109554502587 0.03399777878582403 13.174489742582171 13.755556423808821 0.65357303782594978 24.979945000000047 0.094895689531826491 0.12090000000000158 -1.3371333083839918 0.088019862220158646
decision_type=2 2 2 2 2 2 2 2 2 2 2 2 2 2 2 2 2 2 2 2 2 2 2 2 2 2 2 2 2 2
left_child=2 3 27 11 17 -5 7 -7 9 15 20 16 21 19 -15 -6 29 25 -8 -10 -4 -13 -18 -14 -11 26 -3 -1 -12 -2
right_child=1 4 10 5 8 6 18 -9 13 24 28 12 23 14 -16 -17 22 -19 -20 -21 -22 -23 -24 -25 -26 -27 -28 -29 -30 -31
leaf_value=-0.021032237110406457 0.0012420675740129903 0.035237147482507551 -0.011756206925374784 0.019591369690374935 0.02352344362608506 0.086323064812207917 0.0078998809710371844 -0.02739066909493898 0.053575174808108063 0.024223491756570459 0.026440648047658378 0.007851977945110401 0.099356135535974832 0.014531274910605563 0.040286955575610225 -0.011686246632938846 0.019038773021656255 0.069612630874194198 -0.01908123082436039 0.011975820948326749 0.010472748236052438 -0.014115227584950702 -0.0097267446066303422 0.023587376552490932 0.0044973495401574321 0.01103036835312598 0.087721467825961644 0.0080185444209050893 -0.0053703997364581962 0.0081377968125253171
leaf_weight=1491.674602240324 2311.9988152384758 177.66836625337601 2624.2451399415731 551.79915034770966 48.032055422663689 16.666239842772487 1365.4711474627256 6.6063324660062781 95.515497252345085 431.25587007403374 34.471786797046661 811.84488633275032 7.0536742359399787 273.64609178900719 109.99554938077927 123.04049135744572 54.19258140027523 34.739577054977417 60.21716333925724 32.167609453201294 85.411363676190376 93.26232898235321 457.27040304243565 171.53384639322758 128.01673595607281 60.54374435544014 14.728548318147658 44.604667022824287 2127.0678599625826 852.63045613467693
leaf_count=6826 9525 642 11476 2110 183 65 5415 26 351 1639 143 3301 28 1017 404 472 223 126 240 117 357 380 1879 699 497 226 52 191 9005 3419
internal_value=0.000114627 0.00882625 -0.0111563 0.00560687 0.0230577 0.010849 0.00751971 0.0540434 0.0198318 0.0146701 -0.0083077 0.00340335 0.00904778 0.0272044 0.0219158 -0.00180042 0.0017394 0.0369809 0.00676027 0.0430949 -0.0110555 0.00558848 -0.00667886 0.02658 0.0197082 0.0324991 0.039255 -0.0201888 -0.00486308 0.00309995
internal_weight=14697.4 8289.9 6407.48 6760.55 1529.35 2000.76 1448.96 23.2726 1241.67 730.345 4871.2 4759.79 1083.69 511.325 383.642 171.073 3676.09 287.68 1425.69 127.683 2709.66 905.107 511.463 178.588 559.273 252.941 192.397 1536.28 2161.54 3164.63
internal_count=61034 33036 27998 27310 5726 7856 5746 91 4680 2791 20981 19454 4408 1889 1421 655 15046 1046 5655 468 11833 3681 2102 727 2136 920 694 7017 9148 12944
is_linear=0
shrinkage=0.05


Tree=15
num_leaves=31
num_cat=0
split_feature=17 17 17 3 0 1 5 39 44 39 17 70 37 29 37 18 3 44 1 70 5 68 1 0 38 9 39 37 1 9
split_gain=673.914 159.218 69.3587 53.8098 29.223 23.5369 33.663 21.3236 19.1939 18.4053 18.1991 14.6286 14.5107 14.0895 15.8158 14.0737 14.0602 14.0293 17.5738 15.0906 13.61 28.8576 23.1366 13.2681 15.9161 12.4256 12.0721 12.0416 11.6527 18.7339
threshold=0.3167067916755561 0.44023605997635473 0.21252613593274608 24.475138657104377 70.135970591748858 0.056410978658230533 17.980239737134301 -9.3373068590391934 0.85500000000000009 4.2270711540196357 0.59625895058683243 63.465537632932325 100.00000000000007 -5.3904651076872829 100.00000000000782 0.77353339525252218 25.495977084776751 0.16500000000000004 -0.088009390285008302 42.645702712105013 21.981899976747304 0.48647841186021396 0.1021870102027549 46.50408283669838 -4.125322256930807 27.764043878170892 -0.62109849274966089 100.00000000000067 0.029739118059210593 16.368564685910243
decision_type=2 2 2 2 2 2 2 2 2 2 2 2 2 2 2 2 2 2 2 2 2 2 2 2 2 2 2 2 2 2
left_child=2 9 -1 4 7 16 26 10 -9 17 -3 25 -13 14 -11 -5 -4 18 19 -2 22 -22 -19 -17 -25 -8 -7 -28 -15 -30
right_child=1 3 5 15 -6 6 11 8 -10 13 -12 12 -14 28 -16 23 -18 20 -20 -21 21 -23 -24 24 -26 -27 27 -29 29 -31
leaf_value=-0.021679171051345279 0.087463043908622695 0.00077947790867379863 -0.011033792836276354 0.068956045375965211 0.032904642203057909 0.030128498890648156 0.059229341009182292 0.0069229315187713707 0.014840493555665944 -0.019460766647132519 0.027700226531234513 0.098498575049772288 0.0091758013006476916 -0.0086850249840498463 0.072151336177239747 0.016715233413612796 0.012321903547572614 0.0022802835823040445 -0.0048454308977340915 0.003565384357467399 0.0087609709507176069 0.056400699764632717 0.053355563058682401 0.085318467587772936 0.027100272607203865 0.0065818368176738529 -0.021356905871935998 0.043950604815313508 0.063456603953432958 0.0026043675507959694
leaf_weight=1756.278455644846 9.646674647927286 79.255204573273659 3699.7250143140554 17.436778426170349 157.01499402523041 16.134518265724182 14.862115815281866 2235.976243108511 1163.8998406976461 194.31373040378094 301.98594614863396 13.542062699794771 6.8450143188238135 300.31714349985123 4.8282084614038459 415.85948225855827 65.58097368478775 2081.0705853551626 686.05381804704666 12.060970827937124 414.91465823352337 34.425270453095436 22.411451280117035 11.963813096284865 626.9512595385313 45.573557958006859 93.699131578207016 7.6332406848669043 13.272925883531569 268.53834003210068
leaf_count=8243 39 308 16308 59 585 70 62 8672 4474 800 1119 56 28 1239 20 1549 271 8577 2835 49 1680 137 88 43 2286 190 408 33 54 1089
internal_value=2.70778e-05 0.0085163 -0.0134078 0.0144722 0.0117685 -0.0097428 0.00704719 0.0108908 0.0096334 0.00113329 0.0221037 0.0318835 0.0685082 -0.00575955 -0.0172396 0.0244027 -0.010627 0.00278489 -0.00344395 0.0408487 0.00451182 0.0124108 0.00282446 0.0236662 0.0281904 0.0195287 -0.0100414 -0.0164374 -0.0018323 0.00547042
internal_weight=14772.1 9052.2 5719.87 5010.34 3938.13 3963.6 198.29 3781.12 3399.88 4041.85 381.241 80.8228 20.3871 781.27 199.142 1072.21 3765.31 3260.58 707.761 21.7076 2552.82 449.34 2103.48 1054.77 638.915 60.4357 117.467 101.332 582.128 281.811
internal_count=61371 35702 25669 19095 15158 17426 847 14573 13146 16607 1427 336 84 3202 820 3937 16579 13405 2923 88 10482 1817 8665 3878 2329 252 511 441 2382 1143
is_linear=0
shrinkage=0.05


Tree=16
num_leaves=31
num_cat=0
split_feature=17 17 17 6 6 6 6 13 6 19 0 1 55 18 30 29 39 55 0 5 23 53 5 30 70 37 1 18 22 23
split_gain=1527.62 305.403 197.267 85.5288 43.2241 35.5084 31.8945 23.2118 21.8325 21.7895 20.2285 19.147 18.7197 18.4162 15.8003 14.9264 14.7053 14.6493 16.9525 14.3782 13.6708 13.1575 13.1253 12.5968 12.4822 14.8521 13.4113 12.021 18.1184 12.0043
threshold=0.33784973924453371 0.48713575449599883 0.23251449034240132 0.16594352427575679 0.07456603974880853 0.047877614678526893 0.022503426797538875 1.2564644242856486 0.098497637000466473 0.02691765074687941 31.56495117706055 0.05372377253422745 1.0000000180025095e-35 0.89318518230137378 0.015741326012958048 -1.0422859424129098 -0.24736153821796611 1.5000000000000002 46.844816417853345 18.487873014465602 -1.0754330422145795 0.57264303570900854 19.18845946353019 -0.0042226382915314586 34.782806900042644 -9.5900703830713409e-11 -0.091150344000484815 1.0238247395015094 0.083892860338685718 -0.83871617470880333
decision_type=2 2 2 2 2 2 2 2 2 2 2 2 2 2 2 2 2 2 2 2 2 2 2 2 2 2 2 2 2 2
left_child=2 4 6 7 13 12 -1 8 10 -5 -3 27 15 22 17 -4 -14 18 -8 -13 -15 -18 -2 -17 25 -6 -27 28 -7 -19
right_child=1 3 5 9 24 11 14 -9 -10 -11 -12 19 16 20 -16 23 21 29 -20 -21 -22 -23 -24 -25 -26 26 -28 -29 -30 -31
leaf_value=0.031772719829406756 0.0046190046007605927 -0.035658341696076144 -0.021291052027634788 -0.019791009341901061 -0.048590068319610144 0.011828648963873608 0.023784013907000755 -0.031445084886407605 -0.019004306786631776 -0.034148694569428456 -0.0095641658537840204 0.0071989239954878791 0.0093346628293183003 -0.012854165978985258 -0.0044157682337790452 -0.053343380933422127 0.017753848963327139 0.0026082377024258664 -0.004686891543881873 -0.017117107790872138 -0.001705346465170926 0.0065063719671580259 0.035700115923548222 0.01457792799714458 -0.0085517812206567789 0.0010584236888680166 -0.026692194623798005 -0.00033494468366504596 0.001435886901655536 0.022670554374982433
leaf_weight=810.91199606657028 637.14417609572411 78.835411459207535 74.631073653697968 338.69271463155746 39.911326020956039 1060.2519803345203 96.842683136463165 264.88944488763809 2395.8701496720314 1202.3106152713299 1282.625781327486 93.895467907190323 1822.7964345514774 309.03807613253593 61.849016010761261 7.4422062039375296 1449.5544286966324 76.725378960371017 113.63444650173187 172.44649949669838 2493.8758900165558 316.85553529858589 35.879848957061768 82.488453477621078 2533.808158993721 75.989689290523529 101.9488011598587 629.82939797639847 693.79001998901367 2643.3909967839718
leaf_count=2433 1767 212 210 908 109 2979 280 713 6454 3212 3483 262 5187 847 177 21 4133 222 327 479 6882 900 100 233 6924 207 278 1764 1945 7723
internal_value=-0.000203711 -0.0124631 0.0139575 -0.0209771 -0.00485743 0.00860078 0.022977 -0.0171397 -0.0161312 -0.0309931 -0.0110751 0.00416976 0.0117291 -0.00115119 0.0205935 -0.00476086 0.0124852 0.0211213 0.00841286 -0.0085448 -0.00293457 0.0157363 0.00627598 0.0089571 -0.00953922 -0.0210241 -0.0148411 0.00559032 0.00771792 0.0221047
internal_weight=21998.2 11790.8 10207.3 5563.22 6227.6 6403.98 3803.35 4022.22 3757.33 1541 1361.46 2650.21 3753.77 3475.94 2992.44 164.562 3589.21 2930.59 210.477 266.342 2802.91 1766.41 673.024 89.9307 2751.66 217.85 177.938 2383.87 1754.04 2720.12
internal_count=61371 32096 29275 14982 17114 18113 11162 10862 10149 4120 3695 7429 10684 9596 8729 464 10220 8552 607 741 7729 5033 1867 254 7518 594 485 6688 4924 7945
is_linear=0
shrinkage=0.05


Tree=17
num_leaves=31
num_cat=0
split_feature=17 17 17 70 39 2 37 30 18 55 37 6 39 2 51 37 35 67 8 17 55 37 39 30 68 51 67 2 39 55
split_gain=511.023 111.263 64.512 34.6878 28.2028 21.8425 22.0234 21.4549 21.4059 20.0685 19.3472 17.585 25.2656 17.9473 16.9112 16.5868 16.5008 16.7088 16.4533 16.2525 16.2285 15.4911 14.8149 14.7468 12.8589 16.1918 21.1924 13.4235 13.2003 18.4546
threshold=0.33784973924453371 0.6523299581772104 0.24904215495571605 28.171313608152598 -15.368995818998341 0.01249843779094442 -5.2150694290967543e-10 0.005820648602083125 1.1816584841230753 3.5000000000000004 -1.0874028964278711e-11 0.090908658741318857 -1.9266055789143974 0.063883602427489181 -0.21909999999999916 100.00000000000078 -48.223009801618467 -0.26191252696877715 0.87204999999999899 0.17637061856491734 19.500000000000004 -1.3410808470263247e-11 5.330537556052918 0.020407534964618518 -0.25533633784999282 0.065849999999998424 0.10371034529897961 -0.028580061975407595 -2.4067893800072064 11.500000000000002
decision_type=2 2 2 2 2 2 2 2 2 2 2 2 2 2 2 2 2 2 2 2 2 2 2 2 2 2 2 2 2 2
left_child=2 3 8 5 9 6 -2 10 19 16 22 13 20 14 -5 -14 17 -3 21 -1 -13 -9 -6 -21 28 -26 27 -27 29 -4
right_child=1 4 24 11 7 -7 -8 18 -10 -11 -12 12 15 -15 -16 -17 -18 -19 -20 23 -22 -23 -24 -25 25 26 -28 -29 -30 -31
leaf_value=-0.02245803891962532 0.081774774132104017 -0.00045681623654551438 -0.0015019839521199494 0.017422419357665881 0.03376474268644028 0.088773553657225904 0.01670345874675257 -0.012606462245690189 0.0083050308247789185 0.079963299913829805 0.020269607893958257 0.012166006633219383 0.006340032594786652 -0.0078226885885747839 0.0029304692186759578 -0.011106986117459 -0.044595734912400931 0.099162672426740039 0.037161493472395273 -0.014281877629841042 0.030700290365953384 0.012360758296415995 0.08100834053407853 0.033866449923152887 -0.0091654976407750163 -0.0082826647271024272 -0.0078378076460300806 0.014185196919528681 -0.0038080981647461371 0.029517567394294994
leaf_weight=746.36272868514061 14.063643679022787 8.952883660793308 111.74981686472893 214.6483059823513 122.30232135951519 12.946012660861014 172.41833558678627 68.426706805825233 92.880998522043228 32.218492358922958 889.19141541421413 587.91756753623486 1344.9469801336527 365.31574350595474 3239.0349332690239 151.57877843081951 7.0697217285633078 7.9440665543079385 60.576632499694824 2220.2697577476501 147.79435460269451 674.84936805069447 19.198952466249466 16.017624631524086 2101.7026979476213 89.297738268971443 466.87918524444103 260.15253552794456 438.56827907264233 83.982532888650894
leaf_count=3534 55 31 478 863 447 51 672 258 402 109 3266 2283 5303 1498 13199 600 25 27 215 10053 576 2548 70 70 9018 382 1992 1110 1877 359
internal_value=0.000276336 0.00866801 -0.0100316 0.00545326 0.0192958 0.0259708 0.0216108 0.0182271 -0.0153332 0.0541902 0.0230023 0.00477707 0.00830259 0.00271638 0.00383115 0.00457287 0.0195432 0.0463791 0.0121044 -0.0160693 0.0158893 0.0100623 0.0401748 -0.013937 -0.00544171 -0.00684426 -0.000868053 0.00844381 0.00101057 0.0118075
internal_weight=14769.3 8141.4 6627.86 6250.66 1890.73 199.428 186.482 1834.55 3075.53 56.1852 1030.69 6051.24 2232.24 3819 3453.68 1496.53 23.9667 16.897 803.853 2982.65 735.712 743.276 141.501 2236.29 3552.33 2918.03 816.329 349.45 634.301 195.732
internal_count=61371 32096 29275 25100 6996 778 727 6804 14059 192 3783 24322 8762 15560 14062 5903 83 58 3021 13657 2859 2806 517 10123 15216 12502 3484 1492 2714 837
is_linear=0
shrinkage=0.05


Tree=18
num_leaves=31
num_cat=0
split_feature=17 17 17 4 19 30 2 4 9 39 39 37 4 39 39 1 18 0 37 18 19 9 9 37 2 34 0 17 35 4
split_gain=586.626 148.29 54.3205 39.1963 27.3198 22.7965 21.6214 20.2388 17.4755 17.1515 15.6018 15.5564 24.8583 15.7745 15.3547 14.4633 14.4166 14.3119 15.0448 13.3522 16.4594 14.7336 13.3467 13.482 12.5655 12.1638 11.7652 11.6315 11.8945 11.5175
threshold=0.3167067916755561 0.44023605997635473 0.21252613593274608 24.251681250000029 0.028598508319562826 0.025351185378847816 0.1415136303974861 26.148310000000041 37.793945372237481 4.3099329648432443 11.958423599362312 49.281356559366394 24.082551250000051 -8.9582237154346913 -0.32883112093134431 -0.018286305187071857 1.0144866795124272 54.77207644246829 100.00000000001408 0.9777756740753859 0.039456665782156092 34.654563348717836 46.575996474465263 100.00000000001845 -0.09825152975511342 1.0000000180025095e-35 80.314187598391229 0.26994388786858442 -15.55143334306352 13.364931250000124
decision_type=2 2 2 2 2 2 2 2 2 2 2 2 2 2 2 2 2 2 2 2 2 2 2 2 2 2 2 2 2 2
left_child=2 9 29 4 22 7 19 10 14 26 16 13 -13 -6 -8 -9 -4 18 24 20 -5 -21 23 -3 -11 -12 -2 -7 -29 -1
right_child=1 3 5 6 11 27 8 15 -10 17 25 12 -14 -15 -16 -17 -18 -19 -20 21 -22 -23 -24 -25 -26 -27 -28 28 -30 -31
leaf_value=-0.02572826293578899 0.00232354325250534 0.010107541291884396 -0.01236256312891848 0.029685914210689248 0.026949072537839677 -0.010414685577301824 0.0020308509968267256 0.0049903723616345676 0.020387482787402742 0.027298354103721747 0.091147186625799015 0.020558917101874883 0.087851141792184659 0.0092798789065102801 0.060614596888560079 0.095407326782684279 -0.0058395241251194543 0.0007607467978152895 0.065021288921562184 0.0093925510301459316 -0.00042450951765634487 0.035315810188522652 -0.0035366569098962009 -0.0098728828730315077 -0.016381927552703967 -0.011653510596203114 0.068487297466121533 -0.032502094071030205 0.047662831186330377 -0.017041310089937499
leaf_weight=580.96092526614666 3292.1186039447784 2056.979750931263 2556.0295061171055 352.0651518702507 150.58673772215843 19.241199791431427 12.911225974559782 10.556533560156824 73.195042490959167 17.293211936950684 6.7686256170272809 726.60352681577206 13.988260000944136 783.77856966853142 83.646712511777878 7.6121981292963019 1266.8663601726294 392.53857949376106 6.0803457200527182 373.26401203870773 52.102579563856125 64.24535346031189 224.08484677970409 88.041331171989441 343.57064060866833 5.0054313540458679 6.7326375395059577 5.3432086408138266 34.529052168130875 1111.685820043087
leaf_count=2838 13508 7943 11413 1272 546 81 46 42 260 70 28 2692 50 2946 289 30 5600 1597 25 1355 185 233 868 341 1429 21 26 22 140 5304
internal_value=0.000189516 0.00801736 -0.0125396 0.0137317 0.01153 -0.00930168 0.0225352 -0.00977446 0.0388134 0.000898936 -0.0100239 0.0164175 0.0218299 0.0121275 0.0527811 0.0428726 -0.0102009 -0.00587544 -0.0129745 0.0192521 0.0258043 0.0131992 0.00807447 0.00928745 -0.0142887 0.0474442 0.00245858 0.0215128 0.0369201 -0.0200229
internal_weight=14718.4 9113.83 5604.6 5055.49 4044.06 3911.95 1011.43 3852.84 169.753 4058.33 3834.67 1674.96 740.592 934.365 96.5579 18.1687 3822.9 759.483 366.944 841.677 404.168 437.509 2369.11 2145.02 360.864 11.7741 3298.85 59.1135 39.8723 1692.65
internal_count=61200 35681 25519 19026 15386 17377 3640 17134 595 16655 17062 6234 2742 3492 335 72 17013 3121 1524 3045 1457 1588 9152 8284 1499 49 13534 243 162 8142
is_linear=0
shrinkage=0.05


Tree=19
num_leaves=31
num_cat=0
split_feature=19 19 19 4 4 56 38 57 19 5 3 39 55 39 9 3 56 44 32 3 44 67 55 39 55 56 9 68 67 5
split_gain=881.308 248.514 104.134 84.5621 44.8461 44.1272 40.5004 40.8202 35.2829 33.5267 33.2336 27.4451 26.7807 24.2476 22.6917 22.3615 22.2007 30.8475 19.9015 17.506 16.293 17.8883 16.189 15.2469 15.1366 14.8152 14.0432 13.8804 13.8407 13.1277
threshold=0.015246427698779588 0.03037780873575566 0.010187300482466841 18.898227500000036 15.165950000000128 4.5000000000000009 -2.7735985545237312 1.0000000180025095e-35 0.045800322397541081 16.769649042415775 13.603928712041309 -3.7361654731498715 15.500000000000002 -3.411805709177484 18.470731136643675 13.683304253882145 4.5000000000000009 0.91500000000000015 64.225602928660649 15.099714237537952 0.58500000000000008 -0.24004692746723008 17.500000000000004 5.330537556052918 16.500000000000004 1.0000000180025095e-35 24.478746014656924 -0.50269002856968548 -0.3855548415138354 25.608427358162903
decision_type=2 2 2 2 2 2 2 2 2 2 2 2 2 2 2 2 2 2 2 2 2 2 2 2 2 2 2 2 2 2
left_child=2 3 5 6 13 9 18 11 14 24 -7 -8 -9 19 -3 -12 17 22 -2 28 26 -22 -6 -17 -1 -5 -11 -15 -4 -18
right_child=1 8 4 25 16 10 7 12 -10 20 15 -13 -14 27 -16 23 29 -19 -20 -21 21 -23 -24 -25 -26 -27 -28 -29 -30 -31
leaf_value=0.011813253215598256 -0.01908940341132331 -0.035301615032451848 -0.034741482452592364 -0.019729632070131224 -0.0019205620414907611 0.030787151632482482 -0.0062913981560793492 -0.012941285349717255 -0.029360579171388835 0.00068995558170972273 -0.048822897028616322 0.0070768796097600804 -0.00061612432238644004 -0.0051876332311151145 -0.016440571178433529 0.018243178006933501 0.0092614587796499073 -0.021953924490818455 0.0057878197097621558 -0.052884201717704707 0.050613733496315594 -0.030713520837471066 0.0075770340568138174 -0.016607194732908663 0.021048650067796507 -0.01025469329944077 0.018767131027206382 0.013705332292231484 0.0038847876203916445 -0.024135046679302583
leaf_weight=1512.772602647543 424.57774871587753 175.07444706559181 25.036116391420364 486.92829632759094 1599.8092297613621 607.44806346297264 474.1723116338253 703.68425837159157 1083.629635900259 516.00996467471123 12.822037696838377 2017.3873737752438 1179.4509216845036 102.23410654067993 1789.0075412988663 1454.7761423885822 933.17783266305923 160.50729793310165 99.171732813119888 15.748734533786772 7.6310297548770896 59.333038687705994 623.55410903692245 32.075750678777695 627.78221181035042 2701.4961297810078 135.68461674451828 1980.8133870661259 314.81045573949814 30.383698165416718
leaf_count=4397 1153 469 69 1320 4452 1831 1308 1934 2899 1459 37 5641 3259 289 4828 4240 2633 441 270 44 21 166 1738 90 1819 7352 386 5688 884 83
internal_value=-9.04737e-05 -0.00995002 0.0101195 -0.00536432 0.00556082 0.0154306 -0.00123929 0.000333814 -0.0221178 0.0113846 0.0209208 0.00453274 -0.00522175 0.0107181 -0.0181218 0.0169244 0.00180367 -0.000785113 -0.0143789 -0.00134895 0.00204039 -0.0214457 0.000743089 0.0174914 0.0145218 -0.0117017 0.00445367 0.0127781 0.00103923 0.00820838
internal_weight=21887 11134.6 10752.4 8086.87 5786.07 4966.34 4898.44 4374.69 3047.71 2859.21 2107.12 2491.56 1883.14 2438.64 1964.08 1499.67 3347.43 2383.87 523.749 355.595 718.659 66.9641 2223.36 1486.85 2140.55 3188.42 651.695 2083.05 339.847 963.562
internal_count=61200 30433 30767 22237 16321 14446 13565 12142 8196 8248 6198 6949 5193 6974 5297 4367 9347 6631 1423 997 2032 187 6190 4330 6216 8672 1845 5977 953 2716
is_linear=0
shrinkage=0.05


Tree=20
num_leaves=31
num_cat=0
split_feature=17 17 17 23 17 56 17 24 3 6 55 3 44 30 18 68 17 68 37 29 68 56 37 18 72 55 21 38 32 24
split_gain=449.245 91.9308 77.938 25.9259 22.9022 22.8395 16.9984 15.8244 15.8153 15.4475 15.4751 25.1736 15.2459 16.3448 14.9558 22.4198 14.5468 14.0999 14.9426 15.0677 13.8979 13.5965 13.5182 14.225 13.5137 13.2249 13.0618 13.0574 12.6239 14.5039
threshold=0.35883330310714318 0.66868477889784772 0.23113722001655121 -1.0518747683987804 0.93653336483345029 1.0000000180025095e-35 0.13672578662551579 -3.1107733907553277 12.608851140854753 0.090908658741318857 14.500000000000002 13.266966745202994 0.15500000000000003 0.000775870280818351 1.1539572777543146 0.2589626766327125 0.28780109588173203 -0.17476346678113039 60.692269762554908 1.3958161984576309 0.023449079150128508 2.5000000000000004 -5.2150694290967543e-10 1.1126265879449402 61.236024793144544 1.0000000180025095e-35 1.0000000180025095e-35 -1.084743381107611 15.223871843723838 0.64567313879663202
decision_type=2 2 2 2 2 2 2 2 2 2 2 2 2 2 2 2 2 2 2 2 2 2 2 2 2 2 2 2 2 2
left_child=2 3 6 22 5 28 -1 27 20 10 11 -5 -6 -14 26 -16 17 18 -4 -20 -8 -9 23 -2 -10 -15 -11 -7 29 -3
right_child=1 4 16 9 12 7 8 21 24 14 -12 -13 13 25 15 -17 -18 -19 19 -21 -22 -23 -24 -25 -26 -27 -28 -29 -30 -31
leaf_value=-0.030743041320597377 0.021172051567544155 0.013568457806902804 -0.0050159475189051391 0.021635805980303714 0.072620890743522515 0.045023162336496787 0.0011785813041619647 0.022456387055709418 -0.015973076541532377 0.014701835055076697 -0.0025241183594097785 0.002547181181890245 0.032535682534442979 -0.038876772686374295 0.028912339500921931 -0.0028532814480664711 -0.0029895163887065719 -0.010644486056098771 0.036580769256824221 -0.0052665053705495098 0.080363488081703266 0.0091162430422055424 0.012123588070522679 0.083797022934061993 0.041456285183312597 0.018611012256886158 0.0036232271219875673 -0.020619846183588628 -0.0043291684437819561 0.095669594438076835
leaf_weight=191.26232776045799 28.070743978023529 46.778622359037399 431.24060744047165 197.84783162176609 16.868343532085419 76.466415375471115 21.684823885560039 380.66037622094154 2062.1460305452347 329.63545367121696 1234.0067077130079 1359.7689957469702 324.45582088828087 10.314123481512068 173.41990703344345 81.72235532104969 2841.1483737081289 1672.5120646357536 47.708463683724403 39.172619119286537 7.443229764699935 383.37270984053612 801.14091271162033 13.39451779425144 10.294613748788832 332.91789376735687 1379.3894202560186 8.4087329208850843 209.93482422828674 6.0782788693904868
leaf_count=954 108 169 1900 791 57 271 101 1412 9636 1257 5006 5494 1124 38 669 320 12044 7387 210 172 34 1425 3087 51 45 1187 5411 30 788 22
internal_value=-5.49739e-05 0.00863867 -0.00883175 0.0054808 0.0184808 0.0140505 -0.0164723 0.0180379 -0.0151736 0.0040486 0.00165832 0.00497181 0.0256755 0.0244895 0.00744585 0.0187378 -0.00535016 -0.00841181 -0.00120468 0.0177128 0.0214131 0.0157626 0.0135644 0.0414018 -0.0156878 0.0168835 0.00576006 0.0385198 0.00116966 0.0230097
internal_weight=14719.3 7394.65 7324.61 5598.4 1796.26 1111.7 2292.83 848.908 2101.57 4755.79 2791.62 1557.62 684.556 667.688 1964.17 255.142 5031.78 2190.63 518.122 86.8811 29.1281 764.033 842.606 41.4653 2072.44 343.232 1709.02 84.8751 262.792 52.8569
internal_count=61200 28717 32483 22194 6523 4117 10770 3138 9816 18948 11291 6285 2406 2349 7657 989 21713 9669 2282 382 135 2837 3246 159 9681 1225 6668 301 979 191
is_linear=0
shrinkage=0.05


Tree=21
num_leaves=31
num_cat=0
split_feature=6 6 6 0 6 39 39 4 18 6 37 30 18 4 39 55 24 6 37 39 1 19 4 1 55 37 39 39 18 37
split_gain=526.542 117.414 68.1246 28.0759 26.8884 23.5918 25.6284 24.3953 21.5238 21.5182 20.2911 19.9813 19.7122 19.4657 19.1179 18.9276 18.354 18.085 17.8956 16.5991 16.4452 16.0118 15.744 16.6342 14.7351 14.3512 16.1257 13.4413 13.7618 12.5987
threshold=0.053895656010680082 0.10458414197565848 0.028891382521520546 71.302675358927218 0.076080795349168603 -0.62109849274966089 -7.2346089294423539 14.220171250000124 1.1816584841230753 0.039759558129118223 0.21324511949945896 0.026109566411173953 0.94137362750294074 12.372085000000139 1.516622721258565 1.0000000180025095e-35 -2.3605477766387213 0.1429191446484773 0.94117182388779919 5.9313826374676095 -0.10284189007616538 0.020593796034424548 14.320391293100107 0.066216254497101459 22.500000000000004 100.00000000002132 11.284911531036736 5.6859246533245598 1.1386308186333702 100.00000000004427
decision_type=2 2 2 2 2 2 2 2 2 2 2 2 2 2 2 2 2 2 2 2 2 2 2 2 2 2 2 2 2 2
left_child=2 3 -1 4 12 6 7 21 -5 22 11 -7 16 -14 24 27 -2 -9 20 -13 -12 -3 23 -4 -6 26 -17 28 -11 -27
right_child=1 5 9 8 14 10 -8 17 -10 15 18 19 13 -15 -16 25 -18 -19 -20 -21 -22 -23 -24 -25 -26 29 -28 -29 -30 -31
leaf_value=-0.021675108391072756 0.072843781650139286 0.053957706165326691 -0.0091710337402161699 0.013136930879662221 0.010911299741536413 0.0076107419109182313 0.0063854483978250075 0.011206953773451388 0.053951492251058511 0.0006546142423288204 -0.014496352947293159 0.018525695938066862 0.034016645222249481 0.0017781466748911794 0.00088549261431227063 -0.0074754491891877708 -0.006358200686126231 0.03385598220960933 0.022203783735921023 0.061677802971505116 0.071572183261730773 -0.016858547689624144 -0.017758936991029529 0.084190792087038141 -0.013178574528564042 0.062717851199634453 0.050888629490083916 0.08249136341809947 0.046036338747241175 0.0047019421946435623
leaf_weight=1322.3921222239733 7.3641985505819312 9.2604796886444074 1111.2812797427177 134.35717672109604 1507.1868816763163 482.68248833715916 1025.1633214503527 138.51188145577908 42.526091948151588 79.852655559778214 6.7060017287731162 73.272843345999718 48.036722078919411 1853.346365109086 940.35393756628036 2394.9934875816107 1088.805291429162 242.3448184132576 1056.8626829981804 32.025692015886307 32.19483095407486 57.817650705575943 864.47061271965504 4.7914968430995932 66.26912385225296 12.954903125762938 11.893729418516157 6.8568199425935736 21.124614343047142 33.701791122555733
leaf_count=6526 29 35 5098 515 5892 1780 3824 522 158 343 24 264 184 7606 3701 10425 4534 845 3804 114 113 214 4051 21 260 55 50 29 89 145
internal_value=-6.96948e-05 0.00763306 -0.0116877 0.0033415 0.00271219 0.0153659 0.0107448 0.0207219 0.0229495 -0.00877983 0.0194089 0.0119158 -0.000486009 0.00259262 0.00652584 -0.00575355 -0.00582611 0.0256189 0.0234297 0.0316501 0.0567351 -0.007082 -0.0126936 -0.00877021 0.00989671 -0.00665463 -0.00718704 0.0147486 0.0101485 0.0208109
internal_weight=14709.4 8845.09 5864.31 5688.25 5511.36 3156.84 1473.1 447.935 176.883 4541.92 1683.74 587.981 2997.55 1901.38 2513.81 2561.38 1096.17 380.857 1095.76 105.299 38.9008 67.0781 1980.54 1116.07 1573.46 2453.54 2406.89 107.834 100.977 46.6567
internal_count=61250 34418 26832 22879 22206 11539 5440 1616 673 20306 6099 2158 12353 7790 9853 11136 4563 1367 3941 378 137 249 9170 5119 6152 10675 10475 461 432 200
is_linear=0
shrinkage=0.05


Tree=22
num_leaves=31
num_cat=0
split_feature=17 6 17 17 17 19 21 17 30 55 3 6 18 17 0 5 39 55 8 23 6 18 18 9 6 30 0 56 38 2
split_gain=1180.87 265.47 177.27 57.0731 46.4595 27.1707 26.4139 20.5229 20.2141 19.499 18.225 18.0803 17.9309 16.2137 16.1387 15.7712 15.3339 14.7742 15.9996 14.2207 12.4257 12.2401 11.0827 11.8879 11.0765 10.8366 11.3753 10.795 20.0135 11.5737
threshold=0.34514011649733012 0.12802529135441396 0.25490700834321939 0.41731256252623267 0.19945665746026689 0.026649323194250344 1.0000000180025095e-35 0.28189032869258707 0.010297035878312523 14.500000000000002 21.079113702801042 0.018388102730104862 0.95690070657582427 0.73031552736652061 56.372583797730819 19.778996819825391 6.2342719124839805 1.0000000180025095e-35 0.12929999999999978 -1.2628973530608654 0.040531688101100173 1.1249342195369925 1.0413941590064624 22.400907070483886 0.07865501976909868 0.0034692753822725621 26.203626162640386 3.5000000000000004 -2.934382896582743 0.069720763194480839
decision_type=2 2 2 2 2 2 2 2 2 2 2 2 2 2 2 2 2 2 2 2 2 2 2 2 2 2 2 2 2 2
left_child=2 3 4 9 11 -3 15 16 -6 10 19 -1 24 -7 -12 -5 22 -9 -19 -2 -18 -10 -4 -24 -8 26 -13 29 -29 -11
right_child=1 5 7 6 8 13 12 17 21 27 14 25 -14 -15 -16 -17 20 18 -20 -21 -22 -23 23 -25 -26 -27 -28 28 -30 -31
leaf_value=0.035723586202863665 -0.021221019158415885 -0.017304591891718336 0.014402183030162663 -0.018975380078144047 0.016405678699058512 -0.021283572335142303 0.0024477482492865944 -0.01140856488557835 0.0074826400367381755 0.0081697610052006691 -0.0067082473808464469 -0.019161347185096829 -0.010761251587136639 -0.031135038041708071 -0.024351937127612598 -0.0067318837946463584 0.013374274906718884 0.0059521243386179389 -0.0037087788920401031 -0.00052403448864873155 -0.034980085888096028 -0.018711024325585628 -0.0032160648996537515 0.013012983892690795 -0.0066276582407415342 0.016382897192522634 0.025536313692447295 -0.039526173827530681 9.8912462072582824e-05 -0.019949468736821074
leaf_weight=312.6800003349781 88.073156833648682 904.22315114736557 1099.077824562788 1044.5323804914951 2551.3571266829967 626.37113958597183 497.11973735690117 148.67748293280602 281.13100928068161 745.54660105705261 446.50296211242676 14.389374345540999 2153.7768022418022 1253.4310511946678 182.61560666561127 351.54695269465446 22.495084404945374 3218.0363181829453 494.40587812662125 1439.1858930587769 32.453078597784042 53.009179919958115 220.24611610174179 231.38319081068039 1038.7036894261837 493.59664297103882 1319.7610861361027 33.973380357027054 513.61657708883286 38.482370525598526
leaf_count=990 240 2420 3148 2814 7497 1674 1361 415 818 2059 1220 43 5828 3348 496 948 64 9077 1378 3972 90 150 627 658 2812 1488 4001 93 1415 106
internal_value=0.000160306 -0.0110119 0.0122536 -0.00665595 0.0190316 -0.0244266 -0.0100344 0.00602215 0.0148912 -0.00173001 -0.00466777 0.0246132 -0.00781783 -0.0278524 -0.0118297 -0.0158923 0.0107728 0.00404658 0.00466553 -0.00171758 -0.0151844 0.00332718 0.0116926 0.00509856 -0.0036901 0.0227125 0.0250542 0.00302729 -0.00235949 0.00678959
internal_weight=21850.4 11357.7 10492.7 8573.68 5025.92 2784.03 5085.68 5466.77 2885.5 3488 2156.38 2140.43 3689.6 1879.8 629.119 1396.08 1605.66 3861.12 3712.44 1527.26 54.9482 334.14 1550.71 451.629 1535.82 1827.75 1334.15 1331.62 547.59 784.029
internal_count=61250 30806 30444 23364 14987 7442 13763 15457 8465 9601 5928 6522 10001 5022 1716 3762 4587 10870 10455 4212 154 968 4433 1285 4173 5532 4044 3673 1508 2165
is_linear=0
shrinkage=0.05


Tree=23
num_leaves=31
num_cat=0
split_feature=6 6 6 24 56 0 39 72 5 39 55 9 37 6 4 9 70 68 4 55 30 37 2 36 4 5 4 6 56 55
split_gain=357.133 73.0298 65.5433 33.248 20.5331 25.7855 21.39 19.799 19.6528 19.504 25.0945 24.293 19.512 19.2377 18.5389 21.2781 20.8017 17.8548 18.6989 17.8434 17.3411 15.8486 15.6796 15.2513 15.1311 14.9864 17.9199 14.1917 15.2302 14.1429
threshold=0.067930656969519346 0.035335609663643207 0.17021709003005175 -3.1107733907553277 2.5000000000000004 33.381085218729361 6.5411704099384353 -7.4614062225809361 24.166728761517426 2.0416252654444027 20.500000000000004 24.371799794043781 100.00000000000016 0.02389591830356223 25.391962500000044 15.717159835634556 51.886466068631798 -0.33478776353095258 15.196883750000108 11.500000000000002 0.005668877487925268 -1.8056200435762163e-11 -0.14951523670507952 -163.98920002781267 13.201127500000114 15.657808966691249 16.681602500000182 0.055022825156936496 4.5000000000000009 1.0000000180025095e-35
decision_type=2 2 2 2 2 2 2 2 2 2 2 2 2 2 2 2 2 2 2 2 2 2 2 2 2 2 2 2 2 2
left_child=1 13 3 24 17 27 21 -8 9 12 11 -11 -4 -1 15 19 -17 18 23 -5 -10 -7 -16 -3 -2 -26 -27 -6 -29 -15
right_child=2 4 8 14 5 6 7 -9 20 10 -12 -13 -14 29 22 16 -18 -19 -20 -21 -22 -23 -24 -25 25 26 -28 28 -30 -31
leaf_value=-0.021932177635229831 0.05810635504102063 0.046422968564717754 0.023326486293309481 0.021515957309437124 0.0010483765051723238 -0.019272640682668232 -0.012231139605135114 0.025260937419012853 0.019403112626616079 0.076155577569687188 -0.0045312395806807243 0.033860080507431965 -0.0069820976554954717 0.0078964533151326989 0.066302445623742795 0.0081449237387699169 0.0010458088479366797 -0.0024644067607052103 -0.0044586323853411667 0.0066323695249338446 -0.0015713585097486022 -0.0074922043462102988 -0.005274130383871021 0.012378381197277967 -0.0039197462996514434 0.093287218265496574 0.02401081159979267 0.010253560667365534 0.058494715974728086 -0.012786828905688231
leaf_weight=629.75353044271469 33.420710742473602 39.510873600840569 400.82148268818855 390.4239736199379 131.6541019231081 322.2562543451786 57.677126929163933 90.410410508513451 248.37961782515049 46.404588609933853 29.710862964391708 126.48675653338432 61.211435467004776 86.666211053729057 7.7823855131864539 2304.9374450147152 1868.2754380702972 1960.2671368420124 150.88610596954823 415.87141054868698 163.35676982998848 2503.1316098570824 454.09450578689575 196.50866064429283 42.873808771371841 10.507614105939863 83.632591009140015 41.936667859554291 26.827280461788177 1783.1229572743177
leaf_count=3142 116 160 1390 1520 559 1384 240 378 897 158 104 437 218 395 30 8924 7400 8378 635 1642 610 10830 1809 813 151 37 303 169 109 8312
internal_value=-0.000168442 -0.00728299 0.00836346 0.00619571 -0.00407276 -0.00669494 -0.00786497 0.0106585 0.0196653 0.024983 0.0379176 0.0452123 0.0193111 -0.0143738 0.00551459 0.00640343 0.00496677 -0.000527004 0.00928889 0.0138393 0.0110815 -0.00883585 -0.0040681 0.0180776 0.0279416 0.0205837 0.0317432 0.0106641 0.0290742 -0.0118281
internal_weight=14708.8 8020.61 6688.19 5611.82 5521.07 3173.89 2973.48 148.088 1076.37 664.635 202.602 172.891 462.033 2499.54 5441.39 4979.51 4173.21 2347.17 386.906 806.295 411.736 2825.39 461.877 236.02 170.435 137.014 94.1402 200.418 68.7639 1869.79
internal_count=61250 35504 25746 21932 23655 13669 12832 618 3814 2307 699 595 1608 11849 21325 19486 16324 9986 1608 3162 1507 12214 1839 973 607 491 340 837 278 8707
is_linear=0
shrinkage=0.05


Tree=24
num_leaves=31
num_cat=0
split_feature=6 6 6 8 70 39 19 6 5 55 39 39 4 39 19 4 9 6 18 20 44 1 33 18 24 37 37 67 22 39
split_gain=484.721 102.869 56.7495 32.303 28.1215 27.8964 23.4006 19.438 23.4638 21.3502 18.476 23.297 19.4659 18.19 19.3147 16.8816 27.9484 16.7739 16.388 15.1056 14.8795 17.4307 16.2703 15.2932 13.6889 12.9033 12.6495 12.384 12.2067 11.7239
threshold=0.053895656010680082 0.10674093051553188 0.028891382521520546 0.21137499999999856 69.999340618012738 4.070379124339131 0.044532814720016252 0.039486146919080152 17.533960726942947 1.0000000180025095e-35 -0.36999063130420112 -7.2346089294423539 14.220171250000124 -10.226235402424541 0.035126152989891753 12.07964875000013 30.650229755796307 0.1429191446484773 0.85495212635842288 1.0000000180025095e-35 0.085000000000000006 0.098300586444430862 85.38842943778242 0.83893218859428431 -0.079285201172551986 -5.9048569755608655e-11 100.00000000002132 0.30868245714087422 0.65999778035130696 0.12236380234567081
decision_type=2 2 2 2 2 2 2 2 2 2 2 2 2 2 2 2 2 2 2 2 2 2 2 2 2 2 2 2 2 2
left_child=2 3 -1 5 6 13 -5 28 9 24 11 12 -3 19 -15 16 -7 -14 -17 -2 23 22 -22 -12 -9 -25 -11 -6 -4 -23
right_child=1 10 7 4 27 15 -8 8 -10 26 20 -13 17 14 -16 18 -18 -19 -20 -21 21 29 -24 25 -26 -27 -28 -29 -30 -31
leaf_value=-0.020561507923970906 0.012217721013566935 -0.0053354405936106237 -0.013381409105844747 0.0075259298471803127 0.0078211358499864977 0.12959947694682245 0.051833690045530324 0.052376103290181379 -0.015137732591541163 -0.0050320593322489421 0.068924209672549974 0.0065006068037148333 0.0097540355251085516 0.0025398513689116387 0.017830003062111997 -0.022564194443082788 -0.015572163341392206 0.032015601878320393 -0.0036332134666104293 0.053275200110694081 0.01459958137960962 0.067510018729307272 -0.01034669157666015 -0.025478742513567677 0.0081096156340240543 0.031134103778544076 0.024093692083770095 0.054771974995796439 0.005751439839872181 0.022838153172914068
leaf_weight=1289.921294927597 78.238890990614891 63.858582735061646 1818.8154316097498 477.60576510429382 18.706557869911194 6.0761384069919568 31.782347857952118 24.945987120270729 539.99523890018463 1941.8486151248217 25.085351407527924 1039.2219349741936 127.67873537540436 3944.1683434545994 217.95358064770699 132.00373330712318 7.2967771738767624 250.90136340260506 853.32028073072433 31.390442654490471 870.39350548386574 15.128396570682524 70.668890103697777 11.032800853252409 58.234160751104355 114.72856947779655 38.00816123187542 56.35762794315815 87.368422195315361 503.76032766699791
leaf_count=6530 294 236 8563 1851 72 23 115 103 2476 8412 89 3834 476 15951 816 544 28 856 3432 115 3131 53 254 41 243 413 159 209 397 1753
internal_value=-5.37453e-05 0.00724428 -0.0113137 0.00334794 0.0145007 0.00211119 0.0102904 -0.00866825 -0.00585902 -0.00343034 0.0146212 0.0105915 0.0202004 0.00387006 0.00334054 -0.00541207 0.0503882 0.0245077 -0.00616939 0.0239738 0.0183278 0.0167831 0.0127262 0.0332779 0.0213853 0.0261676 -0.00447292 0.0430715 -0.0125045 0.0241406
internal_weight=14746.5 8947.36 5799.14 5854.9 584.452 5270.45 509.388 4509.22 2603.03 2063.04 3092.46 1481.66 442.439 4271.75 4162.12 998.697 13.3729 378.58 985.324 109.629 1610.8 1459.95 941.062 150.847 83.1801 125.761 1979.86 75.0642 1906.18 518.889
internal_count=61469 34586 26883 23450 2247 21203 1966 20353 11393 8917 11136 5402 1568 17176 16767 4027 51 1332 3976 409 5734 5191 3385 543 346 454 8571 281 8960 1806
is_linear=0
shrinkage=0.05


Tree=25
num_leaves=31
num_cat=0
split_feature=17 17 17 17 17 17 17 4 4 8 32 23 22 8 9 3 19 5 18 5 9 24 23 19 18 39 36 9 39 35
split_gain=1118.23 196.577 183.373 36.4548 34.4947 33.7875 22.8693 20.142 18.4178 17.8035 16.9651 15.9931 15.4651 15.0598 14.718 19.9652 15.9992 14.5558 14.3288 14.9742 13.8891 13.6656 18.2478 13.3517 12.4373 12.3849 11.8742 11.6202 11.5669 11.2666
threshold=0.34673359516819774 0.56360594653762019 0.23251449034240132 0.6970264087765865 0.28189032869258707 0.41731256252623267 0.13672578662551579 14.124231250000127 16.992338750000126 0.21137499999999856 93.012509164432018 -1.1938946928342851 0.38714723841621895 0.14757500000000071 17.270364243416704 17.334568267451804 0.025662118026368707 14.974944815315153 1.057887102350727 12.398118833973621 18.391151848397453 2.0268340877804607 -0.21557916758271342 0.032452260427864595 0.99130530017056406 -11.574595546514308 -170.14173581397441 15.717159835634556 0.28906783084182713 -35.266576968429121
decision_type=2 2 2 2 2 2 2 2 2 2 2 2 2 2 2 2 2 2 2 2 2 2 2 2 2 2 2 2 2 2
left_child=2 5 6 14 18 9 -1 26 10 11 17 -2 -8 23 -3 16 -16 -5 -4 -20 -21 22 -7 -9 -24 -10 -6 -13 -15 -17
right_child=1 3 4 8 7 21 12 13 25 -11 -12 27 -14 28 15 29 -18 -19 19 20 -22 -23 24 -25 -26 -27 -28 -29 -30 -31
leaf_value=0.03404494383464856 -0.014143222117745369 -0.023898718113882347 0.01291048039059095 -0.023634057562360752 -0.01386673742200073 -0.012123223282525802 0.020873478735051468 0.0033620275884536661 -0.044199952460937358 -0.014143676189292999 0.016548169247310458 -0.006480776961967913 0.010566342475384695 0.0041049390878203076 0.0040969036780157762 -0.012675977531211436 -0.013601569379524704 -0.0074936182284722017 -0.050494626589482151 -0.0068948487808590019 0.0099014786157734583 -0.018817217661138218 -0.0014980702728857713 -0.056447769872196518 -0.0094820519817104473 -0.026400267557405308 0.01137477522414128 0.0013104546081342983 -0.014535516497745239 -0.024515308572663978
leaf_weight=298.31989780068398 225.9077562391758 338.73443046212196 2273.8793688714504 580.73349571228027 49.058239430189133 1704.8557558059692 2944.7089570760727 2604.3051542937756 105.83706700801849 297.10011374950409 33.601613730192184 605.99945315718651 415.2470406293869 130.71250399947166 265.35472866892815 571.63945266604424 246.13882583379745 183.92242687940598 12.143474191427229 166.09966734051704 475.20794886350632 339.5680493414402 1092.9398514032364 9.3646299540996534 880.9629054069519 1275.0880876779556 926.86721438169479 2275.7613083124161 229.07029196619987 309.87351667881012
leaf_count=966 615 907 6615 1554 138 4602 8928 7335 285 809 90 1668 1239 363 716 1528 661 492 35 477 1365 917 2971 26 2383 3408 2637 6275 635 829
internal_value=6.08055e-06 -0.0108944 0.0117333 -0.0199663 0.00692197 -0.00611482 0.0207776 0.00387319 -0.0242696 -0.00245016 -0.0182238 -0.00133223 0.0195997 0.00182752 -0.0145511 -0.0122781 -0.00441988 -0.0197518 0.0110352 0.00450967 0.0055512 -0.00921993 -0.00833406 0.00314773 -0.00506136 -0.0277645 0.0101059 -0.000327947 -0.00776326 -0.0168378
internal_weight=21869 11334 10535 3910.92 6876.71 7423.1 3658.28 3949.38 2179.18 3404.77 798.258 3107.67 3359.96 2973.45 1731.74 1393.01 511.494 764.656 2927.33 653.451 641.308 4018.33 3678.76 2613.67 1973.9 1380.93 975.925 2881.76 359.783 881.513
internal_count=61469 30710 30759 10470 19626 20240 11133 11134 5829 9367 2136 8558 10167 8359 4641 3734 1377 2046 8492 1877 1842 10873 9956 7361 5354 3693 2775 7943 998 2357
is_linear=0
shrinkage=0.05


Tree=26
num_leaves=31
num_cat=0
split_feature=17 17 17 39 17 18 30 33 55 30 38 39 55 9 19 9 5 9 37 3 37 51 39 6 37 38 36 19 37 30
split_gain=360.459 69.743 67.885 21.3335 19.5596 18.9813 18.7921 18.4101 19.5543 17.1848 16.6655 16.6135 15.8813 14.9269 14.9788 13.955 18.8288 13.5415 19.2944 17.8224 13.5089 13.3831 18.122 13.625 13.2553 12.867 11.7771 11.6203 15.185 10.9204
threshold=0.35883330310714318 0.26171764239134332 0.6970264087765865 -15.368995818998341 0.20343066912473382 0.90610456857335453 0.0081744216961254623 25.016068564148735 11.500000000000002 0.069765699571094977 -3.1803502455679418 9.2262143136748644 3.5000000000000004 32.744603633434309 0.0133598349480889 51.066942080896091 12.398118833973621 18.061099082680972 -5.2150694290967543e-10 12.650924259771745 -1.0051841665075936e-11 0.076600000000001792 -0.32883112093134431 0.041062858740987425 -1.0874028964278711e-11 2.0451465123961792 -39.806648259727972 0.022985646343059839 -4.3625058705553532e-12 0.017598620415680347
decision_type=2 2 2 2 2 2 2 2 2 2 2 2 2 2 2 2 2 2 2 2 2 2 2 2 2 2 2 2 2 2
left_child=1 4 5 12 -1 17 15 8 27 20 -7 29 26 14 -12 24 -17 18 25 -20 -8 -9 -23 -24 -5 -2 -4 -3 -29 -6
right_child=2 7 3 6 11 10 9 21 -10 -11 13 -13 -14 -15 -16 16 -18 -19 19 -21 -22 22 23 -25 -26 -27 -28 28 -30 -31
leaf_value=-0.017665804828619593 0.080828144776506738 -0.0057564007543087527 0.040023895635703154 0.032690976699902591 -0.010850663973094728 0.015853710811158446 -0.018646537016030033 -0.0075847824015242045 0.010877078852124911 0.02785511597207695 -0.00047383926786134984 0.077004212146918105 0.068552350102347503 -0.0003119440509439951 0.0087208315861359367 0.0023968502865118627 0.047923243895268683 -0.0035957123105450754 0.058744214337086424 0.0028531259506139181 0.0081565211195002985 -0.0081993912851521869 -0.018459653627864385 0.0094931331613258181 0.015073386985897445 -0.007713243887432897 -0.033250651782424909 0.076060451530618578 0.0067137156133660475 0.010874022171829922
leaf_weight=1402.2931835353374 14.181867241859438 522.41420541703701 16.653985202312473 126.36623665690422 1930.5799621194601 450.17687962949276 51.792642027139664 1995.2893769592047 412.6255095154047 103.5049090385437 528.49405419826508 5.4767498672008506 33.830523729324341 820.41702646017075 2736.1454750150442 30.618491232395172 87.939264118671417 892.69986486434937 14.796200752258299 396.03741189837456 509.10584399104118 377.4489174336195 48.711277678608894 414.96399459242821 688.39232900738716 5.7737191021442404 8.1756723523139936 9.3169339001178724 51.692622438073158 59.632415175437927
leaf_count=6984 56 2246 54 436 8927 1697 191 8612 1763 353 2115 23 106 3247 10659 107 303 3574 58 1557 1848 1616 213 1756 2403 23 28 38 216 260
internal_value=4.47307e-05 -0.00792517 0.00771274 0.0166501 -0.0131403 0.00518596 0.0155629 -0.00330126 0.0025467 0.0091359 0.00672338 -0.00996042 0.0462643 0.00571721 0.00723236 0.020138 0.0361657 -8.23552e-05 0.00719817 0.00486605 0.00568156 -0.00535485 -6.50751e-05 0.00655656 0.0178058 0.0552106 0.0158968 -0.00334495 0.0173038 -0.0101997
internal_weight=14745.5 7230.45 7515.1 1656.38 3397.98 5858.72 1597.72 3832.46 996.049 664.403 4535.23 1995.69 58.6602 4085.06 3264.64 933.316 118.558 1323.49 430.789 410.834 560.898 2836.41 841.124 463.675 814.759 19.9556 24.8297 583.424 61.0096 1990.21
internal_count=61469 32654 28815 5829 16194 22986 5641 16460 4263 2392 17718 9210 188 16021 12774 3249 410 5268 1694 1615 2039 12197 3585 1969 2839 79 82 2500 254 9187
is_linear=0
shrinkage=0.05


Tree=27
num_leaves=31
num_cat=0
split_feature=17 6 17 6 18 2 2 22 39 9 3 0 4 3 29 17 9 56 44 6 3 32 9 6 37 3 39 17 1 35
split_gain=479.908 120.787 44.1187 27.1603 26.6026 17.8822 17.6228 17.5486 16.8854 16.2189 29.5303 15.1175 13.3059 13.2428 13.2293 12.5307 12.1829 12.1225 17.9149 13.8049 18.7313 12.2933 11.2917 10.7054 21.7287 17.9936 14.9955 17.9689 17.6969 10.3109
threshold=0.30569124941193981 0.10458414197565848 0.21069685580895547 0.075555068930267574 0.88056536089647375 0.11027056055432485 0.19749727069510531 0.77034093664528636 4.7379803151020869 18.309375004001918 17.63125928315274 71.302675358927218 26.148310000000041 20.681273704606731 -4.7862146798369976 0.49344503890788738 55.197826455484183 5.5000000000000009 0.8650000000000001 0.14812137330971711 26.172251545650742 69.661617872449412 49.011296044883409 0.13406538922665454 14.358155803202969 28.693497113498672 -9.3373068590391934 0.93653336483345029 -0.072638144132868718 -46.480087347469571
decision_type=2 2 2 2 2 2 2 2 2 2 2 2 2 2 2 2 2 2 2 2 2 2 2 2 2 2 2 2 2 2
left_child=2 3 -1 4 -2 16 23 12 9 10 -5 -10 29 -13 -7 -11 -6 19 21 22 -21 -19 -8 24 -3 -26 27 -25 -28 -4
right_child=1 6 7 8 5 14 17 -9 11 15 -12 13 -14 -15 -16 -17 -18 18 -20 20 -22 -23 -24 26 25 -27 28 -29 -30 -31
leaf_value=-0.01945961633938029 -0.0094865385513299427 0.0034826593956736665 -0.012721717846090287 0.022738290817687093 0.0019465296266675336 0.0073433930893085034 0.032600797509719198 0.0081237967673609742 -0.0036128526261063119 0.015494830511144581 -0.0033877829600372994 0.051247598373152195 0.045627011923791469 -0.0069103582978912509 0.096794289960460245 0.0060545461533141921 -0.027206864209817092 0.0064480226134325681 -0.022972108858275296 0.016699829322741652 0.051732834677675713 0.10109127793865265 0.12713276718332192 0.054302839843448705 0.018196549396731636 -0.024058680576846379 0.0064029469258064927 0.020475547502623943 0.018108281401442754 -0.0070700764661075543
