{"learner":{"attributes":{"best_iteration":"54","best_score":"0.4058353753409984"},"feature_names":["rsi","macd","macd_signal","bb_upper","bb_middle","bb_lower","atr","volume_ratio","momentum","adx","breakout_up","breakout_down","price_position","body_size","upper_wick","lower_wick","bullish_candle","atr_pct","volatility_regime","bb_width","bb_squeeze","trend_alignment","roc_5","roc_10","roc_20","momentum_alignment","volume_trend","volume_spike","obv_momentum","rsi_momentum","macd_hist","macd_hist_momentum","stoch_k","stoch_d","stoch_cross","willr","cci","mfi"],"feature_types":["float","float","float","float","float","float","float","float","float","float","float","float","float","float","float","float","float","float","float","float","float","float","float","float","float","float","float","float","float","float","float","float","float","float","float","float","float","float"],"gradient_booster":{"model":{"gbtree_model_param":{"num_parallel_tree":"1","num_trees":"75"},"iteration_indptr":[0,1,2,3,4,5,6,7,8,9,10,11,12,13,14,15,16,17,18,19,20,21,22,23,24,25,26,27,28,29,30,31,32,33,34,35,36,37,38,39,40,41,42,43,44,45,46,47,48,49,50,51,52,53,54,55,56,57,58,59,60,61,62,63,64,65,66,67,68,69,70,71,72,73,74,75],"tree_info":[0,0,0,0,0,0,0,0,0,0,0,0,0,0,0,0,0,0,0,0,0,0,0,0,0,0,0,0,0,0,0,0,0,0,0,0,0,0,0,0,0,0,0,0,0,0,0,0,0,0,0,0,0,0,0,0,0,0,0,0,0,0,0,0,0,0,0,0,0,0,0,0,0,0,0],"trees":[{"base_weights":[-1.7498626E-1,-3.33176E-1,1.937136E-1,-5.548434E-1,-2.4222632E-1,7.349129E-2,4.9242592E-1,-2.6119744E-2,-4.5596182E-2,-1.549066E-2,-5.1347483E-3,4.9071168E-3,-2.5630489E-2,1.1285569E-1,2.1048667E-2],"categories":[],"categories_nodes":[],"categories_segments":[],"categories_sizes":[],"default_left":[0,0,0,0,0,0,0,0,0,0,0,0,0,0,0],"id":0,"left_children":[1,3,5,7,9,11,13,-1,-1,-1,-1,-1,-1,-1,-1],"loss_changes":[8.419188E2,2.0350317E2,1.5561266E2,3.356366E1,6.752759E1,4.4717384E1,1.5585886E2,0E0,0E0,0E0,0E0,0E0,0E0,0E0,0E0],"parents":[2147483647,0,0,1,1,2,2,3,3,4,4,5,5,6,6],"right_children":[2,4,6,8,10,12,14,-1,-1,-1,-1,-1,-1,-1,-1],"split_conditions":[1.4965303E-1,8.6527444E-2,2.2375885E-1,2.331146E1,1.8553268E1,2.60422E1,1.1980256E1,-2.6119744E-2,-4.5596182E-2,-1.549066E-2,-5.1347483E-3,4.9071168E-3,-2.5630489E-2,1.1285569E-1,2.1048667E-2],"split_indices":[17,17,17,4,4,4,3,0,0,0,0,0,0,0,0],"split_type":[0,0,0,0,0,0,0,0,0,0,0,0,0,0,0],"sum_hessian":[1.4432964E4,1.0099776E4,4.333187E3,2.9368433E3,7.162933E3,3.0905742E3,1.2426129E3,2.6944558E3,2.4238754E2,4.8247E3,2.338233E3,2.966632E3,1.2394213E2,4.716539E1,1.1954475E3],"tree_param":{"num_deleted":"0","num_feature":"38","num_nodes":"15","size_leaf_vector":"1"}},{"base_weights":[-1.7208894E-1,-3.213342E-1,1.7293544E-1,-4.9600747E-1,-2.1002865E-1,2.6306577E-2,4.4303077E-1,-9.957908E-3,-2.650156E-2,-1.7625902E-2,-7.5358613E-3,5.3721475E-3,-6.5118237E-3,3.595402E-2,8.7878965E-3],"categories":[],"categories_nodes":[],"categories_segments":[],"categories_sizes":[],"default_left":[0,0,0,0,0,0,0,0,0,0,0,0,0,0,0],"id":1,"left_children":[1,3,5,7,9,11,13,-1,-1,-1,-1,-1,-1,-1,-1],"loss_changes":[7.411978E2,1.9523767E2,1.721313E2,3.9383057E1,5.182544E1,3.5809982E1,1.12709564E2,0E0,0E0,0E0,0E0,0E0,0E0,0E0,0E0],"parents":[2147483647,0,0,1,1,2,2,3,3,4,4,5,5,6,6],"right_children":[2,4,6,8,10,12,14,-1,-1,-1,-1,-1,-1,-1,-1],"split_conditions":[1.4965303E-1,9.352958E-2,2.1085897E-1,1.3047406E1,1.3996583E1,1.1822998E-2,1.9249378E1,-9.957908E-3,-2.650156E-2,-1.7625902E-2,-7.5358613E-3,5.3721475E-3,-6.5118237E-3,3.595402E-2,8.7878965E-3],"split_indices":[17,17,17,5,5,2,4,0,0,0,0,0,0,0,0],"split_type":[0,0,0,0,0,0,0,0,0,0,0,0,0,0,0],"sum_hessian":[1.4391993E4,1.0046362E4,4.3456304E3,3.908791E3,6.1375713E3,2.8172852E3,1.5283452E3,4.026466E2,3.5061443E3,1.8024452E3,4.335126E3,1.855758E3,9.6152716E2,7.5099677E2,7.773485E2],"tree_param":{"num_deleted":"0","num_feature":"38","num_nodes":"15","size_leaf_vector":"1"}},{"base_weights":[-1.6628182E-1,-2.8109705E-1,2.0360836E-1,-4.211848E-1,-1.6277346E-1,7.0540404E-1,7.013481E-2,-2.318574E-2,-8.887458E-3,-4.9422956E-3,-2.6717206E-2,1.3244087E-1,3.0720893E-2,5.987465E-3,-1.592285E-2],"categories":[],"categories_nodes":[],"categories_segments":[],"categories_sizes":[],"default_left":[0,0,0,0,0,0,0,0,0,0,0,0,0,0,0],"id":2,"left_children":[1,3,5,7,9,11,13,-1,-1,-1,-1,-1,-1,-1,-1],"loss_changes":[6.0905096E2,1.8132574E2,2.2749088E2,5.179004E1,1.4090509E2,1.2456897E2,5.179729E1,0E0,0E0,0E0,0E0,0E0,0E0,0E0,0E0],"parents":[2147483647,0,0,1,1,2,2,3,3,4,4,5,5,6,6],"right_children":[2,4,6,8,10,12,14,-1,-1,-1,-1,-1,-1,-1,-1],"split_conditions":[3.2151107E-2,1.6136613E-2,1.7922277E1,9.8361735E-12,2.3350252E1,1.1980256E1,2.5894213E1,-2.318574E-2,-8.887458E-3,-4.9422956E-3,-2.6717206E-2,1.3244087E-1,3.0720893E-2,5.987465E-3,-1.592285E-2],"split_indices":[6,6,5,37,4,3,4,0,0,0,0,0,0,0,0],"split_type":[0,0,0,0,0,0,0,0,0,0,0,0,0,0,0],"sum_hessian":[1.4338714E4,1.09423955E4,3.3963186E3,5.0092256E3,5.9331694E3,7.126848E2,2.6836338E3,4.263463E3,7.457629E2,5.0633096E3,8.698602E2,3.0616724E1,6.820681E2,2.3804016E3,3.0323218E2],"tree_param":{"num_deleted":"0","num_feature":"38","num_nodes":"15","size_leaf_vector":"1"}},{"base_weights":[-1.6417906E-1,-3.1990394E-1,1.2615417E-1,-5.0697255E-1,-2.2839352E-1,-9.397828E-4,4.0027753E-1,-2.3790095E-2,-4.2186003E-2,-1.5004011E-2,-3.99258E-3,-1.1675026E-2,2.6203545E-3,8.054377E-2,1.7533563E-2],"categories":[],"categories_nodes":[],"categories_segments":[],"categories_sizes":[],"default_left":[0,0,0,0,0,0,0,0,0,0,0,0,0,0,0],"id":3,"left_children":[1,3,5,7,9,11,13,-1,-1,-1,-1,-1,-1,-1,-1],"loss_changes":[6.4523083E2,1.5889374E2,1.7359378E2,3.1617554E1,6.641431E1,4.225977E1,9.422119E1,0E0,0E0,0E0,0E0,0E0,0E0,0E0,0E0],"parents":[2147483647,0,0,1,1,2,2,3,3,4,4,5,5,6,6],"right_children":[2,4,6,8,10,12,14,-1,-1,-1,-1,-1,-1,-1,-1],"split_conditions":[1.4268021E-1,8.80813E-2,2.1085897E-1,2.331146E1,1.8476498E1,1.443706E1,1.1916303E1,-2.3790095E-2,-4.2186003E-2,-1.5004011E-2,-3.99258E-3,-1.1675026E-2,2.6203545E-3,8.054377E-2,1.7533563E-2],"split_indices":[17,17,17,4,5,5,4,0,0,0,0,0,0,0,0],"split_type":[0,0,0,0,0,0,0,0,0,0,0,0,0,0,0],"sum_hessian":[1.4269303E4,9.287631E3,4.981672E3,3.0494023E3,6.238228E3,3.4043044E3,1.5773677E3,2.79326E3,2.5614224E2,4.2069326E3,2.0312955E3,6.3457153E2,2.769733E3,6.0852097E1,1.5165155E3],"tree_param":{"num_deleted":"0","num_feature":"38","num_nodes":"15","size_leaf_vector":"1"}},{"base_weights":[-1.4915101E-1,-3.348202E-1,6.1055817E-2,-4.4788837E-1,-2.5280795E-1,-7.371293E-2,2.3806101E-1,-5.641773E-3,-2.582289E-2,-1.0892331E-2,-4.096782E-2,-2.3062269E-3,-2.9545275E-2,6.61416E-2,9.863732E-3],"categories":[],"categories_nodes":[],"categories_segments":[],"categories_sizes":[],"default_left":[0,0,0,0,0,0,0,0,0,0,0,0,0,0,0],"id":4,"left_children":[1,3,5,7,9,11,13,-1,-1,-1,-1,-1,-1,-1,-1],"loss_changes":[5.5218463E2,6.954895E1,1.5832187E2,7.2470276E1,8.6111176E1,5.374156E1,1.2666655E2,0E0,0E0,0E0,0E0,0E0,0E0,0E0,0E0],"parents":[2147483647,0,0,1,1,2,2,3,3,4,4,5,5,6,6],"right_children":[2,4,6,8,10,12,14,-1,-1,-1,-1,-1,-1,-1,-1],"split_conditions":[2.1883037E-2,1.3283312E-2,9.875797E-3,1.3047406E1,2.327023E1,2.5894213E1,1.2881672E1,-5.641773E-3,-2.582289E-2,-1.0892331E-2,-4.096782E-2,-2.3062269E-3,-2.9545275E-2,6.61416E-2,9.863732E-3],"split_indices":[6,6,19,5,5,4,3,0,0,0,0,0,0,0,0],"split_type":[0,0,0,0,0,0,0,0,0,0,0,0,0,0,0],"sum_hessian":[1.4146561E4,7.511389E3,6.635171E3,3.15593E3,4.355459E3,3.7673547E3,2.8678164E3,5.3659503E2,2.619335E3,4.1036123E3,2.5184671E2,3.5776052E3,1.8974956E2,1.0278087E2,2.7650354E3],"tree_param":{"num_deleted":"0","num_feature":"38","num_nodes":"15","size_leaf_vector":"1"}},{"base_weights":[-1.4799975E-1,-2.571122E-1,1.9456464E-1,-4.2030507E-1,-1.5719603E-1,6.524657E-1,1.4761049E-1,2.0302342E-2,-2.162007E-2,-7.17532E-3,-3.0527106E-2,1.3826714E-1,3.0133931E-2,3.0020779E-2,5.8705206E-3],"categories":[],"categories_nodes":[],"categories_segments":[],"categories_sizes":[],"default_left":[0,0,0,0,0,0,0,0,0,0,0,0,0,0,0],"id":5,"left_children":[1,3,5,7,9,11,13,-1,-1,-1,-1,-1,-1,-1,-1],"loss_changes":[5.2749316E2,1.7444708E2,7.320705E1,4.0796204E1,4.1120483E1,3.1658829E1,4.223374E1,0E0,0E0,0E0,0E0,0E0,0E0,0E0,0E0],"parents":[2147483647,0,0,1,1,2,2,3,3,4,4,5,5,6,6],"right_children":[2,4,6,8,10,12,14,-1,-1,-1,-1,-1,-1,-1,-1],"split_conditions":[1.6488437E-1,9.646754E-2,-1.0803295E0,-2.9304417E-2,2.5830536E1,1.150729E1,1.2823895E1,2.0302342E-2,-2.162007E-2,-7.17532E-3,-3.0527106E-2,1.3826714E-1,3.0133931E-2,3.0020779E-2,5.8705206E-3],"split_indices":[17,17,24,1,3,4,5,0,0,0,0,0,0,0,0],"split_type":[0,0,0,0,0,0,0,0,0,0,0,0,0,0,0],"sum_hessian":[1.4110044E4,1.0701643E4,3.4084019E3,4.0627524E3,6.6388896E3,3.1579968E2,3.092602E3,5.814372E1,4.0046086E3,6.4455703E3,1.9331947E2,6.0144305E0,3.0978525E2,1.9218552E2,2.9004165E3],"tree_param":{"num_deleted":"0","num_feature":"38","num_nodes":"15","size_leaf_vector":"1"}},{"base_weights":[-1.3551636E-1,-2.417434E-1,1.682002E-1,-3.5861343E-1,-1.4118183E-1,5.750716E-1,5.1919304E-2,-5.4496797E-3,-2.046405E-2,-4.515693E-3,-2.3141943E-2,9.372461E-2,2.5727589E-2,4.523573E-3,-1.3285977E-2],"categories":[],"categories_nodes":[],"categories_segments":[],"categories_sizes":[],"default_left":[0,0,0,0,0,0,0,0,0,0,0,0,0,0,0],"id":6,"left_children":[1,3,5,7,9,11,13,-1,-1,-1,-1,-1,-1,-1,-1],"loss_changes":[4.54434E2,1.2258728E2,1.7266327E2,6.098633E1,9.175666E1,6.283011E1,3.4800793E1,0E0,0E0,0E0,0E0,0E0,0E0,0E0,0E0],"parents":[2147483647,0,0,1,1,2,2,3,3,4,4,5,5,6,6],"right_children":[2,4,6,8,10,12,14,-1,-1,-1,-1,-1,-1,-1,-1],"split_conditions":[3.118902E-2,1.6136613E-2,1.7922277E1,1.3060736E1,2.3350252E1,1.185559E1,2.5894213E1,-5.4496797E-3,-2.046405E-2,-4.515693E-3,-2.3141943E-2,9.372461E-2,2.5727589E-2,4.523573E-3,-1.3285977E-2],"split_indices":[6,6,5,5,4,4,4,0,0,0,0,0,0,0,0],"split_type":[0,0,0,0,0,0,0,0,0,0,0,0,0,0,0],"sum_hessian":[1.4083077E4,1.0433937E4,3.6491401E3,4.8244834E3,5.6094536E3,8.1021625E2,2.8389238E3,8.1456775E2,4.0099155E3,4.8445933E3,7.648603E2,3.4722256E1,7.75494E2,2.532292E3,3.0663177E2],"tree_param":{"num_deleted":"0","num_feature":"38","num_nodes":"15","size_leaf_vector":"1"}},{"base_weights":[-1.318238E-1,-2.7220324E-1,9.955551E-2,-4.3679884E-1,-2.0243365E-1,6.6729477E-3,3.1019723E-1,-1.9876478E-2,-4.463088E-2,-9.341608E-3,-3.813438E-2,4.5247087E-3,-5.6139454E-3,7.148221E-2,1.34235695E-2],"categories":[],"categories_nodes":[],"categories_segments":[],"categories_sizes":[],"default_left":[0,0,0,0,0,0,0,0,0,0,0,0,0,0,0],"id":7,"left_children":[1,3,5,7,9,11,13,-1,-1,-1,-1,-1,-1,-1,-1],"loss_changes":[4.5526343E2,1.0008905E2,1.03557434E2,4.6113617E1,5.3424088E1,3.664618E1,7.5274185E1,0E0,0E0,0E0,0E0,0E0,0E0,0E0,0E0],"parents":[2147483647,0,0,1,1,2,2,3,3,4,4,5,5,6,6],"right_children":[2,4,6,8,10,12,14,-1,-1,-1,-1,-1,-1,-1,-1],"split_conditions":[1.3933009E-1,8.5747644E-2,2.1085897E-1,2.331146E1,2.577227E1,6.144555E-3,1.1980256E1,-1.9876478E-2,-4.463088E-2,-9.341608E-3,-3.813438E-2,4.5247087E-3,-5.6139454E-3,7.148221E-2,1.34235695E-2],"split_indices":[17,17,17,4,3,2,3,0,0,0,0,0,0,0,0],"split_type":[0,0,0,0,0,0,0,0,0,0,0,0,0,0,0],"sum_hessian":[1.4014511E4,8.722396E3,5.2921143E3,2.5950562E3,6.12734E3,3.6733713E3,1.6187429E3,2.390946E3,2.0411032E2,5.962631E3,1.64709E2,2.1550337E3,1.5183378E3,5.6973015E1,1.5617699E3],"tree_param":{"num_deleted":"0","num_feature":"38","num_nodes":"15","size_leaf_vector":"1"}},{"base_weights":[-1.1925419E-1,-2.5181746E-1,1.1273263E-1,-4.2029572E-1,-1.8455301E-1,1.3957115E-2,3.2185316E-1,-1.9234642E-2,-4.1535746E-2,-8.376697E-3,-3.6479633E-2,-3.495194E-2,1.4082459E-3,7.4121416E-2,1.394199E-2],"categories":[],"categories_nodes":[],"categories_segments":[],"categories_sizes":[],"default_left":[0,0,0,0,0,0,0,0,0,0,0,0,0,0,0],"id":8,"left_children":[1,3,5,7,9,11,13,-1,-1,-1,-1,-1,-1,-1,-1],"loss_changes":[4.2889365E2,1.0049628E2,1.0475791E2,3.6670166E1,5.8727905E1,3.4925507E1,8.080783E1,0E0,0E0,0E0,0E0,0E0,0E0,0E0,0E0],"parents":[2147483647,0,0,1,1,2,2,3,3,4,4,5,5,6,6],"right_children":[2,4,6,8,10,12,14,-1,-1,-1,-1,-1,-1,-1,-1],"split_conditions":[1.4202462E-1,8.5747644E-2,2.1085897E-1,2.331146E1,2.566025E1,1.0460978E1,1.1980256E1,-1.9234642E-2,-4.1535746E-2,-8.376697E-3,-3.6479633E-2,-3.495194E-2,1.4082459E-3,7.4121416E-2,1.394199E-2],"split_indices":[17,17,17,4,4,9,3,0,0,0,0,0,0,0,0],"split_type":[0,0,0,0,0,0,0,0,0,0,0,0,0,0,0],"sum_hessian":[1.3944508E4,8.873738E3,5.0707695E3,2.5304456E3,6.3432925E3,3.4447507E3,1.6260188E3,2.33024E3,2.0020541E2,6.1524863E3,1.908065E2,6.636037E1,3.3783904E3,5.6914078E1,1.5691047E3],"tree_param":{"num_deleted":"0","num_feature":"38","num_nodes":"15","size_leaf_vector":"1"}},{"base_weights":[-1.114071E-1,-2.7961183E-1,4.2674877E-2,-2.6510626E-1,-8.008817E-1,-6.883019E-2,1.7250703E-1,-1.4489733E-2,9.894394E-3,-4.2163148E-3,-4.6722125E-2,-2.1903713E-3,-3.0907828E-2,4.834998E-2,7.0411945E-3],"categories":[],"categories_nodes":[],"categories_segments":[],"categories_sizes":[],"default_left":[0,0,0,0,0,0,0,0,0,0,0,0,0,0,0],"id":9,"left_children":[1,3,5,7,9,11,13,-1,-1,-1,-1,-1,-1,-1,-1],"loss_changes":[3.5971057E2,4.9960083E1,1.0488724E2,7.386743E1,1.7066666E1,5.355259E1,8.412392E1,0E0,0E0,0E0,0E0,0E0,0E0,0E0,0E0],"parents":[2147483647,0,0,1,1,2,2,3,3,4,4,5,5,6,6],"right_children":[2,4,6,8,10,12,14,-1,-1,-1,-1,-1,-1,-1,-1],"split_conditions":[2.0413108E-2,2.331146E1,9.278266E-3,1.8553268E1,1.0757197E1,2.5894213E1,1.2881672E1,-1.4489733E-2,9.894394E-3,-4.2163148E-3,-4.6722125E-2,-2.1903713E-3,-3.0907828E-2,4.834998E-2,7.0411945E-3],"split_indices":[6,4,19,4,9,4,3,0,0,0,0,0,0,0,0],"split_type":[0,0,0,0,0,0,0,0,0,0,0,0,0,0,0],"sum_hessian":[1.3877699E4,6.6343965E3,7.2433027E3,6.4562446E3,1.7815167E2,3.8969314E3,3.3463713E3,6.1297593E3,3.264852E2,2.824551E1,1.4990617E2,3.7281858E3,1.6874557E2,1.2719841E2,3.219173E3],"tree_param":{"num_deleted":"0","num_feature":"38","num_nodes":"15","size_leaf_vector":"1"}},{"base_weights":[-1.1655364E-1,-2.4583726E-1,9.561506E-2,-3.7448126E-1,-1.7655677E-1,8.491838E-3,2.84975E-1,-1.7248936E-2,-3.566309E-2,-8.014911E-3,-3.3660553E-2,9.395175E-3,-2.2783417E-3,2.3502303E-2,4.67669E-3],"categories":[],"categories_nodes":[],"categories_segments":[],"categories_sizes":[],"default_left":[0,0,0,0,0,0,0,0,0,0,0,0,0,0,0],"id":10,"left_children":[1,3,5,7,9,11,13,-1,-1,-1,-1,-1,-1,-1,-1],"loss_changes":[3.7902826E2,7.645575E1,8.631829E1,2.9783295E1,4.4969513E1,3.4774456E1,5.8371002E1,0E0,0E0,0E0,0E0,0E0,0E0,0E0,0E0],"parents":[2147483647,0,0,1,1,2,2,3,3,4,4,5,5,6,6],"right_children":[2,4,6,8,10,12,14,-1,-1,-1,-1,-1,-1,-1,-1],"split_conditions":[1.4003669E-1,8.9571334E-2,2.1085897E-1,2.331146E1,2.5720428E1,-2.0145059E-2,1.9249378E1,-1.7248936E-2,-3.566309E-2,-8.014911E-3,-3.3660553E-2,9.395175E-3,-2.2783417E-3,2.3502303E-2,4.67669E-3],"split_indices":[17,17,17,4,3,2,4,0,0,0,0,0,0,0,0],"split_type":[0,0,0,0,0,0,0,0,0,0,0,0,0,0,0],"sum_hessian":[1.3816194E4,8.584889E3,5.2313047E3,3.003469E3,5.5814204E3,3.5835723E3,1.6477324E3,2.7647227E3,2.3874632E2,5.4057783E3,1.7564171E2,8.291817E2,2.7543906E3,8.370651E2,8.1066736E2],"tree_param":{"num_deleted":"0","num_feature":"38","num_nodes":"15","size_leaf_vector":"1"}},{"base_weights":[-1.0984986E-1,-2.5117147E-1,7.3287494E-2,-3.0307192E-1,-8.8604055E-2,3.569479E-2,4.880035E-1,-5.034453E-3,-1.6750155E-2,9.268529E-3,-2.0947274E-2,-7.6863775E-3,3.9144014E-3,3.47733E-2,-1.12197185E-2],"categories":[],"categories_nodes":[],"categories_segments":[],"categories_sizes":[],"default_left":[0,0,0,0,0,0,0,0,0,0,0,0,0,0,0],"id":11,"left_children":[1,3,5,7,9,11,13,-1,-1,-1,-1,-1,-1,-1,-1],"loss_changes":[3.568662E2,6.563782E1,9.362157E1,3.808661E1,1.7066046E2,4.4452137E1,7.392346E1,0E0,0E0,0E0,0E0,0E0,0E0,0E0,0E0],"parents":[2147483647,0,0,1,1,2,2,3,3,4,4,5,5,6,6],"right_children":[2,4,6,8,10,12,14,-1,-1,-1,-1,-1,-1,-1,-1],"split_conditions":[1.3113512E-1,1.8553268E1,2.899251E-1,1.3060736E1,2.3388208E1,1.459302E1,2.4610453E1,-5.034453E-3,-1.6750155E-2,9.268529E-3,-2.0947274E-2,-7.6863775E-3,3.9144014E-3,3.47733E-2,-1.12197185E-2],"split_indices":[17,4,17,5,3,3,5,0,0,0,0,0,0,0,0],"split_type":[0,0,0,0,0,0,0,0,0,0,0,0,0,0,0],"sum_hessian":[1.3786881E4,7.7816465E3,6.005235E3,5.8978613E3,1.8837853E3,5.5071177E3,4.981169E2,8.0429736E2,5.0935635E3,1.0299863E3,8.5379895E2,1.0105134E3,4.4966045E3,3.8579156E2,1.1232536E2],"tree_param":{"num_deleted":"0","num_feature":"38","num_nodes":"15","size_leaf_vector":"1"}},{"base_weights":[-1.0632754E-1,-2.2625007E-1,8.26212E-2,-3.2829317E-1,-1.4209777E-1,-8.237371E-4,2.6772714E-1,2.6405856E-2,-1.705737E-2,-6.127828E-3,-2.7687207E-2,-1.0507587E-2,2.3883022E-3,5.910128E-2,1.15461955E-2],"categories":[],"categories_nodes":[],"categories_segments":[],"categories_sizes":[],"default_left":[0,0,0,0,0,0,0,0,0,0,0,0,0,0,0],"id":12,"left_children":[1,3,5,7,9,11,13,-1,-1,-1,-1,-1,-1,-1,-1],"loss_changes":[3.1148938E2,7.2164154E1,8.244736E1,4.2010468E1,3.7018105E1,3.744169E1,5.5535957E1,0E0,0E0,0E0,0E0,0E0,0E0,0E0,0E0],"parents":[2147483647,0,0,1,1,2,2,3,3,4,4,5,5,6,6],"right_children":[2,4,6,8,10,12,14,-1,-1,-1,-1,-1,-1,-1,-1],"split_conditions":[1.3933009E-1,9.646754E-2,2.1085897E-1,-2.6317623E-13,2.4894718E1,1.459302E1,1.1980256E1,2.6405856E-2,-1.705737E-2,-6.127828E-3,-2.7687207E-2,-1.0507587E-2,2.3883022E-3,5.910128E-2,1.15461955E-2],"split_indices":[17,17,17,37,4,3,3,0,0,0,0,0,0,0,0],"split_type":[0,0,0,0,0,0,0,0,0,0,0,0,0,0,0],"sum_hessian":[1.3744875E4,8.408161E3,5.3367134E3,3.7988154E3,4.609346E3,3.6791597E3,1.6575535E3,5.5582195E1,3.7432332E3,4.4016914E3,2.076546E2,6.9249976E2,2.98666E3,6.293556E1,1.5946178E3],"tree_param":{"num_deleted":"0","num_feature":"38","num_nodes":"15","size_leaf_vector":"1"}},{"base_weights":[-9.375212E-2,-1.9009602E-1,1.2890677E-1,-3.6540964E-1,-1.2618865E-1,1.5553775E-1,-4.299172E-1,-1.2247563E-2,-2.4158739E-2,-9.13928E-3,-8.492157E-4,5.9287595E-3,2.4419894E-2,1.27634695E-2,-3.0413736E-2],"categories":[],"categories_nodes":[],"categories_segments":[],"categories_sizes":[],"default_left":[0,0,0,0,0,0,0,0,0,0,0,0,0,0,0],"id":13,"left_children":[1,3,5,7,9,11,13,-1,-1,-1,-1,-1,-1,-1,-1],"loss_changes":[2.9474487E2,1.07396454E2,6.182586E1,3.6216736E1,4.344326E1,4.86864E1,2.3256908E1,0E0,0E0,0E0,0E0,0E0,0E0,0E0,0E0],"parents":[2147483647,0,0,1,1,2,2,3,3,4,4,5,5,6,6],"right_children":[2,4,6,8,10,12,14,-1,-1,-1,-1,-1,-1,-1,-1],"split_conditions":[1.5502797E-1,8.689183E-2,2.60422E1,9.634904E-1,1.8553268E1,2.0337794E-2,-6.154977E-1,-1.2247563E-2,-2.4158739E-2,-9.13928E-3,-8.492157E-4,5.9287595E-3,2.4419894E-2,1.27634695E-2,-3.0413736E-2],"split_indices":[17,17,4,18,4,19,24,0,0,0,0,0,0,0,0],"split_type":[0,0,0,0,0,0,0,0,0,0,0,0,0,0,0],"sum_hessian":[1.3737708E4,9.588805E3,4.1489033E3,2.5603682E3,7.0284365E3,3.9608684E3,1.8803514E2,1.2672334E3,1.2931346E3,4.628807E3,2.3996296E3,3.5662131E3,3.9465515E2,3.874795E1,1.4928719E2],"tree_param":{"num_deleted":"0","num_feature":"38","num_nodes":"15","size_leaf_vector":"1"}},{"base_weights":[-9.608848E-2,-1.7903538E-1,1.4383465E-1,-3.0755454E-1,-1.0330413E-1,7.7828956E-1,1.20088905E-1,4.694004E-3,-1.6688945E-2,-4.708151E-3,-3.0402435E-2,5.4172248E-2,-1.3510335E-3,2.5960058E-2,4.66056E-3],"categories":[],"categories_nodes":[],"categories_segments":[],"categories_sizes":[],"default_left":[0,0,0,0,0,0,0,0,0,0,0,0,0,0,0],"id":14,"left_children":[1,3,5,7,9,11,13,-1,-1,-1,-1,-1,-1,-1,-1],"loss_changes":[2.722381E2,9.890143E1,5.285617E1,3.970227E1,2.9460052E1,3.1143784E1,3.630608E1,0E0,0E0,0E0,0E0,0E0,0E0,0E0,0E0],"parents":[2147483647,0,0,1,1,2,2,3,3,4,4,5,5,6,6],"right_children":[2,4,6,8,10,12,14,-1,-1,-1,-1,-1,-1,-1,-1],"split_conditions":[1.6488437E-1,9.646754E-2,-1.556019E0,-5.52E-2,2.5894213E1,2.2819128E1,1.2823895E1,4.694004E-3,-1.6688945E-2,-4.708151E-3,-3.0402435E-2,5.4172248E-2,-1.3510335E-3,2.5960058E-2,4.66056E-3],"split_indices":[17,17,24,8,4,3,5,0,0,0,0,0,0,0,0],"split_type":[0,0,0,0,0,0,0,0,0,0,0,0,0,0,0],"sum_hessian":[1.3677408E4,1.0163804E4,3.5136052E3,3.7673643E3,6.396439E3,1.2561309E2,3.3879922E3,2.3085919E2,3.5365051E3,6.283823E3,1.1261582E2,9.084421E1,3.4768883E1,2.1260866E2,3.1753835E3],"tree_param":{"num_deleted":"0","num_feature":"38","num_nodes":"15","size_leaf_vector":"1"}},{"base_weights":[-9.148729E-2,-1.6378507E-1,1.2424959E-1,-2.8113228E-1,-1.0090293E-1,5.005671E-1,7.675205E-2,6.157184E-3,-1.5459872E-2,-5.979731E-3,6.1676754E-3,9.125428E-3,3.9116543E-2,-7.2427425E-3,5.9912344E-3],"categories":[],"categories_nodes":[],"categories_segments":[],"categories_sizes":[],"default_left":[0,0,0,0,0,0,0,0,0,0,0,0,0,0,0],"id":15,"left_children":[1,3,5,7,9,11,13,-1,-1,-1,-1,-1,-1,-1,-1],"loss_changes":[2.1213452E2,7.5137115E1,6.098527E1,4.0355927E1,2.7822212E1,3.4130386E1,2.8964437E1,0E0,0E0,0E0,0E0,0E0,0E0,0E0,0E0],"parents":[2147483647,0,0,1,1,2,2,3,3,4,4,5,5,6,6],"right_children":[2,4,6,8,10,12,14,-1,-1,-1,-1,-1,-1,-1,-1],"split_conditions":[1.6693074E-1,9.523908E-2,-1.031031E0,-5.42E-2,9.11E-2,2.4010627E-1,1.459302E1,6.157184E-3,-1.5459872E-2,-5.979731E-3,6.1676754E-3,9.125428E-3,3.9116543E-2,-7.2427425E-3,5.9912344E-3],"split_indices":[17,17,24,8,8,17,3,0,0,0,0,0,0,0,0],"split_type":[0,0,0,0,0,0,0,0,0,0,0,0,0,0,0],"sum_hessian":[1.3598419E4,1.0185346E4,3.4130737E3,3.5524624E3,6.6328833E3,3.8143884E2,3.0316348E3,2.3038594E2,3.3220764E3,6.123E3,5.0988327E2,1.7995316E2,2.0148569E2,4.9296863E2,2.5386663E3],"tree_param":{"num_deleted":"0","num_feature":"38","num_nodes":"15","size_leaf_vector":"1"}},{"base_weights":[-8.992246E-2,-1.69767E-1,1.0741561E-1,-2.894494E-1,-1.22166246E-1,4.1940525E-1,1.3394631E-2,-1.5061945E-2,8.339408E-2,-5.2121407E-3,-3.164399E-2,1.1476544E-2,3.423516E-2,-4.760577E-2,1.4577702E-3],"categories":[],"categories_nodes":[],"categories_segments":[],"categories_sizes":[],"default_left":[0,0,0,0,0,0,0,0,0,0,0,0,0,0,0],"id":16,"left_children":[1,3,5,7,9,11,13,-1,-1,-1,-1,-1,-1,-1,-1],"loss_changes":[2.1356047E2,5.493573E1,1.1452986E2,6.3845047E1,6.3142532E1,4.5388474E1,4.5700985E1,0E0,0E0,0E0,0E0,0E0,0E0,0E0,0E0],"parents":[2147483647,0,0,1,1,2,2,3,3,4,4,5,5,6,6],"right_children":[2,4,6,8,10,12,14,-1,-1,-1,-1,-1,-1,-1,-1],"split_conditions":[3.0492835E-2,1.3209834E-2,1.7922277E1,1.2581978E-2,2.4886309E1,1.703976E1,1.813221E1,-1.5061945E-2,8.339408E-2,-5.2121407E-3,-3.164399E-2,1.1476544E-2,3.423516E-2,-4.760577E-2,1.4577702E-3],"split_indices":[6,6,5,19,3,3,4,0,0,0,0,0,0,0,0],"split_type":[0,0,0,0,0,0,0,0,0,0,0,0,0,0,0],"sum_hessian":[1.3551759E4,9.648172E3,3.903587E3,2.743961E3,6.9042104E3,9.031627E2,3.000424E3,2.7283733E3,1.5587587E1,6.6712866E3,2.3292392E2,5.27497E2,3.7566574E2,4.723737E1,2.9531868E3],"tree_param":{"num_deleted":"0","num_feature":"38","num_nodes":"15","size_leaf_vector":"1"}},{"base_weights":[-7.742877E-2,-1.7958447E-1,7.85652E-2,-1.691761E-1,-7.250392E-1,1.3219289E-2,2.3742917E-1,-1.1161001E-2,-1.4875212E-4,-1.3527423E-2,-4.722896E-2,-8.509736E-3,2.7813779E-3,2.3455177E-2,3.6815838E-3],"categories":[],"categories_nodes":[],"categories_segments":[],"categories_sizes":[],"default_left":[0,0,0,0,0,0,0,0,0,0,0,0,0,0,0],"id":17,"left_children":[1,3,5,7,9,11,13,-1,-1,-1,-1,-1,-1,-1,-1],"loss_changes":[2.1556232E2,4.6282684E1,5.5570053E1,7.205505E1,1.4985535E1,2.9521313E1,5.9169853E1,0E0,0E0,0E0,0E0,0E0,0E0,0E0,0E0],"parents":[2147483647,0,0,1,1,2,2,3,3,4,4,5,5,6,6],"right_children":[2,4,6,8,10,12,14,-1,-1,-1,-1,-1,-1,-1,-1],"split_conditions":[1.3933009E-1,2.5830536E1,2.1558814E-1,1.8476498E1,-3.921992E-3,1.459302E1,1.7922277E1,-1.1161001E-2,-1.4875212E-4,-1.3527423E-2,-4.722896E-2,-8.509736E-3,2.7813779E-3,2.3455177E-2,3.6815838E-3],"split_indices":[17,3,17,5,30,3,5,0,0,0,0,0,0,0,0],"split_type":[0,0,0,0,0,0,0,0,0,0,0,0,0,0,0],"sum_hessian":[1.3525144E4,8.172845E3,5.3522983E3,8.0210967E3,1.5174854E2,3.79314E3,1.5591586E3,6.052614E3,1.968483E3,5.015344E1,1.01595085E2,7.117665E2,3.0813735E3,6.4500415E2,9.141544E2],"tree_param":{"num_deleted":"0","num_feature":"38","num_nodes":"15","size_leaf_vector":"1"}},{"base_weights":[-6.6980295E-2,-1.3420798E-1,1.2026046E-1,-2.92549E-1,-7.982311E-2,3.0438763E-1,5.2454103E-2,-1.2901704E-2,-3.6034264E-2,-6.4149215E-3,3.9456086E-4,4.2886328E-2,1.3512402E-2,-1.3878599E-3,9.84094E-3],"categories":[],"categories_nodes":[],"categories_segments":[],"categories_sizes":[],"default_left":[0,0,0,0,0,0,0,0,0,0,0,0,0,0,0],"id":18,"left_children":[1,3,5,7,9,11,13,-1,-1,-1,-1,-1,-1,-1,-1],"loss_changes":[1.6982086E2,8.545575E1,4.4484848E1,3.7308777E1,3.1422993E1,1.7886581E1,3.0184786E1,0E0,0E0,0E0,0E0,0E0,0E0,0E0,0E0],"parents":[2147483647,0,0,1,1,2,2,3,3,4,4,5,5,6,6],"right_children":[2,4,6,8,10,12,14,-1,-1,-1,-1,-1,-1,-1,-1],"split_conditions":[1.6488437E-1,8.770282E-2,1E0,2.327023E1,1.8640022E1,1.3019293E1,1.31505355E-2,-1.2901704E-2,-3.6034264E-2,-6.4149215E-3,3.9456086E-4,4.2886328E-2,1.3512402E-2,-1.3878599E-3,9.84094E-3],"split_indices":[17,17,21,5,3,3,19,0,0,0,0,0,0,0,0],"split_type":[0,0,0,0,0,0,0,0,0,0,0,0,0,0,0],"sum_hessian":[1.3488666E4,9.925321E3,3.5633445E3,2.5363586E3,7.388963E3,9.5811316E2,2.6052314E3,2.3486233E3,1.8773543E2,4.758638E3,2.6303245E3,5.427604E1,9.038371E2,1.675246E3,9.2998535E2],"tree_param":{"num_deleted":"0","num_feature":"38","num_nodes":"15","size_leaf_vector":"1"}},{"base_weights":[-7.18456E-2,-1.5096065E-1,8.20631E-2,-1.997161E-1,-2.3321059E-2,4.373907E-2,3.4692597E-1,-9.05442E-3,-2.6353026E-2,8.125962E-3,-1.2135667E-2,-1.047318E-2,4.5869104E-3,2.4606315E-2,-2.2055294E-2],"categories":[],"categories_nodes":[],"categories_segments":[],"categories_sizes":[],"default_left":[0,0,0,0,0,0,0,0,0,0,0,0,0,0,0],"id":19,"left_children":[1,3,5,7,9,11,13,-1,-1,-1,-1,-1,-1,-1,-1],"loss_changes":[1.6417755E2,5.5412933E1,4.645469E1,3.9195587E1,1.00440094E2,4.8639286E1,6.641477E1,0E0,0E0,0E0,0E0,0E0,0E0,0E0,0E0],"parents":[2147483647,0,0,1,1,2,2,3,3,4,4,5,5,6,6],"right_children":[2,4,6,8,10,12,14,-1,-1,-1,-1,-1,-1,-1,-1],"split_conditions":[1.4965303E-1,1.8640022E1,2.8061894E-1,1.8253592E1,2.3350252E1,1.459302E1,2.577227E1,-9.05442E-3,-2.6353026E-2,8.125962E-3,-1.2135667E-2,-1.047318E-2,4.5869104E-3,2.4606315E-2,-2.2055294E-2],"split_indices":[17,3,17,3,4,3,3,0,0,0,0,0,0,0,0],"split_type":[0,0,0,0,0,0,0,0,0,0,0,0,0,0,0],"sum_hessian":[1.3481135E4,8.9041E3,4.5770347E3,6.442605E3,2.4614946E3,3.999497E3,5.7753754E2,6.097194E3,3.454111E2,1.3327897E3,1.128705E3,6.3681866E2,3.3626785E3,4.8799637E2,8.954119E1],"tree_param":{"num_deleted":"0","num_feature":"38","num_nodes":"15","size_leaf_vector":"1"}},{"base_weights":[-7.358724E-2,-1.3220084E-1,1.0456155E-1,-2.8990394E-1,-8.762884E-2,5.5855587E-2,4.0128085E-1,-1.2935837E-2,-3.406417E-2,-5.064175E-4,-8.348504E-3,2.0741534E-3,3.0815123E-2,2.9780148E-2,-1.459799E-2],"categories":[],"categories_nodes":[],"categories_segments":[],"categories_sizes":[],"default_left":[0,0,0,0,0,0,0,0,0,0,0,0,0,0,0],"id":20,"left_children":[1,3,5,7,9,11,13,-1,-1,-1,-1,-1,-1,-1,-1],"loss_changes":[1.4039172E2,7.108104E1,4.8084106E1,2.7026718E1,4.8503345E1,2.301598E1,6.338024E1,0E0,0E0,0E0,0E0,0E0,0E0,0E0,0E0],"parents":[2147483647,0,0,1,1,2,2,3,3,4,4,5,5,6,6],"right_children":[2,4,6,8,10,12,14,-1,-1,-1,-1,-1,-1,-1,-1],"split_conditions":[1.0250532E-2,8.5747644E-2,2.899251E-1,2.327023E1,2E0,1E0,2.4610453E1,-1.2935837E-2,-3.406417E-2,-5.064175E-4,-8.348504E-3,2.0741534E-3,3.0815123E-2,2.9780148E-2,-1.459799E-2],"split_indices":[19,17,17,5,21,20,5,0,0,0,0,0,0,0,0],"split_type":[0,0,0,0,0,0,0,0,0,0,0,0,0,0,0],"sum_hessian":[1.3442662E4,1.0114951E4,3.3277107E3,2.22765E3,7.8873013E3,2.8595146E3,4.6819614E2,2.0647783E3,1.6287157E2,3.9905044E3,3.8967966E3,2.7890637E3,7.045084E1,3.6579974E2,1.0239638E2],"tree_param":{"num_deleted":"0","num_feature":"38","num_nodes":"15","size_leaf_vector":"1"}},{"base_weights":[-7.36195E-2,-1.5758617E-1,5.2995443E-2,-2.7671772E-1,-1.09424755E-1,2.257044E-2,3.2773694E-1,4.795849E-3,-1.5873065E-2,-7.818362E-3,1.9933873E-4,4.7449577E-3,-3.5769623E-3,2.4306744E-2,-1.4729816E-2],"categories":[],"categories_nodes":[],"categories_segments":[],"categories_sizes":[],"default_left":[0,0,0,0,0,0,0,0,0,0,0,0,0,0,0],"id":21,"left_children":[1,3,5,7,9,11,13,-1,-1,-1,-1,-1,-1,-1,-1],"loss_changes":[1.4177658E2,4.597325E1,4.4444424E1,3.506575E1,3.0406906E1,3.2602806E1,5.239973E1,0E0,0E0,0E0,0E0,0E0,0E0,0E0,0E0],"parents":[2147483647,0,0,1,1,2,2,3,3,4,4,5,5,6,6],"right_children":[2,4,6,8,10,12,14,-1,-1,-1,-1,-1,-1,-1,-1],"split_conditions":[1.4003669E-1,4.4649797E-3,2.899251E-1,1.308022E1,1.8476498E1,4.5345053E-3,2.4700378E1,4.795849E-3,-1.5873065E-2,-7.818362E-3,1.9933873E-4,4.7449577E-3,-3.5769623E-3,2.4306744E-2,-1.4729816E-2],"split_indices":[17,19,17,4,5,2,5,0,0,0,0,0,0,0,0],"split_type":[0,0,0,0,0,0,0,0,0,0,0,0,0,0,0],"sum_hessian":[1.3333817E4,8.016985E3,5.3168325E3,2.3066165E3,5.710368E3,4.78772E3,5.2911224E2,2.2721219E2,2.0794043E3,4.0384314E3,1.6719369E3,2.7071282E3,2.080592E3,4.2193823E2,1.0717401E2],"tree_param":{"num_deleted":"0","num_feature":"38","num_nodes":"15","size_leaf_vector":"1"}},{"base_weights":[-6.550822E-2,-1.2793574E-1,7.543909E-2,-2.150895E-1,-6.523904E-2,4.1645718E-1,5.3044677E-2,-2.1876555E-3,-1.344235E-2,2.0810854E-2,-4.0490474E-3,3.4527384E-2,-2.239896E-4,-5.912039E-3,6.867688E-3],"categories":[],"categories_nodes":[],"categories_segments":[],"categories_sizes":[],"default_left":[0,0,0,0,0,0,0,0,0,0,0,0,0,0,0],"id":22,"left_children":[1,3,5,7,9,11,13,-1,-1,-1,-1,-1,-1,-1,-1],"loss_changes":[1.1742436E2,5.0521576E1,3.1264074E1,3.5624588E1,4.0811604E1,2.911261E1,5.554746E1,0E0,0E0,0E0,0E0,0E0,0E0,0E0,0E0],"parents":[2147483647,0,0,1,1,2,2,3,3,4,4,5,5,6,6],"right_children":[2,4,6,8,10,12,14,-1,-1,-1,-1,-1,-1,-1,-1],"split_conditions":[9.278266E-3,1.4702985E1,1.2823895E1,1.314384E1,1.5162439E1,1.1157163E-2,1.703976E1,-2.1876555E-3,-1.344235E-2,2.0810854E-2,-4.0490474E-3,3.4527384E-2,-2.239896E-4,-5.912039E-3,6.867688E-3],"split_indices":[19,5,5,3,5,1,3,0,0,0,0,0,0,0,0],"split_type":[0,0,0,0,0,0,0,0,0,0,0,0,0,0,0],"sum_hessian":[1.3343114E4,9.247404E3,4.0957107E3,3.8680513E3,5.3793525E3,2.5130386E2,3.8444067E3,9.2421106E2,2.94384E3,1.6951158E2,5.2098413E3,1.5181195E2,9.9491905E1,1.2679634E3,2.5764436E3],"tree_param":{"num_deleted":"0","num_feature":"38","num_nodes":"15","size_leaf_vector":"1"}},{"base_weights":[-6.355737E-2,-1.4126562E-1,5.2767046E-2,-1.291335E-1,-5.8024263E-1,4.5672634E-1,3.71336E-2,-8.777599E-3,7.4205804E-4,-3.1127697E-2,8.491881E-2,4.8074853E-2,4.457967E-3,1.7181609E-2,8.933858E-4],"categories":[],"categories_nodes":[],"categories_segments":[],"categories_sizes":[],"default_left":[0,0,0,0,0,0,0,0,0,0,0,0,0,0,0],"id":23,"left_children":[1,3,5,7,9,11,13,-1,-1,-1,-1,-1,-1,-1,-1],"loss_changes":[1.2084838E2,4.2609055E1,3.3798836E1,5.213356E1,2.1810883E1,3.691346E1,3.0440971E1,0E0,0E0,0E0,0E0,0E0,0E0,0E0,0E0],"parents":[2147483647,0,0,1,1,2,2,3,3,4,4,5,5,6,6],"right_children":[2,4,6,8,10,12,14,-1,-1,-1,-1,-1,-1,-1,-1],"split_conditions":[1.4003669E-1,2.5543266E1,-6.983243E-2,1.8476498E1,3.9847918E-2,2.165666E1,1.2823895E1,-8.777599E-3,7.4205804E-4,-3.1127697E-2,8.491881E-2,4.8074853E-2,4.457967E-3,1.7181609E-2,8.933858E-4],"split_indices":[17,5,1,5,2,5,5,0,0,0,0,0,0,0,0],"split_type":[0,0,0,0,0,0,0,0,0,0,0,0,0,0,0],"sum_hessian":[1.3367298E4,8.013693E3,5.3536045E3,7.7994326E3,2.1426053E2,1.9841664E2,5.155188E3,5.897739E3,1.9016936E3,2.1106802E2,3.192505E0,8.2923706E1,1.1549293E2,3.038849E2,4.8513027E3],"tree_param":{"num_deleted":"0","num_feature":"38","num_nodes":"15","size_leaf_vector":"1"}},{"base_weights":[-5.296784E-2,-1.0653925E-1,1.0195371E-1,-2.1010074E-1,-5.4610297E-2,1.9616048E-1,-9.0462575E-3,3.2082453E-2,-1.1048868E-2,-3.6115658E-3,7.634099E-3,4.4732563E-2,7.5602643E-3,-5.805607E-3,1.1518858E-2],"categories":[],"categories_nodes":[],"categories_segments":[],"categories_sizes":[],"default_left":[0,0,0,0,0,0,0,0,0,0,0,0,0,0,0],"id":24,"left_children":[1,3,5,7,9,11,13,-1,-1,-1,-1,-1,-1,-1,-1],"loss_changes":[1.10591644E2,5.323423E1,3.5806976E1,3.0771454E1,2.4103106E1,5.802459E1,4.03461E1,0E0,0E0,0E0,0E0,0E0,0E0,0E0,0E0],"parents":[2147483647,0,0,1,1,2,2,3,3,4,4,5,5,6,6],"right_children":[2,4,6,8,10,12,14,-1,-1,-1,-1,-1,-1,-1,-1],"split_conditions":[1.679019E-1,9.478054E-2,3.3020643E-3,-4.9155856E-13,9.11E-2,1.2823895E1,4.3840814E-2,3.2082453E-2,-1.1048868E-2,-3.6115658E-3,7.634099E-3,4.4732563E-2,7.5602643E-3,-5.805607E-3,1.1518858E-2],"split_indices":[17,17,1,37,8,5,1,0,0,0,0,0,0,0,0],"split_type":[0,0,0,0,0,0,0,0,0,0,0,0,0,0,0],"sum_hessian":[1.3323002E4,9.899943E3,3.423059E3,3.3052546E3,6.5946885E3,1.8511783E3,1.5718807E3,4.0943825E1,3.264311E3,6.0786226E3,5.160658E2,1.1079541E2,1.7403829E3,1.0865223E3,4.8535837E2],"tree_param":{"num_deleted":"0","num_feature":"38","num_nodes":"15","size_leaf_vector":"1"}},{"base_weights":[-4.9024466E-2,-1.1744456E-1,8.273764E-2,-2.4217458E-1,-7.556466E-2,3.880957E-1,5.6907665E-2,-1.0335921E-2,-3.4642678E-2,-6.104355E-3,7.0547423E-4,3.6340464E-2,8.698537E-3,3.8053666E-3,-1.864295E-2],"categories":[],"categories_nodes":[],"categories_segments":[],"categories_sizes":[],"default_left":[0,0,0,0,0,0,0,0,0,0,0,0,0,0,0],"id":25,"left_children":[1,3,5,7,9,11,13,-1,-1,-1,-1,-1,-1,-1,-1],"loss_changes":[1.1907507E2,4.5393997E1,3.5586872E1,3.4768433E1,2.715947E1,2.5398403E1,3.4384903E1,0E0,0E0,0E0,0E0,0E0,0E0,0E0,0E0],"parents":[2147483647,0,0,1,1,2,2,3,3,4,4,5,5,6,6],"right_children":[2,4,6,8,10,12,14,-1,-1,-1,-1,-1,-1,-1,-1],"split_conditions":[1.5040095E-1,8.5747644E-2,-5.6363776E-2,2.331146E1,1.8476498E1,1.9350716E1,2.60422E1,-1.0335921E-2,-3.4642678E-2,-6.104355E-3,7.0547423E-4,3.6340464E-2,8.698537E-3,3.8053666E-3,-1.864295E-2],"split_indices":[17,17,1,4,5,4,4,0,0,0,0,0,0,0,0],"split_type":[0,0,0,0,0,0,0,0,0,0,0,0,0,0,0],"sum_hessian":[1.3206215E4,8.692546E3,4.5136685E3,2.1837996E3,6.5087466E3,3.5093558E2,4.162733E3,2.0258768E3,1.579226E2,4.2852314E3,2.2235154E3,1.3499672E2,2.1593886E2,3.985505E3,1.7722803E2],"tree_param":{"num_deleted":"0","num_feature":"38","num_nodes":"15","size_leaf_vector":"1"}},{"base_weights":[-4.804828E-2,-1.0642731E-1,9.834792E-2,-2.2836466E-1,-7.033993E-2,3.7434125E-1,1.3253164E-2,-1.3397641E-2,7.6432466E-3,1.1851807E-2,-4.2718975E-3,3.9421245E-2,1.300672E-2,-1.0437957E-3,1.48678245E-2],"categories":[],"categories_nodes":[],"categories_segments":[],"categories_sizes":[],"default_left":[0,0,0,0,0,0,0,0,0,0,0,0,0,0,0],"id":26,"left_children":[1,3,5,7,9,11,13,-1,-1,-1,-1,-1,-1,-1,-1],"loss_changes":[1.1352707E2,4.1770737E1,8.893833E1,3.276297E1,3.4032425E1,4.199991E1,2.80834E1,0E0,0E0,0E0,0E0,0E0,0E0,0E0,0E0],"parents":[2147483647,0,0,1,1,2,2,3,3,4,4,5,5,6,6],"right_children":[2,4,6,8,10,12,14,-1,-1,-1,-1,-1,-1,-1,-1],"split_conditions":[3.118902E-2,8.5747644E-2,1.7922277E1,6.440811E1,3.1457527E1,1.7844591E1,6.515678E1,-1.3397641E-2,7.6432466E-3,1.1851807E-2,-4.2718975E-3,3.9421245E-2,1.300672E-2,-1.0437957E-3,1.48678245E-2],"split_indices":[6,17,5,0,0,9,0,0,0,0,0,0,0,0,0],"split_type":[0,0,0,0,0,0,0,0,0,0,0,0,0,0,0],"sum_hessian":[1.3281283E4,9.49514E3,3.786144E3,2.1671443E3,7.3279956E3,8.9144934E2,2.8946946E3,1.9635409E3,2.0360341E2,3.4240344E2,6.985592E3,1.9143901E2,7.000103E2,2.5850781E3,3.0961658E2],"tree_param":{"num_deleted":"0","num_feature":"38","num_nodes":"15","size_leaf_vector":"1"}},{"base_weights":[-4.0087804E-2,-1.7132787E-1,5.858826E-3,7.009058E-1,-1.8399355E-1,-2.1448677E-2,1.852681E-1,2.5931245E-3,1.288092E-1,-3.56647E-3,-1.3795539E-2,-5.9055124E-4,-2.4941772E-2,1.5018508E-2,-6.647686E-3],"categories":[],"categories_nodes":[],"categories_segments":[],"categories_sizes":[],"default_left":[0,0,0,0,0,0,0,0,0,0,0,0,0,0,0],"id":27,"left_children":[1,3,5,7,9,11,13,-1,-1,-1,-1,-1,-1,-1,-1],"loss_changes":[7.9827065E1,3.805282E1,4.804692E1,5.9922768E1,3.502922E1,3.9155613E1,4.749219E1,0E0,0E0,0E0,0E0,0E0,0E0,0E0,0E0],"parents":[2147483647,0,0,1,1,2,2,3,3,4,4,5,5,6,6],"right_children":[2,4,6,8,10,12,14,-1,-1,-1,-1,-1,-1,-1,-1],"split_conditions":[9.646754E-2,-4.9155856E-13,2.3006827E-1,-3.6725857E-12,9.587226E-1,2.5911333E1,2.4364914E1,2.5931245E-3,1.288092E-1,-3.56647E-3,-1.3795539E-2,-5.9055124E-4,-2.4941772E-2,1.5018508E-2,-6.647686E-3],"split_indices":[17,37,17,37,18,5,3,0,0,0,0,0,0,0,0],"split_type":[0,0,0,0,0,0,0,0,0,0,0,0,0,0,0],"sum_hessian":[1.3237068E4,3.4318228E3,9.805246E3,4.834234E1,3.3834805E3,8.510727E3,1.2945192E3,3.667618E1,1.1666157E1,1.5209761E3,1.8625044E3,8.343313E3,1.6741304E2,9.507025E2,3.4381662E2],"tree_param":{"num_deleted":"0","num_feature":"38","num_nodes":"15","size_leaf_vector":"1"}},{"base_weights":[-5.24434E-2,-1.2627877E-1,3.4297816E-2,-1.1324294E-1,-6.399042E-1,-8.038051E-2,8.267904E-2,-8.015624E-3,2.0773222E-3,-7.2930404E-3,-4.3198075E-2,-2.3633614E-4,-1.9951494E-2,2.2500033E-2,2.8889368E-3],"categories":[],"categories_nodes":[],"categories_segments":[],"categories_sizes":[],"default_left":[0,0,0,0,0,0,0,0,0,0,0,0,0,0,0],"id":28,"left_children":[1,3,5,7,9,11,13,-1,-1,-1,-1,-1,-1,-1,-1],"loss_changes":[8.453786E1,4.7667366E1,3.3683826E1,5.0678596E1,1.938581E1,4.3426548E1,3.902336E1,0E0,0E0,0E0,0E0,0E0,0E0,0E0,0E0],"parents":[2147483647,0,0,1,1,2,2,3,3,4,4,5,5,6,6],"right_children":[2,4,6,8,10,12,14,-1,-1,-1,-1,-1,-1,-1,-1],"split_conditions":[1.3170116E-1,2.566025E1,7.638496E-3,1.8476498E1,-4.2381044E-3,1.7017916E-2,1.3019293E1,-8.015624E-3,2.0773222E-3,-7.2930404E-3,-4.3198075E-2,-2.3633614E-4,-1.9951494E-2,2.2500033E-2,2.8889368E-3],"split_indices":[17,4,19,5,30,2,3,0,0,0,0,0,0,0,0],"split_type":[0,0,0,0,0,0,0,0,0,0,0,0,0,0,0],"sum_hessian":[1.31979375E4,7.129094E3,6.0688438E3,6.953826E3,1.7526804E2,1.800484E3,4.26836E3,5.3323022E3,1.6215236E3,5.5201164E1,1.20066864E2,1.4558506E3,3.4463342E2,2.6989407E2,3.9984656E3],"tree_param":{"num_deleted":"0","num_feature":"38","num_nodes":"15","size_leaf_vector":"1"}},{"base_weights":[-4.937526E-2,-9.911245E-2,6.0234908E-2,-1.8809333E-1,-5.25936E-2,2.0151572E0,5.524237E-2,-9.833509E-3,5.4016348E-2,-2.0570913E-3,-2.783577E-2,1.092934E-2,1.595728E-1,3.633488E-3,-1.5331425E-2],"categories":[],"categories_nodes":[],"categories_segments":[],"categories_sizes":[],"default_left":[0,0,0,0,0,0,0,0,0,0,0,0,0,0,0],"id":29,"left_children":[1,3,5,7,9,11,13,-1,-1,-1,-1,-1,-1,-1,-1],"loss_changes":[7.1984634E1,3.7584366E1,4.0116306E1,3.4129913E1,3.4417118E1,2.14309E1,2.5955744E1,0E0,0E0,0E0,0E0,0E0,0E0,0E0,0E0],"parents":[2147483647,0,0,1,1,2,2,3,3,4,4,5,5,6,6],"right_children":[2,4,6,8,10,12,14,-1,-1,-1,-1,-1,-1,-1,-1],"split_conditions":[9.278266E-3,1.3996583E1,1.0757197E1,7.329201E1,2.5911333E1,2.4785791E1,2.6099737E1,-9.833509E-3,5.4016348E-2,-2.0570913E-3,-2.783577E-2,1.092934E-2,1.595728E-1,3.633488E-3,-1.5331425E-2],"split_indices":[19,5,9,0,5,3,3,0,0,0,0,0,0,0,0],"split_type":[0,0,0,0,0,0,0,0,0,0,0,0,0,0,0],"sum_hessian":[1.3201974E4,9.0813E3,4.1206743E3,3.1166853E3,5.9646143E3,9.471052E0,4.111203E3,3.0965916E3,2.0093687E1,5.8331875E3,1.3142676E2,4.2166915E0,5.25436E0,3.9230708E3,1.881325E2],"tree_param":{"num_deleted":"0","num_feature":"38","num_nodes":"15","size_leaf_vector":"1"}},{"base_weights":[-4.016667E-2,-1.3667087E-1,3.1058459E-2,-1.7774093E-1,8.7267876E-2,-3.5509273E-2,1.10007286E-1,-1.0597825E-2,3.598475E-4,7.9518E-3,-2.3426889E-2,6.5715594E-4,-1.1826603E-2,2.9806161E-2,4.446479E-3],"categories":[],"categories_nodes":[],"categories_segments":[],"categories_sizes":[],"default_left":[0,0,0,0,0,0,0,0,0,0,0,0,0,0,0],"id":30,"left_children":[1,3,5,7,9,11,13,-1,-1,-1,-1,-1,-1,-1,-1],"loss_changes":[9.04936E1,5.143303E1,3.9815666E1,2.9897003E1,3.4661457E1,4.0206665E1,3.5456684E1,0E0,0E0,0E0,0E0,0E0,0E0,0E0,0E0],"parents":[2147483647,0,0,1,1,2,2,3,3,4,4,5,5,6,6],"right_children":[2,4,6,8,10,12,14,-1,-1,-1,-1,-1,-1,-1,-1],"split_conditions":[1.9695131E-2,9.8361735E-12,9.4096055E-3,2.8080446E1,1.7786497E1,1.7017916E-2,1.2881672E1,-1.0597825E-2,3.598475E-4,7.9518E-3,-2.3426889E-2,6.5715594E-4,-1.1826603E-2,2.9806161E-2,4.446479E-3],"split_indices":[6,37,19,9,4,2,3,0,0,0,0,0,0,0,0],"split_type":[0,0,0,0,0,0,0,0,0,0,0,0,0,0,0],"sum_hessian":[1.3163913E4,5.589576E3,7.5743364E3,4.7234995E3,8.66077E2,4.1096934E3,3.4646433E3,3.9859148E3,7.3758453E2,7.676663E2,9.841065E1,3.3096196E3,8.0007367E2,1.4284819E2,3.321795E3],"tree_param":{"num_deleted":"0","num_feature":"38","num_nodes":"15","size_leaf_vector":"1"}},{"base_weights":[-4.5971695E-2,-8.9004055E-2,7.9959385E-2,-7.94181E-2,-6.546819E-1,9.272805E-1,6.110231E-2,-5.917388E-3,2.8762203E-3,-5.086824E-3,-4.534841E-2,1.4807065E-2,6.625777E-2,-5.037525E-2,3.8036853E-3],"categories":[],"categories_nodes":[],"categories_segments":[],"categories_sizes":[],"default_left":[0,0,0,0,0,0,0,0,0,0,0,0,0,0,0],"id":31,"left_children":[1,3,5,7,9,11,13,-1,-1,-1,-1,-1,-1,-1,-1],"loss_changes":[7.135843E1,5.316366E1,5.3531273E1,5.1459377E1,2.2701286E1,1.7924946E1,5.2582455E1,0E0,0E0,0E0,0E0,0E0,0E0,0E0,0E0],"parents":[2147483647,0,0,1,1,2,2,3,3,4,4,5,5,6,6],"right_children":[2,4,6,8,10,12,14,-1,-1,-1,-1,-1,-1,-1,-1],"split_conditions":[3.314334E-2,2.566025E1,1.2881672E1,1.8553268E1,-4.318695E-3,1.5389159E-2,1.3439242E1,-5.917388E-3,2.8762203E-3,-5.086824E-3,-4.534841E-2,1.4807065E-2,6.625777E-2,-5.037525E-2,3.8036853E-3],"split_indices":[6,4,3,4,30,19,4,0,0,0,0,0,0,0,0],"split_type":[0,0,0,0,0,0,0,0,0,0,0,0,0,0,0],"sum_hessian":[1.3165607E4,9.812751E3,3.3528567E3,9.650356E3,1.6239406E2,7.194439E1,3.2809124E3,7.514337E3,2.1360198E3,5.131915E1,1.11074905E2,2.8492203E1,4.345219E1,4.441515E1,3.236497E3],"tree_param":{"num_deleted":"0","num_feature":"38","num_nodes":"15","size_leaf_vector":"1"}},{"base_weights":[-3.8936067E-2,-8.0019705E-2,8.0878094E-2,-1.6914175E-1,-3.5602566E-2,1.6350777E0,7.557127E-2,-5.2681525E-4,-1.12602515E-2,3.3908754E-4,-8.587416E-3,-7.909591E-3,1.3523912E-1,4.9686804E-3,-1.4014564E-2],"categories":[],"categories_nodes":[],"categories_segments":[],"categories_sizes":[],"default_left":[0,0,0,0,0,0,0,0,0,0,0,0,0,0,0],"id":32,"left_children":[1,3,5,7,9,11,13,-1,-1,-1,-1,-1,-1,-1,-1],"loss_changes":[6.4742226E1,3.876286E1,2.757719E1,2.8961067E1,3.772514E1,2.2258274E1,2.8387964E1,0E0,0E0,0E0,0E0,0E0,0E0,0E0,0E0],"parents":[2147483647,0,0,1,1,2,2,3,3,4,4,5,5,6,6],"right_children":[2,4,6,8,10,12,14,-1,-1,-1,-1,-1,-1,-1,-1],"split_conditions":[1.0250532E-2,1.4037752E1,1.0896178E1,4.30226E1,2.3350252E1,2.4701065E1,2.5706087E1,-5.2681525E-4,-1.12602515E-2,3.3908754E-4,-8.587416E-3,-7.909591E-3,1.3523912E-1,4.9686804E-3,-1.4014564E-2],"split_indices":[19,4,9,0,4,3,4,0,0,0,0,0,0,0,0],"split_type":[0,0,0,0,0,0,0,0,0,0,0,0,0,0,0],"sum_hessian":[1.3150254E4,9.792716E3,3.3575383E3,3.2562705E3,6.5364453E3,1.0380261E1,3.347158E3,8.5072375E2,2.4055469E3,4.985371E3,1.5510743E3,4.1967993E0,6.1834626E0,3.13799E3,2.0916786E2],"tree_param":{"num_deleted":"0","num_feature":"38","num_nodes":"15","size_leaf_vector":"1"}},{"base_weights":[-3.4772318E-2,-1.9236028E-1,-4.464904E-3,-1.5726703E-1,-6.5716004E-1,-3.1869203E-2,1.4049338E-1,-9.213831E-3,4.0008496E-2,5.3841695E-3,-3.878149E-2,4.706409E-2,-1.7841681E-3,4.318848E-2,5.5770357E-3],"categories":[],"categories_nodes":[],"categories_segments":[],"categories_sizes":[],"default_left":[0,0,0,0,0,0,0,0,0,0,0,0,0,0,0],"id":33,"left_children":[1,3,5,7,9,11,13,-1,-1,-1,-1,-1,-1,-1,-1],"loss_changes":[6.243567E1,3.429077E1,4.356329E1,5.08819E1,1.3467861E1,3.4265533E1,3.641508E1,0E0,0E0,0E0,0E0,0E0,0E0,0E0,0E0],"parents":[2147483647,0,0,1,1,2,2,3,3,4,4,5,5,6,6],"right_children":[2,4,6,8,10,12,14,-1,-1,-1,-1,-1,-1,-1,-1],"split_conditions":[8.5747644E-2,2.331146E1,2.1085897E-1,1.9444735E1,1.0757197E1,-5.1849285E-11,1.1980256E1,-9.213831E-3,4.0008496E-2,5.3841695E-3,-3.878149E-2,4.706409E-2,-1.7841681E-3,4.318848E-2,5.5770357E-3],"split_indices":[17,4,17,4,9,37,3,0,0,0,0,0,0,0,0],"split_type":[0,0,0,0,0,0,0,0,0,0,0,0,0,0,0],"sum_hessian":[1.3071745E4,2.1076025E3,1.0964143E4,1.96089E3,1.4671248E2,9.221586E3,1.7425566E3,1.9078757E3,5.3014244E1,1.9689253E1,1.2702323E2,3.5042305E1,9.186544E3,6.595977E1,1.6765968E3],"tree_param":{"num_deleted":"0","num_feature":"38","num_nodes":"15","size_leaf_vector":"1"}},{"base_weights":[-3.9136376E-2,-7.283389E-2,7.74343E-2,7.198945E-4,-1.1524596E-1,4.1195825E-2,2.7339587E-1,6.119379E-3,-3.5498508E-3,5.088469E-2,-5.923659E-3,-6.340709E-4,1.3323267E-2,7.725115E-2,1.1845415E-2],"categories":[],"categories_nodes":[],"categories_segments":[],"categories_sizes":[],"default_left":[0,0,0,0,0,0,0,0,0,0,0,0,0,0,0],"id":34,"left_children":[1,3,5,7,9,11,13,-1,-1,-1,-1,-1,-1,-1,-1],"loss_changes":[5.133973E1,3.1627056E1,2.0803057E1,3.237071E1,2.3631668E1,3.0039536E1,2.0850052E1,0E0,0E0,0E0,0E0,0E0,0E0,0E0,0E0],"parents":[2147483647,0,0,1,1,2,2,3,3,4,4,5,5,6,6],"right_children":[2,4,6,8,10,12,14,-1,-1,-1,-1,-1,-1,-1,-1],"split_conditions":[1.089365E-2,-5.8594267E-3,2.899251E-1,1.8071606E1,-5.1849285E-11,9.2361206E1,3.7572242E-2,6.119379E-3,-3.5498508E-3,5.088469E-2,-5.923659E-3,-6.340709E-4,1.3323267E-2,7.725115E-2,1.1845415E-2],"split_indices":[19,1,17,9,37,37,6,0,0,0,0,0,0,0,0],"split_type":[0,0,0,0,0,0,0,0,0,0,0,0,0,0,0],"sum_hessian":[1.3067288E4,1.0137251E4,2.930037E3,3.7078462E3,6.4294053E3,2.4737798E3,4.5625714E2,1.3747971E3,2.3330488E3,1.736946E1,6.4120356E3,1.997085E3,4.7669492E2,1.1573279E1,4.4468387E2],"tree_param":{"num_deleted":"0","num_feature":"38","num_nodes":"15","size_leaf_vector":"1"}},{"base_weights":[-3.677134E-2,-1.6534328E-1,6.845259E-3,6.768533E-1,-1.7704433E-1,-1.7867163E-2,1.4162673E-1,-4.418173E-2,6.311587E-2,-3.4901623E-3,-1.2831491E-2,4.5175415E-2,-1.0860511E-3,1.5404162E-2,-1.710982E-3],"categories":[],"categories_nodes":[],"categories_segments":[],"categories_sizes":[],"default_left":[0,0,0,0,0,0,0,0,0,0,0,0,0,0,0],"id":35,"left_children":[1,3,5,7,9,11,13,-1,-1,-1,-1,-1,-1,-1,-1],"loss_changes":[7.332301E1,3.275804E1,3.252367E1,4.276854E1,2.7868767E1,2.9320835E1,4.4295654E1,0E0,0E0,0E0,0E0,0E0,0E0,0E0,0E0],"parents":[2147483647,0,0,1,1,2,2,3,3,4,4,5,5,6,6],"right_children":[2,4,6,8,10,12,14,-1,-1,-1,-1,-1,-1,-1,-1],"split_conditions":[9.646754E-2,-4.9155856E-13,2.20762E-1,7.996007E-2,9.5392835E-1,-5.1849285E-11,1.9169462E1,-4.418173E-2,6.311587E-2,-3.4901623E-3,-1.2831491E-2,4.5175415E-2,-1.0860511E-3,1.5404162E-2,-1.710982E-3],"split_indices":[17,37,17,17,18,37,5,0,0,0,0,0,0,0,0],"split_type":[0,0,0,0,0,0,0,0,0,0,0,0,0,0,0],"sum_hessian":[1.3073815E4,3.3109849E3,9.762831E3,4.4591805E1,3.266393E3,8.250884E3,1.5119468E3,1.2026704E1,3.25651E1,1.392237E3,1.8741559E3,3.3395054E1,8.217489E3,7.763246E2,7.3562225E2],"tree_param":{"num_deleted":"0","num_feature":"38","num_nodes":"15","size_leaf_vector":"1"}},{"base_weights":[-3.7985772E-2,-1.4701161E-1,-5.9824847E-3,1.6984066E-1,-1.8411866E-1,-1.0797816E-1,2.3228647E-2,-2.2519272E-2,1.854322E-2,-2.4973463E-2,-6.0004788E-3,2.4648923E-3,-1.2450481E-2,1.0630689E-1,1.0039592E-3],"categories":[],"categories_nodes":[],"categories_segments":[],"categories_sizes":[],"default_left":[0,0,0,0,0,0,0,0,0,0,0,0,0,0,0],"id":36,"left_children":[1,3,5,7,9,11,13,-1,-1,-1,-1,-1,-1,-1,-1],"loss_changes":[4.5372116E1,3.4726215E1,2.9957502E1,3.8802208E1,5.335325E1,4.9665092E1,5.172601E1,0E0,0E0,0E0,0E0,0E0,0E0,0E0,0E0],"parents":[2147483647,0,0,1,1,2,2,3,3,4,4,5,5,6,6],"right_children":[2,4,6,8,10,12,14,-1,-1,-1,-1,-1,-1,-1,-1],"split_conditions":[9.352958E-2,1.3047406E1,1.3996583E1,1.28166275E1,1.3304811E1,-4.7815092E-2,1.4081253E1,-2.2519272E-2,1.854322E-2,-2.4973463E-2,-6.0004788E-3,2.4648923E-3,-1.2450481E-2,1.0630689E-1,1.0039592E-3],"split_indices":[17,5,5,3,3,24,3,0,0,0,0,0,0,0,0],"split_type":[0,0,0,0,0,0,0,0,0,0,0,0,0,0,0],"sum_hessian":[1.3002894E4,2.9498894E3,1.0053005E4,3.0887433E2,2.6410151E3,2.237543E3,7.8154614E3,7.530193E1,2.335724E2,4.4504785E2,2.1959673E3,1.0581555E3,1.1793876E3,1.0679439E1,7.804782E3],"tree_param":{"num_deleted":"0","num_feature":"38","num_nodes":"15","size_leaf_vector":"1"}},{"base_weights":[-2.9496482E-2,-1.7264812E-1,5.779905E-4,4.8681337E-2,-2.0180474E-1,-2.3108779E-2,1.2171904E-1,2.498469E-2,-6.899637E-3,-2.3028234E-2,-5.9811934E-3,4.9747787E-2,-1.3586611E-3,1.3713436E-2,-1.2485257E-4],"categories":[],"categories_nodes":[],"categories_segments":[],"categories_sizes":[],"default_left":[0,0,0,0,0,0,0,0,0,0,0,0,0,0,0],"id":37,"left_children":[1,3,5,7,9,11,13,-1,-1,-1,-1,-1,-1,-1,-1],"loss_changes":[5.622178E1,1.4640739E1,3.0971992E1,2.2355595E1,4.254988E1,3.738546E1,3.3452126E1,0E0,0E0,0E0,0E0,0E0,0E0,0E0,0E0],"parents":[2147483647,0,0,1,1,2,2,3,3,4,4,5,5,6,6],"right_children":[2,4,6,8,10,12,14,-1,-1,-1,-1,-1,-1,-1,-1],"split_conditions":[4.4649797E-3,1.3095615E1,2.1085897E-1,3.2997923E-3,1.364792E1,-5.1849285E-11,1.8491951E1,2.498469E-2,-6.899637E-3,-2.3028234E-2,-5.9811934E-3,4.9747787E-2,-1.3586611E-3,1.3713436E-2,-1.2485257E-4],"split_indices":[19,5,17,19,3,37,3,0,0,0,0,0,0,0,0],"split_type":[0,0,0,0,0,0,0,0,0,0,0,0,0,0,0],"sum_hessian":[1.3057986E4,2.2662258E3,1.0791761E4,2.6371106E2,2.0025146E3,9.027432E3,1.764329E3,7.670696E1,1.8700409E2,4.8157922E2,1.5209354E3,3.492767E1,8.992504E3,7.913117E2,9.730173E2],"tree_param":{"num_deleted":"0","num_feature":"38","num_nodes":"15","size_leaf_vector":"1"}},{"base_weights":[-2.6183706E-2,-1.3476206E-1,5.1574325E-3,-2.4770798E-1,-8.2854725E-2,-5.25732E-3,2.0735914E-1,-4.1772347E-4,-2.2322027E-2,7.619136E-2,-5.2086576E-3,2.4887684E-3,-3.3406203E-3,-3.2296858E-3,2.020163E-2],"categories":[],"categories_nodes":[],"categories_segments":[],"categories_sizes":[],"default_left":[0,0,0,0,0,0,0,0,0,0,0,0,0,0,0],"id":38,"left_children":[1,3,5,7,9,11,13,-1,-1,-1,-1,-1,-1,-1,-1],"loss_changes":[4.4278713E1,1.7066696E1,2.1266336E1,4.3625175E1,6.8606155E1,3.2538513E1,2.648366E1,0E0,0E0,0E0,0E0,0E0,0E0,0E0,0E0],"parents":[2147483647,0,0,1,1,2,2,3,3,4,4,5,5,6,6],"right_children":[2,4,6,8,10,12,14,-1,-1,-1,-1,-1,-1,-1,-1],"split_conditions":[4.868451E-3,1.3645878E1,5.258981E-2,1.3181591E1,1.3687E1,2E0,-1.8066914E1,-4.1772347E-4,-2.2322027E-2,7.619136E-2,-5.2086576E-3,2.4887684E-3,-3.3406203E-3,-3.2296858E-3,2.020163E-2],"split_indices":[19,4,1,3,4,21,35,0,0,0,0,0,0,0,0],"split_type":[0,0,0,0,0,0,0,0,0,0,0,0,0,0,0],"sum_hessian":[1.3010584E4,2.9135547E3,1.0097029E4,9.1620306E2,1.9973516E3,9.603365E3,4.9366415E2,4.1609735E2,5.001057E2,2.5232117E1,1.9721195E3,5.070409E3,4.532956E3,2.0746321E2,2.8620093E2],"tree_param":{"num_deleted":"0","num_feature":"38","num_nodes":"15","size_leaf_vector":"1"}},{"base_weights":[-2.3617102E-2,-1.2555099E-1,1.0477989E-2,1.1595585E-1,-1.5884188E-1,-1.0176227E-1,4.11797E-2,8.1492326E-5,3.095797E-2,-2.7152736E-2,-4.8999623E-3,4.903849E-3,-1.2687768E-2,7.9505645E-2,1.8685783E-3],"categories":[],"categories_nodes":[],"categories_segments":[],"categories_sizes":[],"default_left":[0,0,0,0,0,0,0,0,0,0,0,0,0,0,0],"id":39,"left_children":[1,3,5,7,9,11,13,-1,-1,-1,-1,-1,-1,-1,-1],"loss_changes":[4.517605E1,2.6212955E1,3.357213E1,2.2739096E1,6.689144E1,6.358442E1,4.5062572E1,0E0,0E0,0E0,0E0,0E0,0E0,0E0,0E0],"parents":[2147483647,0,0,1,1,2,2,3,3,4,4,5,5,6,6],"right_children":[2,4,6,8,10,12,14,-1,-1,-1,-1,-1,-1,-1,-1],"split_conditions":[9.646754E-2,1.3102875E1,1.3996583E1,8.479855E-3,1.3217858E1,4.7509552E1,1.405967E1,8.1492326E-5,3.095797E-2,-2.7152736E-2,-4.8999623E-3,4.903849E-3,-1.2687768E-2,7.9505645E-2,1.8685783E-3],"split_indices":[17,4,5,2,5,0,4,0,0,0,0,0,0,0,0],"split_type":[0,0,0,0,0,0,0,0,0,0,0,0,0,0,0],"sum_hessian":[1.2997256E4,3.2570354E3,9.740221E3,3.9427896E2,2.8627563E3,2.0915508E3,7.64867E3,3.2210184E2,7.2177124E1,3.902782E2,2.4724783E3,9.037122E2,1.1878386E3,1.7736958E1,7.630933E3],"tree_param":{"num_deleted":"0","num_feature":"38","num_nodes":"15","size_leaf_vector":"1"}},{"base_weights":[-2.183253E-2,-1.2814952E-1,8.567453E-3,-2.47025E-2,-2.5805846E-1,-9.01626E-2,3.6594786E-2,1.0108834E-1,-1.5734792E-3,-1.6911933E-2,-3.9867074E-3,7.1097515E-3,-9.992658E-3,6.8028085E-3,-6.8502687E-4],"categories":[],"categories_nodes":[],"categories_segments":[],"categories_sizes":[],"default_left":[0,0,0,0,0,0,0,0,0,0,0,0,0,0,0],"id":40,"left_children":[1,3,5,7,9,11,13,-1,-1,-1,-1,-1,-1,-1,-1],"loss_changes":[4.2118237E1,3.8934002E1,2.8046938E1,2.241826E1,1.8337738E1,5.714917E1,3.9493084E1,0E0,0E0,0E0,0E0,0E0,0E0,0E0,0E0],"parents":[2147483647,0,0,1,1,2,2,3,3,4,4,5,5,6,6],"right_children":[2,4,6,8,10,12,14,-1,-1,-1,-1,-1,-1,-1,-1],"split_conditions":[9.312817E-2,9.7987026E-1,1.3996583E1,1.1762896E1,5.9149386E-3,4.4054203E1,1.766454E1,1.0108834E-1,-1.5734792E-3,-1.6911933E-2,-3.9867074E-3,7.1097515E-3,-9.992658E-3,6.8028085E-3,-6.8502687E-4],"split_indices":[17,18,5,3,19,0,5,0,0,0,0,0,0,0,0],"split_type":[0,0,0,0,0,0,0,0,0,0,0,0,0,0,0],"sum_hessian":[1.3030152E4,2.896631E3,1.0133521E4,1.613213E3,1.2834182E3,2.2401333E3,7.893388E3,4.335472E0,1.6088776E3,8.847225E2,3.986957E2,7.182876E2,1.5218457E3,2.6503972E3,5.2429907E3],"tree_param":{"num_deleted":"0","num_feature":"38","num_nodes":"15","size_leaf_vector":"1"}},{"base_weights":[-2.3149729E-2,-5.390191E-2,6.4673774E-2,-4.3088306E-2,-4.9123812E-1,9.966515E-1,5.4021E-2,-4.0440005E-3,4.5791175E-3,-1.2519787E-3,-3.9400525E-2,2.6498547E-2,8.475501E-2,-1.5623755E-2,3.6423418E-3],"categories":[],"categories_nodes":[],"categories_segments":[],"categories_sizes":[],"default_left":[0,0,0,0,0,0,0,0,0,0,0,0,0,0,0],"id":41,"left_children":[1,3,5,7,9,11,13,-1,-1,-1,-1,-1,-1,-1,-1],"loss_changes":[3.4945004E1,4.5297897E1,3.326289E1,4.7607468E1,3.1958614E1,1.144442E1,2.2921963E1,0E0,0E0,0E0,0E0,0E0,0E0,0E0,0E0],"parents":[2147483647,0,0,1,1,2,2,3,3,4,4,5,5,6,6],"right_children":[2,4,6,8,10,12,14,-1,-1,-1,-1,-1,-1,-1,-1],"split_conditions":[3.314334E-2,2.4820658E1,1.1980256E1,1.8553268E1,-2.46745E-3,7.778601E-3,1.4760715E1,-4.0440005E-3,4.5791175E-3,-1.2519787E-3,-3.9400525E-2,2.6498547E-2,8.475501E-2,-1.5623755E-2,3.6423418E-3],"split_indices":[6,5,3,4,30,1,4,0,0,0,0,0,0,0,0],"split_type":[0,0,0,0,0,0,0,0,0,0,0,0,0,0,0],"sum_hessian":[1.2936641E4,9.581855E3,3.354786E3,9.351723E3,2.3013284E2,3.68668E1,3.317919E3,7.30279E3,2.0489324E3,8.993643E1,1.4019641E2,2.3154505E1,1.3712296E1,1.6134293E2,3.1565762E3],"tree_param":{"num_deleted":"0","num_feature":"38","num_nodes":"15","size_leaf_vector":"1"}},{"base_weights":[-1.6684806E-2,1.8144377E-1,-2.9655313E-2,4.95956E-1,1.0984152E-1,-2.1525158E-2,-3.5064268E-1,-1.7930418E-2,3.2704767E-2,2.6824182E-2,1.7251356E-3,-1.8338077E-3,1.0649351E-2,3.570198E-2,-2.2591809E-2],"categories":[],"categories_nodes":[],"categories_segments":[],"categories_sizes":[],"default_left":[0,0,0,0,0,0,0,0,0,0,0,0,0,0,0],"id":42,"left_children":[1,3,5,7,9,11,13,-1,-1,-1,-1,-1,-1,-1,-1],"loss_changes":[3.330785E1,1.7879797E1,3.173565E1,2.0154034E1,2.087362E1,4.2162548E1,3.268867E1,0E0,0E0,0E0,0E0,0E0,0E0,0E0,0E0],"parents":[2147483647,0,0,1,1,2,2,3,3,4,4,5,5,6,6],"right_children":[2,4,6,8,10,12,14,-1,-1,-1,-1,-1,-1,-1,-1],"split_conditions":[-6.155714E-1,-5.029921E-2,2.5894213E1,1.3860795E1,1.3719195E1,1.215E-1,-4.827183E-2,-1.7930418E-2,3.2704767E-2,2.6824182E-2,1.7251356E-3,-1.8338077E-3,1.0649351E-2,3.570198E-2,-2.2591809E-2],"split_indices":[23,2,4,4,4,8,1,0,0,0,0,0,0,0,0],"split_type":[0,0,0,0,0,0,0,0,0,0,0,0,0,0,0],"sum_hessian":[1.2958027E4,7.953787E2,1.2162648E4,1.4639842E2,6.4898035E2,1.1863236E4,2.994119E2,2.266298E1,1.23735435E2,9.648227E1,5.5249805E2,1.11441E4,7.1913696E2,2.5462135E1,2.7394977E2],"tree_param":{"num_deleted":"0","num_feature":"38","num_nodes":"15","size_leaf_vector":"1"}},{"base_weights":[-2.7952777E-2,-6.1139017E-2,6.3618556E-2,1.490358E-2,-9.971804E-2,3.3150896E-1,4.207057E-2,3.2749884E-2,-6.981256E-4,-3.754522E-3,-1.270803E-2,2.345529E-2,1.2815474E-3,-3.1900133E-3,4.8954743E-3],"categories":[],"categories_nodes":[],"categories_segments":[],"categories_sizes":[],"default_left":[0,0,0,0,0,0,0,0,0,0,0,0,0,0,0],"id":43,"left_children":[1,3,5,7,9,11,13,-1,-1,-1,-1,-1,-1,-1,-1],"loss_changes":[3.951151E1,2.7996925E1,1.995153E1,5.937178E1,2.4061527E1,1.0819208E1,1.8937775E1,0E0,0E0,0E0,0E0,0E0,0E0,0E0,0E0],"parents":[2147483647,0,0,1,1,2,2,3,3,4,4,5,5,6,6],"right_children":[2,4,6,8,10,12,14,-1,-1,-1,-1,-1,-1,-1,-1],"split_conditions":[1.0170695E-2,-7.063505E-3,2.8223442E1,1.2878864E1,2.3350252E1,2.613309E-1,1.6921282E1,3.2749884E-2,-6.981256E-4,-3.754522E-3,-1.270803E-2,2.345529E-2,1.2815474E-3,-3.1900133E-3,4.8954743E-3],"split_indices":[19,1,0,5,4,15,4,0,0,0,0,0,0,0,0],"split_type":[0,0,0,0,0,0,0,0,0,0,0,0,0,0,0],"sum_hessian":[1.2999597E4,9.541872E3,3.4577244E3,3.2117832E3,6.330089E3,2.563482E2,3.201376E3,1.3765468E2,3.0741284E3,5.4607905E3,8.692984E2,1.7644305E2,7.990516E1,1.1053966E3,2.0959795E3],"tree_param":{"num_deleted":"0","num_feature":"38","num_nodes":"15","size_leaf_vector":"1"}},{"base_weights":[-2.6679954E-2,-1.4229766E-1,-7.3003625E-3,2.0061064E-1,-1.8048152E-1,6.9547683E-4,-3.1872776E-1,3.7980635E-2,-7.2369725E-3,-2.287517E-2,-6.6525615E-3,-6.0356053E-4,8.887838E-3,-3.266157E-2,-7.739462E-3],"categories":[],"categories_nodes":[],"categories_segments":[],"categories_sizes":[],"default_left":[0,0,0,0,0,0,0,0,0,0,0,0,0,0,0],"id":44,"left_children":[1,3,5,7,9,11,13,-1,-1,-1,-1,-1,-1,-1,-1],"loss_changes":[2.8946024E1,2.4319096E1,2.755501E1,3.6074173E1,2.187209E1,2.439196E1,1.5088924E1,0E0,0E0,0E0,0E0,0E0,0E0,0E0,0E0],"parents":[2147483647,0,0,1,1,2,2,3,3,4,4,5,5,6,6],"right_children":[2,4,6,8,10,12,14,-1,-1,-1,-1,-1,-1,-1,-1],"split_conditions":[4.231469E-3,1.308022E1,2.5979017E1,3.2997923E-3,1.3270685E1,1.215E-1,8.24599E-3,3.7980635E-2,-7.2369725E-3,-2.287517E-2,-6.6525615E-3,-6.0356053E-4,8.887838E-3,-3.266157E-2,-7.739462E-3],"split_indices":[19,4,4,19,5,8,19,0,0,0,0,0,0,0,0],"split_type":[0,0,0,0,0,0,0,0,0,0,0,0,0,0,0],"sum_hessian":[1.2918197E4,1.8535665E3,1.1064631E4,1.8529353E2,1.668273E3,1.0788633E4,2.7599832E2,7.030102E1,1.14992516E2,2.4261395E2,1.425659E3,1.0063923E4,7.247094E2,8.97947E1,1.8620364E2],"tree_param":{"num_deleted":"0","num_feature":"38","num_nodes":"15","size_leaf_vector":"1"}},{"base_weights":[-2.0787464E-2,-8.1042275E-2,1.8506564E-2,-6.688122E-2,-8.532238E-1,3.9625034E-1,5.245587E-3,4.6113753E-3,-5.8715506E-3,-2.650239E-2,-5.8212556E-2,5.9031695E-2,6.112215E-3,-1.2471522E-3,9.923977E-3],"categories":[],"categories_nodes":[],"categories_segments":[],"categories_sizes":[],"default_left":[0,0,0,0,0,0,0,0,0,0,0,0,0,0,0],"id":45,"left_children":[1,3,5,7,9,11,13,-1,-1,-1,-1,-1,-1,-1,-1],"loss_changes":[3.062615E1,5.5773777E1,3.9219616E1,4.034508E1,8.616653E0,5.692643E1,4.4136974E1,0E0,0E0,0E0,0E0,0E0,0E0,0E0,0E0],"parents":[2147483647,0,0,1,1,2,2,3,3,4,4,5,5,6,6],"right_children":[2,4,6,8,10,12,14,-1,-1,-1,-1,-1,-1,-1,-1],"split_conditions":[1.53979435E1,1.5321613E1,1.5809973E1,1.314384E1,1.9209827E1,-2.904402E-1,8.974481E1,4.6113753E-3,-5.8715506E-3,-2.650239E-2,-5.8212556E-2,5.9031695E-2,6.112215E-3,-1.2471522E-3,9.923977E-3],"split_indices":[5,5,3,3,9,24,32,0,0,0,0,0,0,0,0],"split_type":[0,0,0,0,0,0,0,0,0,0,0,0,0,0,0],"sum_hessian":[1.2933596E4,5.104744E3,7.828852E3,5.013881E3,9.086309E1,2.6453702E2,7.564315E3,1.208675E3,3.805206E3,4.588745E1,4.4975643E1,6.762927E1,1.9690775E2,6.5429854E3,1.0213293E3],"tree_param":{"num_deleted":"0","num_feature":"38","num_nodes":"15","size_leaf_vector":"1"}},{"base_weights":[-2.2589477E-2,-3.962129E-2,1.0018507E-1,-7.032085E-2,1.8527824E-2,5.1538163E-1,3.4238376E-2,-2.5981325E-3,-2.4688285E-2,7.6028616E-3,-5.8843475E-3,2.1747923E-2,8.298389E-2,4.31336E-3,-2.5278527E-2],"categories":[],"categories_nodes":[],"categories_segments":[],"categories_sizes":[],"default_left":[0,0,0,0,0,0,0,0,0,0,0,0,0,0,0],"id":46,"left_children":[1,3,5,7,9,11,13,-1,-1,-1,-1,-1,-1,-1,-1],"loss_changes":[2.7063934E1,2.0289442E1,4.315581E1,5.7797012E1,7.145712E1,1.9160355E1,3.8288666E1,0E0,0E0,0E0,0E0,0E0,0E0,0E0,0E0],"parents":[2147483647,0,0,1,1,2,2,3,3,4,4,5,5,6,6],"right_children":[2,4,6,8,10,12,14,-1,-1,-1,-1,-1,-1,-1,-1],"split_conditions":[2.1802787E-1,1.8553268E1,1.6111952E1,1.8362934E1,2.3350252E1,2.6342823E1,2.566025E1,-2.5981325E-3,-2.4688285E-2,7.6028616E-3,-5.8843475E-3,2.1747923E-2,8.298389E-2,4.31336E-3,-2.5278527E-2],"split_indices":[17,4,9,3,4,3,4,0,0,0,0,0,0,0,0],"split_type":[0,0,0,0,0,0,0,0,0,0,0,0,0,0,0],"sum_hessian":[1.293971E4,1.1363934E4,1.5757762E3,7.4372573E3,3.9266758E3,2.150457E2,1.3607306E3,7.129294E3,3.0796365E2,1.9828247E3,1.9438511E3,2.0221385E2,1.2831846E1,1.2418741E3,1.1885634E2],"tree_param":{"num_deleted":"0","num_feature":"38","num_nodes":"15","size_leaf_vector":"1"}},{"base_weights":[-2.0235926E-2,-2.819973E-2,2.726053E-1,-6.5545836E-3,-1.23448126E-1,1.3616993E0,1.6852212E-1,-1.0346918E-3,3.341486E-2,-3.089726E-2,-4.340714E-3,-3.3520605E-2,1.0101022E-1,-7.932994E-3,2.0715607E-2],"categories":[],"categories_nodes":[],"categories_segments":[],"categories_sizes":[],"default_left":[0,0,0,0,0,0,0,0,0,0,0,0,0,0,0],"id":47,"left_children":[1,3,5,7,9,11,13,-1,-1,-1,-1,-1,-1,-1,-1],"loss_changes":[3.006913E1,2.5872606E1,3.8465775E1,9.759866E1,4.2042393E1,4.101222E1,2.5214333E1,0E0,0E0,0E0,0E0,0E0,0E0,0E0,0E0],"parents":[2147483647,0,0,1,1,2,2,3,3,4,4,5,5,6,6],"right_children":[2,4,6,8,10,12,14,-1,-1,-1,-1,-1,-1,-1,-1],"split_conditions":[3.259992E-1,2.327023E1,-3.0579672E-15,2.2813313E1,2.1464447E-2,-1.8162765E-11,1.703976E1,-1.0346918E-3,3.341486E-2,-3.089726E-2,-4.340714E-3,-3.3520605E-2,1.0101022E-1,-7.932994E-3,2.0715607E-2],"split_indices":[17,5,37,5,6,37,3,0,0,0,0,0,0,0,0],"split_type":[0,0,0,0,0,0,0,0,0,0,0,0,0,0,0],"sum_hessian":[1.2889123E4,1.2548764E4,3.4035938E2,1.0225983E4,2.3227803E3,2.8636202E1,3.1172318E2,1.0017078E4,2.0890486E2,1.5911534E2,2.163665E3,7.004036E0,2.1632166E1,1.3387315E2,1.7785E2],"tree_param":{"num_deleted":"0","num_feature":"38","num_nodes":"15","size_leaf_vector":"1"}},{"base_weights":[-1.8043166E-2,-1.010615E-2,-3.1293112E-1,-4.2767543E-2,7.8304246E-2,3.2479137E-1,-4.0342674E-1,-1.4753821E-3,-1.076772E-2,2.4427893E-3,2.9285187E-2,4.3736517E-2,-3.6423206E-2,3.0960182E-2,-2.336589E-2],"categories":[],"categories_nodes":[],"categories_segments":[],"categories_sizes":[],"default_left":[0,0,0,0,0,0,0,0,0,0,0,0,0,0,0],"id":48,"left_children":[1,3,5,7,9,11,13,-1,-1,-1,-1,-1,-1,-1,-1],"loss_changes":[3.011921E1,3.619547E1,1.9596134E1,2.0940315E1,5.0498642E1,2.5236034E1,1.9617142E1,0E0,0E0,0E0,0E0,0E0,0E0,0E0,0E0],"parents":[2147483647,0,0,1,1,2,2,3,3,4,4,5,5,6,6],"right_children":[2,4,6,8,10,12,14,-1,-1,-1,-1,-1,-1,-1,-1],"split_conditions":[2.5894213E1,3.1898364E-2,-4.1992985E-2,2.3350252E1,2.5481855E1,6.3427314E-2,-5.9701884E-14,-1.4753821E-3,-1.076772E-2,2.4427893E-3,2.9285187E-2,4.3736517E-2,-3.6423206E-2,3.0960182E-2,-2.336589E-2],"split_indices":[4,6,2,4,4,6,37,0,0,0,0,0,0,0,0],"split_type":[0,0,0,0,0,0,0,0,0,0,0,0,0,0,0],"sum_hessian":[1.2868891E4,1.2532605E4,3.3628537E2,9.152076E3,3.380529E3,4.1468426E1,2.9481696E2,8.500176E3,6.5190015E2,3.1961284E3,1.844007E2,2.7354992E1,1.4113434E1,1.6825113E1,2.7799182E2],"tree_param":{"num_deleted":"0","num_feature":"38","num_nodes":"15","size_leaf_vector":"1"}},{"base_weights":[-1.8645441E-2,-4.8716776E-2,6.595151E-2,-4.1304834E-2,-5.116992E-1,7.860294E-1,4.9607087E-2,-3.58172E-3,3.1635512E-3,-2.3134712E-3,-4.4224333E-2,4.881568E-2,-2.4679786E-2,-4.6595242E-2,3.2208827E-3],"categories":[],"categories_nodes":[],"categories_segments":[],"categories_sizes":[],"default_left":[0,0,0,0,0,0,0,0,0,0,0,0,0,0,0],"id":49,"left_children":[1,3,5,7,9,11,13,-1,-1,-1,-1,-1,-1,-1,-1],"loss_changes":[3.2710804E1,3.2530685E1,3.9648567E1,2.962074E1,2.5877514E1,1.8689068E1,4.8007477E1,0E0,0E0,0E0,0E0,0E0,0E0,0E0,0E0],"parents":[2147483647,0,0,1,1,2,2,3,3,4,4,5,5,6,6],"right_children":[2,4,6,8,10,12,14,-1,-1,-1,-1,-1,-1,-1,-1],"split_conditions":[3.314334E-2,2.566025E1,1.2881672E1,1.8640022E1,-2.46745E-3,1.7021418E-12,1.3421738E1,-3.58172E-3,3.1635512E-3,-2.3134712E-3,-4.4224333E-2,4.881568E-2,-2.4679786E-2,-4.6595242E-2,3.2208827E-3],"split_indices":[6,4,3,3,30,37,4,0,0,0,0,0,0,0,0],"split_type":[0,0,0,0,0,0,0,0,0,0,0,0,0,0,0],"sum_hessian":[1.2856044E4,9.484906E3,3.371137E3,9.336526E3,1.4838033E2,7.3775085E1,3.297362E3,7.237724E3,2.0988025E3,6.649038E1,8.188995E1,6.443103E1,9.344057E0,4.8095566E1,3.2492664E3],"tree_param":{"num_deleted":"0","num_feature":"38","num_nodes":"15","size_leaf_vector":"1"}},{"base_weights":[-9.587844E-3,8.634471E-2,-3.521866E-2,7.6449984E-1,6.9178924E-2,-5.971682E-2,8.512166E-2,-2.619347E-2,4.7645833E-2,1.956295E-2,2.180248E-3,-9.159985E-3,-1.964171E-3,-4.5143957E-3,1.3164478E-2],"categories":[],"categories_nodes":[],"categories_segments":[],"categories_sizes":[],"default_left":[0,0,0,0,0,0,0,0,0,0,0,0,0,0,0],"id":50,"left_children":[1,3,5,7,9,11,13,-1,-1,-1,-1,-1,-1,-1,-1],"loss_changes":[3.1601234E1,3.149227E1,2.9905155E1,1.6714767E1,2.1761353E1,2.1256193E1,5.364838E1,0E0,0E0,0E0,0E0,0E0,0E0,0E0,0E0],"parents":[2147483647,0,0,1,1,2,2,3,3,4,4,5,5,6,6],"right_children":[2,4,6,8,10,12,14,-1,-1,-1,-1,-1,-1,-1,-1],"split_conditions":[-1.01058846E2,-6.66055E-2,9.007576E1,1.3860795E1,1.308206E1,8.462407E-2,1.680092E1,-2.619347E-2,4.7645833E-2,1.956295E-2,2.180248E-3,-9.159985E-3,-1.964171E-3,-4.5143957E-3,1.3164478E-2],"split_indices":[36,2,32,4,3,17,5,0,0,0,0,0,0,0,0],"split_type":[0,0,0,0,0,0,0,0,0,0,0,0,0,0,0],"sum_hessian":[1.2849909E4,2.7088171E3,1.0141092E4,6.579931E1,2.6430178E3,8.426233E3,1.7148583E3,8.167902E0,5.763141E1,1.9337259E2,2.4496453E3,1.1952355E3,7.230998E3,8.643667E2,8.5049164E2],"tree_param":{"num_deleted":"0","num_feature":"38","num_nodes":"15","size_leaf_vector":"1"}},{"base_weights":[-2.1661067E-2,2.4055804E-1,-2.8792892E-2,1.17376514E-1,6.560328E-1,-4.66439E-2,8.2521535E-2,3.7457533E-2,-1.5285289E-3,-1.1157391E-2,3.981224E-2,-7.921009E-3,-1.199955E-3,-2.7555535E-3,1.1008025E-2],"categories":[],"categories_nodes":[],"categories_segments":[],"categories_sizes":[],"default_left":[0,0,0,0,0,0,0,0,0,0,0,0,0,0,0],"id":51,"left_children":[1,3,5,7,9,11,13,-1,-1,-1,-1,-1,-1,-1,-1],"loss_changes":[2.407446E1,1.7368168E1,2.4901455E1,2.4711315E1,9.759911E0,2.7329512E1,3.2822647E1,0E0,0E0,0E0,0E0,0E0,0E0,0E0,0E0],"parents":[2147483647,0,0,1,1,2,2,3,3,4,4,5,5,6,6],"right_children":[2,4,6,8,10,12,14,-1,-1,-1,-1,-1,-1,-1,-1],"split_conditions":[2.8223442E1,4.0696733E-2,9.007576E1,1.383391E-2,1.3620427E1,8.770282E-2,1.675476E1,3.7457533E-2,-1.5285289E-3,-1.1157391E-2,3.981224E-2,-7.921009E-3,-1.199955E-3,-2.7555535E-3,1.1008025E-2],"split_indices":[0,6,32,6,5,17,5,0,0,0,0,0,0,0,0],"split_type":[0,0,0,0,0,0,0,0,0,0,0,0,0,0,0],"sum_hessian":[1.2868644E4,3.3986697E2,1.2528776E4,2.631344E2,7.6732574E1,1.0797767E4,1.7310099E3,4.9157013E1,2.1397737E2,1.0472798E1,6.625977E1,1.818E3,8.979767E3,8.658247E2,8.651852E2],"tree_param":{"num_deleted":"0","num_feature":"38","num_nodes":"15","size_leaf_vector":"1"}},{"base_weights":[-2.2781251E-2,-1.0669011E-1,-5.655437E-3,-1.6574545E-1,2.3208868E-2,-2.2636969E-3,-5.1116174E-1,1.3903744E-2,-1.0136269E-2,3.2754545E-3,-3.193653E-2,-6.0507783E-4,9.837025E-3,-3.6117803E-2,7.235876E-3],"categories":[],"categories_nodes":[],"categories_segments":[],"categories_sizes":[],"default_left":[0,0,0,0,0,0,0,0,0,0,0,0,0,0,0],"id":52,"left_children":[1,3,5,7,9,11,13,-1,-1,-1,-1,-1,-1,-1,-1],"loss_changes":[1.8503263E1,1.6747028E1,1.8336035E1,2.4684479E1,1.9166536E1,2.080334E1,9.977659E0,0E0,0E0,0E0,0E0,0E0,0E0,0E0,0E0],"parents":[2147483647,0,0,1,1,2,2,3,3,4,4,5,5,6,6],"right_children":[2,4,6,8,10,12,14,-1,-1,-1,-1,-1,-1,-1,-1],"split_conditions":[4.4649797E-3,1.0235915E-1,1.7205751E0,2.4729448E-3,3.2245995E1,2.899251E-1,4.0848415E-2,1.3903744E-2,-1.0136269E-2,3.2754545E-3,-3.193653E-2,-6.0507783E-4,9.837025E-3,-3.6117803E-2,7.235876E-3],"split_indices":[19,17,18,19,9,17,1,0,0,0,0,0,0,0,0],"split_type":[0,0,0,0,0,0,0,0,0,0,0,0,0,0,0],"sum_hessian":[1.2875667E4,2.181595E3,1.0694072E4,1.4995746E3,6.8202026E2,1.0623796E4,7.0276825E1,1.148358E2,1.3847388E3,6.4190155E2,4.0118694E1,1.0124238E4,4.9955698E2,5.3082733E1,1.7194092E1],"tree_param":{"num_deleted":"0","num_feature":"38","num_nodes":"15","size_leaf_vector":"1"}},{"base_weights":[-9.1775665E-3,-2.585801E-3,-2.8666952E-1,-9.75765E-2,1.6802024E-2,8.3327256E-2,-3.1217724E-1,8.26014E-3,-6.3893446E-3,4.1120467E-4,1.5155128E-2,-3.914829E-2,-8.137846E-3],"categories":[],"categories_nodes":[],"categories_segments":[],"categories_sizes":[],"default_left":[0,0,0,0,0,0,0,0,0,0,0,0,0],"id":53,"left_children":[1,3,5,7,9,-1,11,-1,-1,-1,-1,-1,-1],"loss_changes":[2.355664E1,2.3171526E1,1.5408333E1,1.6951847E1,2.5659508E1,0E0,2.068179E1,0E0,0E0,0E0,0E0,0E0,0E0],"parents":[2147483647,0,0,1,1,2,2,3,3,4,4,6,6],"right_children":[2,4,6,8,10,-1,12,-1,-1,-1,-1,-1,-1],"split_conditions":[2.6099737E1,4.4371504E-3,6.521039E-2,1.308022E1,2.5481855E1,8.3327256E-2,7.638496E-3,8.26014E-3,-6.3893446E-3,4.1120467E-4,1.5155128E-2,-3.914829E-2,-8.137846E-3],"split_indices":[3,19,17,4,4,0,19,0,0,0,0,0,0],"split_type":[0,0,0,0,0,0,0,0,0,0,0,0,0],"sum_hessian":[1.2877784E4,1.2579959E4,2.9782507E2,2.1316929E3,1.0448267E4,3.0099223E0,2.9481516E2,2.1933972E2,1.912353E3,1.0145328E4,3.0293835E2,7.000518E1,2.2480998E2],"tree_param":{"num_deleted":"0","num_feature":"38","num_nodes":"13","size_leaf_vector":"1"}},{"base_weights":[-1.3725222E-2,2.4888559E-1,-1.9893842E-2,2.2210985E-1,1.0576954E-1,-9.097964E-2,3.3740592E-3,4.151017E-3,2.345014E-2,-5.867984E-5,-1.0028983E-2,-1.5377958E-3,3.0142064E-3],"categories":[],"categories_nodes":[],"categories_segments":[],"categories_sizes":[],"default_left":[0,0,0,0,0,0,0,0,0,0,0,0,0],"id":54,"left_children":[1,3,5,7,-1,9,11,-1,-1,-1,-1,-1,-1],"loss_changes":[2.0856302E1,1.4297579E1,2.0803131E1,1.0002923E1,0E0,3.0527994E1,1.8408531E1,0E0,0E0,0E0,0E0,0E0,0E0],"parents":[2147483647,0,0,1,1,2,2,3,3,5,5,6,6],"right_children":[2,4,6,8,-1,10,12,-1,-1,-1,-1,-1,-1],"split_conditions":[2.7475418E1,4.8634212E-4,9.646754E-2,-8.436573E-3,1.0576954E-1,9.7987026E-1,6.12002E-1,4.151017E-3,2.345014E-2,-5.867984E-5,-1.0028983E-2,-1.5377958E-3,3.0142064E-3],"split_indices":[0,30,17,30,0,18,13,0,0,0,0,0,0],"split_type":[0,0,0,0,0,0,0,0,0,0,0,0,0],"sum_hessian":[1.2870634E4,2.9448428E2,1.2576149E4,2.9142273E2,3.0615714E0,3.1005977E3,9.475552E3,1.8726271E2,1.0416E2,1.704744E3,1.3958536E3,5.9235522E3,3.5519995E3],"tree_param":{"num_deleted":"0","num_feature":"38","num_nodes":"13","size_leaf_vector":"1"}},{"base_weights":[-1.2868963E-2,6.818231E-3,-9.724303E-2,-4.7442415E-3,5.3584456E-1,-2.0665827E-1,4.0354915E-2,-1.0339873E-3,1.1251952E-2,5.917507E-2,1.6200025E-2,-3.4487717E-2,-8.664387E-3,6.17791E-3,-8.586139E-3],"categories":[],"categories_nodes":[],"categories_segments":[],"categories_sizes":[],"default_left":[0,0,0,0,0,0,0,0,0,0,0,0,0,0,0],"id":55,"left_children":[1,3,5,7,9,11,13,-1,-1,-1,-1,-1,-1,-1,-1],"loss_changes":[2.1339611E1,6.3721264E1,3.6599525E1,3.7336174E1,3.018695E1,2.1709137E1,1.9032751E1,0E0,0E0,0E0,0E0,0E0,0E0,0E0,0E0],"parents":[2147483647,0,0,1,1,2,2,3,3,4,4,5,5,6,6],"right_children":[2,4,6,8,10,12,14,-1,-1,-1,-1,-1,-1,-1,-1],"split_conditions":[2.3350252E1,2.2990517E1,4.1144658E-2,2.4731186E-1,1.0191773E-1,2.3496416E1,2.5177994E-1,-1.0339873E-3,1.1251952E-2,5.917507E-2,1.6200025E-2,-3.4487717E-2,-8.664387E-3,6.17791E-3,-8.586139E-3],"split_indices":[4,4,6,17,17,3,17,0,0,0,0,0,0,0,0],"split_type":[0,0,0,0,0,0,0,0,0,0,0,0,0,0,0],"sum_hessian":[1.2845363E4,1.0415913E4,2.4294497E3,1.0194101E4,2.2181265E2,1.353038E3,1.0764117E3,9.533838E3,6.6026294E2,5.354042E1,1.6827223E2,8.61531E1,1.2668849E3,7.734038E2,3.030079E2],"tree_param":{"num_deleted":"0","num_feature":"38","num_nodes":"15","size_leaf_vector":"1"}},{"base_weights":[-8.757017E-3,-1.4109492E-3,-2.8016913E-1,-8.096526E-3,2.902026E-1,-8.1883326E-2,-6.264977E-1,1.692065E-2,-6.8177725E-4,7.047643E-3,5.5343766E-2,-1.1850671E-2,2.4275426E-2,6.221498E-2,-3.544849E-2],"categories":[],"categories_nodes":[],"categories_segments":[],"categories_sizes":[],"default_left":[0,0,0,0,0,0,0,0,0,0,0,0,0,0,0],"id":56,"left_children":[1,3,5,7,9,11,13,-1,-1,-1,-1,-1,-1,-1,-1],"loss_changes":[2.5595366E1,2.4372992E1,2.3180595E1,2.346087E1,3.399558E1,1.9152098E1,1.9862804E1,0E0,0E0,0E0,0E0,0E0,0E0,0E0,0E0],"parents":[2147483647,0,0,1,1,2,2,3,3,4,4,5,5,6,6],"right_children":[2,4,6,8,10,12,14,-1,-1,-1,-1,-1,-1,-1,-1],"split_conditions":[2.5894213E1,6.139132E-2,4.0863968E1,-6.66055E-2,3.259992E-1,1.541993E1,-5.9701884E-14,1.692065E-2,-6.8177725E-4,7.047643E-3,5.5343766E-2,-1.1850671E-2,2.4275426E-2,6.221498E-2,-3.544849E-2],"split_indices":[4,2,36,2,17,37,37,0,0,0,0,0,0,0,0],"split_type":[0,0,0,0,0,0,0,0,0,0,0,0,0,0,0],"sum_hessian":[1.2836602E4,1.2499299E4,3.3730212E2,1.2220111E4,2.7918793E2,2.1528181E2,1.220203E2,1.913218E2,1.2028789E4,2.3704054E2,4.2147377E1,1.695167E2,4.576513E1,4.5572033E0,1.174631E2],"tree_param":{"num_deleted":"0","num_feature":"38","num_nodes":"15","size_leaf_vector":"1"}},{"base_weights":[-6.583252E-3,-5.6542117E-2,3.1337082E-2,-4.5871686E-2,-5.457769E-1,1.14023596E-1,-4.4368003E-3,-2.6026075E-3,6.915162E-2,1.3040207E-2,-3.555519E-2,-6.4165206E-3,9.477541E-3,-2.268154E-3,5.4484243E-3],"categories":[],"categories_nodes":[],"categories_segments":[],"categories_sizes":[],"default_left":[0,0,0,0,0,0,0,0,0,0,0,0,0,0,0],"id":57,"left_children":[1,3,5,7,9,11,13,-1,-1,-1,-1,-1,-1,-1,-1],"loss_changes":[2.4293234E1,2.886062E1,2.1564758E1,4.790458E1,1.5922787E1,4.0322716E1,2.3626736E1,0E0,0E0,0E0,0E0,0E0,0E0,0E0,0E0],"parents":[2147483647,0,0,1,1,2,2,3,3,4,4,5,5,6,6],"right_children":[2,4,6,8,10,12,14,-1,-1,-1,-1,-1,-1,-1,-1],"split_conditions":[2.030408E-2,2.327023E1,1.771015E1,2.2216179E1,1.0757197E1,1.2465288E1,8.076923E1,-2.6026075E-3,6.915162E-2,1.3040207E-2,-3.555519E-2,-6.4165206E-3,9.477541E-3,-2.268154E-3,5.4484243E-3],"split_indices":[6,5,9,5,9,9,32,0,0,0,0,0,0,0,0],"split_type":[0,0,0,0,0,0,0,0,0,0,0,0,0,0,0],"sum_hessian":[1.2821388E4,5.5322837E3,7.2891035E3,5.415268E3,1.17015656E2,2.2005776E3,5.088526E3,5.392906E3,2.2362436E1,1.9806765E1,9.720889E1,5.226817E2,1.6778959E3,3.7395706E3,1.3489553E3],"tree_param":{"num_deleted":"0","num_feature":"38","num_nodes":"15","size_leaf_vector":"1"}},{"base_weights":[-1.0279699E-2,-1.6478729E-2,2.3647358E-1,3.392126E-2,-5.220601E-2,6.461424E-1,1.9676564E-2,2.4926256E-2,3.7681256E-4,-5.617484E-3,6.061552E-4,4.1739903E-2,-3.2132305E-2,-1.1703348E-2,2.0181997E-2],"categories":[],"categories_nodes":[],"categories_segments":[],"categories_sizes":[],"default_left":[0,0,0,0,0,0,0,0,0,0,0,0,0,0,0],"id":58,"left_children":[1,3,5,7,9,11,13,-1,-1,-1,-1,-1,-1,-1,-1],"loss_changes":[1.96653E1,2.2581303E1,2.7969948E1,6.3768898E1,2.83933E1,2.7038849E1,2.0268461E1,0E0,0E0,0E0,0E0,0E0,0E0,0E0,0E0],"parents":[2147483647,0,0,1,1,2,2,3,3,4,4,5,5,6,6],"right_children":[2,4,6,8,10,12,14,-1,-1,-1,-1,-1,-1,-1,-1],"split_conditions":[6.139132E-2,-5.2863774E-3,1.0038353E0,1.2878864E1,1.646278E1,2.5718372E1,9.920792E1,2.4926256E-2,3.7681256E-4,-5.617484E-3,6.061552E-4,4.1739903E-2,-3.2132305E-2,-1.1703348E-2,2.0181997E-2],"split_indices":[2,1,18,5,5,5,37,0,0,0,0,0,0,0,0],"split_type":[0,0,0,0,0,0,0,0,0,0,0,0,0,0,0],"sum_hessian":[1.2852691E4,1.2538624E4,3.1406686E2,5.201288E3,7.337336E3,1.0800175E2,2.060651E2,2.7854788E2,4.92274E3,3.7916426E3,3.5456934E3,9.4518234E1,1.3483517E1,1.2430687E2,8.175823E1],"tree_param":{"num_deleted":"0","num_feature":"38","num_nodes":"15","size_leaf_vector":"1"}},{"base_weights":[-2.3102502E-3,1.8186688E-2,-9.042682E-2,5.0574117E-3,6.1256284E-1,-5.376653E-1,-6.2292576E-2,-3.2231698E-4,1.5939912E-2,2.5626844E-2,1.1093562E-1,-3.2140817E-2,9.3672555E-3,4.1664118E-4,-9.285071E-3],"categories":[],"categories_nodes":[],"categories_segments":[],"categories_sizes":[],"default_left":[0,0,0,0,0,0,0,0,0,0,0,0,0,0,0],"id":59,"left_children":[1,3,5,7,9,11,13,-1,-1,-1,-1,-1,-1,-1,-1],"loss_changes":[2.3137442E1,8.110209E1,3.0385689E1,3.670587E1,3.4947235E1,1.1018101E1,1.9835125E1,0E0,0E0,0E0,0E0,0E0,0E0,0E0,0E0],"parents":[2147483647,0,0,1,1,2,2,3,3,4,4,5,5,6,6],"right_children":[2,4,6,8,10,12,14,-1,-1,-1,-1,-1,-1,-1,-1],"split_conditions":[2.3350252E1,2.2813313E1,2.3449112E1,2.899251E-1,4.727415E-2,1.239162E2,5.344111E1,-3.2231698E-4,1.5939912E-2,2.5626844E-2,1.1093562E-1,-3.2140817E-2,9.3672555E-3,4.1664118E-4,-9.285071E-3],"split_indices":[4,5,4,17,2,36,0,0,0,0,0,0,0,0,0],"split_type":[0,0,0,0,0,0,0,0,0,0,0,0,0,0,0],"sum_hessian":[1.2808668E4,1.0392131E4,2.416537E3,1.0168525E4,2.2360579E2,1.4194736E2,2.2745896E3,9.809813E3,3.5871124E2,2.117385E2,1.1867302E1,1.2406685E2,1.7880516E1,1.447268E3,8.2732166E2],"tree_param":{"num_deleted":"0","num_feature":"38","num_nodes":"15","size_leaf_vector":"1"}},{"base_weights":[-6.5338057E-3,2.4256878E-1,-1.3605247E-2,8.1238544E-1,1.5251061E-1,-2.8254626E-2,1.0404766E-1,1.07371174E-1,2.3591531E-2,1.4947895E-3,3.5466313E-2,1.0590582E-3,-3.2681723E-3,-3.7992373E-3,1.1856415E-2],"categories":[],"categories_nodes":[],"categories_segments":[],"categories_sizes":[],"default_left":[0,0,0,0,0,0,0,0,0,0,0,0,0,0,0],"id":60,"left_children":[1,3,5,7,9,11,13,-1,-1,-1,-1,-1,-1,-1,-1],"loss_changes":[2.263258E1,1.8076492E1,2.153485E1,2.0888893E1,2.0972675E1,2.0383316E1,3.3165085E1,0E0,0E0,0E0,0E0,0E0,0E0,0E0,0E0],"parents":[2147483647,0,0,1,1,2,2,3,3,4,4,5,5,6,6],"right_children":[2,4,6,8,10,12,14,-1,-1,-1,-1,-1,-1,-1,-1],"split_conditions":[2.8223442E1,2.4307905E1,9.213787E1,1.3214995E1,2.4353413E-1,-5.2863774E-3,1.5849342E1,1.07371174E-1,2.3591531E-2,1.4947895E-3,3.5466313E-2,1.0590582E-3,-3.2681723E-3,-3.7992373E-3,1.1856415E-2],"split_indices":[0,9,32,4,17,1,4,0,0,0,0,0,0,0,0],"split_type":[0,0,0,0,0,0,0,0,0,0,0,0,0,0,0],"sum_hessian":[1.2845493E4,3.5366837E2,1.2491825E4,4.7173183E1,3.064952E2,1.1109324E4,1.3825012E3,8.509338E0,3.8663845E1,2.5204645E2,5.4448753E1,4.7636685E3,6.3456553E3,5.877789E2,7.9472235E2],"tree_param":{"num_deleted":"0","num_feature":"38","num_nodes":"15","size_leaf_vector":"1"}},{"base_weights":[-2.7617484E-3,1.894733E-1,-1.3450496E-2,1.16691284E-1,5.9144384E-1,-6.608139E-3,-2.7633363E-1,7.1548335E-3,-2.4218371E-2,3.7069183E-2,-2.8589293E-2,-1.5847536E-3,3.5590902E-3,-2.9474383E-3,-3.1819932E-2],"categories":[],"categories_nodes":[],"categories_segments":[],"categories_sizes":[],"default_left":[0,0,0,0,0,0,0,0,0,0,0,0,0,0,0],"id":61,"left_children":[1,3,5,7,9,11,13,-1,-1,-1,-1,-1,-1,-1,-1],"loss_changes":[2.6270002E1,1.963313E1,2.1783302E1,9.138731E0,1.838776E1,2.3040062E1,2.4008936E1,0E0,0E0,0E0,0E0,0E0,0E0,0E0,0E0],"parents":[2147483647,0,0,1,1,2,2,3,3,4,4,5,5,6,6],"right_children":[2,4,6,8,10,12,14,-1,-1,-1,-1,-1,-1,-1,-1],"split_conditions":[3.1457527E1,2.4010627E-1,2.5894213E1,-7.454715E-2,2.5445808E1,3.314334E-2,4.0863968E1,7.1548335E-3,-2.4218371E-2,3.7069183E-2,-2.8589293E-2,-1.5847536E-3,3.5590902E-3,-2.9474383E-3,-3.1819932E-2],"split_indices":[0,17,4,22,3,6,36,0,0,0,0,0,0,0,0],"split_type":[0,0,0,0,0,0,0,0,0,0,0,0,0,0,0],"sum_hessian":[1.278276E4,6.7243427E2,1.2110325E4,5.704391E2,1.0199515E2,1.1804111E4,3.0621387E2,5.471633E2,2.3275766E1,9.067042E1,1.132473E1,8.92608E3,2.8780312E3,1.9166322E2,1.1455063E2],"tree_param":{"num_deleted":"0","num_feature":"38","num_nodes":"15","size_leaf_vector":"1"}},{"base_weights":[-1.3903447E-2,1.4099623E-1,-2.6450781E-2,3.8209787E-1,-8.980506E-2,-2.3950066E-1,-5.339866E-3,1.52099645E-2,5.2439936E-2,4.7830384E-2,-8.786261E-3,-2.420768E-3,-2.2281831E-2,3.9884325E-2,-5.846356E-4],"categories":[],"categories_nodes":[],"categories_segments":[],"categories_sizes":[],"default_left":[0,0,0,0,0,0,0,0,0,0,0,0,0,0,0],"id":62,"left_children":[1,3,5,7,9,11,13,-1,-1,-1,-1,-1,-1,-1,-1],"loss_changes":[2.4941504E1,5.3544872E1,5.338725E1,2.4116547E1,4.4412857E1,4.2131012E1,5.511115E1,0E0,0E0,0E0,0E0,0E0,0E0,0E0,0E0],"parents":[2147483647,0,0,1,1,2,2,3,3,4,4,5,5,6,6],"right_children":[2,4,6,8,10,12,14,-1,-1,-1,-1,-1,-1,-1,-1],"split_conditions":[1.308206E1,-2.0502115E-2,1.3270685E1,1.2975479E1,3.2997923E-3,6.558304E-5,1.3300763E1,1.52099645E-2,5.2439936E-2,4.7830384E-2,-8.786261E-3,-2.420768E-3,-2.2281831E-2,3.9884325E-2,-5.846356E-4],"split_indices":[3,24,5,5,19,30,5,0,0,0,0,0,0,0,0],"split_type":[0,0,0,0,0,0,0,0,0,0,0,0,0,0,0],"sum_hessian":[1.2829857E4,9.606146E2,1.1869243E4,4.695029E2,4.911117E2,1.0691465E3,1.0800097E4,4.2168832E2,4.78146E1,3.649608E1,4.546156E2,5.5546906E2,5.136775E2,8.379262E1,1.0716304E4],"tree_param":{"num_deleted":"0","num_feature":"38","num_nodes":"15","size_leaf_vector":"1"}},{"base_weights":[-1.0656789E-2,8.319255E-2,-2.9182816E-2,1.989217E-1,-2.5011096E-2,-4.3445043E-2,1.0162225E-1,1.13543905E-1,9.305326E-3,1.0107639E-3,-2.4826527E-2,-1.8381864E-3,-1.5694467E-2,6.5066996E-3,-3.0313512E-2],"categories":[],"categories_nodes":[],"categories_segments":[],"categories_sizes":[],"default_left":[0,0,0,0,0,0,0,0,0,0,0,0,0,0,0],"id":63,"left_children":[1,3,5,7,9,11,13,-1,-1,-1,-1,-1,-1,-1,-1],"loss_changes":[2.2310709E1,2.6496181E1,1.9996346E1,2.6722626E1,2.334388E1,1.7449461E1,2.1349262E1,0E0,0E0,0E0,0E0,0E0,0E0,0E0,0E0],"parents":[2147483647,0,0,1,1,2,2,3,3,4,4,5,5,6,6],"right_children":[2,4,6,8,10,12,14,-1,-1,-1,-1,-1,-1,-1,-1],"split_conditions":[-5.086786E-1,1.766454E1,6.657189E1,-5.1849285E-11,4.2527275E1,2.5769453E1,5.4790546E1,1.13543905E-1,9.305326E-3,1.0107639E-3,-2.4826527E-2,-1.8381864E-3,-1.5694467E-2,6.5066996E-3,-3.0313512E-2],"split_indices":[24,5,0,37,9,5,9,0,0,0,0,0,0,0,0],"split_type":[0,0,0,0,0,0,0,0,0,0,0,0,0,0,0],"sum_hessian":[1.2829767E4,2.1145198E3,1.0715247E4,1.0213244E3,1.0931953E3,9.662385E3,1.0528627E3,5.195E0,1.0161294E3,9.9839056E2,9.4804756E1,9.430539E3,2.3184518E2,1.01288306E3,3.997965E1],"tree_param":{"num_deleted":"0","num_feature":"38","num_nodes":"15","size_leaf_vector":"1"}},{"base_weights":[-1.3454097E-3,4.450668E-3,-2.2350307E-1,-1.6661481E-3,2.458753E-1,4.6095037E-1,-3.0411932E-1,3.47277E-4,-2.1976052E-2,-1.5116597E-2,2.8855154E-2,4.1388705E-2,-1.486934E-2,2.6542936E-2,-1.7811611E-2],"categories":[],"categories_nodes":[],"categories_segments":[],"categories_sizes":[],"default_left":[0,0,0,0,0,0,0,0,0,0,0,0,0,0,0],"id":64,"left_children":[1,3,5,7,9,11,13,-1,-1,-1,-1,-1,-1,-1,-1],"loss_changes":[1.649136E1,1.8433174E1,1.8108805E1,4.5909218E1,5.618144E1,9.902048E0,1.2892185E1,0E0,0E0,0E0,0E0,0E0,0E0,0E0,0E0],"parents":[2147483647,0,0,1,1,2,2,3,3,4,4,5,5,6,6],"right_children":[2,4,6,8,10,12,14,-1,-1,-1,-1,-1,-1,-1,-1],"split_conditions":[2.5894213E1,2.5481855E1,7.6000757E0,2.4953703E1,1.2893042E-1,1.5389159E-2,-5.9701884E-14,3.47277E-4,-2.1976052E-2,-1.5116597E-2,2.8855154E-2,4.1388705E-2,-1.486934E-2,2.6542936E-2,-1.7811611E-2],"split_indices":[4,4,33,4,17,19,37,0,0,0,0,0,0,0,0],"split_type":[0,0,0,0,0,0,0,0,0,0,0,0,0,0,0],"sum_hessian":[1.2805627E4,1.24809795E4,3.2464792E2,1.217354E4,3.0743982E2,3.3711388E1,2.9093652E2,1.1939695E4,2.3384465E2,1.1582608E2,1.9161374E2,2.2659124E1,1.1052263E1,1.6551636E1,2.743849E2],"tree_param":{"num_deleted":"0","num_feature":"38","num_nodes":"15","size_leaf_vector":"1"}},{"base_weights":[-8.8029485E-3,-6.7366734E-2,1.4922394E-2,8.450278E-2,-1.3918701E-1,4.9297098E-2,-8.180072E-2,1.324438E-2,-2.6824703E-3,-1.6719153E-2,-4.327869E-3,1.5418193E-3,2.826264E-2,-2.8122324E-3,-2.8602077E-2],"categories":[],"categories_nodes":[],"categories_segments":[],"categories_sizes":[],"default_left":[0,0,0,0,0,0,0,0,0,0,0,0,0,0,0],"id":65,"left_children":[1,3,5,7,9,11,13,-1,-1,-1,-1,-1,-1,-1,-1],"loss_changes":[1.7800419E1,4.0299522E1,3.0319134E1,2.958357E1,2.5737034E1,6.406304E1,2.9925304E1,0E0,0E0,0E0,0E0,0E0,0E0,0E0,0E0],"parents":[2147483647,0,0,1,1,2,2,3,3,4,4,5,5,6,6],"right_children":[2,4,6,8,10,12,14,-1,-1,-1,-1,-1,-1,-1,-1],"split_conditions":[1.3996583E1,1.314384E1,2.3350252E1,-3.790315E-3,1.3267576E1,2.2813313E1,4.2527275E1,1.324438E-2,-2.6824703E-3,-1.6719153E-2,-4.327869E-3,1.5418193E-3,2.826264E-2,-2.8122324E-3,-2.8602077E-2],"split_indices":[5,3,4,1,3,5,9,0,0,0,0,0,0,0,0],"split_type":[0,0,0,0,0,0,0,0,0,0,0,0,0,0,0],"sum_hessian":[1.2809441E4,3.6926475E3,9.116794E3,1.1855448E3,2.5071025E3,6.726673E3,2.3901208E3,5.137829E2,6.717619E2,5.312852E2,1.9758174E3,6.495332E3,2.313409E2,2.2727576E3,1.17363335E2],"tree_param":{"num_deleted":"0","num_feature":"38","num_nodes":"15","size_leaf_vector":"1"}},{"base_weights":[-4.6452805E-3,-9.7152285E-2,1.1766334E-2,-1.1234968E-1,8.821281E-1,1.3867365E0,1.0487423E-2,-4.5087524E-3,-2.9658249E-2,9.692507E-2,-8.2389E-3,9.791284E-2,3.474125E-3,1.7228117E-3,-2.263565E-3],"categories":[],"categories_nodes":[],"categories_segments":[],"categories_sizes":[],"default_left":[0,0,0,0,0,0,0,0,0,0,0,0,0,0,0],"id":66,"left_children":[1,3,5,7,9,11,13,-1,-1,-1,-1,-1,-1,-1,-1],"loss_changes":[1.9406176E1,2.8763197E1,1.9076519E1,2.0177252E1,3.2995117E1,7.45343E0,1.4499042E1,0E0,0E0,0E0,0E0,0E0,0E0,0E0,0E0],"parents":[2147483647,0,0,1,1,2,2,3,3,4,4,5,5,6,6],"right_children":[2,4,6,8,10,12,14,-1,-1,-1,-1,-1,-1,-1,-1],"split_conditions":[8.5747644E-2,7.329201E1,1.0858277E-2,2.3634424E1,1.3879963E1,1.5957346E-3,1.2394152E-2,-4.5087524E-3,-2.9658249E-2,9.692507E-2,-8.2389E-3,9.791284E-2,3.474125E-3,1.7228117E-3,-2.263565E-3],"split_indices":[17,0,6,4,4,30,1,0,0,0,0,0,0,0,0],"split_type":[0,0,0,0,0,0,0,0,0,0,0,0,0,0,0],"sum_hessian":[1.2780695E4,1.9250254E3,1.085567E4,1.8964792E3,2.854607E1,9.081187E0,1.0846589E4,1.814007E3,8.2472305E1,1.37848835E1,1.4761187E1,5.9939547E0,3.0872324E0,7.586002E3,3.260587E3],"tree_param":{"num_deleted":"0","num_feature":"38","num_nodes":"15","size_leaf_vector":"1"}},{"base_weights":[-1.0571138E-2,-2.6326923E-2,7.789361E-2,-8.2133316E-2,1.2510628E-2,3.0310732E-1,2.4074266E-2,-3.469234E-3,-4.1495826E-2,3.2678824E-3,-4.8080594E-3,5.6495965E-2,8.394933E-3,-7.214443E-3,8.094463E-3],"categories":[],"categories_nodes":[],"categories_segments":[],"categories_sizes":[],"default_left":[0,0,0,0,0,0,0,0,0,0,0,0,0,0,0],"id":67,"left_children":[1,3,5,7,9,11,13,-1,-1,-1,-1,-1,-1,-1,-1],"loss_changes":[1.777615E1,2.3462755E1,2.336246E1,4.2290676E1,3.6667915E1,4.1373993E1,3.6156574E1,0E0,0E0,0E0,0E0,0E0,0E0,0E0,0E0],"parents":[2147483647,0,0,1,1,2,2,3,3,4,4,5,5,6,6],"right_children":[2,4,6,8,10,12,14,-1,-1,-1,-1,-1,-1,-1,-1],"split_conditions":[9.2361206E1,1.53979435E1,1.524046E-2,1.5321613E1,2.3388208E1,1.3036841E1,1.5114543E-1,-3.469234E-3,-4.1495826E-2,3.2678824E-3,-4.8080594E-3,5.6495965E-2,8.394933E-3,-7.214443E-3,8.094463E-3],"split_indices":[37,5,6,5,3,5,17,0,0,0,0,0,0,0,0],"split_type":[0,0,0,0,0,0,0,0,0,0,0,0,0,0,0],"sum_hessian":[1.2750971E4,1.0823908E4,1.9270619E3,4.44118E3,6.382728E3,3.707945E2,1.5562673E3,4.367808E3,7.3372086E1,4.2946445E3,2.0880837E3,5.10799E1,3.197146E2,7.0047626E2,8.5579114E2],"tree_param":{"num_deleted":"0","num_feature":"38","num_nodes":"15","size_leaf_vector":"1"}},{"base_weights":[-1.4079637E-2,-2.9362224E-2,8.448761E-2,1.3896072E-2,-8.992614E-2,-6.1629366E-2,2.283743E-1,1.5551053E-2,-1.7815505E-4,-9.13966E-3,-2.7439313E-3,1.7286855E-5,-2.3741225E-2,1.0339573E-2,9.45909E-2],"categories":[],"categories_nodes":[],"categories_segments":[],"categories_sizes":[],"default_left":[0,0,0,0,0,0,0,0,0,0,0,0,0,0,0],"id":68,"left_children":[1,3,5,7,9,11,13,-1,-1,-1,-1,-1,-1,-1,-1],"loss_changes":[1.9283087E1,2.9035044E1,3.6141937E1,3.3541275E1,1.5019009E1,2.185318E1,3.0700268E1,0E0,0E0,0E0,0E0,0E0,0E0,0E0,0E0],"parents":[2147483647,0,0,1,1,2,2,3,3,4,4,5,5,6,6],"right_children":[2,4,6,8,10,12,14,-1,-1,-1,-1,-1,-1,-1,-1],"split_conditions":[9.007576E1,2E0,1.675476E1,1.2923998E1,1.3915344E1,2.673798E-2,1.4921612E0,1.5551053E-2,-1.7815505E-4,-9.13966E-3,-2.7439313E-3,1.7286855E-5,-2.3741225E-2,1.0339573E-2,9.45909E-2],"split_indices":[32,21,5,4,5,6,18,0,0,0,0,0,0,0,0],"split_type":[0,0,0,0,0,0,0,0,0,0,0,0,0,0,0],"sum_hessian":[1.2798446E4,1.108106E4,1.7173866E3,6.464503E3,4.6165566E3,8.523731E2,8.650134E2,3.5784164E2,6.1066616E3,1.2637426E3,3.352814E3,7.420694E2,1.10303764E2,8.5504376E2,9.969707E0],"tree_param":{"num_deleted":"0","num_feature":"38","num_nodes":"15","size_leaf_vector":"1"}},{"base_weights":[-4.7814767E-3,2.9294211E-3,-1.6138545E-1,3.9020124E-1,-3.8581353E-3,-1.9204793E-2,-6.2042856E-1,-5.8822263E-2,2.2825269E-2,-6.790335E-4,1.1078473E-2,-4.0549417E-3,6.258515E-2,-4.496087E-2,-6.589585E-3],"categories":[],"categories_nodes":[],"categories_segments":[],"categories_sizes":[],"default_left":[0,0,0,0,0,0,0,0,0,0,0,0,0,0,0],"id":69,"left_children":[1,3,5,7,9,11,13,-1,-1,-1,-1,-1,-1,-1,-1],"loss_changes":[1.5426057E1,3.2006977E1,3.91144E1,2.2323112E1,2.6231401E1,3.618705E1,1.9189743E1,0E0,0E0,0E0,0E0,0E0,0E0,0E0,0E0],"parents":[2147483647,0,0,1,1,2,2,3,3,4,4,5,5,6,6],"right_children":[2,4,6,8,10,12,14,-1,-1,-1,-1,-1,-1,-1,-1],"split_conditions":[4.3267464E1,-5.6526832E-2,2.21503E1,1.4760715E1,6.959513E1,2.1283125E1,2.4886309E1,-5.8822263E-2,2.2825269E-2,-6.790335E-4,1.1078473E-2,-4.0549417E-3,6.258515E-2,-4.496087E-2,-6.589585E-3],"split_indices":[9,2,3,4,0,3,3,0,0,0,0,0,0,0,0],"split_type":[0,0,0,0,0,0,0,0,0,0,0,0,0,0,0],"sum_hessian":[1.2773206E4,1.2174726E4,5.9848035E2,2.0873306E2,1.1965992E4,4.577439E2,1.407364E2,7.7955384E0,2.0093753E2,1.1472146E4,4.9384592E2,4.3737943E2,2.0364477E1,8.907496E1,5.166145E1],"tree_param":{"num_deleted":"0","num_feature":"38","num_nodes":"15","size_leaf_vector":"1"}},{"base_weights":[-6.1503486E-3,1.1709487E-2,-8.307863E-2,9.6204085E-4,4.5696926E-1,-4.24028E-1,-5.437092E-2,-4.7915496E-4,1.4288634E-2,7.0411734E-2,9.089219E-3,5.4479327E-2,-2.784267E-2,-2.7371887E-2,-1.6249599E-3],"categories":[],"categories_nodes":[],"categories_segments":[],"categories_sizes":[],"default_left":[0,0,0,0,0,0,0,0,0,0,0,0,0,0,0],"id":70,"left_children":[1,3,5,7,9,11,13,-1,-1,-1,-1,-1,-1,-1,-1],"loss_changes":[1.7628298E1,4.9831795E1,2.3639254E1,3.0543842E1,6.3990234E1,3.8322624E1,2.4040882E1,0E0,0E0,0E0,0E0,0E0,0E0,0E0,0E0],"parents":[2147483647,0,0,1,1,2,2,3,3,4,4,5,5,6,6],"right_children":[2,4,6,8,10,12,14,-1,-1,-1,-1,-1,-1,-1,-1],"split_conditions":[2.327023E1,2.2813313E1,2.3602297E1,2.899251E-1,2.3603875E-2,1.0460978E1,2.1464447E-2,-4.7915496E-4,1.4288634E-2,7.0411734E-2,9.089219E-3,5.4479327E-2,-2.784267E-2,-2.7371887E-2,-1.6249599E-3],"split_indices":[5,5,3,17,6,9,6,0,0,0,0,0,0,0,0],"split_type":[0,0,0,0,0,0,0,0,0,0,0,0,0,0,0],"sum_hessian":[1.282889E4,1.0412377E4,2.4165122E3,1.0167951E4,2.4442648E2,1.8659784E2,2.2299143E3,9.8058545E3,3.6209628E2,5.3919373E1,1.9050711E2,1.4472545E1,1.7212529E2,9.369371E1,2.1362207E3],"tree_param":{"num_deleted":"0","num_feature":"38","num_nodes":"15","size_leaf_vector":"1"}},{"base_weights":[-4.803364E-3,-7.992243E-2,1.5150897E-2,4.79916E-1,-9.3930855E-2,2.1085579E-2,-2.585517E-1,-1.9128564E-3,8.194711E-2,6.487537E-3,-5.923185E-3,-8.58445E-4,3.3622745E-3,2.0524388E-2,-1.8404627E-2],"categories":[],"categories_nodes":[],"categories_segments":[],"categories_sizes":[],"default_left":[0,0,0,0,0,0,0,0,0,0,0,0,0,0,0],"id":71,"left_children":[1,3,5,7,9,11,13,-1,-1,-1,-1,-1,-1,-1,-1],"loss_changes":[1.9145817E1,2.1069086E1,1.6398685E1,3.9463936E1,1.4371819E1,1.7445715E1,1.5853686E1,0E0,0E0,0E0,0E0,0E0,0E0,0E0,0E0],"parents":[2147483647,0,0,1,1,2,2,3,3,4,4,5,5,6,6],"right_children":[2,4,6,8,10,12,14,-1,-1,-1,-1,-1,-1,-1,-1],"split_conditions":[4.8110527E-3,-1.2663233E-13,2.60422E1,-1.9374725E-12,1.3068185E1,1.0040672E-3,-3.7666414E-2,-1.9128564E-3,8.194711E-2,6.487537E-3,-5.923185E-3,-8.58445E-4,3.3622745E-3,2.0524388E-2,-1.8404627E-2],"split_indices":[19,37,4,37,4,30,2,0,0,0,0,0,0,0,0],"split_type":[0,0,0,0,0,0,0,0,0,0,0,0,0,0,0],"sum_hessian":[1.277105E4,2.6797937E3,1.0091256E4,6.460572E1,2.615188E3,9.877995E3,2.1326118E2,4.5313927E1,1.9291792E1,2.5805414E2,2.3571338E3,5.4018794E3,4.476115E3,2.9617832E1,1.8364336E2],"tree_param":{"num_deleted":"0","num_feature":"38","num_nodes":"15","size_leaf_vector":"1"}},{"base_weights":[-5.570488E-3,2.4813846E-1,-1.2642442E-2,5.854973E-1,1.6290699E-1,-2.2900013E-2,1.10479556E-1,-1.8898583E-3,4.295929E-2,2.70987E-3,3.710076E-2,6.4258295E-4,-3.2118664E-3,5.6522217E-2,3.1236857E-3],"categories":[],"categories_nodes":[],"categories_segments":[],"categories_sizes":[],"default_left":[0,0,0,0,0,0,0,0,0,0,0,0,0,0,0],"id":72,"left_children":[1,3,5,7,9,11,13,-1,-1,-1,-1,-1,-1,-1,-1],"loss_changes":[2.2939274E1,9.873846E0,1.5710443E1,1.189559E1,1.7471878E1,1.696976E1,4.6773018E1,0E0,0E0,0E0,0E0,0E0,0E0,0E0,0E0],"parents":[2147483647,0,0,1,1,2,2,3,3,4,4,5,5,6,6],"right_children":[2,4,6,8,10,12,14,-1,-1,-1,-1,-1,-1,-1,-1],"split_conditions":[2.8223442E1,1.362471E1,6.719517E1,1.2617584E1,2.5177994E-1,2E0,1.0103189E-2,-1.8898583E-3,4.295929E-2,2.70987E-3,3.710076E-2,6.4258295E-4,-3.2118664E-3,5.6522217E-2,3.1236857E-3],"split_indices":[0,3,0,5,17,21,6,0,0,0,0,0,0,0,0],"split_type":[0,0,0,0,0,0,0,0,0,0,0,0,0,0,0],"sum_hessian":[1.278236E4,3.4571243E2,1.2436648E4,6.85423E1,2.7717014E2,1.1480958E4,9.556904E2,2.1176693E1,4.736561E1,2.3428413E2,4.2885994E1,6.1567866E3,5.324171E3,4.1945244E1,9.137452E2],"tree_param":{"num_deleted":"0","num_feature":"38","num_nodes":"15","size_leaf_vector":"1"}},{"base_weights":[-4.610187E-3,4.8337948E-2,-2.6835859E-2,1.3079494E-1,-2.7015146E-2,-1.063497E-1,4.7107437E-3,3.4462817E-2,5.3745466E-3,-3.1521504E-3,9.172879E-3,-3.670652E-3,-1.1509734E-2,-4.967062E-3,2.4598679E-3],"categories":[],"categories_nodes":[],"categories_segments":[],"categories_sizes":[],"default_left":[0,0,0,0,0,0,0,0,0,0,0,0,0,0,0],"id":73,"left_children":[1,3,5,7,9,11,13,-1,-1,-1,-1,-1,-1,-1,-1],"loss_changes":[1.4995134E1,2.3411587E1,2.2512693E1,2.333951E1,1.49445505E1,1.038184E1,2.9752365E1,0E0,0E0,0E0,0E0,0E0,0E0,0E0,0E0],"parents":[2147483647,0,0,1,1,2,2,3,3,4,4,5,5,6,6],"right_children":[2,4,6,8,10,12,14,-1,-1,-1,-1,-1,-1,-1,-1],"split_conditions":[-3.265E-2,1.8085526E1,-4.977542E-4,-5.9701884E-14,-1.668212E-3,6.0568905E1,1.4037752E1,3.4462817E-2,5.3745466E-3,-3.1521504E-3,9.172879E-3,-3.670652E-3,-1.1509734E-2,-4.967062E-3,2.4598679E-3],"split_indices":[8,3,30,37,30,33,4,0,0,0,0,0,0,0,0],"split_type":[0,0,0,0,0,0,0,0,0,0,0,0,0,0,0],"sum_hessian":[1.2740108E4,3.7663564E3,8.973751E3,1.7980547E3,1.9683019E3,2.5483113E3,6.4254404E3,7.08807E1,1.727174E3,1.6812183E3,2.8708362E2,2.0142206E3,5.3409064E2,1.92402E3,4.5014204E3],"tree_param":{"num_deleted":"0","num_feature":"38","num_nodes":"15","size_leaf_vector":"1"}},{"base_weights":[-7.2435793E-3,-2.4295123E-2,8.8252105E-2,-3.9989892E-2,8.448281E-2,1.1554891E0,7.790233E-2,-3.5468806E-3,8.6257665E-4,8.589974E-3,-3.4982653E-3,1.1778321E-1,2.0626238E-2,1.6663825E-3,1.3623059E-2],"categories":[],"categories_nodes":[],"categories_segments":[],"categories_sizes":[],"default_left":[0,0,0,0,0,0,0,0,0,0,0,0,0,0,0],"id":74,"left_children":[1,3,5,7,9,11,13,-1,-1,-1,-1,-1,-1,-1,-1],"loss_changes":[2.0801542E1,1.8507965E1,2.1288248E1,1.6782326E1,1.8447153E1,1.5539469E1,1.6623951E1,0E0,0E0,0E0,0E0,0E0,0E0,0E0,0E0],"parents":[2147483647,0,0,1,1,2,2,3,3,4,4,5,5,6,6],"right_children":[2,4,6,8,10,12,14,-1,-1,-1,-1,-1,-1,-1,-1],"split_conditions":[9.2361206E1,3.1286904E-1,6.321981E-2,1.8476498E1,5.89854E-3,-1.58961E-4,1.400871E-2,-3.5468806E-3,8.6257665E-4,8.589974E-3,-3.4982653E-3,1.1778321E-1,2.0626238E-2,1.6663825E-3,1.3623059E-2],"split_indices":[37,14,17,5,1,30,19,0,0,0,0,0,0,0,0],"split_type":[0,0,0,0,0,0,0,0,0,0,0,0,0,0,0],"sum_hessian":[1.2772306E4,1.0837861E4,1.9344442E3,9.471867E3,1.3659939E3,1.7516846E1,1.9169274E3,6.147803E3,3.3240642E3,8.725747E2,4.9341916E2,5.867666E0,1.1649179E1,1.5605635E3,3.5636383E2],"tree_param":{"num_deleted":"0","num_feature":"38","num_nodes":"15","size_leaf_vector":"1"}}]},"name":"gbtree"},"learner_model_param":{"base_score":"2.3039564E-1","boost_from_average":"1","num_class":"0","num_feature":"38","num_target":"1"},"objective":{"name":"binary:logistic","reg_loss_param":{"scale_pos_weight":"1"}}},"version":[2,1,4]}