tree
version=v4
num_class=1
num_tree_per_iteration=1
label_index=0
max_feature_idx=37
objective=binary sigmoid:1
feature_names=rsi macd macd_signal bb_upper bb_middle bb_lower atr volume_ratio momentum adx breakout_up breakout_down price_position body_size upper_wick lower_wick bullish_candle atr_pct volatility_regime bb_width bb_squeeze trend_alignment roc_5 roc_10 roc_20 momentum_alignment volume_trend volume_spike obv_momentum rsi_momentum macd_hist macd_hist_momentum stoch_k stoch_d stoch_cross willr cci mfi
feature_infos=[5.0514848988943619:94.295880454045644] [-0.2972712798218673:0.34199890891759033] [-0.23607392031662564:0.23091389269501961] [10.385279262407042:26.400798066317019] [10.250450000000001:26.203085000000289] [10.106001457077049:26.104423761195321] [0.0053384368487482342:0.79722133238421367] [0:19.999999999989743] [-1.2697017542000015:1.7049478905000015] [6.0152260497110452:87.961437302611017] none none none [0:12.834161980306408] [0:12.722789367463326] [0:11.722493697003035] [0:1] [0.034141447525921381:6.6159446670889093] [0.52791276074413751:7.3892485259659146] [0.0009051882272001372:0.20313078801671167] [0:1] [0:3] [-8.8841398934441216:13.996729150040332] [-9.1393436400241548:14.815456256137093] [-9.5100418736087775:14.382591713594394] [-1:1] none [0:1] none [-51.947640804693265:52.317924077421075] [-0.12837699737912067:0.19514413509965184] none [-1.0373923942097463e-12:100.00000000000085] [-4.0698308920481295e-13:100.00000000000121] [0:1] [-99.999999999999986:0] [-666.66666666667197:666.666666666678] [-1.1518983168043723e-09:100.00000000024815]
tree_sizes=3396

Tree=0
num_leaves=31
num_cat=0
split_feature=17 6 17 2 5 37 17 1 1 3 1 3 3 1 24 5 3 30 5 19 2 5 17 1 17 9 5 1 37 2
split_gain=6227.64 1172.87 588.454 328.597 295.64 289.142 286.299 329.483 327.218 239.378 302.67 234.371 210.47 244.952 220.517 210.789 202.946 173.186 172.846 143.58 140.699 127.189 122.435 114.561 104.943 70.7818 67.7769 64.2553 60.8103 46.4795
threshold=0.13994519449786375 0.016167869571129947 0.2201515489048054 -0.013243622768062728 18.472431732606871 100.00000000003551 0.075014114043053942 0.01128040575410605 -0.0059624072233610539 15.943577295062791 0.019783485386785319 13.059710152355567 19.969160362563915 -0.00017084607544770589 -0.088260863698286215 19.358033483674344 10.961707717567608 5.4100972814491797e-05 21.688791818891882 0.0037795327727552235 0.04511441822905507 16.979199649847931 0.130462097598226 0.0054265434750933048 0.18953103776603214 22.458035315193694 24.724579567245602 -0.078197905117360897 -4.6516835982057884e-11 0.042783224740943995
decision_type=2 2 2 2 2 2 2 2 2 2 2 2 2 2 2 2 2 2 2 2 2 2 2 2 2 2 2 2 2 2
left_child=1 5 12 18 9 6 7 -1 -8 10 -3 -7 13 21 24 -15 29 19 27 -6 -18 -2 -11 -19 -14 -13 -16 -4 -20 -5
right_child=2 4 3 16 17 11 8 -9 -10 22 -12 25 14 15 26 -17 20 23 28 -21 -22 -23 -24 -25 -26 -27 -28 -29 -30 -31
leaf_value=-1.38146760529271 -1.3659612414210234 -1.3708084321207545 -1.3534512304853517 -1.3518813238477494 -1.3879183278004328 -1.4034574977501193 -1.3740330295557281 -1.3719070865414182 -1.3774188815662218 -1.3767503656542672 -1.3788161949676871 -1.3506110224651038 -1.371922696005611 -1.3699827618237133 -1.3623801820931851 -1.3896402784450461 -1.3682901057325687 -1.3696610322122724 -1.3981005316426052 -1.3711794558296397 -1.362020254362257 -1.3701452440953308 -1.3716621138046512 -1.3633882938983595 -1.3620216598767518 -1.380598464637744 -1.354512419873386 -1.3598498357702884 -1.36889230265572 -1.3746155210664439
leaf_weight=2182.0839881300926 3382.5118463337421 3837.9171484708786 176.8025336265564 115.31952238082886 54.310239672660828 10.689936608076094 4354.1153628230095 431.8022643327713 8286.3971647918224 2069.0247454047203 538.19606217741966 75.28516548871994 405.25394958257675 4233.0694076120853 726.90390104055405 55.261566460132599 1496.9985310435295 558.87774413824081 7.5019012391567221 907.63364884257317 470.37163397669792 925.2979294359684 613.01048961281776 607.78804296255112 145.48069766163826 8.7902735173702222 128.90829661488533 1397.0972564220428 143.00668519735336 9.7535622417926771
leaf_count=10072 11673 14642 444 276 277 67 17666 1683 35728 8817 2377 173 1580 15887 2313 289 5428 2084 44 3488 1484 3484 2378 1980 459 40 334 4180 525 40
internal_value=-1.37205 -1.37508 -1.36668 -1.36334 -1.37225 -1.37677 -1.37688 -1.37989 -1.37625 -1.37323 -1.37179 -1.35935 -1.36796 -1.36854 -1.36437 -1.37024 -1.36601 -1.36898 -1.36011 -1.37212 -1.36679 -1.36686 -1.37559 -1.36639 -1.36931 -1.35375 -1.3612 -1.35913 -1.37035 -1.35365
internal_weight=38355.5 24535.9 13819.5 3816.85 9186.76 15349.2 15254.4 2613.89 12640.5 7058.15 4376.11 94.7654 10002.7 8596.14 1406.55 4288.33 2092.44 2128.61 1724.41 961.944 1967.37 4307.81 2682.04 1166.67 550.735 84.0754 855.812 1573.9 150.509 125.073
internal_count=149912 101472 48440 12421 36043 65429 65149 11755 53394 28214 17019 280 36019 31333 4686 16176 7228 7829 5193 3765 6912 15157 11195 4064 2039 213 2647 4624 569 316
is_linear=0
shrinkage=1


end of trees

feature_importances:
macd=6
bb_lower=5
atr_pct=5
bb_upper=4
macd_signal=3
mfi=2
atr=1
adx=1
bb_width=1
roc_20=1
macd_hist=1

parameters:
[boosting: gbdt]
[objective: binary]
[metric: binary_logloss]
[tree_learner: serial]
[device_type: cpu]
[data_sample_strategy: bagging]
[data: ]
[valid: ]
[num_iterations: 200]
[learning_rate: 0.01]
[num_leaves: 31]
[num_threads: 0]
[seed: 0]
[deterministic: 0]
[force_col_wise: 0]
[force_row_wise: 0]
[histogram_pool_size: -1]
[max_depth: 5]
[min_data_in_leaf: 10]
[min_sum_hessian_in_leaf: 0.001]
[bagging_fraction: 0.8]
[pos_bagging_fraction: 1]
[neg_bagging_fraction: 1]
[bagging_freq: 1]
[bagging_seed: 3]
[bagging_by_query: 0]
[feature_fraction: 0.7]
[feature_fraction_bynode: 1]
[feature_fraction_seed: 2]
[extra_trees: 0]
[extra_seed: 6]
[early_stopping_round: 0]
[early_stopping_min_delta: 0]
[first_metric_only: 0]
[max_delta_step: 0]
[lambda_l1: 0]
[lambda_l2: 0]
[linear_lambda: 0]
[min_gain_to_split: 0]
[drop_rate: 0.1]
[max_drop: 50]
[skip_drop: 0.5]
[xgboost_dart_mode: 0]
[uniform_drop: 0]
[drop_seed: 4]
[top_rate: 0.2]
[other_rate: 0.1]
[min_data_per_group: 100]
[max_cat_threshold: 32]
[cat_l2: 10]
[cat_smooth: 10]
[max_cat_to_onehot: 4]
[top_k: 20]
[monotone_constraints: ]
[monotone_constraints_method: basic]
[monotone_penalty: 0]
[feature_contri: ]
[forcedsplits_filename: ]
[refit_decay_rate: 0.9]
[cegb_tradeoff: 1]
[cegb_penalty_split: 0]
[cegb_penalty_feature_lazy: ]
[cegb_penalty_feature_coupled: ]
[path_smooth: 0]
[interaction_constraints: ]
[verbosity: -1]
[saved_feature_importance_type: 0]
[use_quantized_grad: 0]
[num_grad_quant_bins: 4]
[quant_train_renew_leaf: 0]
[stochastic_rounding: 1]
[linear_tree: 0]
[max_bin: 255]
[max_bin_by_feature: ]
[min_data_in_bin: 3]
[bin_construct_sample_cnt: 200000]
[data_random_seed: 1]
[is_enable_sparse: 1]
[enable_bundle: 1]
[use_missing: 1]
[zero_as_missing: 0]
[feature_pre_filter: 0]
[pre_partition: 0]
[two_round: 0]
[header: 0]
[label_column: ]
[weight_column: ]
[group_column: ]
[ignore_column: ]
[categorical_feature: ]
[forcedbins_filename: ]
[precise_float_parser: 0]
[parser_config_file: ]
[objective_seed: 5]
[num_class: 1]
[is_unbalance: 1]
[scale_pos_weight: 1]
[sigmoid: 1]
[boost_from_average: 1]
[reg_sqrt: 0]
[alpha: 0.9]
[fair_c: 1]
[poisson_max_delta_step: 0.7]
[tweedie_variance_power: 1.5]
[lambdarank_truncation_level: 30]
[lambdarank_norm: 1]
[label_gain: ]
[lambdarank_position_bias_regularization: 0]
[eval_at: ]
[multi_error_top_k: 1]
[auc_mu_weights: ]
[num_machines: 1]
[local_listen_port: 12400]
[time_out: 120]
[machine_list_filename: ]
[machines: ]
[gpu_platform_id: -1]
[gpu_device_id: -1]
[gpu_use_dp: 0]
[num_gpu: 1]

end of parameters

pandas_categorical:[]
