tree
version=v4
num_class=3
num_tree_per_iteration=3
label_index=0
max_feature_idx=73
objective=multiclass num_class:3
feature_names=rsi macd macd_signal bb_upper bb_middle bb_lower atr volume_ratio momentum adx breakout_up breakout_down price_position body_size upper_wick lower_wick bullish_candle atr_pct volatility_regime bb_width bb_squeeze trend_alignment roc_5 roc_10 roc_20 momentum_alignment volume_trend volume_spike obv_momentum rsi_momentum macd_hist macd_hist_momentum stoch_k stoch_d stoch_cross willr cci mfi roc_60 roc_240 mtf_momentum_align return_5 return_20 return_60 atr_percentile vol_expanding vol_contracting price_percentile_50 price_percentile_100 dist_from_high_50 dist_from_low_50 momentum_accel rsi_accel roc_accel volume_accel hour day_of_week is_us_session is_asia_session strong_trend weak_trend rsi_oversold rsi_overbought bb_oversold bb_overbought bullish_divergence bearish_divergence btc_momentum_5 btc_momentum_15 btc_return_5 btc_rsi btc_volume_ratio btc_macd_hist btc_trend
feature_infos=[7.9785256751949767:92.831857278946103] [-6.038244595874346:8.7773960625940504] [-5.2334925926620723:7.4159130109936049] [98.93134896322465:299.085769138682] [97.640787499998879:288.48352499999964] [95.207018999962699:280.50615086133104] [0.1105862807232102:10.66233956763095] [0:19.999999999801766] [-23.510000000000019:36.292667505999987] [6.5471611699313907:73.781585311925852] none none none [0:9.803345595012976] [0:10.005810554856707] [0:10.737215927938044] [0:1] [0.072269616575982021:6.0840045007366239] [0.56153732015696367:4.242569728309598] [0.0018027786007477455:0.32179950793493134] [0:1] [0:3] [-11.05648732552268:14.068130580654326] [-9.9518779825057084:23.593017855006892] [-11.331905812357645:35.153669940996664] [-1:1] none [0:1] none [-49.66092684119495:51.821085312253757] [-2.574143255365434:2.4431062934269114] none [-4.2632564145606011e-14:100.00000000000057] [4.8356380628117941e-14:99.999999999999986] [0:1] [-99.999999999999986:0] [-527.46831192780849:663.65305121597396] [-3.9874337229644178e-09:100.00000000442186] [-13.127205052849412:32.257855656347822] [-20.688883418007652:35.539079992870867] [0:1] none none none [0.01:1] [0:1] [0:1] none none none none [-35.611167505999987:21.222546879000021] [-49.66092684119495:51.821085312253757] [-23.188371097079475:14.617893403356485] [-19.999999999801766:19.999999999801766] [0:23] [0:6] [0:1] [0:1] [0:1] [0:1] [0:1] [0:1] [0:1] [0:1] none none [-4.8251547561499191:5.2903956005184938] [-5.9540568547569839:7.3911591160583878] [-4.8251547561499191:5.2903956005184938] [8.0124359070263331:93.497523647556235] [0:20.000000000000455] [-498.1791119800456:641.24819741280123] [-1:1]
tree_sizes=3336 3436 3350 3430 3498 3433 3440 3501 3415 3430 3505 3449 3450 3495 3467 3450 3504 3450 3454 3505 3448 3445 3483 3449 3435 3511 3465 3456 3509 3450 3467 3504 3453 3456 3510 3463 3466 3488 3456 3496 3499 3464 3454 3512 3457 3483 3526 3471 3443 3500 3470 3464 3509 3467 3479 3522 3444 3494 3524 3488 3465 3508 3482 3502 3518 3464 3470 3504 3469 3483 3516 3456 3480 3511 3468 3463 3522 3451 3490 3500 3489 3491 3518 3484 3484 3516 3486 3478 3509 3472 3466 3509 3499 3468 3513 3479 3484 3518 3463 3494 3511 3500 3485 3504 3469 3486 3515 3457 3483 3503 3463 3455 3510 3463 3496 3507 3454 3472 3512 3479 3487 3504 3441 3483 3507 3467 3459 3502 3489 3481 3490 3476 3492 3506 3468 3488 3509 3488 3474 3492 3462 3459 3522 3486 3490 3534 3482 3473 3525 3462 3482 3491 3454 3444 3508 3470 3486 3522 3485 3466 3503 3498 3493 3508 3458 3469 3522 3487 3484 3486 3489 3458 3513 3484 3444 3502 3494 3491 3511 3487 3460 3505 3490 3492 3496 3478 3388 3515 3463 3516 3482 3471 3496 3492 3442 3478 3498 3455 3489 3490 3506 3440 3514 3419 3468 3501 3461 3466 3473 3395 3460 3476 3463 3473 3495 3502 3405 3494 3474

Tree=0
num_leaves=31
num_cat=0
split_feature=6 6 6 39 6 5 24 1 3 18 29 38 6 23 39 6 18 4 67 70 1 29 44 9 5 9 6 67 44 5
split_gain=1470.36 313.383 200.819 69.3213 51.5902 49.4941 42.9916 38.0703 36.3395 34.131 32.5271 32.0037 31.7551 30.5492 30.3308 29.7289 27.3157 26.5338 25.1658 29.7737 30.5573 25.0973 24.1715 23.5328 22.3362 21.9485 21.0818 19.1897 19.7364 69.6991
threshold=0.62103018933171339 1.0512165217978231 0.40748249591028296 -7.4782650560596347 1.5985177039280796 143.37890739649342 -1.2701014416995391 1.3449621046756308 181.82428907298012 1.1079361847020883 -16.525913660857739 -2.9181471835014121 0.32116665988783283 2.2826052567053394 8.6097359782589944 0.72173035212629 0.8173668169009084 158.14026754924848 0.49344579452635934 33.120037942294317 -0.57344574613132682 -5.0481105263102384 0.52500000000000013 45.230397792758602 136.58836382178774 35.835893032886638 1.1136708811548546 -0.26191252696877715 0.67500000000000016 113.66737925312337
decision_type=2 2 2 2 2 2 2 2 2 2 2 2 2 2 2 2 2 2 2 2 2 2 2 2 2 2 2 2 2 2
left_child=2 3 12 18 10 27 21 14 13 -7 11 -3 -1 -8 23 -10 -9 24 19 20 -2 -5 -21 -6 -12 -20 -13 28 -4 -30
right_child=1 4 5 6 7 9 8 16 15 -11 17 26 -14 -15 -16 -17 -18 -19 25 22 -22 -23 -24 -25 -26 -27 -28 -29 29 -31
leaf_value=-2.3703329806458977 -2.2564158933362859 -2.1086652697608175 -2.3318597696661394 -2.286861122217656 -2.2596740733608862 -2.3531740295912122 -2.3198469724352853 -2.1054394475210292 -2.3456278072041741 -2.3360381591667494 -2.2921812913303312 -2.1419987662386251 -2.360040903063918 -2.255970602106566 -2.3336777295150339 -2.3262521827736049 -2.2347286938468316 -2.301407194955237 -2.1199556476000749 -2.2736492422267349 -2.0688801288034337 -2.3176197917888302 -2.3337734226090223 -2.3122524020750883 -2.2428953174053232 -2.3028597685960466 -2.2988190017904175 -2.3375911213777623 -2.069583192624926 -2.3062661488042044
leaf_weight=1628.7945976853371 10.550368845462797 4.4285498857498196 59.655171990394592 105.63393992185593 162.55383110046387 1638.3029547929764 526.86718493700027 4.5588013529777518 336.70004278421402 353.24197912216187 54.314861834049225 2.7352808117866507 1388.2201377153397 19.407468616962433 18.495708346366882 480.49766260385513 39.335943102836609 330.4479723572731 4.428549885749816 38.68468576669693 2.7352808117866507 178.18400716781616 29.436831593513489 24.487275838851929 39.856948971748352 2.6050293445587158 9.8991115093231183 437.64492988586426 3.3865381479263297 38.163679897785187
leaf_count=12505 81 34 458 811 1248 12578 4045 35 2585 2712 417 21 10658 149 142 3689 302 2537 34 297 21 1368 226 188 306 20 76 3360 26 293
internal_value=-2.34268 -2.31022 -2.35688 -2.32156 -2.28175 -2.3465 -2.32388 -2.26357 -2.32756 -2.35013 -2.29201 -2.22433 -2.3656 -2.31758 -2.2726 -2.33424 -2.2213 -2.29473 -2.27844 -2.28628 -2.21781 -2.30617 -2.29963 -2.26656 -2.27132 -2.1877 -2.26487 -2.33305 -2.31343 -2.28698
internal_weight=7974.26 2426.85 5547.41 1735.73 691.114 2530.4 1647.29 249.432 1363.47 1991.54 441.683 17.0629 3017.01 546.275 205.537 817.198 43.8947 424.62 88.4407 81.4072 13.2856 283.818 68.1215 187.041 94.1718 7.03358 12.6344 538.85 101.205 41.5502
internal_count=61222 18632 42590 13326 5306 19427 12647 1915 10468 15290 3391 131 23163 4194 1578 6274 337 3260 679 625 102 2179 523 1436 723 54 97 4137 777 319
is_linear=0
shrinkage=1


Tree=1
num_leaves=31
num_cat=0
split_feature=17 17 17 17 17 17 17 18 36 13 18 70 19 15 17 35 36 8 22 17 36 39 8 13 14 37 3 13 19 32
split_gain=3590.18 637.623 524.657 117.304 101.259 92.8758 80.5389 48.8248 32.2875 29.6571 29.6401 27.9116 24.0558 23.448 20.5711 18.9641 18.4179 18.0159 17.6673 17.358 14.8418 18.1689 14.5687 14.4133 14.2343 14.1458 14.1435 13.8641 13.7929 14.9475
threshold=0.406212322781486 0.26513417522422617 0.62659442749749361 0.89613453619882411 0.3455925137246128 0.19202321995319324 0.51289166222952931 1.0805404347551513 -108.82382656461392 0.47757998736949231 1.2125438611250978 26.2377663687028 0.022688624099782898 0.15231699132873694 0.23390952494895331 -89.074569571310732 -197.71348287353092 2.3672500000000132 -1.3034690772530719 0.29492654041931121 -112.98265978213145 -2.038608855720236 1.5002500000000085 0.9946142899045487 0.12984182012953135 5.4993303612986013 238.47072200602952 1.1160519083894667 0.084695400186995937 88.358151233801507
decision_type=2 2 2 2 2 2 2 2 2 2 2 2 2 2 2 2 2 2 2 2 2 2 2 2 2 2 2 2 2 2
left_child=1 5 6 9 7 -1 11 19 -8 13 20 -2 -5 -4 17 -10 -9 -7 -11 -3 21 -6 -16 24 -13 -18 -15 -17 29 -14
right_child=2 4 3 12 10 14 8 16 15 18 -12 23 28 26 22 27 25 -19 -20 -21 -22 -23 -24 -25 -26 -27 -28 -29 -30 -31
leaf_value=-0.17680626935382551 -0.27179145377727654 -0.19521145342605711 -0.24706913011247603 -0.26000489729369969 -0.24392810506554646 -0.18575032807153125 -0.27598200448025612 -0.25007033875915519 -0.20916694034840733 -0.31089816085596356 -0.23951992261343624 -0.22361941757124823 -0.30931768642249419 -0.26730799241955755 -0.19230164935960989 -0.24881184994509284 -0.22250221757322794 -0.26558542091495613 -0.27793536714955458 -0.2037504753971085 -0.21436167635886222 -0.2159391068412832 -0.21208513761909087 -0.24565165559283203 -0.23502541060807552 -0.20755141652853631 -0.30291827912201685 -0.27851465604479025 -0.33519172131393576 -0.27192703307166122
leaf_weight=2582.086895853281 45.741131901741028 1049.0728601664305 152.08926357328892 26.301150843501091 103.14625243842602 2148.4609654247761 137.45210136473179 35.449377223849297 28.359501779079437 48.9430111348629 161.00878429412842 491.48846228420734 284.28113476932049 189.13958041369915 1440.1595379263163 513.67291125655174 251.57622545957565 7.0898754447698584 239.91223682463169 1375.4358362853527 1096.6436373442411 132.42057685554028 99.486961886286736 168.78477671742439 616.81916369497776 426.30734932422638 32.704909309744835 42.539252668619156 45.741131901741028 29.503030076622963
leaf_count=11290 200 4587 665 115 451 9394 601 155 124 214 704 2149 1243 827 6297 2246 1100 31 1049 6014 4795 579 435 738 2697 1864 143 186 200 129
internal_value=-0.207948 -0.194465 -0.255491 -0.284246 -0.208539 -0.184082 -0.240746 -0.203439 -0.254177 -0.271487 -0.219257 -0.233415 -0.306164 -0.262191 -0.189166 -0.24905 -0.214937 -0.186013 -0.283521 -0.200056 -0.216808 -0.228194 -0.19358 -0.23204 -0.229967 -0.2131 -0.272558 -0.251084 -0.309541 -0.305802
internal_weight=14001.8 10908.3 3093.47 1048.62 4631.06 6277.28 2044.86 3137.84 722.024 662.789 1493.22 1322.83 385.826 373.934 3695.2 584.572 713.333 2155.55 288.855 2424.51 1332.21 235.567 1539.65 1277.09 1108.31 677.884 221.844 556.212 359.525 313.784
internal_count=61222 47696 13526 4585 20249 27447 8941 13720 3157 2898 6529 5784 1687 1635 16157 2556 3119 9425 1263 10601 5825 1030 6732 5584 4846 2964 970 2432 1572 1372
is_linear=0
shrinkage=1


Tree=2
num_leaves=31
num_cat=0
split_feature=17 17 17 17 30 38 17 56 70 18 51 0 44 33 4 67 55 30 30 6 4 5 38 17 38 17 22 44 9 40
split_gain=1706.52 373.85 211.237 72.5159 63.4408 51.2944 48.6265 39.1077 37.7627 36.8011 36.3935 39.2634 35.3826 30.268 27.3092 30.5224 24.6998 24.1032 34.743 24.0842 23.1812 41.7971 22.7683 21.7383 21.337 21.2665 21.6516 20.3109 19.8511 16.9765
threshold=0.47227471794572007 0.31067076548680178 0.89613453619882411 0.19860872672899887 0.15243878678197756 -7.1846779700368719 0.54924525330935847 1.0000000180025095e-35 34.476866611693353 1.0538572623359541 0.74249999999999272 51.293622047245719 0.28500000000000009 14.255525824008862 116.48217499999886 1.0282543145804903 1.0000000180025095e-35 0.09800618079992314 0.66211104899017681 1.5985177039280796 223.95029674222522 232.57559161286414 0.78081869541400961 0.36221454523002833 1.6673909415140578 0.23918997108387244 1.0478818871585529 0.64500000000000013 34.599290467679545 0.75000000000000011
decision_type=2 2 2 2 2 2 2 2 2 2 2 2 2 2 2 2 2 2 2 2 2 2 2 2 2 2 2 2 2 2
left_child=1 3 6 -1 5 7 8 13 -2 23 11 12 -8 -4 15 -6 -5 19 -19 -12 27 -22 28 -3 -24 26 -18 -7 -16 -27
right_child=2 9 4 16 14 20 10 -9 -10 -11 17 -13 -14 -15 22 -17 25 18 -20 -21 21 -23 24 -25 -26 29 -28 -29 -30 -31
leaf_value=-2.4165020878024301 -2.3099598206037504 -2.3932600890588205 -2.3514963119002417 -2.3828685270607544 -2.3064472209169433 -2.2460997688329005 -2.2906724550507378 -2.0916677164309152 -2.3641962910943368 -2.3722740252054195 -2.3103041150773014 -2.3660881847157977 -2.3416681772384287 -2.1553147866503943 -2.3268776476667385 -2.0989483775999331 -2.4101637632579878 -2.3417649487268211 -2.24410079964048 -2.2329605474692187 -2.117150030522478 -2.2682237497795992 -2.1596205540084159 -2.3804196019269948 -2.309377243094719 -2.403754484518593 -2.2970251888158613 -2.3070324097582944 -2.3921034763259521 -2.3923228455129992
leaf_weight=1592.8872546628118 35.586177594959736 645.29602038860321 3.9956409931182844 141.84525525569916 4.9945512413978568 17.730656906962395 41.205047741532326 6.8675079569220543 327.01824253052473 664.77477023005486 88.153829410672188 141.34580013155937 194.9123621955514 3.8707772120833397 30.591626353561878 2.7470031827688217 1078.3236130177975 118.49572820216417 9.8642387017607671 11.362604074180124 5.4940063655376425 27.470031827688217 2.6221394017338779 673.764962464571 25.597075112164021 1222.4164163321257 4.2453685551881781 59.809751115739346 18.854430936276913 442.2675124257803
leaf_count=12757 285 5168 32 1136 40 142 330 55 2619 5324 706 1132 1561 31 245 22 8636 949 79 91 44 220 21 5396 205 9790 34 479 151 3542
internal_value=-2.38985 -2.39994 -2.33452 -2.40794 -2.28914 -2.26648 -2.34439 -2.17885 -2.35887 -2.38187 -2.33572 -2.34525 -2.33277 -2.25496 -2.32237 -2.23282 -2.40321 -2.31994 -2.33426 -2.30147 -2.27817 -2.24304 -2.3313 -2.3867 -2.29546 -2.40426 -2.40972 -2.2931 -2.35175 -2.40072
internal_weight=7644.41 6465.82 1178.59 4481.99 210.645 125.238 967.944 14.7339 362.604 1983.84 605.34 377.463 236.117 7.86642 85.4068 7.74155 2889.1 227.876 128.36 99.5164 110.504 32.964 77.6653 1319.06 28.2192 2747.25 1082.57 77.5404 49.4461 1664.68
internal_count=61222 51783 9439 35895 1687 1003 7752 118 2904 15888 4848 3023 1891 63 684 62 23138 1825 1028 797 885 264 622 10564 226 22002 8670 621 396 13332
is_linear=0
shrinkage=1


Tree=3
num_leaves=31
num_cat=0
split_feature=17 6 17 22 6 1 17 6 18 18 17 39 1 4 44 39 0 30 9 72 37 4 71 1 67 18 37 9 9 72
split_gain=1385.21 231.561 175.42 56.341 41.2296 38.7694 36.8527 31.9803 25.9936 22.9895 21.5131 20.1208 19.4231 18.8781 18.4179 16.97 17.2992 16.5648 16.9223 16.5549 16.5244 16.1276 14.9775 14.5971 14.065 13.8148 20.8493 13.2346 13.0712 34.5438
threshold=0.3455925137246128 1.0308658803292796 0.23192103573598163 -0.75737846145178522 1.5985177039280796 1.3449621046756308 0.2922140456344533 0.72759468442076447 1.0781946078534321 0.90779735927223648 0.17941762135072931 -8.8708666094925821 -1.0176065494371753 119.15363749999884 0.9850000000000001 7.9489513913890262 35.645016791184467 -0.020695505721584271 17.241141900599327 -50.868983541596798 55.663619325285886 254.56024013644964 1.1983702717730431 0.050443631298094267 0.49344579452635934 0.89662769254930386 6.4424277963049539 21.384931567652522 13.1795147363701 -61.013858479911001
decision_type=2 2 2 2 2 2 2 2 2 2 2 2 2 2 2 2 2 2 2 2 2 2 2 2 2 2 2 2 2 2
left_child=2 3 10 13 28 15 19 9 12 -5 -1 20 -8 22 -13 16 -6 18 -15 25 -9 -17 -2 -21 -11 26 -4 -10 29 -3
right_child=1 4 6 7 5 -7 8 11 27 24 -12 14 -14 17 -16 21 -18 -19 -20 23 -22 -23 -24 -25 -26 -27 -28 -29 -30 -31
leaf_value=-0.029582937772238301 0.059841619720281819 0.18470460445243625 -0.002819291710736067 -0.0026872919811835897 0.027560451803424903 0.10671638014725125 0.11987136716380864 0.037661968160353589 0.032378566045816175 0.012820757680782488 -0.020286752568514567 0.019587329287935953 -0.0037823571776184959 0.076736236429914895 0.045171372419050192 -0.020980115280355132 0.069091697152633691 -0.0038343399203067314 0.035686440241178959 -0.007273379605408907 0.11411412356674788 0.062098644529845676 0.1478951640295052 -0.017057787794196134 0.038533436668415036 0.0031286302158142626 0.13172534645557946 0.0077091098851114334 0.041553306179699573 0.047907772210086796
leaf_weight=1082.1910105347633 19.025854721665386 5.8585068136453655 5.8859035670757276 250.9260500818491 29.212550580501556 51.263165801763535 3.1880437433719626 21.351468890905384 75.057557284832001 612.6257908642292 1464.6382376626134 640.19109727442265 822.61374270915985 28.986894994974136 79.030614405870438 12.353065937757494 176.96558620035648 22.56503090262413 187.51954483985901 811.09733183681965 10.565096184611319 11.082175478339193 6.4721117317676535 719.17427460849285 58.240424230694771 58.805329635739326 5.6369922608137131 197.21481615304947 476.01804593205452 21.73944403231144
leaf_count=8663 132 42 46 1891 198 338 24 151 573 4612 11604 4745 6357 212 581 89 1212 166 1370 6336 74 80 44 5616 434 456 44 1502 3394 156
internal_value=0.000193472 0.0291347 -0.0148247 0.019855 0.0520531 0.0674019 -0.00594206 0.0164642 0.00111226 0.0102238 -0.0242369 0.0241225 -0.00330499 0.0412952 0.0223986 0.0586246 0.0632073 0.0369334 0.0411824 -0.0107816 0.0629693 0.0183066 0.0821921 -0.0118717 0.015053 0.0129382 0.0629998 0.0145098 0.0434929 0.0769471
internal_weight=7967.5 2721.99 5245.5 1937.5 784.493 280.877 2698.67 1672.93 1098.07 921.792 2546.83 751.138 825.802 264.569 719.222 229.613 206.178 239.071 216.506 1600.6 31.9166 23.4352 25.498 1530.27 670.866 70.3282 11.5229 272.272 503.616 27.598
internal_count=61142 19921 41221 14412 5509 1917 20954 12488 8456 6937 20267 5551 6381 1924 5326 1579 1410 1748 1582 12498 225 169 176 11952 5046 546 90 2075 3592 198
is_linear=0
shrinkage=0.05


Tree=4
num_leaves=31
num_cat=0
split_feature=17 17 17 17 17 17 17 45 9 35 13 45 22 8 13 55 9 72 19 19 70 8 13 6 0 15 19 40 17 9
split_gain=3101.61 607.774 365.871 88.7599 85.8139 72.4887 56.2865 36.9599 28.566 27.5024 24.253 22.2228 20.4069 20.2324 19.5371 19.4497 19.1926 22.0975 18.9373 18.4132 18.3352 18.2276 17.9768 16.9222 16.5463 16.2905 15.9719 15.6686 16.487 15.3503
threshold=0.406212322781486 0.26513417522422617 0.62659442749749361 0.3455925137246128 0.19202321995319324 0.89613453619882411 0.51289166222952931 1.0000000180025095e-35 27.679040313894486 -64.141138728693292 0.38961166869746744 1.0000000180025095e-35 -0.5950028850653043 1.047750000000008 0.89598893875835561 1.0000000180025095e-35 24.234405024152373 -22.488807131517056 0.022456414663890496 0.032960193665126598 67.251893208276968 0.090074999999998809 0.6691147209031888 1.9798941803925887 69.1045031652435 0.46147222137418792 0.027552297081211846 0.35000000000000009 0.39501039575058056 34.373150143065864
decision_type=2 2 2 2 2 2 2 2 2 2 2 2 2 2 2 2 2 2 2 2 2 2 2 2 2 2 2 2 2 2
left_child=1 4 6 7 -1 10 11 -3 9 -8 16 21 27 26 25 -14 17 -4 -7 -18 -15 29 24 -20 -10 -9 -6 28 -5 -2
right_child=2 3 5 12 13 18 8 14 22 -11 -12 -13 15 20 -16 -17 19 -19 23 -21 -22 -23 -24 -25 -26 -27 -28 -29 -30 -31
leaf_value=0.030195141092987234 -0.03144019811359125 0.0085405065491312958 -0.089261213899092681 -0.028270488513065791 0.019662028655247413 -0.042750648192017113 -0.067257318678768205 0.0045032944217752906 -0.0199076327894364 -0.04079697849222632 -0.065014393145708713 -0.031094368588184641 -0.040673407655141644 0.013397606066613103 -0.012233178559633273 -0.0072694119230853286 -0.022433773995953296 -0.047253081028864198 -0.071479432878822205 -0.053798258579756668 -0.011633448351413578 -0.0097619558742327098 -0.048895221531520823 -0.092939767576957044 -0.08189215977278147 -0.011871453922625728 -0.07019351803201071 -0.0093335735914763518 -0.077219638632780169 -0.0059896620767530481
leaf_weight=2496.5707678645849 282.87960532307625 1786.5670624226332 44.945758819580078 114.86088840663433 3184.5609842836857 28.26722677052021 152.13958738744259 773.81607823073864 218.36858803033829 276.99257025122643 370.14025831222534 678.23808822035789 45.189981371164322 339.01030860841274 369.67411556839943 1220.7360502332449 108.11961303651333 103.15072233974934 144.63082946836948 82.500381827354431 93.291057080030441 325.72272069752216 94.261319220066071 251.76017998158932 11.324881583452223 188.98308630287647 4.9531626254320136 97.917333513498306 20.232707142829895 74.94259537756443
leaf_count=11317 1204 7886 183 489 14244 114 626 3391 909 1152 1497 2873 195 1508 1614 5275 445 422 567 337 413 1389 389 981 47 826 22 422 86 319
internal_value=-0.00022439 0.0127278 -0.043033 -0.000965445 0.023063 -0.0659537 -0.0307481 0.00384 -0.041717 -0.0501779 -0.0561671 -0.0246822 -0.0109648 0.0181467 -0.00246239 -0.00846184 -0.0464991 -0.0600021 -0.0822899 -0.0360083 0.00799588 -0.0183197 -0.030509 -0.0851096 -0.0229637 0.00128918 0.0195225 -0.024563 -0.0356015 -0.0261098
internal_weight=13984.7 10736.4 3248.38 4617.98 6118.39 1133.51 2114.87 3119.04 753.087 429.132 708.857 1361.78 1498.94 3621.82 1332.47 1265.93 338.716 148.096 424.658 190.62 432.301 683.545 323.955 396.391 229.693 962.799 3189.51 233.011 135.094 357.822
internal_count=61142 47688 13454 20184 27504 4546 8908 13717 3123 1778 2884 5785 6467 16187 5831 5470 1387 605 1662 782 1921 2912 1345 1548 956 4217 14266 997 575 1523
is_linear=0
shrinkage=0.05


Tree=5
num_leaves=31
num_cat=0
split_feature=17 17 6 24 17 18 17 68 17 29 24 51 36 67 39 8 17 2 32 29 39 71 38 29 18 36 17 2 70 39
split_gain=1480.54 262.685 175.311 59.1576 44.8372 41.3099 33.9505 26.8128 25.232 24.3408 23.2341 23.0421 28.0743 24.4224 23.0533 22.6868 20.3115 20.2078 19.2642 18.7906 19.3049 17.6611 19.527 19.2622 17.3757 29.208 17.3216 16.0985 15.9369 14.9256
threshold=0.42537485767573197 0.26513417522422617 1.2894006172256514 -3.1798917801762689 0.51289166222952931 1.0275564558462633 0.19416122001836625 -0.24973534874348499 0.32576335614911778 15.98812044711133 2.2529985738672047 0.87500000000000722 -101.68952654239804 0.168736960310123 5.8770206048218929 0.85150000000000159 0.89613453619882411 0.57116047107608436 52.806192030600776 6.9381283612504427 -9.5670846323234446 0.10400848501130251 -3.4452086476927373 18.905427496371455 1.1652209246420473 203.6489594734758 0.31916615633042505 0.7788673519391055 74.101673170954271 -4.0131468547920202
decision_type=2 2 2 2 2 2 2 2 2 2 2 2 2 2 2 2 2 2 2 2 2 2 2 2 2 2 2 2 2 2
left_child=1 6 4 19 17 26 -1 9 -7 10 -6 12 13 -5 18 -8 27 21 -13 -4 -21 23 -23 -2 28 -26 -3 -9 -17 -11
right_child=2 5 3 11 7 8 15 16 -10 29 -12 14 -14 -15 -16 24 -18 -19 -20 20 -22 22 -24 -25 25 -27 -28 -29 -30 -31
leaf_value=-0.026470856635680391 0.017393782728304951 -0.0096840106075171909 0.1353477548574876 0.073505571331119374 0.049798522674084897 -0.00029444049359047837 -0.018707481052999905 0.034957248649156947 0.015593723959132048 0.18878280054696583 0.19442747711052605 0.090503283387457889 0.042838035002758706 0.18890379806046514 0.11267133669348395 -0.010865732328331471 0.088437024435929878 0.00054795566154245442 0.050670440873433642 0.15989291234380323 0.019500680166075757 0.086872668491242144 0.033497348420286184 0.094187440151622906 0.0048597340619174036 0.11196851911020396 0.0004434534186162723 0.0034528276168188689 0.04867431933386572 0.057845066790367321
leaf_weight=1412.0559146776795 298.76665914058685 804.968371540308 41.099129542708397 46.951458394527435 245.20130527019501 456.1237440854311 1588.1708944812417 294.00413060188293 552.66493759304285 5.3128926008939743 2.8086827993392935 52.028861984610558 171.27736158668995 5.0810824632644644 36.014956369996071 273.8502344712615 15.894095152616499 88.300143644213676 72.859023720026016 3.5458004921674728 7.9132573902606946 19.394065663218498 147.13701967149973 8.3952020108699781 30.135227106511593 8.0692240595817548 887.93491667509079 47.036488711833954 11.719905257225035 3.6866349875926954
leaf_count=11798 2319 6534 284 334 1806 3661 13060 2206 4330 39 21 366 1243 35 255 2241 110 686 526 24 55 149 1138 65 246 64 7069 356 95 27
internal_value=0.000209015 -0.0111791 0.0427594 0.0698091 0.0327125 0.000400578 -0.0205909 0.0420536 0.00840989 0.0543676 0.0514364 0.0630032 0.0526095 0.0847744 0.0774283 -0.0162483 0.0331871 0.0225079 0.067265 0.119562 0.0629425 0.0266014 0.0397134 0.0194927 -0.00418556 0.0274824 -0.00437211 0.0306121 -0.00842219 0.135144
internal_weight=7638.4 6025.69 1612.71 436.771 1175.94 2701.69 3324 613.944 1008.79 257.01 248.01 384.213 223.31 52.0325 160.903 1911.95 356.935 561.993 124.888 52.5582 11.4591 473.693 166.531 307.162 323.775 38.2045 1692.9 341.041 285.57 8.99953
internal_count=61142 49098 12044 3122 8922 21594 27504 4565 7991 1893 1827 2759 1612 369 1147 15706 2672 4357 892 363 79 3671 1287 2384 2646 310 13603 2562 2336 66
is_linear=0
shrinkage=0.05


Tree=6
num_leaves=31
num_cat=0
split_feature=17 17 17 17 17 1 18 22 0 9 36 35 67 2 17 56 9 52 1 15 40 35 30 70 38 9 37 67 9 4
split_gain=1142.76 196.117 165.651 50.3547 28.5426 24.625 23.37 22.8564 22.9187 21.5574 20.929 20.1262 18.9798 24.8535 18.3172 18.0315 19.2281 18.4402 15.9262 16.5865 15.1863 14.5781 13.6593 13.6436 12.4041 12.2148 16.849 12.51 12.1311 12.3428
threshold=0.34379529870754116 0.64147971745098153 0.22867167881940245 0.42196431596308365 0.28830985011411281 1.3449621046756308 1.0922142405948019 -0.6236896353175424 67.872172075085373 27.281645685183083 183.30809349680342 -67.813771372737577 0.57113700220308161 -0.038167643599621388 0.17941762135072931 1.5000000000000002 62.096643965861595 -19.825892251536676 -1.7026201995703614 0.25618006906169793 0.45000000000000007 -97.913322433904 0.23862298314256356 47.231641745582188 0.72936322955174948 15.415195316440096 90.926929993406745 -0.53655584694681224 25.248320661872629 128.96932499999915
decision_type=2 2 2 2 2 2 2 2 2 2 2 2 2 2 2 2 2 2 2 2 2 2 2 2 2 2 2 2 2 2
left_child=2 3 14 11 20 15 10 25 9 -9 21 -2 -13 -14 -1 16 17 -3 22 -20 -4 -6 -17 -7 -12 26 -5 -27 29 -8
right_child=1 5 4 7 6 23 28 8 -10 -11 24 12 13 -15 -16 18 -18 -19 19 -21 -22 -23 -24 -25 -26 27 -28 -29 -30 -31
leaf_value=-0.029024760001939699 0.019395492452215373 0.16091633094771604 -0.0048712532223516578 0.092128285721901321 0.024897556226077592 0.12017899316247166 -0.02700606872101273 0.02618121523210297 0.0493020073742809 0.0097022570656909151 -0.0069156597554964009 0.0030508085633621559 -0.020517824351029959 0.065988416656648022 -0.02014968684871089 0.057790888038330393 -0.024883021539252894 0.053190836845002025 0.021819053363807826 0.049930097056415275 -0.014780572367235654 -0.0064293295215163823 0.16382231904207503 0.06517202684345004 0.068510004001830924 0.050194727740774374 -0.0087759287838861944 0.025951703327436623 0.0039199521721847604 0.031083882545326177
leaf_weight=1027.344858288765 375.18347120285034 4.0216623693704596 703.00929663330317 20.051821589469913 38.863622978329659 13.563483014702795 10.058586597442625 453.8476360887289 67.513179063796997 352.68825779855251 8.3595625311136263 661.29235658049583 12.055194079875944 26.675608173012733 1339.262046046555 24.56052099168301 7.8077736496925345 325.3128120303154 159.73204661905766 78.144937753677368 859.14497769623995 835.87583200633526 3.4660326689481726 66.75088931620121 15.66587060689926 83.205998510122299 5.2125340253114691 147.62771312892437 148.04337780177593 100.6059263497591
leaf_count=8600 2740 25 5581 135 300 80 76 3204 470 2515 65 4917 88 195 10947 155 51 2088 1051 508 6842 6507 21 403 122 560 35 1021 1119 751
internal_value=-6.54791e-05 0.0250493 -0.0143294 0.0177973 -0.00591197 0.0484533 3.87464e-05 0.0251666 0.0213177 0.0189752 -0.00377302 0.0100514 0.00504328 0.0390628 -0.0240024 0.0449895 0.0526678 0.0545063 0.035254 0.0310538 -0.0103211 -0.00503751 0.0709038 0.0744616 0.0422659 0.0383029 0.0713098 0.0346903 0.013281 0.0258039
internal_weight=7974.95 2888.71 5086.23 2205.35 2719.63 683.36 1157.47 1130.15 874.049 806.536 898.765 1075.21 700.023 38.7308 2366.61 603.046 337.142 329.334 265.904 237.877 1562.15 874.739 28.0266 80.3144 24.0254 256.098 25.2644 230.834 258.708 110.665
internal_count=61172 20262 40910 15880 21363 4382 8940 7940 6189 5719 6994 7940 5200 283 19547 3899 2164 2113 1735 1559 12423 6807 176 483 187 1751 170 1581 1946 827
is_linear=0
shrinkage=0.05


Tree=7
num_leaves=31
num_cat=0
split_feature=17 17 17 17 17 18 17 18 17 9 17 9 4 54 9 23 55 19 9 7 13 18 18 4 7 55 21 39 51 39
split_gain=2577.79 446.961 385.633 100.211 73.998 49.9536 40.5974 35.0887 25.214 46.3287 22.4627 24.9675 22.3017 20.2042 18.8029 17.1299 16.2308 15.9869 22.1759 15.6848 15.6296 14.7902 14.1898 16.1912 13.9313 13.6284 13.5165 13.4321 12.4498 12.2596
threshold=0.36831984644181037 0.55728025091132494 0.23192103573598163 0.85237136622035325 0.29622414673347308 1.0186561624242303 0.16788975283581586 1.0321192337340681 0.4832202403394063 25.597933209680562 0.42196431596308365 24.125027662736084 175.63971249999943 4.0115034505266243 31.887803276139405 -0.96801849633409975 1.0000000180025095e-35 0.055260437758434609 29.147788520353092 0.008091914618772374 1.1160519083894667 1.1364702424352178 1.0897344573946814 182.32247499999912 3.2804738855999758 1.5000000000000002 1.0000000180025095e-35 -7.4782650560596347 -2.2495000000000043 5.4607511140292617
decision_type=2 2 2 2 2 2 2 2 2 2 2 2 2 2 2 2 2 2 2 2 2 2 2 2 2 2 2 2 2 2
left_child=2 5 6 12 22 8 -1 -6 25 26 11 -7 13 20 24 -5 -8 18 -14 -12 -3 -18 23 -4 -9 29 -10 -21 -27 -2
right_child=1 3 4 15 7 10 16 14 9 -11 19 -13 17 -15 -16 -17 21 -19 -20 27 -22 -23 -24 -25 -26 28 -28 -29 -30 -31
leaf_value=0.032445345614882742 -0.039298135207176343 -0.032083753571780498 0.015628383060366357 -0.082698730877658194 0.0034465329899836051 -0.033445783218055559 0.0053316044479986679 -0.011467033304487451 -0.067890950568081837 -0.0043228129791925444 -0.02760893454324391 -0.010392789340633308 -0.056291960625822618 -0.069247839826659302 0.0016715284450795232 -0.063891283996034762 0.023989090277101124 -0.085280417834663502 -0.033954384927246971 -0.10121112613241082 -0.064198636501276926 0.011053083856299448 0.003438761303644366 0.0071492999668046264 -0.036957886672282468 -0.028283734869738387 -0.034152354705937721 -0.041232169004924164 -0.0062111059274747582 0.014387791919850552
leaf_weight=1381.1946437954903 61.177106931805611 493.19768618047237 1462.9320786446333 184.67291584610939 1549.1296182572842 188.55546304583549 138.09052258729935 548.93116363883018 35.803162649273872 162.16532535851002 439.41343615949154 311.46531681716442 349.97747375071049 45.53198704123497 281.56496591866016 351.52546216547489 2591.7478595376015 32.657685562968254 162.79097007215023 9.7560322582721692 41.038207933306694 241.55397593975067 547.75084243714809 915.26101358234882 59.40001967549324 68.613457068800926 173.74924571812153 215.9895122051239 926.85224835574627 12.871268048882483
leaf_count=6506 256 1931 6611 663 6805 790 635 2357 142 664 1787 1303 1341 177 1209 1284 12010 123 630 39 157 1112 2431 4120 254 286 703 874 3918 54
internal_value=7.84219e-05 -0.0323132 0.0143044 -0.0525802 0.00533278 -0.0193946 0.0253627 -0.00109886 -0.0131707 -0.0243886 -0.027093 -0.019086 -0.0441032 -0.0372756 -0.00901146 -0.0703688 0.0220704 -0.0513607 -0.0492003 -0.0331122 -0.0345507 0.0228862 0.0106941 0.0123652 -0.0139561 -0.00927185 -0.0399168 -0.0438243 -0.00773248 -0.0299663
internal_weight=13985.4 4267.8 9717.56 1661.39 5364.97 2606.41 4352.59 2439.03 1441.23 371.718 1165.18 500.021 1125.19 579.768 889.896 536.198 2971.39 545.426 512.768 665.159 534.236 2833.3 2925.94 2378.19 608.331 1069.51 209.552 225.746 995.466 74.0484
internal_count=61172 17122 44050 6306 23787 10816 20263 10625 6023 1509 4793 2093 4359 2265 3820 1947 13757 2094 1971 2700 2088 13122 13162 10731 2611 4514 845 913 4204 310
is_linear=0
shrinkage=0.05


Tree=8
num_leaves=31
num_cat=0
split_feature=17 17 17 18 17 25 17 17 1 9 19 71 18 70 52 36 56 38 2 22 33 7 70 33 36 35 33 4 5 5
split_gain=1192.99 241.733 122.499 46.782 41.8479 40.3243 38.3439 38.253 21.7735 30.5204 24.837 21.2804 20.3971 19.2222 18.8366 17.5371 16.479 15.592 34.9629 14.7208 16.5763 16.4512 14.4476 15.8608 14.998 14.3459 14.3333 14.2802 14.2367 18.6225
threshold=0.44052610388864016 0.26513417522422617 0.89613453619882411 1.1743229161124857 0.51289166222952931 -1.0000000180025095e-35 0.354938182714505 0.19416122001836625 -1.2445397214282534 33.500922466014025 0.039726880955306208 0.10400848501130251 0.78180850265965052 71.360083177781732 7.4361675556440696 -1.4586236809667716 2.5000000000000004 -2.0662063050052075 0.65775498824278289 1.8927624799123135 88.173725648918762 3.7915394930765784 27.256116651720006 31.720500720916274 -152.19072274680005 -7.9410846060438995 5.4607317871395313 212.46099999999964 213.52007168791133 117.15769723187729
decision_type=2 2 2 2 2 2 2 2 2 2 2 2 2 2 2 2 2 2 2 2 2 2 2 2 2 2 2 2 2 2
left_child=1 7 4 6 11 17 -3 -1 10 27 -6 -2 -7 -9 -15 -11 -16 28 -19 20 21 -5 24 -24 -13 -14 -12 -10 29 -4
right_child=2 3 5 19 8 12 -8 13 9 15 26 22 25 14 16 -17 -18 18 -20 -21 -22 -23 23 -25 -26 -27 -28 -29 -30 -31
leaf_value=-0.026032786997933367 0.01182193657865294 -0.0065423007328104859 0.18245543252502799 0.015680083818254798 0.027065519819121166 0.017129177465483321 0.0066067135427726534 -0.015802939947212036 0.037654483931126227 0.035538354232990309 0.17300730433475869 0.03463206353883104 0.068681562208164071 -0.011057948494137739 0.10614865023344716 0.0062846809933767402 0.015471900861767125 0.015936165330816095 0.17330604365190869 0.11846081242812001 -0.016756220013349529 0.052295469381214592 0.0066290090895995898 0.041875610682844823 0.14187443141258063 0.024205571475924996 0.078824899727236553 0.056036383324210265 0.14773455365007301 0.084829228100144635
leaf_weight=1349.5540849268436 295.18108083307743 1634.3090479150414 5.4387329667806616 296.98550831526518 26.351037621498108 29.126418620347977 839.09471441060305 1810.2578864991665 457.35316351056099 93.995490118861198 4.5109463930129996 6.9525303691625595 135.0445165336132 27.403462052345276 8.3949601054191607 112.60643245279789 12.428030446171759 13.900940120220186 4.7304840832948676 3.5399522408843032 34.922396324574947 34.210616193711758 48.04576164484024 95.08350782096386 6.1387243419885618 20.942545905709267 38.666500255465508 137.39632967114449 16.6436438113451 47.960263833403587
leaf_count=11759 2224 13254 33 2297 180 187 6509 15273 3187 656 30 49 847 225 66 803 97 86 29 27 273 264 353 710 43 133 259 933 96 290
internal_value=-7.51347e-05 -0.0102177 0.0383778 0.000397991 0.0320747 0.0688193 -0.00208154 -0.0196256 0.0384786 0.0361498 0.0653188 0.0197197 0.0555384 -0.014973 0.0161814 0.0195939 0.052029 0.096544 0.0558921 0.0169886 0.0160075 0.0194622 0.0346426 0.030044 0.0849199 0.0627103 0.0886646 0.041901 0.107357 0.0947725
internal_weight=7647.17 6051.1 1596.07 2843.06 1322.28 273.788 2473.4 3208.04 870.88 801.351 69.5285 451.402 185.113 1858.48 48.2265 206.602 20.823 88.6741 18.6314 369.658 366.119 331.196 156.221 143.129 13.0913 155.987 43.1774 594.749 70.0426 53.399
internal_count=61172 50044 11128 22624 9427 1701 19763 27420 6048 5579 469 3379 1167 15661 388 1459 163 534 115 2861 2834 2561 1155 1063 92 980 289 4120 419 323
is_linear=0
shrinkage=0.05


Tree=9
num_leaves=31
num_cat=0
split_feature=17 17 6 39 18 18 1 6 17 39 67 2 17 21 29 6 24 2 44 3 67 38 36 22 32 67 53 17 1 36
split_gain=1060.94 152.29 140.363 35.3195 28.3209 27.0419 38.4257 24.8847 21.8725 24.8839 20.6053 18.8568 17.4646 17.314 17.2354 25.3389 14.7303 15.0963 14.5694 14.2384 17.1387 14.4988 14.0871 13.4603 13.3074 20.0884 13.0401 12.1331 11.2037 10.9107
threshold=0.34379529870754116 0.22867167881940245 1.0512165217978231 -10.624476893925577 0.96143317117547877 1.0805404347551513 -1.0866743501750731 2.965833183658042 0.39501039575058056 8.2291934880310738 -0.28592915065828722 -0.041593625814926552 0.17562688890496156 1.0000000180025095e-35 -16.09715595375344 1.1136708811548546 3.0434812553506445 1.4425539055517154 0.51500000000000012 113.01721819873362 0.21311420589062993 -1.7479516515002012 139.33534577326756 0.91502565341139441 7.7276247987341078 0.51703150615738391 -1.7545218592897203 0.28954699410267176 0.694759776232445 274.5469540251899
decision_type=2 2 2 2 2 2 2 2 2 2 2 2 2 2 2 2 2 2 2 2 2 2 2 2 2 2 2 2 2 2
left_child=1 12 3 18 10 6 -3 14 -6 -10 11 -5 -1 -8 15 -4 -16 -18 19 21 -21 -2 -9 -15 -20 -26 -12 -7 -17 -29
right_child=2 5 7 4 8 27 13 22 9 -11 26 -13 -14 23 16 28 17 -19 24 20 -22 -23 -24 -25 25 -27 -28 29 -30 -31
leaf_value=-0.028943060001169016 0.21684017075577186 0.16334213049149937 0.17027685542469237 0.047386608696197804 0.011976707660227471 -0.0034070021460726064 -0.00062363194796823552 0.061599025742235636 0.023694077033964488 0.068687133808068748 0.054379596505128136 0.0089838527532737893 -0.020005155589274785 -0.011995326836123912 0.03407725342686839 0.072984816980983067 0.038886479307197151 0.08911181325658403 0.11935536648178524 0.028487877256477639 0.1576624263963953 0.085747171647161891 0.15326365303017375 0.025747902008107101 -0.015608986354333311 0.11895652645740776 0.0039340292558916138 0.0098482840170371552 0.0065004713944514418 0.11070969075332392
leaf_weight=911.32899863272905 3.5266710370779037 3.2401749938726416 5.503995180130004 59.516979053616524 478.56068553030491 318.01521797478199 479.19452288001776 80.273996487259865 762.74979087710381 32.02043779194355 13.064626723527907 69.052885964512825 1365.4204670637846 1601.2446659505367 680.42581044137478 21.995342612266544 36.310879558324814 25.445393845438957 3.4824691414833095 11.291787073016165 3.3236186653375617 5.2475284636020678 4.422281712293624 23.975780457258224 13.488578632473947 3.4912974983453742 659.26147401332855 281.55474438518286 8.9010513573884946 2.7070634216070166
leaf_count=7984 21 23 31 408 3481 2523 3813 452 5199 217 89 481 11541 12837 4227 129 218 145 20 71 21 32 24 187 86 20 4759 2089 52 20
internal_value=5.72071e-05 -0.01405 0.0236532 0.016727 0.0157882 -0.00604099 -0.00871097 0.0406468 0.0204217 0.0255068 0.00842141 0.0267611 -0.0235828 -0.00897588 0.0378469 0.0714385 0.0361994 0.0595808 0.0611328 0.0880893 0.0578628 0.138438 0.0663851 -0.0114385 0.0303201 0.0120595 0.00491429 0.00330255 0.0538311 0.0108088
internal_weight=7968.04 4986.68 2981.36 2118.08 2074.23 2709.93 2107.66 863.279 1273.33 794.77 800.896 128.57 2276.75 2104.41 778.582 36.4004 742.182 61.7563 43.852 23.3896 14.6154 8.7742 84.6963 1625.22 20.4623 16.9799 672.326 602.277 30.8964 284.262
internal_count=61200 41017 20183 14905 14634 21492 16860 5278 8897 5416 5737 889 19525 16837 4802 212 4590 363 271 145 92 53 476 13024 126 106 4848 4632 181 2109
is_linear=0
shrinkage=0.05


Tree=10
num_leaves=31
num_cat=0
split_feature=17 17 17 17 17 17 17 18 59 18 17 19 18 18 39 55 13 35 55 36 5 13 15 55 44 60 35 36 36 72
split_gain=2304.2 441.235 286.127 76.3082 53.4395 45.9519 31.3492 29.4003 24.3013 24.2423 23.9108 21.797 20.1153 17.4466 17.3148 17.6847 17.075 17.0516 16.398 16.3563 16.0458 14.6637 14.2467 14.6935 13.6198 13.2701 12.5426 12.2399 11.147 10.8251
threshold=0.3455925137246128 0.54924525330935847 0.22867167881940245 0.82146658830527497 0.406212322781486 0.28954699410267176 0.17941762135072931 1.0200113822621335 1.0000000180025095e-35 1.0215826802950263 0.4832202403394063 0.024640489008025186 1.2062865175997373 1.1052219253659159 3.2756229246243667 1.5000000000000002 1.1160519083894667 -86.049551240561215 1.0000000180025095e-35 143.4757098557437 180.52850041373833 1.7338782121008729 0.20086876005621424 14.500000000000002 0.14500000000000005 1.0000000180025095e-35 -0.99854280018854669 -114.48376711482435 248.08356669608585 -7.7244005514393193
decision_type=2 2 2 2 2 2 2 2 2 2 2 2 2 2 2 2 2 2 2 2 2 2 2 2 2 2 2 2 2 2
left_child=2 4 6 16 12 13 -1 8 10 -7 -6 -5 18 20 17 -16 22 -9 25 -10 -4 27 23 -3 -24 -2 -22 -11 -14 -23
right_child=1 3 5 11 7 9 -8 14 19 21 -12 -13 28 -15 15 -17 -18 -19 -20 -21 26 29 24 -25 -26 -27 -28 -29 -30 -31
leaf_value=0.030200798473310649 -0.025849544852437564 -0.040740008407348316 0.016380076712860996 -0.034838938571164345 -0.014895297708789546 0.0058179732383912379 0.021344989602665447 -0.040168176417326895 -0.0049852471768973006 -0.015812932840277509 -0.037039239153807378 -0.06433266539192227 -0.022940448288630403 0.0023187101317236895 -0.091444694826877282 -0.037293636674859257 -0.057403769406649569 -0.020075565195042191 -0.0059186178221032823 -0.043250113657532313 0.0092318305728513236 -0.006200008474689365 -0.067134265900480009 -0.025204732357638433 -0.040757577192588018 -0.10913484016317206 -0.018031069843258567 -0.00048560610065779891 -0.098995600467395403 -0.062094862482775862
leaf_weight=1779.312405064702 48.802862375974655 281.38213931024075 1438.590734899044 70.691004306077957 315.98426367342472 1245.1617972105742 2279.7042819559574 137.40182250738144 420.07006885111332 168.0209676027298 198.47780928015709 550.30042624473572 168.80559180676937 447.63328540325165 16.429934144020081 183.14052759110928 116.71828976273537 456.10489942133427 1300.3274478167295 29.915851533412933 870.5506901293993 15.702795043587683 56.253375187516212 331.5414360165596 376.48907414078712 5.3023903369903556 44.335835129022598 579.44838519394398 4.9592471718788138 19.319607302546501
leaf_count=8707 202 1051 6628 253 1295 5556 10818 533 1722 719 769 1879 691 2008 65 726 422 1810 5507 122 3974 66 205 1243 1400 22 201 2504 20 82
internal_value=9.92325e-05 -0.0268017 0.015442 -0.0468249 -0.0159338 0.00721686 0.025227 -0.0218798 -0.0160155 0.00148399 -0.0234384 -0.0609752 -0.00909553 0.0113667 -0.0290112 -0.0417517 -0.0392652 -0.0247272 -0.00704084 -0.00752916 0.0130877 -0.00541257 -0.0372406 -0.0323367 -0.0441864 -0.0340116 0.00791066 -0.00393098 -0.0251111 -0.0370336
internal_weight=13956.9 5069.1 8887.78 1783.38 3285.72 4828.76 4059.02 1757.53 964.448 2027.65 514.462 620.991 1528.2 2801.11 793.077 199.57 1162.38 593.507 1354.43 449.986 2353.48 782.492 1045.67 612.924 432.742 54.1053 914.887 747.469 173.765 35.0224
internal_count=61200 19937 41263 6453 13484 21738 19525 7042 3908 8927 2064 2132 6442 12811 3134 791 4321 2343 5731 1844 10803 3371 3899 2294 1605 224 4175 3223 711 148
is_linear=0
shrinkage=0.05


Tree=11
num_leaves=31
num_cat=0
split_feature=6 6 6 5 5 13 6 9 5 18 30 18 18 51 6 39 29 51 8 30 68 7 30 18 36 3 3 35 9 51
split_gain=926.692 209.435 112.593 57.0629 48.3855 35.0125 30.7988 29.0142 24.3192 22.8098 21.7391 21.5006 19.3111 19.757 18.6777 23.0632 18.3764 17.5568 17.5095 18.0271 17.0583 29.3305 20.2743 17.0207 15.2603 15.0206 13.8575 16.7234 13.8099 13.0274
threshold=0.75897675522074304 0.42652503837896483 1.3969227607162862 141.00299748921222 127.90475673590082 1.2094451379229747 0.3294424659171134 9.6805574443735427 128.30520483490184 1.2189152751574515 0.15617343410336273 0.86262576814623759 1.3458575618509003 0.56474999999998954 0.55492040528102005 2.9501193438827182 2.847419973581975 1.3744999999999978 -2.3362500000000064 0.51020300114785522 0.61880126570158522 0.64753946439593968 -0.077964071621417483 0.82328265352421237 -101.68952654239804 195.45153307811933 190.45724674328747 -85.285539765873011 19.345303908863837 -2.8072499999999958
decision_type=2 2 2 2 2 2 2 2 2 2 2 2 2 2 2 2 2 2 2 2 2 2 2 2 2 2 2 2 2 2
left_child=1 6 3 11 7 18 -1 -3 12 14 17 -2 13 -8 15 -6 -9 24 -5 -20 22 -22 -13 28 -4 -16 27 -7 -12 -25
right_child=2 4 10 5 9 26 8 16 -10 -11 23 20 -14 -15 25 -17 -18 -19 19 -21 21 -23 -24 29 -26 -27 -28 -29 -30 -31
leaf_value=-0.024179319754382742 0.012545995607923924 0.15508094216057416 0.071317040723432146 0.033367976345985623 -0.011678710356999952 0.12845858893028839 0.0096548726945692373 0.028074756735057028 -0.016528243876774783 0.011930923161979579 0.051302848179361961 0.038388402925854298 0.12753435613346639 -0.027945949565633944 0.0046898840710587354 0.0046125788899047471 0.0011640032165454457 0.082942085115412997 0.013211408441227465 0.063339962845038858 0.011125969650881333 0.10869918281867874 0.079204527024026986 0.0025487916982706842 0.043364708983925158 -0.0067100836199328207 0.035287983416221864 0.05085226512251554 -0.021520120310983271 0.052257518550810893
leaf_weight=1509.4141062498093 35.800396770238876 3.9001662135124198 82.20984274148941 141.21837378293276 993.33949802815914 10.532108500599863 144.77856370806694 164.826026648283 1184.8963011279702 251.76019436866045 10.083154991269113 47.795020028948784 3.0432286337018004 46.046710021793842 786.70850268006325 278.05478057265282 103.13029254972935 75.679582685232162 810.36994994431734 18.340679593384266 39.956430837512016 9.5409928709268552 83.71193565428257 14.797738313674925 120.24759688973427 456.68017263710499 53.764903165400028 20.363277062773705 18.372214928269386 120.60010989010334
leaf_count=13532 233 28 461 971 8280 69 1182 1200 10245 1919 63 299 24 375 6057 2304 752 431 5841 124 263 60 535 92 736 3750 384 137 117 736
internal_value=-0.000240944 -0.009604 0.0321458 0.0245885 -0.000440066 0.0197856 -0.0192446 0.0196881 -0.0138422 -0.00241798 0.0538844 0.0479507 0.00257451 0.000581682 -0.00385447 -0.00811579 0.0177174 0.0623955 0.017094 0.0143208 0.0549533 0.0299339 0.0643703 0.0394371 0.054715 0.000502827 0.0506225 0.0773079 0.00428468 0.0468248
internal_weight=7639.96 5926.58 1713.38 1271.39 3038.4 1054.59 2888.18 271.856 1378.76 2766.54 441.99 216.805 193.869 190.825 2514.78 1271.39 267.956 278.137 969.929 828.711 181.004 49.4974 131.507 163.853 202.457 1243.39 84.6603 30.8954 28.4554 135.398
internal_count=61200 49648 11552 8916 24290 7526 25358 1980 11826 22310 2636 1390 1581 1557 20391 10584 1952 1628 6936 5965 1157 323 834 1008 1197 9807 590 206 180 828
is_linear=0
shrinkage=0.05


Tree=12
num_leaves=31
num_cat=0
split_feature=17 17 17 6 17 22 38 36 9 0 71 36 22 32 9 24 44 37 39 17 70 4 55 57 18 1 17 0 38 39
split_gain=837.744 155.269 107.414 27.6864 26.7456 26.6914 21.8677 18.1471 17.7829 18.0055 26.8111 17.5038 16.7663 16.7571 17.7117 16.6973 15.9482 15.153 14.5562 14.3086 13.9904 14.8314 13.8141 13.2852 19.7625 12.9305 12.9287 12.897 17.286 12.6905
threshold=0.3455925137246128 0.22234709083155046 0.70774457454799844 0.72759468442076447 0.29492654041931121 -0.73660740885890241 -3.4452086476927373 139.33534577326756 30.444213369044125 75.709506074975181 0.08928840628863749 -192.86779124232677 -0.42651904482834396 33.901648415060329 13.1795147363701 1.0027119006930543 0.88500000000000012 2.6686946032846491e-11 0.47121835138735918 1.4168310661514443 69.416661843069036 164.93603374999853 1.0000000180025095e-35 1.0000000180025095e-35 1.0432847957967206 0.03280298919790426 0.17174357889611355 77.343016201336766 4.3084313055701378 -2.1202501398546674
decision_type=2 2 2 2 2 2 2 2 2 2 2 2 2 2 2 2 2 2 2 2 2 2 2 2 2 2 2 2 2 2
left_child=1 26 3 5 12 6 -2 22 13 11 -11 -10 18 14 -5 -9 -15 23 29 -17 25 -22 -4 -6 -25 -14 -1 -7 -29 -3
right_child=2 4 7 8 17 27 -8 15 9 10 -12 -13 20 16 -16 19 -18 -19 -20 -21 21 -23 -24 24 -26 -27 -28 28 -30 -31
leaf_value=-0.028776424042676742 0.081763053203323388 -0.0027890652197659297 0.076615142591631935 0.077913967250523644 0.0035493592895585301 0.0063005509231486402 0.022637319380598302 0.0031732619474693353 0.063166714091155152 0.0079432717715678478 0.12636103363581383 0.0087682650418671286 -0.0076608937473080013 0.01519182178091788 0.030895171705947307 0.07131025980362006 0.035523875357646346 -0.002885413261263018 -0.013531709625608178 0.1735702152521354 -0.011240028834329832 0.034462281279633182 0.035020778002352919 0.010371308410031241 0.061940403481898935 -0.016936613563340527 -0.020582049973002829 0.11870528574587019 -0.023203991231976095 0.024472082871603865
leaf_weight=789.44348359853029 17.940123289823532 84.116110265254974 20.754181608557701 21.579938232898712 190.55828610062599 964.57524891197681 121.88328310847282 8.4109372794628126 15.307697802782057 10.917844668030741 8.5022843331098539 435.25596928596497 756.56141581386328 439.87350323796272 278.6705480068922 39.474021449685097 123.53261326253414 747.87238924950361 93.063947424292564 3.7453636527061454 37.464823983609676 33.737833514809608 522.691535577178 56.184604346752167 27.756172358989716 746.37234947085381 1233.394363462925 5.7608682662248594 3.419793576002121 86.684145763516426
leaf_count=7246 112 679 112 137 1472 6868 804 49 94 70 51 2880 6200 2902 1789 217 803 5790 758 18 308 272 2928 440 202 6182 10804 39 22 700
internal_value=-0.000346963 -0.013178 0.0202482 0.0156153 -0.00568023 0.00979526 0.0302235 0.0393006 0.020475 0.0126482 0.0597875 0.0106164 -0.00928615 0.0247341 0.0342746 0.0676284 0.0196498 0.000802424 0.00237782 0.080172 -0.0112413 0.010415 0.0366093 0.0108499 0.0274233 -0.0122673 -0.02378 0.00686193 0.0658441 0.0110464
internal_weight=7925.51 4883.21 3042.3 2447.22 2860.37 1113.58 139.823 595.076 1333.64 469.984 19.4201 450.564 1838 863.657 300.25 51.6303 563.406 1022.37 263.864 43.2194 1574.14 71.2027 543.446 274.499 83.9408 1502.93 2022.84 973.756 9.18066 170.8
internal_count=60948 41053 19895 16571 23003 7845 916 3324 8726 3095 121 2974 15099 5631 1926 284 3705 7904 2137 235 12962 580 3040 2114 642 12382 18050 6929 61 1379
is_linear=0
shrinkage=0.05


Tree=13
num_leaves=31
num_cat=0
split_feature=17 17 17 17 17 17 17 4 9 35 40 9 23 18 18 9 18 36 39 55 18 55 37 18 51 37 19 18 56 4
split_gain=1946.63 355.479 269.581 65.5728 47.3509 38.7602 30.9213 21.4136 23.0648 22.1979 20.2173 18.9388 24.8202 18.7734 18.5211 17.4487 25.0637 22.1369 17.3084 16.8371 16.7341 13.72 13.7146 13.6917 13.1112 19.5037 12.4745 12.221 11.9309 11.6743
threshold=0.3455925137246128 0.54924525330935847 0.23504382504542276 0.89613453619882411 0.42196431596308365 0.1621555399922463 0.29492654041931121 165.77977950507338 27.419449123760117 -85.285539765873011 1.0000000180025095e-35 17.494513254844446 2.2826052567053394 1.1838369576621743 1.2336267775965837 18.501443693322297 1.1743229161124857 231.39446342959533 -2.2916382048078385 1.0000000180025095e-35 1.0897344573946814 17.500000000000004 0.050919324052764607 1.1364702424352178 -2.1647500000000117 60.597612960706122 0.023741855359498056 1.0032693155727925 3.5000000000000004 182.32247499999912
decision_type=2 2 2 2 2 2 2 2 2 2 2 2 2 2 2 2 2 2 2 2 2 2 2 2 2 2 2 2 2 2
left_child=2 4 5 11 10 -1 20 8 21 -9 24 -3 13 -13 22 16 -12 -17 28 -7 29 -6 -8 -21 25 -2 -5 -10 -16 -4
right_child=1 3 6 26 7 19 14 9 27 -11 15 12 -14 -15 18 17 -18 -19 -20 23 -22 -23 -24 -25 -26 -27 -28 -29 -30 -31
leaf_value=0.031804962884610828 -0.027646252453792472 -0.047762154419680347 0.014352843026566781 -0.028246304376880423 -0.030211119405424772 0.0045935446328421109 -0.0045059034742151935 -0.042257901698720131 0.0069005577401048254 -0.022094834247513209 -0.01197125397904052 -0.026538510437221309 -0.05942129472546992 -0.042274982286109708 -0.079839915007884871 -0.0024900315473295191 -0.058725111809261599 -0.053965843035609876 -0.0081043272450040168 0.022736153234175823 0.0012460823957751383 -0.0076195088134521863 0.0054669308138060504 0.010635420863976142 -0.016610207284869949 -0.11179072729942033 -0.058765764305870896 -0.013231526187112118 -0.0097033240373198618 0.0067949349274182835
leaf_weight=1094.1105439513922 28.534531459212303 262.63563150167465 1313.312572568655 35.96683993935585 221.06565535068512 151.14596615731716 490.71859416365623 170.51242899894714 138.25213751196861 684.35383741557598 353.49532908201218 733.92951786518097 80.813136488199234 255.50657108426094 16.025851756334308 1120.318595468998 31.19438961148262 21.28250826895237 118.72817172110081 2727.6574993729591 498.67091429233551 96.558748215436935 1158.8126799166203 255.6730937063694 295.42794878780842 9.0774049460887891 484.58523559570312 165.76597055792809 9.7540215998887998 836.29827301204205
leaf_count=5576 113 924 6137 123 856 727 2166 642 564 2669 1478 2644 280 906 66 4665 125 85 498 13395 2236 379 5133 1233 1209 36 1557 640 41 3845
internal_value=0.000170204 -0.0240516 0.0146662 -0.0416081 -0.014297 0.0237025 0.00606471 -0.0209818 -0.0139207 -0.0261166 -0.0089885 -0.0357308 -0.0327783 -0.0306022 0.000996443 -0.00655303 -0.0157625 -0.00344968 -0.0161677 0.0208743 0.00949814 -0.0233432 0.00250012 0.0216991 -0.02015 -0.047954 -0.0566571 -0.00407647 -0.0533032 0.0114125
internal_weight=13860.2 5189.28 8670.91 1853.44 3335.84 4228.59 4442.32 1476.51 621.643 854.866 1859.33 1332.88 1070.25 989.436 1794.04 1526.29 384.69 1141.6 144.508 3134.48 2648.28 317.624 1649.53 2983.33 333.04 37.6119 520.552 304.018 25.7799 2149.61
internal_count=60948 19895 41053 6434 13461 20931 20122 5750 2439 3311 7711 4754 3830 3550 7904 6353 1603 4750 605 15355 12218 1235 7299 14628 1358 149 1680 1204 107 9982
is_linear=0
shrinkage=0.05


Tree=14
num_leaves=31
num_cat=0
split_feature=17 17 6 23 17 18 17 30 17 9 53 23 55 3 13 30 15 71 38 17 19 9 56 55 17 71 44 3 9 15
split_gain=917.995 202.832 88.3663 30.0536 29.0839 28.6883 25.6364 20.1301 19.8429 17.2316 15.9728 15.5208 15.1814 15.0254 16.7262 15.5766 14.6751 14.3733 26.7218 14.2469 14.1731 14.1112 15.4644 13.5122 23.8504 14.626 14.6163 16.3939 12.5989 19.8619
threshold=0.42196431596308365 0.26167015512139935 1.4517193302154625 -1.3501968342042534 0.19860872672899887 1.1838369576621743 0.51289166222952931 0.038165251559180609 0.31340668737760707 27.547680973284109 1.6939228223765648 0.36729312917804796 16.500000000000004 178.14521022695649 1.2939657371805937 -0.022879582002175824 0.48945718782548836 0.10400848501130251 -4.5536275597975893 0.94716680723273783 0.039726880955306208 22.526570738482537 1.0000000180025095e-35 10.500000000000002 0.7952680016507031 0.61423300275730608 0.03500000000000001 204.74250092691184 34.373150143065864 0.40634444590620095
decision_type=2 2 2 2 2 2 2 2 2 2 2 2 2 2 2 2 2 2 2 2 2 2 2 2 2 2 2 2 2 2
left_child=1 4 3 13 -1 8 17 23 -3 19 -11 -6 -13 15 20 -2 -9 -5 -19 -8 -15 22 -10 26 -25 -26 -4 -28 29 -7
right_child=2 5 7 6 11 28 9 16 21 10 -12 12 -14 14 -16 -17 -18 18 -20 -21 -22 -23 -24 24 25 -27 27 -29 -30 -31
leaf_value=-0.024525737707153432 0.027676744084672019 -0.0074108672971243466 0.15999553457346913 0.0077570575330710035 -0.017343413891259218 0.010736025136986299 0.033182730455088995 0.033811418712745699 0.025369704881760338 0.013655453168456441 0.044565661888190472 -0.0001314477379324763 -0.023399569016033728 0.036341973669275628 0.11280251124971426 0.12967872601826178 0.075349805330859276 0.15368342879536695 0.021873844502787732 0.094394876511309928 0.087022955331253565 -0.0027957129749405429 0.0038864758624025915 0.020440856621176319 0.052825773937433033 0.094010098951666482 0.040966013981520166 0.090732770896265719 -0.00064248066853406715 0.043425099625526847
leaf_weight=1355.6593823581934 123.29760548472404 1034.2238839045167 5.0316064357757559 374.04537656903267 1194.7954183071852 161.3458753824234 383.31754657626152 180.34994751214981 99.720874927937984 250.90132017433643 50.147601395845413 289.51411099731922 92.499069765210152 55.328791573643684 11.926033347845076 3.8599707186222068 24.10485303401947 3.9248748570680609 189.27583146095276 9.7474761456251127 18.376425191760063 770.25972536206245 523.60233880579472 43.357472509145737 76.519285216927528 30.01313029229641 26.730946853756905 43.438838750123978 107.36781833320856 65.264712311327457
leaf_count=12748 771 8675 28 2705 10616 1212 2417 1037 780 1629 306 2509 807 359 73 22 135 27 1331 53 112 6014 4106 255 401 158 137 228 810 487
internal_value=5.14352e-05 -0.00999755 0.0301095 0.0242946 -0.0191555 -0.000273629 0.0213623 0.0500659 -0.00216371 0.0278062 0.0188044 -0.0145384 -0.00576549 0.0416763 0.0578669 0.0307731 0.0387087 0.0134772 0.0245516 0.0347007 0.0489779 0.00173038 0.00732342 0.0603818 0.0517046 0.0644285 0.077677 0.0717743 0.013466 0.0201506
internal_weight=7597.95 5694.25 1903.69 1474.15 2932.47 2761.79 1261.36 429.546 2427.81 694.114 301.049 1576.81 382.013 212.789 85.6313 127.158 204.455 567.246 193.201 393.065 73.7052 1393.58 623.323 225.091 149.89 106.532 75.2014 70.1698 333.978 226.611
internal_count=60948 48764 12184 9805 26680 22084 8468 2379 19575 4405 1935 13932 3316 1337 544 793 1172 4063 1358 2470 471 10900 4886 1207 814 559 393 365 2509 1699
is_linear=0
shrinkage=0.05


Tree=15
num_leaves=31
num_cat=0
split_feature=17 17 17 17 18 39 8 9 0 9 55 55 0 68 37 67 29 70 33 1 35 38 9 30 14 38 55 67 38 36
split_gain=754.455 156.049 86.8013 50.9219 26.6351 18.7551 18.9041 22.841 17.3815 16.8071 18.5061 16.9991 15.5796 17.6571 15.6236 14.1558 15.9248 14.6798 28.7242 18.2747 12.9902 12.583 12.2572 14.8516 17.1993 14.3877 12.0931 14.8611 11.5706 10.6839
threshold=0.29492654041931121 0.406212322781486 0.2108353355392891 0.70774457454799844 1.0781946078534321 -10.624476893925577 -0.98649999999999938 13.1795147363701 77.343016201336766 17.494513254844446 8.5000000000000018 1.5000000000000002 45.794599486456534 0.32047639894845498 -4.0127004032740642e-13 -0.37306027324444652 -25.279881444065513 68.954839056264248 95.375321658766282 0.043460037938743319 -1.0000000180025095e-35 1.6396058489566492 54.30545277111451 0.28094768642788898 0.25539787467986358 -2.1140074654585002 6.5000000000000009 0.22641962164040577 -2.0184201297648356 183.30809349680342
decision_type=2 2 2 2 2 2 2 2 2 2 2 2 2 2 2 2 2 2 2 2 2 2 2 2 2 2 2 2 2 2
left_child=2 4 -1 5 12 26 7 -7 -8 10 -6 28 13 14 -2 -4 -17 19 -19 -18 -13 -12 23 25 -25 -5 -3 -28 -11 -14
right_child=1 3 15 22 9 6 8 -9 -10 11 21 20 29 -15 -16 16 17 18 -20 -21 -22 -23 -24 24 -26 -27 27 -29 -30 -31
leaf_value=-0.024496882055378824 0.034427840535861183 0.1323911546085042 0.014376355713394807 0.023631913195516909 -0.0019700656093736822 0.081190658864666657 0.013834010721279658 0.024392480849447489 0.061512984132451834 0.085988435316954437 0.045798055638114385 0.0054313782427128036 -0.0040505291173152892 0.047172062496021336 0.0029319332516086209 0.11137181380303268 -0.0066342640579024103 0.0014743622551784596 0.10729804604766646 -0.016343083399271527 0.072948774884547762 0.14741371898993924 0.010546874772665105 0.063352947641669308 0.025318464251033047 0.041640519196019479 0.022464678100712326 0.11095948552986352 0.025659577999697786 0.022567287240796902
leaf_weight=1657.5222615450621 43.340207517147064 4.6652603149414089 61.733570493757725 204.96859908103943 22.652593106031418 18.378908574581146 1052.8331186175346 479.54753284156322 19.468449100852013 9.317990764975546 49.886780932545662 392.53015615046024 874.7491842135787 27.294329568743706 430.29138325899839 2.7024059295654288 1078.891087539494 84.073229804635048 6.9418951123952857 880.03134726732969 7.2556762546300879 3.2446704357862464 44.193137556314468 99.207052707672119 42.437836244702339 241.69150672852993 18.839355736970905 6.3408703505992881 54.047545686364174 39.396353840827942
leaf_count=15442 319 25 502 1100 160 107 6796 2960 111 64 345 2796 6675 201 3203 22 9038 694 55 7503 51 22 233 509 218 1303 109 35 384 290
internal_value=0.000288744 0.0149012 -0.0159302 0.0239321 0.00458281 0.0191844 0.0184381 0.026489 0.0146997 0.014042 0.0358703 0.0104703 0.000980231 0.00806751 0.005814 -0.00921445 -0.00992395 -0.0100839 0.00954573 -0.0109959 0.00665675 0.0520036 0.0359425 0.0378502 0.0519575 0.0333765 0.058449 0.0447494 0.034531 -0.0029034
internal_weight=7958.47 4186.58 3771.9 2232.57 1954.01 1600.07 1570.23 497.926 1072.3 538.935 75.784 463.151 1415.07 500.926 473.632 2114.37 2052.64 2049.94 91.0151 1958.92 399.786 53.1315 632.498 588.305 141.645 446.66 29.8455 25.1802 63.3655 914.146
internal_count=61272 28016 33256 13506 14510 10143 9974 3067 6907 3822 527 3295 10688 3723 3522 17814 17312 17290 749 16541 2847 367 3363 3130 727 2403 169 144 448 6965
is_linear=0
shrinkage=0.05


Tree=16
num_leaves=31
num_cat=0
split_feature=17 17 17 17 18 17 18 17 9 6 9 17 55 13 15 14 9 70 19 39 17 18 9 9 22 13 55 55 17 67
split_gain=1700.58 319.76 266.055 48.3317 46.6865 38.2744 35.1171 25.7298 25.0265 28.7611 23.2665 19.7371 16.9397 15.7896 19.9865 20.7128 18.3292 15.7571 15.1609 15.1329 14.2948 13.5168 17.5389 13.4929 13.1882 12.5736 12.3813 11.9769 10.1555 10.0197
threshold=0.3455925137246128 0.54924525330935847 0.23390952494895331 0.82146658830527497 1.0186561624242303 0.18059625910566135 1.0781946078534321 0.46713195753625419 18.501443693322297 0.80227690891690462 25.711159412781324 0.29622414673347308 2.5000000000000004 0.5548551650640493 0.17302907764314007 0.16169133218314333 17.334216649666558 26.2377663687028 0.028404731291781084 -8.3151268934062212 0.30760231083216838 1.2189152751574515 17.494513254844446 11.803664282819067 0.78815647431768066 0.51782156267828483 1.5000000000000002 1.0000000180025095e-35 1.0988964072389209 -0.44731459268868007
decision_type=2 2 2 2 2 2 2 2 2 2 2 2 2 2 2 2 2 2 2 2 2 2 2 2 2 2 2 2 2 2
left_child=2 4 5 13 7 -1 11 27 -6 17 -9 -4 -13 14 16 -16 -3 -10 24 -11 -8 22 -22 -5 26 28 -7 -2 -25 -15
right_child=1 3 6 23 8 18 20 10 9 19 -12 12 -14 29 15 -17 -18 -19 -20 -21 21 -23 -24 25 -26 -27 -28 -29 -30 -31
leaf_value=0.028724450442561805 -0.029316297742927225 -0.043004897439153755 0.010678476357510094 0.023118487420030615 -0.034568450421273246 0.0077578715638007391 0.0014918901607576397 -0.027627249903741387 -0.038651104113154339 -0.096691682194372908 -0.0048322058777063035 -0.012738398167767404 0.0049623941091239739 -0.053930868149315428 -0.024973263440755032 -0.04746090969138092 -0.014307771093223873 -0.0098955872862091093 -0.074327937695094867 -0.026218126772049911 -0.035179626557427533 -0.023612284817078721 0.0027151097002500852 -0.037397338549471019 -0.014268788569472658 -0.05937491549555779 0.020596199695203155 -0.0035757174292318688 -0.052461497556067931 -0.036086117934632143
leaf_weight=1689.0672511160374 46.729097828269005 68.531058996915817 2152.6149359643459 6.3946818709373465 234.28080160915852 205.93069706857204 682.04481853544712 266.09622061252594 50.60331404209137 7.7605445086956015 193.22804316878319 153.15029421448708 1150.8698165565729 99.03026956319809 212.7543805539608 197.41058784723282 295.86314502358437 813.63320516049862 4.3550670444965354 413.14643573760986 36.436937108635902 131.31832806766033 188.48022750020027 222.39601716399193 29.335362285375595 229.27295193076134 2132.7017988860607 1372.6537773758173 225.13856753706932 382.49176749587059
leaf_count=8909 186 236 10138 21 906 1009 3053 990 191 27 762 683 5151 332 740 682 1053 3226 20 1556 152 540 799 716 138 718 10668 5659 696 1315
internal_value=-0.000119427 -0.0222676 0.0136966 -0.0384676 -0.0130223 0.022972 0.00531568 -0.0077518 -0.0195392 -0.0167993 -0.0180379 0.00773782 0.00288353 -0.0326461 -0.0282261 -0.0357965 -0.0197048 -0.0115793 0.0188764 -0.0275175 -0.00274809 -0.0108659 -0.0034239 -0.0491704 0.0190478 -0.0498534 0.0194657 -0.00442315 -0.0449756 -0.0397561
internal_weight=13893.7 5337.41 8556.31 1939.28 3398.13 4061.39 4494.92 1878.71 1519.42 1285.14 459.324 3456.64 1304.02 1256.08 774.559 410.165 364.394 864.237 2372.32 420.907 1038.28 356.235 224.917 683.202 2367.97 676.808 2338.63 1419.38 447.535 481.522
internal_count=61272 20012 41260 6509 13503 20744 20516 7597 5906 5000 1752 15972 5834 4358 2711 1422 1289 3417 11835 1583 4544 1491 951 2151 11815 2130 11677 5845 1412 1647
is_linear=0
shrinkage=0.05


Tree=17
num_leaves=31
num_cat=0
split_feature=17 17 17 8 40 51 17 18 55 56 22 67 71 6 6 4 3 18 40 55 72 67 17 0 3 56 38 37 40 6
split_gain=772.898 156.817 103.142 44.5193 24.139 23.0384 23.7104 20.8778 18.6447 20.7703 19.3629 16.5774 16.2655 15.8992 15.7984 15.1278 17.4353 13.3528 12.9988 14.9682 12.9857 12.6379 12.1589 15.0178 12.136 22.6592 18.7216 13.3706 11.4378 12.1236
threshold=0.354938182714505 0.51289166222952931 0.23918997108387244 -2.9875000000000109 0.8500000000000002 0.74249999999999272 0.59203436691988565 1.1700641085776697 1.0000000180025095e-35 1.5000000000000002 0.8764377500620758 -0.13841793470352745 0.10400848501130251 0.80227690891690462 2.4850662849162508 256.23718749999983 220.30716024120167 0.82328265352421237 1.0000000180025095e-35 4.5000000000000009 -20.308307684096068 -0.69875366015975093 0.82146658830527497 50.927702418655649 146.63634462993676 2.5000000000000004 2.0321003546701526 43.844510295493883 0.75000000000000011 0.31311765529247881
decision_type=2 2 2 2 2 2 2 2 2 2 2 2 2 2 2 2 2 2 2 2 2 2 2 2 2 2 2 2 2 2
left_child=2 12 4 14 -1 22 -7 28 9 -6 -10 -11 21 -14 15 16 -3 -8 20 -20 -15 -2 23 -5 25 26 -9 -27 -4 -30
right_child=1 3 7 5 8 6 17 24 10 11 -12 -13 13 18 -16 -17 -18 -19 19 -21 -22 -23 -24 -25 -26 27 -28 -29 29 -31
leaf_value=-0.022717673640732211 0.045050384284403056 0.041821402994012824 -0.0091360179149981968 0.026702080537506639 0.15452535032293474 0.019267844289339867 0.016055123041714546 0.099680653484576581 -0.01367553063910066 0.1418280234108443 0.062005958600660285 -0.0036311713106406615 0.010616611722016908 0.034638786712636392 0.079790610800274331 -0.01654671614100621 0.084403304406779456 0.046912451447830725 0.056120370851898332 0.01357732687137949 0.097653114436006813 0.0049089339218504474 0.034840800663936494 0.0088593535512329659 0.002805321839983502 0.031304217449718889 -0.023938221849723218 -0.036761076229953359 0.10067093356777455 -0.0014591973984768847
leaf_weight=1804.9239399135113 20.008771419525146 116.16481423377991 1596.0228443443775 264.44760501384735 3.1419213935732868 137.10088692605495 39.238826677203178 14.637284323573114 472.9887525960803 2.2456162571907106 8.6052058190107328 15.332124792039389 358.99826190620661 24.799408152699471 47.310546368360519 8.8883287459611875 30.31190299987793 329.09905549883842 25.681964606046677 106.0553825199604 12.196727842092512 978.29064277559519 155.57738338410854 212.8506066352129 230.69883449375629 17.592167675495151 3.8732099607586852 12.231596328318117 2.920453153550624 578.83255124092102
leaf_count=17190 138 627 13517 1605 27 854 221 111 4485 20 69 139 2607 157 215 48 160 1808 180 742 81 7168 837 1348 1788 135 30 97 26 4842
internal_value=-8.36946e-05 0.0204285 -0.012428 0.0329029 -0.0200197 0.0290587 0.0370183 -0.00529847 -0.0103252 0.0361166 -0.0123232 0.0149517 0.00946666 0.0165665 0.0544933 0.04679 0.0506333 0.0436252 0.0292254 0.021871 0.0554131 0.00571348 0.0227019 0.0187451 0.00757825 0.0303594 0.0738141 0.00338865 -0.00694834 -0.000946495
internal_weight=7631.07 2867.02 4764.05 1340.99 2307.24 1138.31 505.439 2456.81 502.314 20.7197 481.594 17.5777 1526.03 527.732 202.676 155.365 146.477 368.338 168.733 131.737 36.9961 998.299 632.876 477.298 279.033 48.3343 18.5105 29.8238 2177.78 581.753
internal_count=61272 18796 42476 7723 21930 6673 2883 20546 4740 186 4554 159 11073 3767 1050 835 787 2029 1160 922 238 7306 3790 2953 2161 373 141 232 18385 4868
is_linear=0
shrinkage=0.05


Tree=18
num_leaves=31
num_cat=0
split_feature=17 17 17 17 36 17 9 18 29 24 36 70 68 70 15 38 40 70 33 37 19 13 22 69 13 37 24 8 17 17
split_gain=634.459 121.111 60.609 24.636 22.1119 18.8265 23.0436 16.5059 21.758 15.6204 14.8701 23.9504 16.0105 14.8166 14.1563 13.2452 13.2189 20.587 17.6109 13.2133 12.9481 12.7507 12.3948 14.1007 11.7147 11.5892 11.7651 11.5334 10.8559 10.8498
threshold=0.3455925137246128 0.21306128302636557 0.4832202403394063 0.2922140456344533 -143.72721350793765 0.7435098792617566 28.538553321350332 1.1328409771613621 -2.1032409537087804 3.478515324141918 203.6489594734758 72.149907084363733 1.336053086020861 20.092802290623933 0.016251941037164815 -3.4452086476927373 0.45000000000000007 69.416661843069036 95.375321658766282 -1.2888102386763727e-10 0.028866296989312704 0.029859567120340935 0.99454667419243148 0.088186505584153543 1.4668257646318001 30.917597057837948 1.0418257944758371 -0.69362499999999716 0.18059625910566135 0.39501039575058056
decision_type=2 2 2 2 2 2 2 2 2 2 2 2 2 2 2 2 2 2 2 2 2 2 2 2 2 2 2 2 2 2
left_child=1 28 4 16 27 6 7 21 -9 13 19 14 -13 -8 -12 -7 -3 20 -19 -6 -18 -4 25 -24 -25 26 -5 -2 -1 -21
right_child=2 3 5 22 10 15 9 8 -10 -11 11 12 -14 -15 -16 -17 17 18 -20 29 -22 -23 23 24 -26 -27 -28 -29 -30 -31
leaf_value=-0.026614716987271744 0.028870497078590324 -0.0048707955742151492 0.06244387206535023 0.0063532940881831888 0.078306540555121082 0.020227862864265936 0.076619725909938777 0.066045145450364037 0.021997292687841966 0.047071067000375888 -0.029013810582839333 0.14522394799186047 0.016439075860480077 0.0069330684956605514 0.039184647552836814 0.036505968016489157 -0.015431931612742554 0.004940176470700444 0.093384597982216169 0.0021246905861417613 0.060335333098346947 0.020499438613157485 0.13120799161972047 0.0017854057944072213 0.090522095484507958 -0.0061454642456445037 -0.021822659630301229 -0.027189421056174307 -0.018449144182496359 0.010967055410509408
leaf_weight=891.4568914398551 181.94282810389996 885.59284599870443 18.834418132901192 501.58563067018986 6.4770421832799903 186.66505636274815 7.7800864875316611 54.358700662851334 57.894771963357925 27.795972630381584 11.604561552405356 7.0937565714120847 3.6576937437057495 389.18727122247219 22.101011097431183 378.07246065139771 997.09692136198282 68.653230972588062 6.1309626922011367 666.72284749150276 5.6708226129412642 476.7115953117609 3.2679753005504635 18.001663722097877 4.6878874897956839 526.49516917020082 40.003948196768761 9.6619225293397886 749.04324425756931 723.24197833240032
leaf_count=8880 1152 7497 110 3840 44 951 42 302 336 147 77 44 22 2374 144 1899 8649 569 45 4739 46 2780 24 132 32 4108 312 65 6977 4787
internal_value=-0.000198116 -0.0119268 0.0168611 -0.00604588 0.0100859 0.0237855 0.019771 0.0260153 0.0433274 0.010836 0.00796395 0.0364316 0.101411 0.00829884 0.0157045 0.0311255 -0.00939657 -0.0131161 0.012191 0.00705766 -0.0150035 0.0220936 -3.34051e-05 0.034105 0.0201193 -0.000863067 0.00427211 0.0260436 -0.0228864 0.00672565
internal_weight=7927.49 4697.69 3229.8 3057.19 1632.5 1597.3 1032.56 607.799 112.253 424.763 1440.9 44.457 10.7515 396.967 33.7056 564.738 1963.14 1077.55 74.7842 1396.44 1002.77 495.546 1094.04 25.9575 22.6896 1068.08 541.59 191.605 1640.5 1389.96
internal_count=61126 41111 20015 25254 11074 8941 6091 3528 638 2563 9857 287 66 2416 221 2850 16806 9309 614 9570 8695 2890 8448 188 164 8260 4152 1217 15857 9526
is_linear=0
shrinkage=0.05


Tree=19
num_leaves=31
num_cat=0
split_feature=19 19 19 20 56 44 19 39 9 14 56 39 9 67 39 19 32 39 57 55 72 55 51 39 39 23 13 9 9 2
split_gain=917.698 228.704 121.21 62.6118 56.5881 59.149 48.7041 39.288 32.7638 31.5888 29.0619 28.3071 25.0278 24.8978 23.7205 22.4023 20.7919 20.7696 20.4054 20.6187 19.4676 18.785 16.6546 16.2811 14.0457 13.8205 13.4445 13.3863 12.2576 11.9841
threshold=0.018168002330452609 0.0088077972177094503 0.028000237957704937 1.0000000180025095e-35 4.5000000000000009 0.93500000000000016 0.055260437758434609 -3.8037247018788296 26.532413958214224 0.0035415776341661772 4.5000000000000009 -6.2798795621817165 30.950889431474149 -0.48775257811935474 -3.9380316612101058 0.013276459170753572 57.212370383631743 6.5544239311061583 1.0000000180025095e-35 15.500000000000002 61.304512067893732 10.500000000000002 0.47800000000000159 -5.4078792346605447 9.6503244119305016 -0.73348091002883298 1.8190480776750066 34.835456896792671 11.64322410945619 0.29542709977236387
decision_type=2 2 2 2 2 2 2 2 2 2 2 2 2 2 2 2 2 2 2 2 2 2 2 2 2 2 2 2 2 2
left_child=1 10 3 7 5 9 11 16 24 23 18 -4 20 -10 -6 -11 27 21 -1 -20 -13 -16 -19 -3 -9 -12 -14 -2 -7 -21
right_child=2 4 6 -5 14 28 -8 8 13 15 25 12 26 -15 17 -17 -18 22 19 29 -22 -23 -24 -25 -26 -27 -28 -29 -30 -31
leaf_value=0.018680224312294141 -0.035194923783403345 -0.013996785679466432 -0.039085363045707915 -0.037248404585027095 -0.0056855870935800662 -0.090771750176087115 -0.046567808130744119 -0.011588477954956993 -0.030682840517450662 0.0032070484124615498 -0.063707208260462764 -0.033734778158179095 -0.013634326529599916 0.002592792038191986 0.021575388695317069 -0.0059661507070553855 -0.0075698342868485719 6.1067003702497134e-05 -0.013096862583364855 0.015155920479024351 -0.013988917149657368 0.0095731957364586836 -0.06861972767737691 0.0092823919875168592 -0.044881377572311497 0.025672675363905734 -0.065852735544916094 -0.012658703296828007 -0.016196662828639002 -0.018545142535972885
leaf_weight=1401.7320685535669 238.75534404814243 79.209214046597481 283.48660713434219 217.85584850609303 175.46163727343082 5.5829497426748267 306.38710376620293 842.44434218108654 59.943421170115471 1478.5862228423357 4.3390154540538779 478.16011546552181 630.96277531981468 903.65633139014244 590.17419308423996 1210.4181163758039 172.94016249477863 28.854341104626656 103.9543934315443 313.97120042145252 168.92241975665092 728.3405669182539 12.717076316475866 1450.7049014270306 32.917471200227737 1336.594757899642 12.572069957852362 91.010768175125122 422.24746203422546 28.798649415373802
leaf_count=7124 892 329 909 746 758 21 939 3361 227 6782 21 1648 2340 3847 2929 5162 666 123 494 1520 580 3510 55 6746 119 7037 44 341 1722 134
internal_value=3.38039e-05 0.00890495 -0.0186908 -0.0116097 0.00329477 0.000544881 -0.0283289 -0.00922439 -0.00583822 0.00234129 0.0197797 -0.0247789 -0.0216364 0.000522788 0.0116162 -0.00092214 -0.0216114 0.0138483 0.0157145 0.00640881 -0.0285801 0.0149454 -0.020949 0.00807714 -0.0128404 0.0253835 -0.0146545 -0.0289752 -0.0171698 0.0123244
internal_weight=13811.7 9371.69 4440.01 2559.52 6182.3 4646.75 1880.49 2341.67 1838.96 4218.92 3189.39 1574.1 1290.62 963.6 1535.55 2689 502.706 1360.09 1848.46 446.724 647.083 1318.51 41.5714 1529.91 875.362 1340.93 643.535 329.766 427.83 342.77
internal_count=61126 44467 16659 10199 28137 20762 6460 9453 7554 19019 16330 5521 4612 4074 7375 11944 1899 6617 9272 2148 2228 6439 178 7075 3480 7058 2384 1233 1743 1654
is_linear=0
shrinkage=0.05


Tree=20
num_leaves=31
num_cat=0
split_feature=17 17 17 17 32 40 55 18 70 72 44 56 56 55 18 22 3 59 3 67 32 17 37 18 3 14 44 67 6 2
split_gain=697.194 111.54 101.681 32.9262 24.7072 20.672 19.6658 19.2109 18.5701 16.9797 16.9114 16.4509 16.1176 16.0982 15.5416 15.261 13.8448 12.737 18.2352 13.1738 15.0083 12.4759 11.9784 11.4925 11.3755 11.0224 18.9887 13.9223 10.9649 13.9475
threshold=0.35846012990292769 0.23918997108387244 0.4832202403394063 0.94716680723273783 22.87385094346984 0.8500000000000002 1.0000000180025095e-35 1.0321192337340681 43.293418722139741 22.160154565621486 0.33500000000000008 1.5000000000000002 1.5000000000000002 8.5000000000000018 1.0129417607488607 0.72401922464513391 210.17641179115404 1.0000000180025095e-35 120.32002920791348 -0.24004692746723008 55.935835873952875 0.19860872672899887 100.00000000010398 1.1293811176092621 212.48231545393506 0.17082358120004806 0.54500000000000015 -1.0139666326111627 0.47094155561449319 -0.13599040330250883
decision_type=2 2 2 2 2 2 2 2 2 2 2 2 2 2 2 2 2 2 2 2 2 2 2 2 2 2 2 2 2 2
left_child=1 5 14 8 -5 21 11 28 10 -8 12 -7 -4 -11 -2 -12 23 18 -16 20 -19 -1 -20 -10 -18 26 -6 -27 -3 -30
right_child=2 7 3 4 25 6 9 -9 16 13 15 -13 -14 -15 17 -17 24 19 22 -21 -22 -23 -24 -25 -26 27 -28 -29 29 -31
leaf_value=-0.026078795696889586 0.0039699240025288709 -0.012333017170055372 0.041218317348628145 0.065657619742832546 0.060446053635025379 0.12861515895225023 -0.017895663382991738 0.0016509471660118469 0.013072586402200652 -0.016066620654042445 0.027205205544588502 0.015337974244678624 0.10315967355085352 0.023813905850516195 0.1163355829247696 0.073066369998342193 0.083563475862556622 0.017237578029566433 0.02025123048187099 0.0035255872695937407 0.075122699865726131 -0.017527699080644579 0.10542662557861304 0.028975565647642715 0.028632910431604725 -0.019386129860188218 0.014016911238689764 0.053602212882625781 -0.0123346120470281 0.00045489178025983539
leaf_weight=985.91777940094471 682.56001272797585 699.3232477158308 32.422344371676445 85.722943156957626 28.4065300822258 3.9266537353396442 367.51236239820719 855.35760430246592 497.85332831740379 47.469349905848503 338.54046557843685 17.442866407334805 15.533852756023405 54.192512214183807 5.2040949165821067 19.166817873716354 9.8457905650138837 84.93433603644371 236.83723518252373 276.96223331987858 12.898459851741789 751.81193271279335 4.2009363025426856 147.19319240748882 220.55450920760632 7.1183083504438391 97.979589551687241 79.52341003715992 329.2302753329277 604.71902506798506
leaf_count=10018 5053 6130 177 379 140 30 3593 6901 3043 453 1925 158 91 508 36 103 59 577 1641 1961 91 7126 29 881 1254 33 473 383 2789 5091
internal_value=0.000145213 -0.011695 0.0195139 0.0280429 0.0429905 -0.0198205 -0.0107563 -0.00441948 0.0245572 -0.0128929 0.0334005 0.0361527 0.0612822 0.00519234 0.00917749 0.0296626 0.0204594 0.0149009 0.023735 0.00909693 0.0248693 -0.0223792 0.0217357 0.0167015 0.0309803 0.0338691 0.0244523 0.0476056 -0.00759862 -0.00405359
internal_weight=7600.36 4716.9 2883.46 1579.86 298.751 2228.27 490.544 2488.63 1281.11 469.174 405.663 21.3695 47.9562 101.662 1303.6 357.707 875.447 621.037 246.242 374.795 97.8328 1737.73 241.038 645.047 230.4 213.028 126.386 86.6417 1633.27 933.949
internal_count=61126 42797 18329 8941 1408 21886 4742 20911 7533 4554 2296 188 268 961 9388 2028 5237 4335 1706 2629 668 17144 1670 3924 1313 1029 613 416 14010 7880
is_linear=0
shrinkage=0.05


Tree=21
num_leaves=31
num_cat=0
split_feature=6 6 6 24 67 6 36 6 9 72 6 39 37 0 9 1 37 9 4 36 39 55 9 18 4 38 9 0 1 4
split_gain=556.912 107.292 63.1949 31.8073 29.035 25.4915 23.8562 22.1258 15.7609 21.5397 15.9018 15.6356 15.332 15.3094 15.2813 26.3614 14.2824 18.9426 14.2237 13.7504 13.2359 13.7848 13.2049 15.3457 13.0129 12.4031 11.9912 13.0819 11.9785 11.5001
threshold=0.57296953603290213 0.40536740539940291 1.0138703087479766 -1.2701014416995391 -0.26191252696877715 0.31915471114045429 -192.86779124232677 0.73339586952817781 13.1795147363701 -63.260656148645637 2.965833183658042 2.6912913729029602 4.2492919235692872 39.66948237104689 43.523620874525314 -0.38184395374844365 53.471065818301732 21.206622231268181 132.66529999999895 203.6489594734758 15.622419422011047 11.500000000000002 30.444213369044125 1.0827397137009005 235.01479999999938 -3.8793940470972839 58.441270092056932 36.528791400698942 0.15794391284283907 143.04919999999859
decision_type=2 2 2 2 2 2 2 2 2 2 2 2 2 2 2 2 2 2 2 2 2 2 2 2 2 2 2 2 2 2
left_child=1 5 3 6 11 13 24 20 9 -4 -10 16 -8 14 -1 -16 -3 -18 -14 29 21 -5 23 -9 25 -2 27 -12 -7 -6
right_child=2 4 8 7 19 28 12 22 10 -11 26 -13 18 -15 15 -17 17 -19 -20 -21 -22 -23 -24 -25 -26 -27 -28 -29 -30 -31
leaf_value=-0.013909358734274197 0.12665130267462196 0.010264787654127102 0.10953208315939088 -0.0035717846876174679 0.0015274671546346525 -0.010291031731037591 0.0076236850908596408 0.013015756025591678 0.021452586157522532 0.033489363300897378 -0.0071165452204464746 -0.013277833796154421 0.056924051902668249 -0.026353620135380781 -0.0014542563094961344 0.19686630383829962 0.072612881568273058 0.015130406006121406 0.021849678398677061 0.020420651514003504 0.10554236617349742 0.0076309033331644696 0.0042299718724748891 0.031249818974223645 -0.037398653664844426 0.052381002799605864 -0.04033311251800966 0.051347507945100471 -0.02124785950907181 -0.0084010722155693149
leaf_weight=181.40601007640362 6.6184618920087805 138.20084435492754 12.349853187799452 484.00113762170076 370.89104322344065 809.62961903214455 172.34044319391251 429.65664558857679 944.74590042233467 37.863598540425301 10.683364912867544 46.242915280163288 34.973704487085342 1041.167178414762 5.7675576657056808 2.3617493286728841 25.054806306958199 33.488388240337372 166.58043594658375 49.595589742064476 3.1425210684537879 634.68508038669825 251.96960603445768 157.75438360869884 3.4410401806235305 37.313007608056068 4.2638117372989646 91.670911058783531 360.51738416403532 1365.2367023974657
leaf_count=1794 34 1027 58 3564 2692 7266 1099 2779 5029 202 52 348 194 10450 54 23 186 247 1064 377 21 4550 1626 960 24 212 20 412 3289 11497
internal_value=-3.37793e-05 -0.0117973 0.0149222 0.0103433 -0.00333195 -0.0189505 0.0228085 0.00766571 0.0248254 0.0521919 0.0235183 0.0128838 0.0185733 -0.0239743 -0.0109039 0.0561624 0.0190328 0.0397313 0.0279358 -0.00553846 0.0030719 0.00278404 0.0138053 0.0179127 0.056236 0.0635701 0.0418228 0.0452452 -0.0136668 -0.00628003
internal_weight=7913.61 4429.56 3484.05 2382.48 2028.71 2400.85 421.267 1961.21 1101.58 50.2135 1051.36 242.987 373.895 1230.7 189.535 8.12931 196.744 58.5432 201.554 1785.72 1121.83 1118.69 839.381 587.411 47.3725 43.9315 106.618 102.354 1170.15 1736.13
internal_count=61150 39250 21900 16127 16374 22876 2627 13500 5773 260 5513 1808 2357 12321 1871 77 1460 433 1258 14566 8135 8114 5365 3739 270 246 484 464 10555 14189
is_linear=0
shrinkage=0.05


Tree=22
num_leaves=31
num_cat=0
split_feature=17 17 17 6 18 17 18 6 9 17 8 1 68 8 6 5 55 70 55 67 9 3 0 33 18 15 19 39 37 56
split_gain=1374.59 240.749 200.324 38.8228 31.3367 29.9163 27.63 25.3733 21.8536 20.219 19.0013 17.6737 16.5755 18.2425 16.4271 14.693 14.2673 13.9563 13.0811 12.9649 12.9137 11.9471 11.5755 15.9943 11.3566 11.2833 10.9747 13.8114 11.6051 10.5005
threshold=0.3472944583636603 0.22867167881940245 0.54924525330935847 1.8109168409699079 1.0186561624242303 0.18059625910566135 1.1364702424352178 0.47333470120336946 17.81850413317019 0.40916380623035281 -2.0114999999999976 -1.0866743501750731 0.0098897439518075298 3.3197499999999995 1.0714455471742574 179.75046522166033 16.500000000000004 74.101673170954271 2.5000000000000004 -0.2563985187981343 38.713519596534375 228.69371573078169 27.347639404335624 11.435411654921166 1.1108152787528041 0.53096658544221698 0.013604692452231506 -5.6730328393147396 -1.7731348729038822e-12 4.5000000000000009
decision_type=2 2 2 2 2 2 2 2 2 2 2 2 2 2 2 2 2 2 2 2 2 2 2 2 2 2 2 2 2 2
left_child=1 5 4 12 10 24 7 19 16 -10 22 -9 26 -14 20 -11 25 -7 -13 -3 -12 -15 -2 -24 -1 -6 27 -4 -28 -8
right_child=2 6 3 -5 8 17 29 11 9 15 14 18 13 21 -16 -17 -18 -19 -20 -21 -22 -23 23 -25 -26 -27 28 -29 -30 -31
leaf_value=0.028997390562644627 -0.076232782726626008 -0.0021577915324388452 -0.042264140815640665 -0.04411001001964468 -0.034157676395445112 0.019101058181547545 -0.0078729796402446928 -0.074551580663178921 -0.0081441911054071069 -0.015119013313211261 -0.0068871941831063965 -0.0070734882410634151 -0.018833797853572674 -0.031778092550041402 -0.026280213748102906 -0.029635430721593914 -0.0060360123302561014 -0.015336301879631599 0.0049318899414230186 0.012294481220573658 0.0061191586138217248 -0.070691361388924942 0.0006633014430315749 -0.038222769136974435 0.013373500488561556 -0.073588910912645467 -0.00086767844979515488 0.027352853951814221 -0.034826740983878834 0.0059743584235285837
leaf_weight=1467.4310820698738 10.827192738652228 169.6977890431881 12.468180984258654 487.70023787021637 140.59385122358799 1984.0779721140862 480.05602934956551 7.298481047153472 603.60889884829521 476.08298051357269 1437.9785874783993 260.21466103196144 594.87839388847351 81.038857400417328 97.48968406021595 275.00442519783974 40.443048134446144 29.86346247792244 1772.246998488903 1813.8912528306246 220.04896080493927 26.069808036088943 45.327288255095482 63.472445219755173 126.32052001357079 20.830492317676544 25.989537119865417 16.622699826955795 786.34904837608337 191.52455718815327
leaf_count=8298 40 797 42 1440 521 10423 2056 30 2391 1744 5748 1187 1985 258 356 979 152 146 8150 8714 897 82 169 236 705 76 84 57 2538 849
internal_value=0.000111682 0.012928 -0.0193671 -0.0318127 -0.0120009 0.0226408 0.00546446 0.00703157 -0.0172451 -0.0149581 -0.00764773 0.00311595 -0.0279269 -0.022254 -0.00633384 -0.0204341 -0.0325925 0.0185904 0.00339485 0.0110581 -0.00516103 -0.0412494 -0.0269288 -0.0220224 0.027759 -0.039246 -0.0326597 -0.00248458 -0.0337403 -0.00392393
internal_weight=13765.4 8302.62 5462.82 2031.12 3431.71 3607.69 4694.93 4023.35 1556.56 1354.7 1875.14 2039.76 1543.42 701.987 1755.52 751.087 201.867 2013.94 2032.46 1983.59 1658.03 107.109 119.627 108.8 1593.75 161.424 841.429 29.0909 812.339 671.581
internal_count=61150 41355 19795 6486 13309 19572 21783 18878 5863 5114 7446 9367 5046 2325 7001 2723 749 10569 9337 9511 6645 340 445 405 9003 597 2721 99 2622 2905
is_linear=0
shrinkage=0.05


Tree=23
num_leaves=31
num_cat=0
split_feature=6 6 6 4 71 6 9 39 6 5 44 51 13 8 4 18 5 1 68 51 55 53 68 55 6 37 39 29 72 5
split_gain=542.181 163.176 48.0554 35.2124 28.8415 25.4271 20.794 20.3492 19.3574 21.1534 17.4978 16.5846 16.5577 16.348 16.0715 17.0581 14.9321 14.1368 14.0905 13.3149 13.0505 13.0119 12.4722 22.4939 11.3905 11.3838 19.7127 11.5777 10.706 10.681
threshold=0.75897675522074304 0.41799024104839394 1.4517193302154625 129.31279999999919 0.10400848501130251 0.3294424659171134 10.099576128846378 -6.4850847533033766 0.54902690448660851 217.65276145862927 0.94500000000000006 -1.6702500000000098 2.0943118023874923 -3.7557499999999915 132.66529999999895 1.329801134744178 135.47762883959572 0.694759776232445 0.55917299517815888 0.50237499999997237 2.5000000000000004 2.6857243618450326 0.60223414831572797 1.5000000000000002 0.91401819407965823 33.813592311593204 -4.6137887954201702 21.045797576102341 6.73517659145653 239.6045887199065
decision_type=2 2 2 2 2 2 2 2 2 2 2 2 2 2 2 2 2 2 2 2 2 2 2 2 2 2 2 2 2 2
left_child=1 5 4 6 16 -1 -3 -6 9 20 -8 -12 24 29 15 19 22 -18 -16 -7 -5 -19 23 -2 -9 26 -10 -27 -20 -4
right_child=2 3 13 8 7 14 10 12 25 -11 11 -13 -14 -15 18 -17 17 21 28 -21 -22 -23 -24 -25 -26 27 -28 -29 -30 -31
leaf_value=-0.022473186000862212 0.13259967968046776 0.1021099792616844 0.065682303789955238 0.008689535939977509 0.047786721595335077 0.0061783517612235888 0.0081498379967122336 0.012186920158230032 0.01904641409365098 -0.025690994044430711 0.15096134007989293 0.032946393568177794 0.091991204623332115 0.031281079395304522 -0.016349800274039022 0.09711426797151082 0.01281117570418959 -0.0080241148311509854 0.10828803010452766 -0.022756892681209284 -0.0065635341919324606 0.09921356395200083 0.0039918802112934061 0.032551891691567247 0.028099029109277265 0.0052777204990706091 -0.0058296099698022449 0.056541827338302576 0.0065031982294165751 0.030887721431346701
leaf_weight=1313.4351525753736 6.0854994654655448 6.7674226909875861 65.655872046947479 161.45537883788347 95.474165439605713 145.20992727577686 253.98271656781435 199.20245879143476 90.928733892738819 131.05416039377451 3.1765833795070639 47.367000222206116 8.4048166424036008 398.78649300336838 910.27300081402063 4.460950829088687 680.03302270174026 121.42551265656948 2.7635764330625525 54.747330732643604 1066.8992005512118 2.896160125732421 33.887533560395241 73.147094860672951 258.30137950927019 728.78539644181728 641.39002005010843 11.182780452072619 39.637752719223499 33.213917151093483
leaf_count=13526 30 41 278 1361 516 1221 1738 1310 683 1281 20 307 47 1959 8704 31 4361 809 24 468 9137 16 190 388 1514 5603 5014 79 349 145
internal_value=-0.000167329 -0.00809696 0.0223537 -0.000539004 0.017831 -0.0177121 0.0154229 0.0267576 -0.00229373 -0.00659593 0.0134965 0.0403634 0.0224483 0.0357934 -0.0123078 0.000413372 0.0123691 0.00997698 -0.0150374 -0.00174398 -0.00455867 -0.00552594 0.0293784 0.0402361 0.0211707 0.00167864 -0.00274087 0.00605245 0.0131372 0.0539936
internal_weight=7590.03 5613.52 1976.51 3142.99 1478.86 2470.53 311.294 561.383 2831.7 1359.41 304.526 50.5436 465.909 497.656 1157.09 204.418 917.475 804.355 952.674 199.957 1228.35 124.322 113.12 79.2326 457.504 1472.29 732.319 739.968 42.4013 98.8698
internal_count=61150 49587 11563 25264 9181 24323 2106 3387 23158 11779 2065 327 2871 2382 10797 1720 5794 5186 9077 1689 10498 825 608 418 2824 11379 5697 5682 373 423
is_linear=0
shrinkage=0.05


Tree=24
num_leaves=31
num_cat=0
split_feature=6 6 6 67 39 6 18 33 24 36 36 9 36 1 5 40 72 39 72 55 6 18 44 67 55 33 37 37 33 9
split_gain=490.171 106.507 54.9433 31.2757 22.7435 20.9114 20.5145 21.201 22.149 18.4114 17.6735 16.9376 16.6243 14.6568 13.9299 22.7553 17.7926 13.9203 19.0559 13.073 12.2256 12.2157 14.9613 15.8183 11.9074 19.2192 11.3656 11.0539 10.7657 13.2349
threshold=0.58312582984123484 0.40748249591028296 1.0138703087479766 -0.26191252696877715 -7.4782650560596347 0.29427514148342288 1.0805404347551513 7.138488902230077 -1.4449876303441076 98.196921916969856 211.14334954426502 23.911068820486218 203.6489594734758 1.1242998658009358 253.60169031167391 0.8500000000000002 13.942063259703003 9.6503244119305016 -5.0921122129090213 13.500000000000002 2.965833183658042 1.3458575618509003 0.55500000000000016 0.22205773576869928 1.0000000180025095e-35 71.770031202293879 0.58817620225078315 6.0579867809025465e-11 16.44889254545043 42.057564674813541
decision_type=2 2 2 2 2 2 2 2 2 2 2 2 2 2 2 2 2 2 2 2 2 2 2 2 2 2 2 2 2 2
left_child=1 5 4 9 21 -1 7 8 -6 -3 -9 26 24 -13 20 -16 -17 -7 -19 -18 -4 22 23 -2 25 -5 -8 -26 -22 -30
right_child=2 3 14 12 6 17 11 10 -10 -11 -12 13 -14 -15 15 16 19 18 -20 -21 28 -23 -24 -25 27 -27 -28 -29 29 -31
leaf_value=-0.024432746765170751 0.03111053369628046 0.01152917524766086 0.019768890017946645 -0.002872863832727981 0.070562586942307132 -0.015040157107260314 0.042904596859623119 0.0031807720323567636 0.005100606652036252 0.11677353739339354 0.04748694299215285 0.0078681453219104323 0.022708586505927324 0.042810069558171904 0.023707941629097135 0.10885401721401129 -0.023727291848456979 0.13937232193138122 -0.036640867862067043 0.088685913708261926 -0.0026721958651936646 0.11031996158102175 0.0064969877282362257 0.09303520029038187 -0.00088489065961860056 0.053192489644792167 0.018989278015665936 -0.009564774878509064 0.059004661131873692 0.013199090371233397
leaf_weight=891.19757844507694 53.363101042807102 258.56671307235956 962.88609933853149 51.755062840878963 24.804492942988873 1461.2964171692729 72.19302985817194 1404.1587740033865 26.972563609480858 4.2234402894973746 22.874539740383625 469.99446658790112 51.784878171980381 32.05842974036932 54.23949907720089 18.097165316343311 5.741890996694563 3.4089879840612411 2.8013642430305472 4.706022784113884 13.275492206215857 4.6463692337274543 48.406467527151108 12.783121526241301 531.68670415878296 21.692541606724262 159.30587176978588 1182.7572079226375 55.747100338339806 21.990299314260483
leaf_count=9398 291 1897 4962 423 151 13670 446 9764 185 31 150 2966 385 194 270 87 26 28 23 26 62 22 269 63 4412 176 985 9680 239 95
internal_value=-0.000136432 -0.0110975 0.0139627 -0.00291462 0.00956863 -0.0183915 0.00842236 0.00503134 0.036461 0.0132206 0.00389097 0.0152585 -0.00521947 0.0100994 0.0229759 0.042725 0.0788601 -0.0147227 0.0599763 0.0269067 0.0214245 0.0308435 0.0276199 0.0430778 -0.00602838 0.0136859 0.0264473 -0.00687295 0.0389408 0.0460472
internal_weight=7929.42 4461.17 3468.24 2102.47 2331.56 2358.7 2212.36 1478.81 51.7771 262.79 1427.03 733.552 1839.68 502.053 1136.68 82.7846 28.5451 1467.51 6.21035 10.4479 1053.9 119.199 114.553 66.1462 1787.89 73.4476 231.499 1714.44 91.0129 77.7374
internal_count=61376 40123 21253 17004 15486 23119 14841 10250 336 1928 9914 4591 15076 3160 5767 409 139 13721 51 52 5358 645 623 354 14691 599 1431 14092 396 334
is_linear=0
shrinkage=0.05


Tree=25
num_leaves=31
num_cat=0
split_feature=17 17 17 17 17 55 18 18 9 18 36 57 9 44 1 55 17 69 15 15 17 38 56 4 55 44 68 40 44 23
split_gain=1147.07 217.733 172.85 42.0467 36.2625 35.6817 24.4866 21.603 18.4691 17.1786 17.1726 16.9237 15.075 19.6099 15.0145 13.986 13.6031 13.4582 11.6252 11.4552 11.0428 10.7174 10.5778 12.9894 10.4871 10.1268 9.95971 9.3396 8.86856 20.433
threshold=0.3472944583636603 0.23192103573598163 0.50681715010505701 0.76878285656227485 0.1621555399922463 1.0000000180025095e-35 1.0159815583634382 1.1518342413673088 19.52434720827701 1.1364702424352178 -132.25292523965553 1.0000000180025095e-35 26.777085454570678 0.97500000000000009 -1.0866743501750731 1.5000000000000002 0.2922140456344533 0.042794837538062687 0.36617147275419898 0.81921877893318051 0.26628500685994733 -1.5156043380117554 4.5000000000000009 126.82199999999914 18.500000000000004 0.94500000000000006 1.5068926378402627 0.75000000000000011 0.51500000000000012 -0.20666437839268467
decision_type=2 2 2 2 2 2 2 2 2 2 2 2 2 2 2 2 2 2 2 2 2 2 2 2 2 2 2 2 2 2
left_child=1 4 6 12 -1 18 17 14 19 15 -10 -12 26 24 -7 27 -16 28 20 -8 25 -15 23 -9 -14 -3 -4 -6 -2 -30
right_child=2 5 3 -5 9 7 8 22 10 -11 11 -13 13 21 16 -17 -18 -19 -20 -21 -22 -23 -24 -25 -26 -27 -28 -29 29 -31
leaf_value=0.029587348123299217 -0.013816657156848728 0.014218718316364837 -0.027732300880570767 -0.035833542546664147 0.012823837851012813 -0.063424940734171723 -0.023951760115210208 -0.058302930212147247 -0.023990168363340288 0.0052658383188999994 -0.0014764823556081708 -0.014985075391798273 -0.0088512410884955661 -0.043889853283873542 0.0096666403449746779 0.020490913404248898 0.0036208897633199996 -0.0002909529285196258 -0.036959641943995425 -0.078002544447758712 -0.01942155377117533 -0.019116078502515316 0.0072481122486260444 -0.0064597858592987103 -0.024886515122965754 -0.060424783125247607 0.0066947661634884376 -0.012636916193842027 -0.014680785005461681 0.0082957578676751582
leaf_weight=935.77863551676273 501.37261581420898 54.342228025197983 832.03846457600594 902.60988262295723 142.85292457044125 7.5551464557647696 262.0509107708931 12.487708672881125 221.84658938646317 235.57474353909492 445.49733482301235 483.46934998035431 434.57086585462093 89.233828127384186 2218.3645766526461 2272.5965728163719 1602.5552633702755 738.0093807131052 48.86221769452095 10.183514475822447 96.813476219773293 85.472159385681152 157.28727993369102 372.04170124232769 133.22034968435764 4.9585229307413092 21.552265912294388 48.161929622292519 203.36165744066238 184.59169445931911
leaf_count=5531 1975 262 2723 2670 762 30 968 52 802 1237 1708 1827 1487 287 10811 12479 7212 2968 220 36 427 279 698 1579 451 23 72 252 801 747
internal_value=0.000102031 0.0119706 -0.0174584 -0.0272086 0.0211057 0.00471298 -0.00947155 0.00566925 -0.0142621 0.0181652 -0.0114916 -0.00850686 -0.022331 -0.0171209 0.00699172 0.0193987 0.00713096 -0.00528238 -0.0156757 -0.0259736 -0.00901397 -0.0317697 -0.00367531 -0.00814341 -0.0126136 0.00797729 -0.0268631 0.00640424 -0.00942452 -0.00374834
internal_weight=13759.3 8210.23 5549.08 2498.7 3634.96 4575.27 3050.38 4370.29 1423.05 2699.19 1150.81 928.967 1596.09 742.497 3828.47 2463.61 3820.92 1627.34 204.976 272.234 156.114 174.706 541.817 384.529 567.791 59.3008 853.591 191.015 889.326 387.953
internal_count=61376 41575 19801 7969 20261 21314 11832 20382 5341 14730 4337 3535 5299 2504 18053 13493 18023 6491 932 1004 712 566 2329 1631 1938 285 2795 1014 3523 1548
is_linear=0
shrinkage=0.05


Tree=26
num_leaves=31
num_cat=0
split_feature=17 17 17 2 17 17 55 39 56 36 69 30 17 71 69 2 54 33 24 23 39 30 44 68 9 55 68 18 6 9
split_gain=511.442 90.9859 81.9827 22.9251 19.5807 16.9313 25.1914 24.6476 25.5801 16.8855 14.9057 14.7028 14.3385 13.018 12.8471 12.1743 12.4598 11.9658 17.3759 11.9023 13.0895 11.8832 14.7068 11.076 10.9565 18.3406 14.7062 10.8798 10.5791 13.6769
threshold=0.354938182714505 0.23292023305841947 0.49428413973490504 -0.051888991457730273 0.89613453619882411 0.19302615710372351 1.0000000180025095e-35 0.62333242048170379 1.0000000180025095e-35 274.5469540251899 0.28052029422822594 0.054190098366339007 0.243563575561241 0.09738991091257955 0.57113700220308161 0.54192044592455346 1.1625772165243522 5.4607317871395313 -1.7876377644619355 -0.7186103374083429 -3.1166763872554619 -0.089347243878402052 0.76500000000000012 0.303291877543932 18.501443693322297 13.500000000000002 -0.14216946693801355 0.71070592733451987 0.91401819407965823 11.301693378361664
decision_type=2 2 2 2 2 2 2 2 2 2 2 2 2 2 2 2 2 2 2 2 2 2 2 2 2 2 2 2 2 2
left_child=1 5 17 19 13 -1 7 -7 -9 14 -5 21 -12 15 -8 -4 -17 18 -2 20 -3 -6 -23 -14 25 26 -19 -13 29 -15
right_child=2 3 4 10 11 6 9 8 -10 -11 12 27 23 28 -16 16 -18 24 -20 -21 -22 22 -24 -25 -26 -27 -28 -29 -30 -31
leaf_value=-0.023158153117852617 0.071131431712271265 0.020176012238270848 0.01963189702408475 -0.0022438901982429118 0.035428175745853045 -0.0060432518495736748 -0.016690165557602558 0.18836172507889357 0.038232135920214148 0.095256619639100051 0.072882749467468796 -0.02301845793225744 0.032919494434578776 0.09201578776386532 0.071347625849300572 -0.0008564237712791041 0.042966002787394562 0.050344346146131806 -0.0029587424638341259 -0.012511654564269992 -0.0069101160329475414 0.092971636034355265 0.039671102770126206 0.0024299861286879712 0.0041829542175337601 0.0038611511446411265 0.016557972739857558 0.026238539339703222 0.032030561203500701 0.013274379843849002
leaf_weight=1059.7857702076435 17.412872388958935 60.64839531481266 578.48338866233826 1271.6932747811079 151.05808502435684 29.947347328066826 837.97080097347498 3.552202150225642 14.098599188029764 3.4085442349314681 9.6023121923208219 12.005515187978743 39.583703823387623 5.7245967984199515 4.1644708514213553 143.22994287312031 18.291673511266708 48.369612127542496 14.505784906446932 896.08360120654106 168.60017461329699 23.03715218603611 29.532479986548424 120.3478140309453 1125.1067637652159 177.31172882020473 96.389752753078938 169.2918626666069 320.84638148546219 150.40505348145962
leaf_count=11591 110 490 3237 10922 623 283 8419 28 128 28 83 60 331 31 34 831 100 328 100 7809 1409 98 126 988 7919 1250 670 782 1706 862
internal_value=-4.2373e-05 -0.0107514 0.0156665 -0.00456295 0.0235038 -0.0188843 -0.0138129 0.0215794 0.0684455 -0.0158053 -0.000387294 0.033333 0.0135393 0.0203949 -0.0162548 0.0162431 0.00410629 0.00717853 0.0374603 -0.00991076 0.0002556 0.0425536 0.0630286 0.00997626 0.00651064 0.0146421 0.0278473 0.0229767 0.0268361 0.0161615
internal_weight=7600.49 4519.49 3081 2566.56 1601.91 1952.93 893.142 47.5981 17.6508 845.544 1441.23 384.925 169.534 1216.98 842.135 740.005 161.522 1479.1 31.9187 1125.33 229.249 203.628 52.5696 159.932 1447.18 322.071 144.759 181.297 476.976 156.13
internal_count=61376 42543 18833 22032 8456 20511 8920 439 156 8481 12324 1689 1402 6767 8453 4168 931 10377 210 9708 1899 847 224 1319 10167 2248 998 842 2599 893
is_linear=0
shrinkage=0.05


Tree=27
num_leaves=31
num_cat=0
split_feature=17 6 17 17 39 18 9 40 13 18 0 72 67 4 32 71 39 2 2 68 57 37 72 29 39 14 72 9 22 13
split_gain=448.682 92.1572 75.0914 21.153 19.1375 20.1521 19.0425 17.1164 13.6976 13.1516 13.6409 12.5833 12.4007 26.0129 17.6575 12.0935 11.5534 11.4862 17.4848 13.9045 11.3621 18.8363 11.0883 17.5674 10.7772 10.6207 10.2714 10.4451 10.1954 10.121
threshold=0.29492654041931121 0.72759468442076447 0.21306128302636557 0.70774457454799844 -10.624476893925577 0.89430893848099291 31.497171974756736 0.45000000000000007 1.5510325461409591 0.76587345007275931 52.964091849405101 106.11953276111217 -0.37306027324444652 235.70472500000005 67.144696188169206 0.051866409115924654 3.7078169117207298 -0.35347533219840882 -0.72239864628773864 0.013571340850726534 1.0000000180025095e-35 0.117104117413033 -50.868983541596798 -11.818377800139379 -6.1218685390737146 0.10976153139832097 -61.013858479911001 19.258813070268953 -0.52239319220703229 2.0943118023874923
decision_type=2 2 2 2 2 2 2 2 2 2 2 2 2 2 2 2 2 2 2 2 2 2 2 2 2 2 2 2 2 2
left_child=2 4 26 6 25 28 9 29 17 10 -3 22 13 -8 -14 -10 -13 18 -5 -19 24 -22 23 -9 -7 -2 27 -1 -6 -4
right_child=1 3 7 8 5 20 12 11 15 -11 -12 16 14 -15 -16 -17 -18 19 -20 -21 21 -23 -24 -25 -26 -27 -28 -29 -30 -31
leaf_value=0.12740618495703099 -0.0032987195821032513 0.016282823348379029 -0.0026528596454455824 0.023445978910479628 0.016377429981636851 0.023862344629017818 0.015116799046113412 0.086648450009178923 0.13559366168980685 0.017179844339138235 0.15295702462599037 -0.016193588688360048 -0.0059153772356487534 0.11813715339814464 0.015610413167297797 0.042349124321705622 0.13043313037465731 0.041159572375124687 -0.0024147393025313875 0.021489546656598413 0.023927555340179402 0.0051557229114340165 -0.01298740287144998 -0.0014513735256800459 -0.00030480753837370584 0.093832364746051278 -0.022559030827847545 0.0008504611122117985 -0.01025245702562837 0.058388208596404922
leaf_weight=2.1439559012651426 4.1111978143453589 3.657401666045188 877.61679828166962 239.61114285886288 39.876759566366673 48.727602794766426 73.24292217195034 6.9002336114644995 4.8077115863561657 1087.6602007001638 3.6451088786125183 2.4459179863333693 253.04170026630163 6.6869199424982062 152.79576495289803 12.566360145807264 2.9805747270584106 147.36115437746048 89.87797836959362 230.18055050075054 169.7121455296874 628.6472619920969 1016.3836386576295 31.442569069564342 865.7997512742877 8.9218015223741514 1480.2030331641436 6.8061796128749847 364.26622529327869 6.8437582477927199
leaf_count=22 21 22 7672 1118 273 328 409 58 21 6384 20 20 1554 37 919 55 21 678 426 1059 1138 4417 9192 271 6217 42 15816 69 2737 57
