tree
version=v4
num_class=1
num_tree_per_iteration=1
label_index=0
max_feature_idx=66
objective=binary sigmoid:1
feature_names=rsi macd macd_signal bb_upper bb_middle bb_lower atr volume_ratio momentum adx breakout_up breakout_down price_position body_size upper_wick lower_wick bullish_candle atr_pct volatility_regime bb_width bb_squeeze trend_alignment roc_5 roc_10 roc_20 momentum_alignment volume_trend volume_spike obv_momentum rsi_momentum macd_hist macd_hist_momentum stoch_k stoch_d stoch_cross willr cci mfi roc_60 roc_240 mtf_momentum_align return_5 return_20 return_60 atr_percentile vol_expanding vol_contracting price_percentile_50 price_percentile_100 dist_from_high_50 dist_from_low_50 momentum_accel rsi_accel roc_accel volume_accel hour day_of_week is_us_session is_asia_session strong_trend weak_trend rsi_oversold rsi_overbought bb_oversold bb_overbought bullish_divergence bearish_divergence
feature_infos=[6.5088892799412532:94.50542081686072] [-2.3401340427195123:2.1609039421114034] [-1.9143243763966045:1.9559232050187541] [98.162470928444264:210.10704134531593] [97.205709999999769:209.06971249999864] [95.673809446509679:208.43911771988581] [0.053048843906215622:2.4496702652626583] [0:19.999999999918227] [-11.7225531144:10.002553114400001] [5.8837620490117386:84.889497765251889] none none none [0:11.283132037866531] [0:12.023939609677944] [0:9.960616273770734] [0:1] [0.031217694676880587:2.3307884027789196] [0.5433371485866989:6.7715594600699784] [0.00079020189246916794:0.11063044540533279] [0:1] [0:3] [-6.4315310039180007:7.168708605168983] [-6.7983410920226301:6.3865129845029456] [-6.6838035546302743:8.7839676105892828] [-1:1] none [0:1] none [-59.420190574648508:61.124572183680513] [-1.2043500087496488:0.63636625826475479] none [-1.1771324655758992e-12:100] [-1.9085967374444916e-12:100.00000000000013] [0:1] [-99.999999999999986:0] [-586.6962201332376:666.66666666668323] [-5.202809860067112e-10:100.00000000003514] [-8.26258235818832:10.654363978324422] [-12.652970817874731:13.173258003766474] [0:1] none none none [0.01:1] [0:1] [0:1] none none none none [-12.479900000000015:14.248500000000007] [-59.420190574648508:61.124572183680513] [-7.021140938893855:7.4809779885818166] [-19.999999999918227:19.999999999918227] [0:23] [0:6] [0:1] [0:1] [0:1] [0:1] [0:1] [0:1] [0:1] [0:1] none none
tree_sizes=6682

Tree=0
num_leaves=63
num_cat=0
split_feature=6 6 6 5 5 40 6 5 44 3 30 4 4 4 39 5 37 39 40 21 44 39 4 38 6 19 4 3 38 6 37 39 32 46 30 21 40 2 59 39 44 22 4 52 3 37 5 3 5 38 52 2 8 8 5 4 6 39 6 30 19 38
split_gain=29694.4 4865.64 4843.86 3144.7 1654.74 1121.06 889.473 970.589 870.538 722.737 680.945 644.953 713.707 643.421 626.563 604.476 556.993 466.153 464.879 438.161 434.936 434.752 478.902 466.541 433.934 421.31 402.019 390.429 512.976 404.044 399.411 370.679 369.43 368.939 351.611 332.393 554.542 334.047 322.45 309.118 304.029 281.788 273.921 251.258 242.982 225.239 224.749 340.666 252.995 205.441 168.358 130.295 162.037 130.747 124.546 123.629 123.09 98.4582 117.974 97.4836 95.5688 57.9729
threshold=0.19375220043130259 0.14785306617079089 0.32960995311533281 144.27599823254539 125.40041270765722 0.65000000000000024 0.24428606248909968 151.81115463443237 0.18500000000000003 111.65206380657165 0.012082527181466867 147.56233134232414 151.94983749999895 144.576774999999 3.371145951132049 129.18348413083422 100.00000000000004 -3.8697415983262591 0.65000000000000024 1.5000000000000002 0.31500000000000006 -0.18363164708448673 176.0100999999996 -0.75529609451372981 0.096389647568643086 0.014844006071287403 203.43146249999936 130.06933545568617 0.81035872928457719 0.23539604669322997 46.666702329650853 -1.0255390690603658 96.866156894493272 1.0000000180025095e-35 -0.032647694870776629 1.5000000000000002 0.8500000000000002 -0.2577113223466953 1.0000000180025095e-35 0.68176619659633408 0.50500000000000012 -0.16132391396322385 132.36356249999972 6.7890226592169549 130.33675704179578 -3.2649000993900464e-11 104.51799241137185 116.68063554691152 106.64953231990917 1.1968464766525801 9.7479796065199604 -0.19255028918039593 -0.31200000000000466 1.1337499999999923 147.86169794347975 128.39408522166244 0.1665881273657101 -4.1606078391497485 0.3823948482202858 -0.055591054157944152 0.0054353194475979692 2.1657633702751093
decision_type=2 2 2 2 2 2 2 2 2 2 2 2 2 2 2 2 2 2 2 2 2 2 2 2 2 2 2 2 2 2 2 2 2 2 2 2 2 2 2 2 2 2 2 2 2 2 2 2 2 2 2 2 2 2 2 2 2 2 2 2 2 2
left_child=1 4 3 27 8 11 18 19 10 38 31 15 -13 46 17 -6 32 54 41 -8 35 23 -23 -22 -10 59 -9 30 44 -30 45 -1 -7 -19 -32 37 -37 -11 50 -20 -26 -5 -18 -12 -29 -2 57 48 -48 -27 60 52 -40 -53 -15 -49 -52 58 -4 -16 -3 -59
right_child=2 9 13 6 5 16 7 26 24 20 43 12 -14 14 25 -17 42 33 39 -21 21 22 -24 -25 40 49 -28 28 29 -31 34 -33 -34 -35 -36 36 -38 -39 51 -41 -42 -43 -44 -45 -46 -47 47 55 -50 -51 56 53 -54 -55 -56 -57 -58 61 -60 -61 -62 -63
leaf_value=-2.2396815831802432 -2.2299428167039292 -2.2282814091772982 -2.231215395981986 -2.224973186250482 -2.2604302328080834 -2.2427547836587172 -2.2288249722839741 -2.2155498434222221 -2.2835665210101217 -2.263789720017638 -2.2584972006909863 -2.2625235262356158 -2.2495419631505262 -2.2270210968682207 -2.2436939847801214 -2.2425573248206732 -2.2706753890058278 -2.204593147058088 -2.2122416079384477 -2.266288292434659 -2.2296675670795008 -2.2286674324027005 -2.2420787820383667 -2.2433647707892224 -2.2294906629410822 -2.2879790521290082 -2.2620520951888805 -2.2714196652714134 -2.2473673362227427 -2.2160198997068763 -2.197000906317192 -2.205148095932759 -2.2283127720616611 -2.2417391564930567 -2.222680705138496 -2.2388568088929923 -2.2227783323530161 -2.2225856868758482 -2.2879790521290082 -2.2253816933725239 -2.2480545369409048 -2.2346138291612689 -2.1959681187554381 -2.2246182871477438 -2.2068395541020052 -2.1972751882647614 -2.1997784068561312 -2.1868317063739546 -2.233922730619986 -2.2100562713256329 -2.2879790521290082 -2.2784138694709166 -2.1955590810239651 -2.1896583954416573 -2.1866750026669797 -2.1976641820037126 -2.2154017422382153 -2.1777372551245682 -2.1887533659818952 -2.281254236383718 -2.1924356784270067 -2.193396667978436
leaf_weight=36.325892172753811 21.832942694425583 8.1635860800743085 8.585543639957903 468.73760906606913 219.35970585793257 2183.2629812434316 74.147406816482544 1695.6060633584857 22.089219719171524 20.147180780768394 46.285124748945236 612.64101043343544 1371.8762333020568 7.9948030561208716 13.205720379948618 1377.6520371362567 5.6328748837113372 1102.2680064290762 240.65734291821718 53.923073664307594 362.72190877050161 1432.9956003800035 327.01948939263821 790.86585425585508 194.97743703424931 3.6288350149989119 18.796916589140892 5.8860494196414939 62.400801047682762 120.5513626113534 82.493893198668957 215.34092348814011 192.76190130412579 27.40278248488903 150.76042141020298 523.83425159752369 363.26373153924942 840.64681684970856 2.4473538473248473 699.13088557124138 161.12852843105793 858.43553294986486 38.135655947029591 41.534741170704365 571.79821127653122 634.00747771561146 50.833993092179298 190.80021326988935 37.865261644124985 50.033824972808361 3.2912689670920363 10.190016530454157 8.4370828717947024 1.9826834499835957 177.99716235697269 235.26936926692724 8.0578381493687612 130.85297104716301 27.504393763840199 14.493983641266821 83.652983784675598 28.854657955467701
leaf_count=273 145 53 58 2904 2057 17010 485 9071 253 195 426 5860 11524 51 104 10709 58 4813 1216 534 2400 9353 2528 6205 1287 43 179 61 512 650 304 951 1252 211 903 3898 2179 5028 29 4357 1332 6061 137 256 2612 2352 200 529 265 243 39 112 30 6 491 881 43 256 81 163 274 97
internal_value=-2.22875 -2.23898 -2.21378 -2.21852 -2.24447 -2.24619 -2.2232 -2.21804 -2.23012 -2.23128 -2.2185 -2.24974 -2.25355 -2.2008 -2.20474 -2.24501 -2.24093 -2.20308 -2.2274 -2.2446 -2.23192 -2.23429 -2.23116 -2.23906 -2.24056 -2.23167 -2.21606 -2.20686 -2.21212 -2.22671 -2.20236 -2.21013 -2.24158 -2.20549 -2.2136 -2.22798 -2.23227 -2.22355 -2.20767 -2.22202 -2.23789 -2.23121 -2.20558 -2.24247 -2.2075 -2.19836 -2.19306 -2.19652 -2.21435 -2.21533 -2.20011 -2.24148 -2.21634 -2.26396 -2.18841 -2.19281 -2.23645 -2.18394 -2.19885 -2.26335 -2.19562 -2.18057
internal_weight=19373.5 11506.7 7866.76 5759.17 6719 6001.32 4109.43 1842.47 717.682 4787.72 339.487 3581.53 1984.52 2107.59 1397.03 1597.01 2419.79 1315.66 2266.96 128.07 4661.49 2913.6 1760.02 1153.59 378.195 81.3624 1714.4 1649.73 760.636 182.952 889.095 251.667 2376.02 1129.67 233.254 1747.89 887.098 860.794 126.223 939.788 356.106 1327.17 43.7685 87.8199 577.684 655.84 710.566 514.769 88.6993 53.6627 103.166 23.0571 10.8844 12.1727 185.992 426.07 11.3491 195.798 36.0899 27.6997 91.8166 159.708
internal_count=126589 85757 40832 32346 53385 48607 24807 10269 4778 32372 1906 30150 17384 8486 6119 12766 18457 5566 14538 1019 31786 20486 11881 8605 2872 553 9250 7539 3835 1162 3704 1224 18262 5024 1207 11300 6077 5223 586 5573 2619 8965 195 682 2673 2497 2367 1875 465 286 409 177 59 118 542 1410 82 492 139 267 327 353
is_linear=0
shrinkage=1


end of trees

feature_importances:
atr=8
bb_middle=7
bb_lower=7
roc_240=6
bb_upper=4
roc_60=4
macd_hist=3
mfi=3
mtf_momentum_align=3
atr_percentile=3
macd_signal=2
momentum=2
bb_width=2
trend_alignment=2
rsi_accel=2
roc_5=1
stoch_k=1
vol_contracting=1
strong_trend=1

parameters:
[boosting: gbdt]
[objective: binary]
[metric: binary_logloss]
[tree_learner: serial]
[device_type: cpu]
[data_sample_strategy: bagging]
[data: ]
[valid: ]
[num_iterations: 200]
[learning_rate: 0.01]
[num_leaves: 63]
[num_threads: 0]
[seed: 0]
[deterministic: 0]
[force_col_wise: 0]
[force_row_wise: 0]
[histogram_pool_size: -1]
[max_depth: 6]
[min_data_in_leaf: 20]
[min_sum_hessian_in_leaf: 0.001]
[bagging_fraction: 0.7]
[pos_bagging_fraction: 1]
[neg_bagging_fraction: 1]
[bagging_freq: 1]
[bagging_seed: 3]
[bagging_by_query: 0]
[feature_fraction: 0.7]
[feature_fraction_bynode: 1]
[feature_fraction_seed: 2]
[extra_trees: 0]
[extra_seed: 6]
[early_stopping_round: 0]
[early_stopping_min_delta: 0]
[first_metric_only: 0]
[max_delta_step: 0]
[lambda_l1: 0]
[lambda_l2: 0]
[linear_lambda: 0]
[min_gain_to_split: 0]
[drop_rate: 0.1]
[max_drop: 50]
[skip_drop: 0.5]
[xgboost_dart_mode: 0]
[uniform_drop: 0]
[drop_seed: 4]
[top_rate: 0.2]
[other_rate: 0.1]
[min_data_per_group: 100]
[max_cat_threshold: 32]
[cat_l2: 10]
[cat_smooth: 10]
[max_cat_to_onehot: 4]
[top_k: 20]
[monotone_constraints: ]
[monotone_constraints_method: basic]
[monotone_penalty: 0]
[feature_contri: ]
[forcedsplits_filename: ]
[refit_decay_rate: 0.9]
[cegb_tradeoff: 1]
[cegb_penalty_split: 0]
[cegb_penalty_feature_lazy: ]
[cegb_penalty_feature_coupled: ]
[path_smooth: 0]
[interaction_constraints: ]
[verbosity: -1]
[saved_feature_importance_type: 0]
[use_quantized_grad: 0]
[num_grad_quant_bins: 4]
[quant_train_renew_leaf: 0]
[stochastic_rounding: 1]
[linear_tree: 0]
[max_bin: 255]
[max_bin_by_feature: ]
[min_data_in_bin: 3]
[bin_construct_sample_cnt: 200000]
[data_random_seed: 1]
[is_enable_sparse: 1]
[enable_bundle: 1]
[use_missing: 1]
[zero_as_missing: 0]
[feature_pre_filter: 0]
[pre_partition: 0]
[two_round: 0]
[header: 0]
[label_column: ]
[weight_column: ]
[group_column: ]
[ignore_column: ]
[categorical_feature: ]
[forcedbins_filename: ]
[precise_float_parser: 0]
[parser_config_file: ]
[objective_seed: 5]
[num_class: 1]
[is_unbalance: 1]
[scale_pos_weight: 1]
[sigmoid: 1]
[boost_from_average: 1]
[reg_sqrt: 0]
[alpha: 0.9]
[fair_c: 1]
[poisson_max_delta_step: 0.7]
[tweedie_variance_power: 1.5]
[lambdarank_truncation_level: 30]
[lambdarank_norm: 1]
[label_gain: ]
[lambdarank_position_bias_regularization: 0]
[eval_at: ]
[multi_error_top_k: 1]
[auc_mu_weights: ]
[num_machines: 1]
[local_listen_port: 12400]
[time_out: 120]
[machine_list_filename: ]
[machines: ]
[gpu_platform_id: -1]
[gpu_device_id: -1]
[gpu_use_dp: 0]
[num_gpu: 1]

end of parameters

pandas_categorical:[]
