{"learner":{"attributes":{"best_iteration":"23","best_score":"0.2828119149381811"},"feature_names":["rsi","macd","macd_signal","bb_upper","bb_middle","bb_lower","atr","volume_ratio","momentum","adx","breakout_up","breakout_down","price_position","body_size","upper_wick","lower_wick","bullish_candle","atr_pct","volatility_regime","bb_width","bb_squeeze","trend_alignment","roc_5","roc_10","roc_20","momentum_alignment","volume_trend","volume_spike","obv_momentum","rsi_momentum","macd_hist","macd_hist_momentum","stoch_k","stoch_d","stoch_cross","willr","cci","mfi"],"feature_types":["float","float","float","float","float","float","float","float","float","float","float","float","float","float","float","float","float","float","float","float","float","float","float","float","float","float","float","float","float","float","float","float","float","float","float","float","float","float"],"gradient_booster":{"model":{"gbtree_model_param":{"num_parallel_tree":"1","num_trees":"44"},"iteration_indptr":[0,1,2,3,4,5,6,7,8,9,10,11,12,13,14,15,16,17,18,19,20,21,22,23,24,25,26,27,28,29,30,31,32,33,34,35,36,37,38,39,40,41,42,43,44],"tree_info":[0,0,0,0,0,0,0,0,0,0,0,0,0,0,0,0,0,0,0,0,0,0,0,0,0,0,0,0,0,0,0,0,0,0,0,0,0,0,0,0,0,0,0,0],"trees":[{"base_weights":[-8.367019E-1,-9.1956156E-1,9.44809E-2,-1.0206774E0,-7.856703E-1,2.300563E0,7.945149E-3,-5.2438695E-2,-3.741902E-2,-4.2077646E-2,-3.143094E-2,-9.250942E-3,1.9604278E-1,7.324478E-3,-2.5152937E-2],"categories":[],"categories_nodes":[],"categories_segments":[],"categories_sizes":[],"default_left":[0,0,0,0,0,0,0,0,0,0,0,0,0,0,0],"id":0,"left_children":[1,3,5,7,9,11,13,-1,-1,-1,-1,-1,-1,-1,-1],"loss_changes":[6.659746E2,1.06493164E2,1.3478032E2,3.3733887E1,2.9436035E1,1.0804947E2,4.8247635E1,0E0,0E0,0E0,0E0,0E0,0E0,0E0,0E0],"parents":[2147483647,0,0,1,1,2,2,3,3,4,4,5,5,6,6],"right_children":[2,4,6,8,10,12,14,-1,-1,-1,-1,-1,-1,-1,-1],"split_conditions":[1.4628468E-1,6.943428E-2,1.0042E5,4.973594E1,4.4923862E-3,1.8252193E2,1.1197896E5,-5.2438695E-2,-3.741902E-2,-4.2077646E-2,-3.143094E-2,-9.250942E-3,1.9604278E-1,7.324478E-3,-2.5152937E-2],"split_indices":[17,17,4,1,19,6,5,0,0,0,0,0,0,0,0],"split_type":[0,0,0,0,0,0,0,0,0,0,0,0,0,0,0],"sum_hessian":[8.629247E3,7.924144E3,7.05103E2,4.510871E3,3.4132727E3,2.5648666E1,6.7945435E2,4.0863738E3,4.244972E2,2.5142754E3,8.9899756E2,1.0471245E1,1.5177423E1,5.3509235E2,1.44362E2],"tree_param":{"num_deleted":"0","num_feature":"38","num_nodes":"15","size_leaf_vector":"1"}},{"base_weights":[-8.204637E-1,-8.987204E-1,-1.1731989E-1,-9.7624123E-1,-6.9346267E-1,1.9996017E0,-1.879188E-1,-4.2091068E-2,-5.0050195E-2,9.974008E-3,-3.6243346E-2,2.4116902E-1,5.7004597E-2,6.592401E-2,-1.2348099E-2],"categories":[],"categories_nodes":[],"categories_segments":[],"categories_sizes":[],"default_left":[0,0,0,0,0,0,0,0,0,0,0,0,0,0,0],"id":1,"left_children":[1,3,5,7,9,11,13,-1,-1,-1,-1,-1,-1,-1,-1],"loss_changes":[4.5963965E2,1.1895068E2,1.2560303E2,1.7313477E1,5.8037354E1,6.0342613E1,7.2527374E1,0E0,0E0,0E0,0E0,0E0,0E0,0E0,0E0],"parents":[2147483647,0,0,1,1,2,2,3,3,4,4,5,5,6,6],"right_children":[2,4,6,8,10,12,14,-1,-1,-1,-1,-1,-1,-1,-1],"split_conditions":[6.0171853E-3,3.2561678E-3,1.0003799E5,1.08951875E5,1.01410484E5,-1.5085461E2,-4.5175138E-1,-4.2091068E-2,-5.0050195E-2,9.974008E-3,-3.6243346E-2,2.4116902E-1,5.7004597E-2,6.592401E-2,-1.2348099E-2],"split_indices":[19,19,5,5,5,2,22,0,0,0,0,0,0,0,0],"split_type":[0,0,0,0,0,0,0,0,0,0,0,0,0,0,0],"sum_hessian":[8.354106E3,7.5171987E3,8.369077E2,5.453709E3,2.06349E3,2.6128105E1,8.107796E2,8.538299E2,4.599879E3,6.9924034E1,1.9935658E3,5.020919E0,2.1107187E1,2.9775333E1,7.810043E2],"tree_param":{"num_deleted":"0","num_feature":"38","num_nodes":"15","size_leaf_vector":"1"}},{"base_weights":[-7.980211E-1,-8.8615704E-1,1.3357951E-1,-9.8595226E-1,-7.442268E-1,2.7180629E0,3.695826E-2,-5.0790407E-2,-3.5046022E-2,-2.5677536E-2,-3.878046E-2,3.8402505E-2,1.6998185E-1,8.093479E-2,-1.4234637E-3],"categories":[],"categories_nodes":[],"categories_segments":[],"categories_sizes":[],"default_left":[0,0,0,0,0,0,0,0,0,0,0,0,0,0,0],"id":2,"left_children":[1,3,5,7,9,11,13,-1,-1,-1,-1,-1,-1,-1,-1],"loss_changes":[6.673135E2,1.0441553E2,1.7549722E2,3.635498E1,2.1817993E1,3.1051361E1,7.030095E1,0E0,0E0,0E0,0E0,0E0,0E0,0E0,0E0],"parents":[2147483647,0,0,1,1,2,2,3,3,4,4,5,5,6,6],"right_children":[2,4,6,8,10,12,14,-1,-1,-1,-1,-1,-1,-1,-1],"split_conditions":[1.6084674E2,8.007314E1,1.0080063E5,4.973594E1,-2.0502919E-1,1.8252193E2,-4.5175138E-1,-5.0790407E-2,-3.5046022E-2,-2.5677536E-2,-3.878046E-2,3.8402505E-2,1.6998185E-1,8.093479E-2,-1.4234637E-3],"split_indices":[6,6,3,1,23,6,22,0,0,0,0,0,0,0,0],"split_type":[0,0,0,0,0,0,0,0,0,0,0,0,0,0,0],"sum_hessian":[8.124872E3,7.4226826E3,7.021895E2,4.3547725E3,3.06791E3,2.4327656E1,6.778619E2,3.9395571E3,4.1521536E2,3.694718E2,2.6984382E3,6.851655E0,1.7476E1,2.5982557E1,6.5187933E2],"tree_param":{"num_deleted":"0","num_feature":"38","num_nodes":"15","size_leaf_vector":"1"}},{"base_weights":[-7.817433E-1,-8.729801E-1,1.5220639E-1,-9.8009175E-1,-7.389913E-1,2.0928156E0,5.670867E-2,-5.1674258E-2,-4.0498305E-2,-1.6018702E-2,-3.777818E-2,-4.0806897E-2,1.3399675E-1,9.95382E-3,-2.0889131E-2],"categories":[],"categories_nodes":[],"categories_segments":[],"categories_sizes":[],"default_left":[0,0,0,0,0,0,0,0,0,0,0,0,0,0,0],"id":3,"left_children":[1,3,5,7,9,11,13,-1,-1,-1,-1,-1,-1,-1,-1],"loss_changes":[6.73124E2,1.0254053E2,1.3030011E2,3.545703E1,2.1962036E1,5.851178E1,4.5461803E1,0E0,0E0,0E0,0E0,0E0,0E0,0E0,0E0],"parents":[2147483647,0,0,1,1,2,2,3,3,4,4,5,5,6,6],"right_children":[2,4,6,8,10,12,14,-1,-1,-1,-1,-1,-1,-1,-1],"split_conditions":[1.4628468E-1,6.8788946E-2,1.0042E5,2.3797703E1,-3.2207814E-1,1.6357841E2,1.1159862E5,-5.1674258E-2,-4.0498305E-2,-1.6018702E-2,-3.777818E-2,-4.0806897E-2,1.3399675E-1,9.95382E-3,-2.0889131E-2],"split_indices":[17,17,4,2,23,6,5,0,0,0,0,0,0,0,0],"split_type":[0,0,0,0,0,0,0,0,0,0,0,0,0,0,0],"sum_hessian":[7.8969824E3,7.1942476E3,7.027349E2,3.9946108E3,3.1996365E3,3.1978802E1,6.707561E2,3.0365308E3,9.580802E2,1.2261797E2,3.0770186E3,5.3049107E0,2.6673891E1,5.163957E2,1.5436041E2],"tree_param":{"num_deleted":"0","num_feature":"38","num_nodes":"15","size_leaf_vector":"1"}},{"base_weights":[-7.692364E-1,-8.705116E-1,2.2690564E-2,-9.560419E-1,-7.204384E-1,1.1221937E0,-7.099156E-2,-4.942191E-2,-3.5864554E-2,2.3180626E-2,-3.6385473E-2,8.5647315E-2,-2.4614638E-2,5.413077E-3,-2.3277761E-2],"categories":[],"categories_nodes":[],"categories_segments":[],"categories_sizes":[],"default_left":[0,0,0,0,0,0,0,0,0,0,0,0,0,0,0],"id":4,"left_children":[1,3,5,7,9,11,13,-1,-1,-1,-1,-1,-1,-1,-1],"loss_changes":[6.120288E2,8.615381E1,8.930032E1,3.2599854E1,2.1517334E1,6.576363E1,5.65696E1,0E0,0E0,0E0,0E0,0E0,0E0,0E0,0E0],"parents":[2147483647,0,0,1,1,2,2,3,3,4,4,5,5,6,6],"right_children":[2,4,6,8,10,12,14,-1,-1,-1,-1,-1,-1,-1,-1],"split_conditions":[1.4890141E2,8.3633965E1,1.0145208E5,4.5022503E1,-6.653105E-1,4.1933186E1,1.11395875E5,-4.942191E-2,-3.5864554E-2,2.3180626E-2,-3.6385473E-2,8.5647315E-2,-2.4614638E-2,5.413077E-3,-2.3277761E-2],"split_indices":[6,6,3,1,24,2,5,0,0,0,0,0,0,0,0],"split_type":[0,0,0,0,0,0,0,0,0,0,0,0,0,0,0],"sum_hessian":[7.6297974E3,6.7646094E3,8.651882E2,4.305456E3,2.459153E3,6.706767E1,7.981205E2,3.7882812E3,5.1717487E2,1.4625876E1,2.444527E3,4.9056534E1,1.8011137E1,5.492967E2,2.4882379E2],"tree_param":{"num_deleted":"0","num_feature":"38","num_nodes":"15","size_leaf_vector":"1"}},{"base_weights":[-7.515046E-1,-8.5685617E-1,1.990033E-2,-9.620503E-1,-7.148071E-1,-4.8854634E-2,1.5893229E0,-4.949617E-2,-3.3040643E-2,-2.413913E-2,-3.7747826E-2,3.6615897E-2,-6.222487E-3,1.2891115E-1,3.4187056E-2],"categories":[],"categories_nodes":[],"categories_segments":[],"categories_sizes":[],"default_left":[0,0,0,0,0,0,0,0,0,0,0,0,0,0,0],"id":5,"left_children":[1,3,5,7,9,11,13,-1,-1,-1,-1,-1,-1,-1,-1],"loss_changes":[6.0381885E2,9.6992676E1,9.651655E1,3.0855957E1,2.5581055E1,5.0710854E1,3.1855522E1,0E0,0E0,0E0,0E0,0E0,0E0,0E0,0E0],"parents":[2147483647,0,0,1,1,2,2,3,3,4,4,5,5,6,6],"right_children":[2,4,6,8,10,12,14,-1,-1,-1,-1,-1,-1,-1,-1],"split_conditions":[1.3354182E-1,6.943428E-2,4.2805603E-1,1.8562195E-1,-2.4340339E-1,1.0145208E5,4.312647E1,-4.949617E-2,-3.3040643E-2,-2.413913E-2,-3.7747826E-2,3.6615897E-2,-6.222487E-3,1.2891115E-1,3.4187056E-2],"split_indices":[17,17,17,24,24,3,0,0,0,0,0,0,0,0,0],"split_type":[0,0,0,0,0,0,0,0,0,0,0,0,0,0,0],"sum_hessian":[7.428697E3,6.535963E3,8.92734E2,3.751802E3,2.7841606E3,8.5619385E2,3.654019E1,3.4319617E3,3.1984042E2,4.1262418E2,2.3715366E3,7.477796E1,7.814159E2,1.6583689E1,1.9956505E1],"tree_param":{"num_deleted":"0","num_feature":"38","num_nodes":"15","size_leaf_vector":"1"}},{"base_weights":[-7.4344546E-1,-8.4005684E-1,-2.1667492E-3,-9.347251E-1,-6.799822E-1,1.4660796E0,-6.594205E-2,-4.855512E-2,-3.3582076E-2,-2.29205E-2,-3.6094304E-2,1.0868175E-1,-1.1069558E-2,4.9157566E-3,-2.5900295E-2],"categories":[],"categories_nodes":[],"categories_segments":[],"categories_sizes":[],"default_left":[0,0,0,0,0,0,0,0,0,0,0,0,0,0,0],"id":6,"left_children":[1,3,5,7,9,11,13,-1,-1,-1,-1,-1,-1,-1,-1],"loss_changes":[5.169204E2,9.613379E1,7.812122E1,3.772412E1,2.1736572E1,4.1948227E1,5.941971E1,0E0,0E0,0E0,0E0,0E0,0E0,0E0,0E0],"parents":[2147483647,0,0,1,1,2,2,3,3,4,4,5,5,6,6],"right_children":[2,4,6,8,10,12,14,-1,-1,-1,-1,-1,-1,-1,-1],"split_conditions":[1.5082092E2,8.3633965E1,1.0042E5,4.5022503E1,-2.4340339E-1,-1.3660764E1,1.1193295E5,-4.855512E-2,-3.3582076E-2,-2.29205E-2,-3.6094304E-2,1.0868175E-1,-1.1069558E-2,4.9157566E-3,-2.5900295E-2],"split_indices":[6,6,4,1,24,2,5,0,0,0,0,0,0,0,0],"split_type":[0,0,0,0,0,0,0,0,0,0,0,0,0,0,0],"sum_hessian":[7.2169795E3,6.384721E3,8.322586E2,4.0089724E3,2.3757488E3,3.3730095E1,7.985285E2,3.519614E3,4.8935828E2,3.7974402E2,1.9960046E3,2.3562326E1,1.016777E1,5.862847E2,2.1224376E2],"tree_param":{"num_deleted":"0","num_feature":"38","num_nodes":"15","size_leaf_vector":"1"}},{"base_weights":[-7.21864E-1,-8.3154315E-1,2.6883977E-2,-9.3455964E-1,-6.9414806E-1,-4.4277593E-2,1.5586256E0,-4.992227E-2,-3.819489E-2,-3.7599985E-2,-2.5795773E-2,4.0018763E-3,-2.237243E-2,1.309301E-1,3.5864193E-2],"categories":[],"categories_nodes":[],"categories_segments":[],"categories_sizes":[],"default_left":[0,0,0,0,0,0,0,0,0,0,0,0,0,0,0],"id":7,"left_children":[1,3,5,7,9,11,13,-1,-1,-1,-1,-1,-1,-1,-1],"loss_changes":[5.758335E2,8.591455E1,9.782459E1,3.731299E1,2.6673584E1,4.3038383E1,3.3653618E1,0E0,0E0,0E0,0E0,0E0,0E0,0E0,0E0],"parents":[2147483647,0,0,1,1,2,2,3,3,4,4,5,5,6,6],"right_children":[2,4,6,8,10,12,14,-1,-1,-1,-1,-1,-1,-1,-1],"split_conditions":[1.3354182E-1,6.943428E-2,4.2805603E-1,2.2013458E1,4.4923862E-3,1.1143103E5,-6.779847E1,-4.992227E-2,-3.819489E-2,-3.7599985E-2,-2.5795773E-2,4.0018763E-3,-2.237243E-2,1.309301E-1,3.5864193E-2],"split_indices":[17,17,17,1,19,5,36,0,0,0,0,0,0,0,0],"split_type":[0,0,0,0,0,0,0,0,0,0,0,0,0,0,0],"sum_hessian":[7.010653E3,6.114822E3,8.958309E2,3.4913015E3,2.6235203E3,8.5698804E2,3.884281E1,2.5368167E3,9.5448486E2,1.9782052E3,6.45315E2,6.5563025E2,2.0135779E2,1.6253366E1,2.2589445E1],"tree_param":{"num_deleted":"0","num_feature":"38","num_nodes":"15","size_leaf_vector":"1"}},{"base_weights":[-7.062586E-1,-8.029807E-1,1.21729754E-1,-9.25378E-1,-6.5373546E-1,4.7426067E-2,1.3865387E0,-4.930337E-2,-3.8088903E-2,-3.46916E-2,-1.8218786E-2,1.2126635E-2,-1.50913745E-2,8.4288664E-2,-3.186129E-2],"categories":[],"categories_nodes":[],"categories_segments":[],"categories_sizes":[],"default_left":[0,0,0,0,0,0,0,0,0,0,0,0,0,0,0],"id":8,"left_children":[1,3,5,7,9,11,13,-1,-1,-1,-1,-1,-1,-1,-1],"loss_changes":[5.455078E2,1.1079175E2,6.696242E1,3.249121E1,3.166687E1,4.604694E1,2.5018303E1,0E0,0E0,0E0,0E0,0E0,0E0,0E0,0E0],"parents":[2147483647,0,0,1,1,2,2,3,3,4,4,5,5,6,6],"right_children":[2,4,6,8,10,12,14,-1,-1,-1,-1,-1,-1,-1,-1],"split_conditions":[1.4628468E-1,6.943428E-2,4.2805603E-1,2.1239655E1,6.0171853E-3,3.5416573E1,1.1456531E5,-4.930337E-2,-3.8088903E-2,-3.46916E-2,-1.8218786E-2,1.2126635E-2,-1.50913745E-2,8.4288664E-2,-3.186129E-2],"split_indices":[17,17,17,2,19,9,4,0,0,0,0,0,0,0,0],"split_type":[0,0,0,0,0,0,0,0,0,0,0,0,0,0,0],"sum_hessian":[6.8094067E3,6.097189E3,7.122178E2,3.3470469E3,2.7501423E3,6.7367865E2,3.8539078E1,2.4377178E3,9.093289E2,2.4142083E3,3.3593396E2,4.324185E2,2.4126021E2,3.3720207E1,4.818869E0],"tree_param":{"num_deleted":"0","num_feature":"38","num_nodes":"15","size_leaf_vector":"1"}},{"base_weights":[-6.940167E-1,-7.9679596E-1,-9.721903E-3,-9.0830904E-1,-6.449632E-1,1.2973009E0,-7.059863E-2,-4.7430526E-2,-2.7280046E-2,-3.573724E-2,-2.4430623E-2,-3.8437586E-2,8.7914765E-2,6.084008E-2,-5.9461696E-3],"categories":[],"categories_nodes":[],"categories_segments":[],"categories_sizes":[],"default_left":[0,0,0,0,0,0,0,0,0,0,0,0,0,0,0],"id":9,"left_children":[1,3,5,7,9,11,13,-1,-1,-1,-1,-1,-1,-1,-1],"loss_changes":[4.651914E2,9.678052E1,6.889712E1,4.7912354E1,2.6256348E1,3.8054985E1,5.16082E1,0E0,0E0,0E0,0E0,0E0,0E0,0E0,0E0],"parents":[2147483647,0,0,1,1,2,2,3,3,4,4,5,5,6,6],"right_children":[2,4,6,8,10,12,14,-1,-1,-1,-1,-1,-1,-1,-1],"split_conditions":[1.4890141E2,7.9310844E1,1.0042E5,4.973594E1,4.166326E-3,1.6632405E2,-4.5175138E-1,-4.7430526E-2,-2.7280046E-2,-3.573724E-2,-2.4430623E-2,-3.8437586E-2,8.7914765E-2,6.084008E-2,-5.9461696E-3],"split_indices":[6,6,4,1,19,6,22,0,0,0,0,0,0,0,0],"split_type":[0,0,0,0,0,0,0,0,0,0,0,0,0,0,0],"sum_hessian":[6.613395E3,5.7496484E3,8.637466E2,3.312103E3,2.4375457E3,3.753612E1,8.2621045E2,2.9794343E3,3.326687E2,1.6828805E3,7.546651E2,6.7257075E0,3.0810413E1,2.9016405E1,7.9719403E2],"tree_param":{"num_deleted":"0","num_feature":"38","num_nodes":"15","size_leaf_vector":"1"}},{"base_weights":[-6.692353E-1,-7.826802E-1,3.254579E-2,-8.951918E-1,-6.424814E-1,-2.8479462E-2,1.2165974E0,-4.6950467E-2,-2.8654829E-2,-3.5109896E-2,-2.277954E-2,3.471484E-2,-5.1053707E-3,9.196642E-2,1.504049E-2],"categories":[],"categories_nodes":[],"categories_segments":[],"categories_sizes":[],"default_left":[0,0,0,0,0,0,0,0,0,0,0,0,0,0,0],"id":10,"left_children":[1,3,5,7,9,11,13,-1,-1,-1,-1,-1,-1,-1,-1],"loss_changes":[5.1108984E2,8.659302E1,6.465103E1,4.269409E1,2.7177673E1,4.5379658E1,2.4455795E1,0E0,0E0,0E0,0E0,0E0,0E0,0E0,0E0],"parents":[2147483647,0,0,1,1,2,2,3,3,4,4,5,5,6,6],"right_children":[2,4,6,8,10,12,14,-1,-1,-1,-1,-1,-1,-1,-1],"split_conditions":[1.3354182E-1,6.8788946E-2,4.2805603E-1,4.2813892E1,4.534732E-3,1.0145208E5,7.0566826E1,-4.6950467E-2,-2.8654829E-2,-3.5109896E-2,-2.277954E-2,3.471484E-2,-5.1053707E-3,9.196642E-2,1.504049E-2],"split_indices":[17,17,17,2,19,3,37,0,0,0,0,0,0,0,0],"split_type":[0,0,0,0,0,0,0,0,0,0,0,0,0,0,0],"sum_hessian":[6.4183193E3,5.525062E3,8.932571E2,3.06221E3,2.462852E3,8.504038E2,4.2853313E1,2.6938289E3,3.683811E2,1.8643766E3,5.984756E2,7.78409E1,7.7256287E2,2.490772E1,1.7945591E1],"tree_param":{"num_deleted":"0","num_feature":"38","num_nodes":"15","size_leaf_vector":"1"}},{"base_weights":[-6.5814394E-1,-7.653661E-1,1.3342661E-2,-8.695698E-1,-5.9842795E-1,8.5451406E-1,-6.9342E-2,-4.716004E-2,-3.3494897E-2,-1.7742595E-2,-3.2287735E-2,6.562838E-2,-2.691773E-2,2.9273389E-2,-8.19921E-3],"categories":[],"categories_nodes":[],"categories_segments":[],"categories_sizes":[],"default_left":[0,0,0,0,0,0,0,0,0,0,0,0,0,0,0],"id":11,"left_children":[1,3,5,7,9,11,13,-1,-1,-1,-1,-1,-1,-1,-1],"loss_changes":[4.5180347E2,9.3608154E1,6.022238E1,4.8315674E1,2.378009E1,5.0147816E1,4.8962463E1,0E0,0E0,0E0,0E0,0E0,0E0,0E0,0E0],"parents":[2147483647,0,0,1,1,2,2,3,3,4,4,5,5,6,6],"right_children":[2,4,6,8,10,12,14,-1,-1,-1,-1,-1,-1,-1,-1],"split_conditions":[1.4890141E2,8.325307E1,1.0145208E5,2.2232273E1,-2.4340339E-1,4.5380547E1,-2.743969E-1,-4.716004E-2,-3.3494897E-2,-1.7742595E-2,-3.2287735E-2,6.562838E-2,-2.691773E-2,2.9273389E-2,-8.19921E-3],"split_indices":[6,6,3,2,24,2,22,0,0,0,0,0,0,0,0],"split_type":[0,0,0,0,0,0,0,0,0,0,0,0,0,0,0],"sum_hessian":[6.2740615E3,5.410052E3,8.640097E2,3.3282993E3,2.0817522E3,7.6493004E1,7.875167E2,2.4288955E3,8.994038E2,3.4006116E2,1.741691E3,5.7606422E1,1.888658E1,9.879417E1,6.8872253E2],"tree_param":{"num_deleted":"0","num_feature":"38","num_nodes":"15","size_leaf_vector":"1"}},{"base_weights":[-6.48508E-1,-7.6397187E-1,9.944601E-3,-8.786542E-1,-6.233393E-1,-4.3634653E-2,1.0771543E0,-4.7486216E-2,-3.3601865E-2,-4.3275575E-3,-3.210291E-2,-2.8032783E-2,2.8359878E-3,8.996399E-2,2.0987619E-2],"categories":[],"categories_nodes":[],"categories_segments":[],"categories_sizes":[],"default_left":[0,0,0,0,0,0,0,0,0,0,0,0,0,0,0],"id":12,"left_children":[1,3,5,7,9,11,13,-1,-1,-1,-1,-1,-1,-1,-1],"loss_changes":[4.6313232E2,8.303955E1,5.2070194E1,4.1246094E1,2.3370605E1,4.503078E1,1.9910713E1,0E0,0E0,0E0,0E0,0E0,0E0,0E0,0E0],"parents":[2147483647,0,0,1,1,2,2,3,3,4,4,5,5,6,6],"right_children":[2,4,6,8,10,12,14,-1,-1,-1,-1,-1,-1,-1,-1],"split_conditions":[1.3170846E-1,6.8788946E-2,4.2805603E-1,2.322298E1,-3.552965E2,8.664954E-1,-6.779847E1,-4.7486216E-2,-3.3601865E-2,-4.3275575E-3,-3.210291E-2,-2.8032783E-2,2.8359878E-3,8.996399E-2,2.0987619E-2],"split_indices":[17,17,17,2,8,18,36,0,0,0,0,0,0,0,0],"split_type":[0,0,0,0,0,0,0,0,0,0,0,0,0,0,0],"sum_hessian":[6.0905415E3,5.1817314E3,9.0880975E2,2.8513115E3,2.3304202E3,8.662774E2,4.2532337E1,2.1188816E3,7.324299E2,7.8717354E1,2.251703E3,1.4006787E2,7.2620953E2,1.944069E1,2.309165E1],"tree_param":{"num_deleted":"0","num_feature":"38","num_nodes":"15","size_leaf_vector":"1"}},{"base_weights":[-6.2421495E-1,-7.416161E-1,1.55463945E-2,-8.67022E-1,-5.890901E-1,-2.8888005E-1,1.8869293E-1,-4.684093E-2,-3.303074E-2,-1.6008751E-2,-3.1226778E-2,-6.6655832E-3,-3.2828465E-2,6.8752535E-2,5.4858807E-3],"categories":[],"categories_nodes":[],"categories_segments":[],"categories_sizes":[],"default_left":[0,0,0,0,0,0,0,0,0,0,0,0,0,0,0],"id":13,"left_children":[1,3,5,7,9,11,13,-1,-1,-1,-1,-1,-1,-1,-1],"loss_changes":[4.473086E2,9.573877E1,4.877884E1,3.913379E1,2.1471436E1,1.9105247E1,5.5113464E1,0E0,0E0,0E0,0E0,0E0,0E0,0E0,0E0],"parents":[2147483647,0,0,1,1,2,2,3,3,4,4,5,5,6,6],"right_children":[2,4,6,8,10,12,14,-1,-1,-1,-1,-1,-1,-1,-1],"split_conditions":[1.3170846E-1,6.8788946E-2,1.5693551E-1,2.3797703E1,-1.996516E-1,1.1157571E5,1.0042E5,-4.684093E-2,-3.303074E-2,-1.6008751E-2,-3.1226778E-2,-6.6655832E-3,-3.2828465E-2,6.8752535E-2,5.4858807E-3],"split_indices":[17,17,17,2,23,4,4,0,0,0,0,0,0,0,0],"split_type":[0,0,0,0,0,0,0,0,0,0,0,0,0,0,0],"sum_hessian":[5.9543325E3,5.0309546E3,9.233781E2,2.758362E3,2.2725923E3,3.3453314E2,5.88845E2,2.0586807E3,6.9968146E2,2.6583163E2,2.0067607E3,2.3603143E2,9.850172E1,3.572826E1,5.531167E2],"tree_param":{"num_deleted":"0","num_feature":"38","num_nodes":"15","size_leaf_vector":"1"}},{"base_weights":[-6.1683285E-1,-7.303318E-1,-1.1633307E-2,-8.483187E-1,-5.83516E-1,7.266435E-1,-9.5128186E-2,-4.4990297E-2,-2.4164906E-2,-2.7765685E-3,-3.015173E-2,5.38584E-2,-5.822878E-3,4.1671347E-2,-6.708911E-3],"categories":[],"categories_nodes":[],"categories_segments":[],"categories_sizes":[],"default_left":[0,0,0,0,0,0,0,0,0,0,0,0,0,0,0],"id":14,"left_children":[1,3,5,7,9,11,13,-1,-1,-1,-1,-1,-1,-1,-1],"loss_changes":[3.9691284E2,8.3793945E1,5.6383778E1,5.0226562E1,2.2342712E1,2.7591133E1,2.9904352E1,0E0,0E0,0E0,0E0,0E0,0E0,0E0,0E0],"parents":[2147483647,0,0,1,1,2,2,3,3,4,4,5,5,6,6],"right_children":[2,4,6,8,10,12,14,-1,-1,-1,-1,-1,-1,-1,-1],"split_conditions":[1.3170846E-1,6.943428E-2,1.0145208E5,4.599914E1,-3.552965E2,3.0531298E1,-4.5175138E-1,-4.4990297E-2,-2.4164906E-2,-2.7765685E-3,-3.015173E-2,5.38584E-2,-5.822878E-3,4.1671347E-2,-6.708911E-3],"split_indices":[17,17,3,1,8,1,22,0,0,0,0,0,0,0,0],"split_type":[0,0,0,0,0,0,0,0,0,0,0,0,0,0,0],"sum_hessian":[5.7774854E3,4.864914E3,9.125712E2,2.6946272E3,2.1702869E3,9.193779E1,8.206334E2,2.3602427E3,3.3438443E2,7.750829E1,2.0927788E3,6.47429E1,2.719489E1,3.2297672E1,7.8833575E2],"tree_param":{"num_deleted":"0","num_feature":"38","num_nodes":"15","size_leaf_vector":"1"}},{"base_weights":[-5.987458E-1,-7.1763414E-1,1.5713736E-2,-8.30342E-1,-5.537381E-1,-3.7418246E-2,9.7981197E-1,-4.4084568E-2,-2.4999438E-2,3.8253218E-3,-2.8684864E-2,-1.6552035E-2,6.8728547E-3,7.513142E-2,1.3700025E-2],"categories":[],"categories_nodes":[],"categories_segments":[],"categories_sizes":[],"default_left":[0,0,0,0,0,0,0,0,0,0,0,0,0,0,0],"id":15,"left_children":[1,3,5,7,9,11,13,-1,-1,-1,-1,-1,-1,-1,-1],"loss_changes":[4.114298E2,8.670874E1,4.6855785E1,4.6956055E1,2.4268799E1,4.4575066E1,1.7218391E1,0E0,0E0,0E0,0E0,0E0,0E0,0E0,0E0],"parents":[2147483647,0,0,1,1,2,2,3,3,4,4,5,5,6,6],"right_children":[2,4,6,8,10,12,14,-1,-1,-1,-1,-1,-1,-1,-1],"split_conditions":[1.3170846E-1,7.267004E-2,4.2805603E-1,4.5022503E1,1.1318149E1,9.548857E-1,6.147192E1,-4.4084568E-2,-2.4999438E-2,3.8253218E-3,-2.8684864E-2,-1.6552035E-2,6.8728547E-3,7.513142E-2,1.3700025E-2],"split_indices":[17,17,17,1,9,18,37,0,0,0,0,0,0,0,0],"split_type":[0,0,0,0,0,0,0,0,0,0,0,0,0,0,0],"sum_hessian":[5.6308555E3,4.717856E3,9.129995E2,2.7930608E3,1.9247952E3,8.6622266E2,4.677682E1,2.415874E3,3.7718674E2,5.8997936E1,1.8657971E3,3.2300006E2,5.432226E2,2.6223398E1,2.0553421E1],"tree_param":{"num_deleted":"0","num_feature":"38","num_nodes":"15","size_leaf_vector":"1"}},{"base_weights":[-5.883795E-1,-6.9610333E-1,-7.889846E-3,-8.152146E-1,-5.468425E-1,1.3974921E-1,-4.2995447E-1,-4.4941097E-2,-3.06404E-2,-1.5368799E-2,-2.961422E-2,1.9613625E-3,6.073726E-2,1.9271871E-2,-2.7125949E-2],"categories":[],"categories_nodes":[],"categories_segments":[],"categories_sizes":[],"default_left":[0,0,0,0,0,0,0,0,0,0,0,0,0,0,0],"id":16,"left_children":[1,3,5,7,9,11,13,-1,-1,-1,-1,-1,-1,-1,-1],"loss_changes":[3.4297192E2,8.180249E1,5.361994E1,4.2956543E1,2.2194214E1,6.884476E1,2.0676262E1,0E0,0E0,0E0,0E0,0E0,0E0,0E0,0E0],"parents":[2147483647,0,0,1,1,2,2,3,3,4,4,5,5,6,6],"right_children":[2,4,6,8,10,12,14,-1,-1,-1,-1,-1,-1,-1,-1],"split_conditions":[1.4890141E2,7.9310844E1,1.1157152E5,2.0241663E1,-2.4340339E-1,1.1172861E5,-3.2468536E-1,-4.4941097E-2,-3.06404E-2,-1.5368799E-2,-2.961422E-2,1.9613625E-3,6.073726E-2,1.9271871E-2,-2.7125949E-2],"split_indices":[6,6,5,2,24,3,22,0,0,0,0,0,0,0,0],"split_type":[0,0,0,0,0,0,0,0,0,0,0,0,0,0,0],"sum_hessian":[5.483779E3,4.6252524E3,8.585263E2,2.5699514E3,2.0553013E3,6.3653424E2,2.2199208E2,1.8162703E3,7.5368115E2,3.2905176E2,1.7262494E3,5.830502E2,5.348404E1,2.6634405E1,1.9535768E2],"tree_param":{"num_deleted":"0","num_feature":"38","num_nodes":"15","size_leaf_vector":"1"}},{"base_weights":[-5.646151E-1,-6.8419653E-1,2.0516971E-2,-8.150555E-1,-5.3203595E-1,-4.8966232E-1,1.00805216E-1,-4.3437626E-2,-2.2421375E-2,3.039249E-3,-2.7715279E-2,1.1161064E-2,-3.3622675E-2,1.11507615E-2,-1.738584E-2],"categories":[],"categories_nodes":[],"categories_segments":[],"categories_sizes":[],"default_left":[0,0,0,0,0,0,0,0,0,0,0,0,0,0,0],"id":17,"left_children":[1,3,5,7,9,11,13,-1,-1,-1,-1,-1,-1,-1,-1],"loss_changes":[3.7421497E2,8.79834E1,3.7260895E1,4.6572754E1,2.7177063E1,1.626889E1,4.3147934E1,0E0,0E0,0E0,0E0,0E0,0E0,0E0,0E0],"parents":[2147483647,0,0,1,1,2,2,3,3,4,4,5,5,6,6],"right_children":[2,4,6,8,10,12,14,-1,-1,-1,-1,-1,-1,-1,-1],"split_conditions":[1.3170846E-1,6.8788946E-2,3.7654506E-3,4.599914E1,-3.2207814E-1,1.634309E1,1.1188207E5,-4.3437626E-2,-2.2421375E-2,3.039249E-3,-2.7715279E-2,1.1161064E-2,-3.3622675E-2,1.11507615E-2,-1.738584E-2],"split_indices":[17,17,19,1,23,9,5,0,0,0,0,0,0,0,0],"split_type":[0,0,0,0,0,0,0,0,0,0,0,0,0,0,0],"sum_hessian":[5.346949E3,4.4394956E3,9.0745374E2,2.384476E3,2.0550195E3,1.2269682E2,7.847569E2,2.0786619E3,3.0581424E2,7.4340324E1,1.9806792E3,2.499508E1,9.7701744E1,6.1711316E2,1.676437E2],"tree_param":{"num_deleted":"0","num_feature":"38","num_nodes":"15","size_leaf_vector":"1"}},{"base_weights":[-5.504415E-1,-6.6784674E-1,2.2931017E-3,-7.963937E-1,-5.198421E-1,-2.8819928E-1,1.5980248E-1,-4.2488128E-2,-1.8632716E-2,-1.1361332E-2,-2.8025076E-2,1.8441023E-2,-2.2275684E-2,2.3467904E-2,-3.5377804E-3],"categories":[],"categories_nodes":[],"categories_segments":[],"categories_sizes":[],"default_left":[0,0,0,0,0,0,0,0,0,0,0,0,0,0,0],"id":18,"left_children":[1,3,5,7,9,11,13,-1,-1,-1,-1,-1,-1,-1,-1],"loss_changes":[3.387527E2,8.1501465E1,4.193631E1,5.175E1,2.371759E1,3.3470615E1,4.2447887E1,0E0,0E0,0E0,0E0,0E0,0E0,0E0,0E0],"parents":[2147483647,0,0,1,1,2,2,3,3,4,4,5,5,6,6],"right_children":[2,4,6,8,10,12,14,-1,-1,-1,-1,-1,-1,-1,-1],"split_conditions":[1.3170846E-1,6.8788946E-2,1.5693551E-1,4.973594E1,-2.228945E2,1.7504353E1,-5.8013783E1,-4.2488128E-2,-1.8632716E-2,-1.1361332E-2,-2.8025076E-2,1.8441023E-2,-2.2275684E-2,2.3467904E-2,-3.5377804E-3],"split_indices":[17,17,17,1,8,9,1,0,0,0,0,0,0,0,0],"split_type":[0,0,0,0,0,0,0,0,0,0,0,0,0,0,0],"sum_hessian":[5.2190776E3,4.3045493E3,9.145284E2,2.3013596E3,2.0031896E3,3.2124005E2,5.932883E2,2.043039E3,2.5832065E2,2.4519228E2,1.7579973E3,6.1797947E1,2.594421E2,2.528146E2,3.4047372E2],"tree_param":{"num_deleted":"0","num_feature":"38","num_nodes":"15","size_leaf_vector":"1"}},{"base_weights":[-5.4853386E-1,-6.6404796E-1,-8.6160265E-3,-7.8871125E-1,-5.226841E-1,-5.6814294E-2,8.607351E-1,-4.172151E-2,-1.8076958E-2,-1.3232841E-2,-2.8420476E-2,-3.5637975E-2,1.1872967E-3,8.1480436E-2,1.0741666E-2],"categories":[],"categories_nodes":[],"categories_segments":[],"categories_sizes":[],"default_left":[0,0,0,0,0,0,0,0,0,0,0,0,0,0,0],"id":19,"left_children":[1,3,5,7,9,11,13,-1,-1,-1,-1,-1,-1,-1,-1],"loss_changes":[3.1730505E2,7.344592E1,3.7662663E1,4.3154297E1,2.3056152E1,4.5010742E1,2.3098316E1,0E0,0E0,0E0,0E0,0E0,0E0,0E0,0E0],"parents":[2147483647,0,0,1,1,2,2,3,3,4,4,5,5,6,6],"right_children":[2,4,6,8,10,12,14,-1,-1,-1,-1,-1,-1,-1,-1],"split_conditions":[1.3170846E-1,6.8788946E-2,4.2805603E-1,1.8175238E-1,-1.7627594E-1,8.3984417E-1,-6.779847E1,-4.172151E-2,-1.8076958E-2,-1.3232841E-2,-2.8420476E-2,-3.5637975E-2,1.1872967E-3,8.1480436E-2,1.0741666E-2],"split_indices":[17,17,17,24,23,18,36,0,0,0,0,0,0,0,0],"split_type":[0,0,0,0,0,0,0,0,0,0,0,0,0,0,0],"sum_hessian":[5.086708E3,4.1900312E3,8.96677E2,2.2241028E3,1.9659283E3,8.504607E2,4.6216305E1,2.008216E3,2.1588681E2,2.9696295E2,1.6689653E3,9.216648E1,7.5829425E2,2.040429E1,2.5812016E1],"tree_param":{"num_deleted":"0","num_feature":"38","num_nodes":"15","size_leaf_vector":"1"}},{"base_weights":[-5.324941E-1,-6.768505E-1,-1.0158078E-1,-7.82781E-1,-5.0667584E-1,-2.5181034E-1,2.548638E-1,-4.390569E-2,-2.9718269E-2,8.0080135E-3,-2.678906E-2,-3.894611E-3,-2.103289E-2,3.349118E-2,-7.921747E-3],"categories":[],"categories_nodes":[],"categories_segments":[],"categories_sizes":[],"default_left":[0,0,0,0,0,0,0,0,0,0,0,0,0,0,0],"id":20,"left_children":[1,3,5,7,9,11,13,-1,-1,-1,-1,-1,-1,-1,-1],"loss_changes":[3.0984265E2,6.687402E1,6.707302E1,4.0758423E1,2.7928223E1,2.5833595E1,6.3824207E1,0E0,0E0,0E0,0E0,0E0,0E0,0E0,0E0],"parents":[2147483647,0,0,1,1,2,2,3,3,4,4,5,5,6,6],"right_children":[2,4,6,8,10,12,14,-1,-1,-1,-1,-1,-1,-1,-1],"split_conditions":[4.534732E-3,7.3780686E-2,1.7460054E-1,1.6260815E1,1.1318149E1,1.1042451E5,-5.4646564E1,-4.390569E-2,-2.9718269E-2,8.0080135E-3,-2.678906E-2,-3.894611E-3,-2.103289E-2,3.349118E-2,-7.921747E-3],"split_indices":[19,17,17,2,9,5,2,0,0,0,0,0,0,0,0],"split_type":[0,0,0,0,0,0,0,0,0,0,0,0,0,0,0],"sum_hessian":[4.9810903E3,3.7307236E3,1.250367E3,2.297176E3,1.4335475E3,8.7983795E2,3.7052893E2,1.522948E3,7.742281E2,5.976493E1,1.3737826E3,4.3413098E2,4.45707E2,1.845832E2,1.8594571E2],"tree_param":{"num_deleted":"0","num_feature":"38","num_nodes":"15","size_leaf_vector":"1"}},{"base_weights":[-5.10408E-1,-6.3187504E-1,2.1556152E-2,-7.694271E-1,-4.7996148E-1,1.1917678E-1,-3.884935E-1,-4.3391697E-2,-2.7395925E-2,-2.6748186E-2,-1.2653484E-2,6.773936E-2,3.537013E-3,-3.024653E-3,-3.6521282E-2],"categories":[],"categories_nodes":[],"categories_segments":[],"categories_sizes":[],"default_left":[0,0,0,0,0,0,0,0,0,0,0,0,0,0,0],"id":21,"left_children":[1,3,5,7,9,11,13,-1,-1,-1,-1,-1,-1,-1,-1],"loss_changes":[3.1304016E2,8.2042725E1,3.6132664E1,4.460547E1,2.328592E1,4.3528656E1,1.9424068E1,0E0,0E0,0E0,0E0,0E0,0E0,0E0,0E0],"parents":[2147483647,0,0,1,1,2,2,3,3,4,4,5,5,6,6],"right_children":[2,4,6,8,10,12,14,-1,-1,-1,-1,-1,-1,-1,-1],"split_conditions":[1.3170846E-1,6.8788946E-2,1.1197896E5,1.9699486E1,4.9671675E-3,-4.5175138E-1,-1.2136374E-1,-4.3391697E-2,-2.7395925E-2,-2.6748186E-2,-1.2653484E-2,6.773936E-2,3.537013E-3,-3.024653E-3,-3.6521282E-2],"split_indices":[17,17,5,2,19,22,24,0,0,0,0,0,0,0,0],"split_type":[0,0,0,0,0,0,0,0,0,0,0,0,0,0,0],"sum_hessian":[4.8434033E3,3.9429045E3,9.0049866E2,2.0671304E3,1.8757743E3,7.2791345E2,1.7258517E2,1.4292554E3,6.3787494E2,1.5086865E3,3.6708777E2,2.644081E1,7.0147266E2,8.868779E1,8.3897385E1],"tree_param":{"num_deleted":"0","num_feature":"38","num_nodes":"15","size_leaf_vector":"1"}},{"base_weights":[-4.967188E-1,-6.3775855E-1,-9.304744E-2,-3.8107002E-1,-7.0979244E-1,2.568593E-2,-3.9572716E-1,-2.9422497E-2,-5.552617E-3,-3.9088294E-2,-2.8394056E-2,6.1134614E-2,-7.2714826E-4,-2.3827588E-2,1.4728914E-2],"categories":[],"categories_nodes":[],"categories_segments":[],"categories_sizes":[],"default_left":[0,0,0,0,0,0,0,0,0,0,0,0,0,0,0],"id":22,"left_children":[1,3,5,7,9,11,13,-1,-1,-1,-1,-1,-1,-1,-1],"loss_changes":[2.6999548E2,6.472229E1,4.419034E1,4.318651E1,2.7578613E1,4.2581814E1,1.9468842E1,0E0,0E0,0E0,0E0,0E0,0E0,0E0,0E0],"parents":[2147483647,0,0,1,1,2,2,3,3,4,4,5,5,6,6],"right_children":[2,4,6,8,10,12,14,-1,-1,-1,-1,-1,-1,-1,-1],"split_conditions":[4.534732E-3,1.09287445E5,1.1188207E5,2.9923893E-3,1.829627E1,-4.5175138E-1,6.999511E1,-2.9422497E-2,-5.552617E-3,-3.9088294E-2,-2.8394056E-2,6.1134614E-2,-7.2714826E-4,-2.3827588E-2,1.4728914E-2],"split_indices":[19,5,5,19,1,22,0,0,0,0,0,0,0,0,0],"split_type":[0,0,0,0,0,0,0,0,0,0,0,0,0,0,0],"sum_hessian":[4.7423164E3,3.5139783E3,1.2283379E3,7.7140643E2,2.742572E3,8.829103E2,3.4542758E2,4.3564304E2,3.357634E2,1.8166895E3,9.2588245E2,2.7752235E1,8.551581E2,3.0949942E2,3.592818E1],"tree_param":{"num_deleted":"0","num_feature":"38","num_nodes":"15","size_leaf_vector":"1"}},{"base_weights":[-4.8307955E-1,-5.8942986E-1,9.998162E-2,-7.374645E-1,-4.4391835E-1,7.287929E-1,-2.6731452E-3,-4.2018276E-2,-2.3625493E-2,-5.9063276E-3,-2.3935676E-2,4.1239467E-2,-2.9695636E-2,5.459132E-3,-2.9774904E-2],"categories":[],"categories_nodes":[],"categories_segments":[],"categories_sizes":[],"default_left":[0,0,0,0,0,0,0,0,0,0,0,0,0,0,0],"id":23,"left_children":[1,3,5,7,9,11,13,-1,-1,-1,-1,-1,-1,-1,-1],"loss_changes":[2.8932068E2,8.465918E1,4.650841E1,5.2882935E1,2.252658E1,1.3328907E1,4.120111E1,0E0,0E0,0E0,0E0,0E0,0E0,0E0,0E0],"parents":[2147483647,0,0,1,1,2,2,3,3,4,4,5,5,6,6],"right_children":[2,4,6,8,10,12,14,-1,-1,-1,-1,-1,-1,-1,-1],"split_conditions":[1.4628468E-1,6.8788946E-2,-2.743969E-1,2.322298E1,-2.709695E2,1.16293516E5,1.1197896E5,-4.2018276E-2,-2.3625493E-2,-5.9063276E-3,-2.3935676E-2,4.1239467E-2,-2.9695636E-2,5.459132E-3,-2.9774904E-2],"split_indices":[17,17,22,2,8,5,5,0,0,0,0,0,0,0,0],"split_type":[0,0,0,0,0,0,0,0,0,0,0,0,0,0,0],"sum_hessian":[4.663854E3,3.9443872E3,7.194667E2,1.9532252E3,1.991162E3,1.0011475E2,6.193519E2,1.4052815E3,5.479437E2,1.9256317E2,1.7985989E3,9.369146E1,6.423296E0,5.217269E2,9.7625E1],"tree_param":{"num_deleted":"0","num_feature":"38","num_nodes":"15","size_leaf_vector":"1"}},{"base_weights":[-4.7867623E-1,-6.450029E-1,-1.3238285E-1,-6.872461E-1,-2.7972084E-1,-3.018281E-1,1.19727485E-1,-3.878892E-2,-2.7094472E-2,9.673122E-2,-1.557768E-2,-3.615134E-3,-1.9892069E-2,5.4238852E-2,2.6510986E-3],"categories":[],"categories_nodes":[],"categories_segments":[],"categories_sizes":[],"default_left":[0,0,0,0,0,0,0,0,0,0,0,0,0,0,0],"id":24,"left_children":[1,3,5,7,9,11,13,-1,-1,-1,-1,-1,-1,-1,-1],"loss_changes":[2.622655E2,4.728369E1,6.322381E1,3.506018E1,2.3202322E1,1.9471909E1,3.8262074E1,0E0,0E0,0E0,0E0,0E0,0E0,0E0,0E0],"parents":[2147483647,0,0,1,1,2,2,3,3,4,4,5,5,6,6],"right_children":[2,4,6,8,10,12,14,-1,-1,-1,-1,-1,-1,-1,-1],"split_conditions":[1.0009677E-1,2.1635023E-1,1.5693551E-1,7.651924E1,1.1828104E1,-1.935858E-1,1.0042E5,-3.878892E-2,-2.7094472E-2,9.673122E-2,-1.557768E-2,-3.615134E-3,-1.9892069E-2,5.4238852E-2,2.6510986E-3],"split_indices":[17,24,17,6,9,24,4,0,0,0,0,0,0,0,0],"split_type":[0,0,0,0,0,0,0,0,0,0,0,0,0,0,0],"sum_hessian":[4.553874E3,3.0757236E3,1.4781503E3,2.7561106E3,3.196129E2,8.838864E2,5.9426385E2,1.7101652E3,1.0459454E3,3.6824174E0,3.159305E2,2.612075E2,6.226789E2,3.7433887E1,5.5683E2],"tree_param":{"num_deleted":"0","num_feature":"38","num_nodes":"15","size_leaf_vector":"1"}},{"base_weights":[-4.5488793E-1,-6.143635E-1,-8.565937E-2,-3.4102783E-1,-6.913421E-1,-2.6338488E-1,1.958298E-1,-1.8056242E-2,1.09449044E-1,-3.807349E-2,-2.5600417E-2,-1.5478255E-2,2.5540749E-2,5.8943685E-2,6.238798E-3],"categories":[],"categories_nodes":[],"categories_segments":[],"categories_sizes":[],"default_left":[0,0,0,0,0,0,0,0,0,0,0,0,0,0,0],"id":25,"left_children":[1,3,5,7,9,11,13,-1,-1,-1,-1,-1,-1,-1,-1],"loss_changes":[2.619911E2,6.5154175E1,6.726454E1,3.561331E1,3.0093384E1,2.961736E1,3.6212143E1,0E0,0E0,0E0,0E0,0E0,0E0,0E0,0E0],"parents":[2147483647,0,0,1,1,2,2,3,3,4,4,5,5,6,6],"right_children":[2,4,6,8,10,12,14,-1,-1,-1,-1,-1,-1,-1,-1],"split_conditions":[4.2393734E-3,1.09287445E5,1.5693551E-1,1.09608125E5,8.668424E1,1.5969969E2,1.0042E5,-1.8056242E-2,1.09449044E-1,-3.807349E-2,-2.5600417E-2,-1.5478255E-2,2.5540749E-2,5.8943685E-2,6.238798E-3],"split_indices":[19,5,17,3,6,1,4,0,0,0,0,0,0,0,0],"split_type":[0,0,0,0,0,0,0,0,0,0,0,0,0,0,0],"sum_hessian":[4.44925E3,3.1067375E3,1.3425122E3,6.838731E2,2.4228645E3,8.2297186E2,5.1954034E2,6.793341E2,4.538999E0,1.7394246E3,6.834399E2,7.772121E2,4.5759743E1,3.3969822E1,4.8557056E2],"tree_param":{"num_deleted":"0","num_feature":"38","num_nodes":"15","size_leaf_vector":"1"}},{"base_weights":[-4.4386744E-1,-5.684952E-1,3.827089E-2,-7.3236436E-1,-4.348691E-1,2.1634354E-1,-1.8304187E-1,1.1767025E-2,-3.7253585E-2,2.2204889E-2,-2.260096E-2,6.1337054E-2,2.6014266E-3,5.9208613E-2,-1.1213007E-2],"categories":[],"categories_nodes":[],"categories_segments":[],"categories_sizes":[],"default_left":[0,0,0,0,0,0,0,0,0,0,0,0,0,0,0],"id":26,"left_children":[1,3,5,7,9,11,13,-1,-1,-1,-1,-1,-1,-1,-1],"loss_changes":[2.6288702E2,7.580054E1,3.5488007E1,1.9358093E1,2.9102142E1,8.276395E1,2.289691E1,0E0,0E0,0E0,0E0,0E0,0E0,0E0,0E0],"parents":[2147483647,0,0,1,1,2,2,3,3,4,4,5,5,6,6],"right_children":[2,4,6,8,10,12,14,-1,-1,-1,-1,-1,-1,-1,-1],"split_conditions":[1.3170846E-1,2.321388E-3,-1.3660764E1,-2.1475488E-12,1.1001434E1,1.7658926E1,-7.079455E1,1.1767025E-2,-3.7253585E-2,2.2204889E-2,-2.260096E-2,6.1337054E-2,2.6014266E-3,5.9208613E-2,-1.1213007E-2],"split_indices":[17,19,2,37,9,9,30,0,0,0,0,0,0,0,0],"split_type":[0,0,0,0,0,0,0,0,0,0,0,0,0,0,0],"sum_hessian":[4.3736865E3,3.4752034E3,8.9848315E2,1.5589464E3,1.9162571E3,4.978919E2,4.0059125E2,1.9978867E1,1.5389675E3,3.6197323E1,1.8800598E3,6.8739105E1,4.291528E2,1.0911932E1,3.8967932E2],"tree_param":{"num_deleted":"0","num_feature":"38","num_nodes":"15","size_leaf_vector":"1"}},{"base_weights":[-4.2493278E-1,-6.430503E-1,-1.5881807E-1,-7.372754E-1,-5.013986E-1,-2.8984222E-1,1.9571044E-1,-4.252852E-2,-2.8101942E-2,9.839605E-3,-2.6751658E-2,-4.838267E-3,-2.2476843E-2,5.7569977E-2,6.071742E-3],"categories":[],"categories_nodes":[],"categories_segments":[],"categories_sizes":[],"default_left":[0,0,0,0,0,0,0,0,0,0,0,0,0,0,0],"id":27,"left_children":[1,3,5,7,9,11,13,-1,-1,-1,-1,-1,-1,-1,-1],"loss_changes":[2.4933508E2,3.1147339E1,9.003526E1,2.7632996E1,2.2329895E1,4.357749E1,3.700599E1,0E0,0E0,0E0,0E0,0E0,0E0,0E0,0E0],"parents":[2147483647,0,0,1,1,2,2,3,3,4,4,5,5,6,6],"right_children":[2,4,6,8,10,12,14,-1,-1,-1,-1,-1,-1,-1,-1],"split_conditions":[3.2561678E-3,6.663871E-2,1.6305475E-1,1.0221188E1,1.1001434E1,1.1071912E5,1.0042E5,-4.252852E-2,-2.8101942E-2,9.839605E-3,-2.6751658E-2,-4.838267E-3,-2.2476843E-2,5.7569977E-2,6.071742E-3],"split_indices":[19,17,17,2,9,4,4,0,0,0,0,0,0,0,0],"split_type":[0,0,0,0,0,0,0,0,0,0,0,0,0,0,0],"sum_hessian":[4.2963594E3,2.3603289E3,1.9360304E3,1.4149293E3,9.4539954E2,1.4137347E3,5.2229565E2,8.570015E2,5.5792786E2,4.3227432E1,9.021721E2,6.407045E2,7.730303E2,3.6619408E1,4.8567624E2],"tree_param":{"num_deleted":"0","num_feature":"38","num_nodes":"15","size_leaf_vector":"1"}},{"base_weights":[-4.1250008E-1,-5.5667585E-1,-5.047741E-2,-2.9966506E-1,-6.3410586E-1,-2.1963489E-1,1.7733873E-1,-1.5986158E-2,9.800602E-2,-3.5844784E-2,-2.3662878E-2,-1.3780634E-2,2.8837398E-2,2.0190155E-2,-4.17993E-3],"categories":[],"categories_nodes":[],"categories_segments":[],"categories_sizes":[],"default_left":[0,0,0,0,0,0,0,0,0,0,0,0,0,0,0],"id":28,"left_children":[1,3,5,7,9,11,13,-1,-1,-1,-1,-1,-1,-1,-1],"loss_changes":[2.1933496E2,5.9623047E1,4.621124E1,3.2254086E1,3.0407043E1,3.0831398E1,3.0236176E1,0E0,0E0,0E0,0E0,0E0,0E0,0E0,0E0],"parents":[2147483647,0,0,1,1,2,2,3,3,4,4,5,5,6,6],"right_children":[2,4,6,8,10,12,14,-1,-1,-1,-1,-1,-1,-1,-1],"split_conditions":[4.534732E-3,1.09287445E5,1.5693551E-1,1.09608125E5,8.325307E1,1.5969969E2,-3.7682858E1,-1.5986158E-2,9.800602E-2,-3.5844784E-2,-2.3662878E-2,-1.3780634E-2,2.8837398E-2,2.0190155E-2,-4.17993E-3],"split_indices":[19,5,17,3,6,1,2,0,0,0,0,0,0,0,0],"split_type":[0,0,0,0,0,0,0,0,0,0,0,0,0,0,0],"sum_hessian":[4.2017676E3,3.0046328E3,1.1971349E3,6.967624E2,2.3078704E3,6.870352E2,5.1009973E2,6.914832E2,5.2791467E0,1.521359E3,7.8651135E2,6.4252594E2,4.450927E1,2.7279593E2,2.3730379E2],"tree_param":{"num_deleted":"0","num_feature":"38","num_nodes":"15","size_leaf_vector":"1"}},{"base_weights":[-4.0365195E-1,-6.0703033E-1,-1.4931346E-1,-7.053521E-1,-3.892441E-1,-2.9209164E-1,7.0803426E-2,-2.7757509E-2,-4.300826E-2,6.0009684E-2,-2.058207E-2,-1.628106E-2,2.2929158E-2,7.9614995E-3,-1.8972093E-2],"categories":[],"categories_nodes":[],"categories_segments":[],"categories_sizes":[],"default_left":[0,0,0,0,0,0,0,0,0,0,0,0,0,0,0],"id":29,"left_children":[1,3,5,7,9,11,13,-1,-1,-1,-1,-1,-1,-1,-1],"loss_changes":[2.1364636E2,4.8883667E1,5.776371E1,3.627234E1,2.5993134E1,2.820446E1,2.8872871E1,0E0,0E0,0E0,0E0,0E0,0E0,0E0,0E0],"parents":[2147483647,0,0,1,1,2,2,3,3,4,4,5,5,6,6],"right_children":[2,4,6,8,10,12,14,-1,-1,-1,-1,-1,-1,-1,-1],"split_conditions":[9.623086E1,2.1239655E1,1.4628468E-1,1.1250446E5,-7.4576115E-13,7.06202E1,1.1197896E5,-2.7757509E-2,-4.300826E-2,6.0009684E-2,-2.058207E-2,-1.628106E-2,2.2929158E-2,7.9614995E-3,-1.8972093E-2],"split_indices":[6,2,17,3,37,0,5,0,0,0,0,0,0,0,0],"split_type":[0,0,0,0,0,0,0,0,0,0,0,0,0,0,0],"sum_hessian":[4.1310244E3,2.2947063E3,1.836318E3,1.5794216E3,7.152846E2,1.1136349E3,7.22683E2,8.039772E2,7.754445E2,9.208532E0,7.060761E2,1.0665623E3,4.7072742E1,6.0459E2,1.1809296E2],"tree_param":{"num_deleted":"0","num_feature":"38","num_nodes":"15","size_leaf_vector":"1"}},{"base_weights":[-3.9420465E-1,-5.6153095E-1,-7.847099E-2,-6.523501E-1,-3.7176314E-1,4.249978E-1,-1.3549802E-1,-3.815529E-2,-2.0347381E-2,-2.1961965E-2,4.161041E-3,2.887406E-2,-5.853155E-3,-4.6458884E-4,-1.7167358E-2],"categories":[],"categories_nodes":[],"categories_segments":[],"categories_sizes":[],"default_left":[0,0,0,0,0,0,0,0,0,0,0,0,0,0,0],"id":30,"left_children":[1,3,5,7,9,11,13,-1,-1,-1,-1,-1,-1,-1,-1],"loss_changes":[2.1411786E2,4.5418945E1,4.04066E1,4.8355835E1,2.643525E1,1.1905977E1,3.3130486E1,0E0,0E0,0E0,0E0,0E0,0E0,0E0,0E0],"parents":[2147483647,0,0,1,1,2,2,3,3,4,4,5,5,6,6],"right_children":[2,4,6,8,10,12,14,-1,-1,-1,-1,-1,-1,-1,-1],"split_conditions":[1.0077783E-1,2.2232273E1,-2.743969E-1,7.3780686E-2,2.0098485E-1,7.892315E1,1.1047673E5,-3.815529E-2,-2.0347381E-2,-2.1961965E-2,4.161041E-3,2.887406E-2,-5.853155E-3,-4.6458884E-4,-1.7167358E-2],"split_indices":[17,2,22,17,23,37,5,0,0,0,0,0,0,0,0],"split_type":[0,0,0,0,0,0,0,0,0,0,0,0,0,0,0],"sum_hessian":[4.052751E3,2.6484165E3,1.4043344E3,1.78954E3,8.588765E2,1.422259E2,1.2621084E3,1.2315873E3,5.579528E2,7.4798206E2,1.10894455E2,1.1095E2,3.1275919E1,7.859335E2,4.7617496E2],"tree_param":{"num_deleted":"0","num_feature":"38","num_nodes":"15","size_leaf_vector":"1"}},{"base_weights":[-3.7318584E-1,-5.8011305E-1,-1.2337349E-1,-6.429009E-1,-2.5833836E-1,-2.6292616E-1,9.291927E-2,-3.6146224E-2,-2.2767425E-2,1.05920965E-2,-1.902778E-2,2.3885926E-2,-1.4620857E-2,4.9571157E-2,1.9226918E-3],"categories":[],"categories_nodes":[],"categories_segments":[],"categories_sizes":[],"default_left":[0,0,0,0,0,0,0,0,0,0,0,0,0,0,0],"id":31,"left_children":[1,3,5,7,9,11,13,-1,-1,-1,-1,-1,-1,-1,-1],"loss_changes":[2.0617041E2,4.39162E1,5.462281E1,2.7061523E1,2.0647839E1,2.416021E1,3.4713036E1,0E0,0E0,0E0,0E0,0E0,0E0,0E0,0E0],"parents":[2147483647,0,0,1,1,2,2,3,3,4,4,5,5,6,6],"right_children":[2,4,6,8,10,12,14,-1,-1,-1,-1,-1,-1,-1,-1],"split_conditions":[9.623086E1,4.5022503E1,1.6084674E2,7.651924E1,2.6081386E-3,1.1828104E1,1.0042E5,-3.6146224E-2,-2.2767425E-2,1.05920965E-2,-1.902778E-2,2.3885926E-2,-1.4620857E-2,4.9571157E-2,1.9226918E-3],"split_indices":[6,1,6,6,13,9,4,0,0,0,0,0,0,0,0],"split_type":[0,0,0,0,0,0,0,0,0,0,0,0,0,0,0],"sum_hessian":[3.9887488E3,2.1809111E3,1.8078376E3,1.823997E3,3.5691412E2,1.098723E3,7.091146E2,1.2764958E3,5.475011E2,7.348348E1,2.8343063E2,4.1491642E1,1.0572314E3,3.9545113E1,6.695695E2],"tree_param":{"num_deleted":"0","num_feature":"38","num_nodes":"15","size_leaf_vector":"1"}},{"base_weights":[-3.6435935E-1,-5.74576E-1,-1.2775637E-1,-6.7239887E-1,-4.2372185E-1,-2.4425142E-1,7.263201E-2,-3.9995078E-2,-2.4550831E-2,3.8151838E-2,-2.2583138E-2,7.7630426E-3,-1.5272315E-2,1.2629296E-1,2.5856388E-3],"categories":[],"categories_nodes":[],"categories_segments":[],"categories_sizes":[],"default_left":[0,0,0,0,0,0,0,0,0,0,0,0,0,0,0],"id":32,"left_children":[1,3,5,7,9,11,13,-1,-1,-1,-1,-1,-1,-1,-1],"loss_changes":[1.9491632E2,3.0345337E1,4.310431E1,2.8687561E1,2.7508774E1,2.858818E1,3.4730907E1,0E0,0E0,0E0,0E0,0E0,0E0,0E0,0E0],"parents":[2147483647,0,0,1,1,2,2,3,3,4,4,5,5,6,6],"right_children":[2,4,6,8,10,12,14,-1,-1,-1,-1,-1,-1,-1,-1],"split_conditions":[3.2561678E-3,7.686394E1,1.6084674E2,9.3121395E0,-7.4576115E-13,1.641966E1,-6.3031316E-12,-3.9995078E-2,-2.4550831E-2,3.8151838E-2,-2.2583138E-2,7.7630426E-3,-1.5272315E-2,1.2629296E-1,2.5856388E-3],"split_indices":[19,6,6,2,37,9,37,0,0,0,0,0,0,0,0],"split_type":[0,0,0,0,0,0,0,0,0,0,0,0,0,0,0],"sum_hessian":[3.9193457E3,2.0746423E3,1.8447032E3,1.2564364E3,8.1820593E2,1.1664012E3,6.78302E2,7.357974E2,5.2063904E2,1.8215458E1,7.999905E2,1.5472676E2,1.01167444E3,4.722687E0,6.7357935E2],"tree_param":{"num_deleted":"0","num_feature":"38","num_nodes":"15","size_leaf_vector":"1"}},{"base_weights":[-3.566702E-1,-5.1900727E-1,-4.662782E-2,-2.4760577E-1,-5.962795E-1,-1.7678297E-1,1.7898571E-1,-2.931336E-2,-2.6687544E-3,-3.533944E-2,-2.2210263E-2,3.4979653E-2,-1.014512E-2,5.7002295E-2,5.11297E-3],"categories":[],"categories_nodes":[],"categories_segments":[],"categories_sizes":[],"default_left":[0,0,0,0,0,0,0,0,0,0,0,0,0,0,0],"id":33,"left_children":[1,3,5,7,9,11,13,-1,-1,-1,-1,-1,-1,-1,-1],"loss_changes":[1.9365872E2,5.2818787E1,3.8897327E1,3.689864E1,3.2712097E1,1.93663E1,3.5625008E1,0E0,0E0,0E0,0E0,0E0,0E0,0E0,0E0],"parents":[2147483647,0,0,1,1,2,2,3,3,4,4,5,5,6,6],"right_children":[2,4,6,8,10,12,14,-1,-1,-1,-1,-1,-1,-1,-1],"split_conditions":[4.166326E-3,1.093028E5,1.6305475E-1,1.0532492E5,1.0221188E1,-3.6881787E-1,1.0042E5,-2.931336E-2,-2.6687544E-3,-3.533944E-2,-2.2210263E-2,3.4979653E-2,-1.014512E-2,5.7002295E-2,5.11297E-3],"split_indices":[19,4,17,4,2,22,4,0,0,0,0,0,0,0,0],"split_type":[0,0,0,0,0,0,0,0,0,0,0,0,0,0,0],"sum_hessian":[3.847154E3,2.5246057E3,1.3225483E3,5.60429E2,1.9641768E3,8.3884174E2,4.8370654E2,2.0353177E2,3.5689725E2,1.1354331E3,8.287436E2,2.353098E1,8.153108E2,3.473711E1,4.4896945E2],"tree_param":{"num_deleted":"0","num_feature":"38","num_nodes":"15","size_leaf_vector":"1"}},{"base_weights":[-3.381001E-1,-5.478924E-1,-1.10660635E-1,-6.415673E-1,-4.0932938E-1,-2.2385511E-1,7.100089E-2,-3.741323E-2,-2.0512216E-2,1.3033747E-2,-2.2528363E-2,5.730539E-3,-1.4449413E-2,1.9442383E-2,-2.273456E-3],"categories":[],"categories_nodes":[],"categories_segments":[],"categories_sizes":[],"default_left":[0,0,0,0,0,0,0,0,0,0,0,0,0,0,0],"id":34,"left_children":[1,3,5,7,9,11,13,-1,-1,-1,-1,-1,-1,-1,-1],"loss_changes":[1.8052783E2,2.5288147E1,3.738394E1,2.8637604E1,2.2131775E1,2.472054E1,2.5871916E1,0E0,0E0,0E0,0E0,0E0,0E0,0E0,0E0],"parents":[2147483647,0,0,1,1,2,2,3,3,4,4,5,5,6,6],"right_children":[2,4,6,8,10,12,14,-1,-1,-1,-1,-1,-1,-1,-1],"split_conditions":[3.2561678E-3,7.651924E1,6.0171853E-3,1.829627E1,1.1318149E1,1.641966E1,2.4230759E1,-3.741323E-2,-2.0512216E-2,1.3033747E-2,-2.2528363E-2,5.730539E-3,-1.4449413E-2,1.9442383E-2,-2.273456E-3],"split_indices":[19,6,19,1,9,9,9,0,0,0,0,0,0,0,0],"split_type":[0,0,0,0,0,0,0,0,0,0,0,0,0,0,0],"sum_hessian":[3.7837292E3,1.9674897E3,1.8162396E3,1.171722E3,7.9576776E2,1.1188467E3,6.973929E2,8.003346E2,3.7138742E2,4.583013E1,7.499376E2,1.8043788E2,9.384089E2,1.8639156E2,5.1100134E2],"tree_param":{"num_deleted":"0","num_feature":"38","num_nodes":"15","size_leaf_vector":"1"}},{"base_weights":[-3.2257593E-1,-5.336249E-1,-8.6920515E-2,-1.8547118E-1,-6.049567E-1,1.507635E-2,-2.9664892E-1,-3.5195287E-2,2.4430031E-2,-3.488292E-2,-1.9110242E-2,-2.059586E-3,5.07009E-2,-2.0718444E-2,1.1677581E-3],"categories":[],"categories_nodes":[],"categories_segments":[],"categories_sizes":[],"default_left":[0,0,0,0,0,0,0,0,0,0,0,0,0,0,0],"id":35,"left_children":[1,3,5,7,9,11,13,-1,-1,-1,-1,-1,-1,-1,-1],"loss_changes":[1.85251E2,4.8694214E1,3.7684437E1,1.1763341E2,3.3405334E1,6.670746E1,2.1722843E1,0E0,0E0,0E0,0E0,0E0,0E0,0E0,0E0],"parents":[2147483647,0,0,1,1,2,2,3,3,4,4,5,5,6,6],"right_children":[2,4,6,8,10,12,14,-1,-1,-1,-1,-1,-1,-1,-1],"split_conditions":[9.623086E1,1.08951875E5,1.11395875E5,1.0763761E5,3E0,1.114065E5,1.1767587E5,-3.5195287E-2,2.4430031E-2,-3.488292E-2,-1.9110242E-2,-2.059586E-3,5.07009E-2,-2.0718444E-2,1.1677581E-3],"split_indices":[6,5,5,4,21,4,5,0,0,0,0,0,0,0,0],"split_type":[0,0,0,0,0,0,0,0,0,0,0,0,0,0,0],"sum_hessian":[3.7247073E3,1.9642731E3,1.7604341E3,3.346286E2,1.6296444E3,1.1850425E3,5.753916E2,1.8912592E2,1.4550267E2,1.1492383E3,4.8040613E2,1.1227589E3,6.2283653E1,4.2043225E2,1.5495937E2],"tree_param":{"num_deleted":"0","num_feature":"38","num_nodes":"15","size_leaf_vector":"1"}},{"base_weights":[-3.2665876E-1,-2.0074213E-1,-5.613157E-1,4.7198406E-1,-2.3800775E-1,-6.9582903E-1,-3.980527E-1,1.169991E-2,6.9006905E-2,2.6372087E-4,-1.52847245E-2,-8.138358E-3,-4.1439023E-2,-2.6480434E-2,-6.4897845E-3],"categories":[],"categories_nodes":[],"categories_segments":[],"categories_sizes":[],"default_left":[0,0,0,0,0,0,0,0,0,0,0,0,0,0,0],"id":36,"left_children":[1,3,5,7,9,11,13,-1,-1,-1,-1,-1,-1,-1,-1],"loss_changes":[1.08348114E2,6.0039764E1,2.7862122E1,2.6866682E1,3.7309875E1,4.955844E1,2.0440208E1,0E0,0E0,0E0,0E0,0E0,0E0,0E0,0E0],"parents":[2147483647,0,0,1,1,2,2,3,3,4,4,5,5,6,6],"right_children":[2,4,6,8,10,12,14,-1,-1,-1,-1,-1,-1,-1,-1],"split_conditions":[1.125785E5,-2.743969E-1,8.862397E0,1.1190413E5,-5.4646564E1,-2.3234504E-1,1.1767587E5,1.169991E-2,6.9006905E-2,2.6372087E-4,-1.52847245E-2,-8.138358E-3,-4.1439023E-2,-2.6480434E-2,-6.4897845E-3],"split_indices":[5,22,2,3,2,24,5,0,0,0,0,0,0,0,0],"split_type":[0,0,0,0,0,0,0,0,0,0,0,0,0,0,0],"sum_hessian":[3.6697634E3,2.3894453E3,1.2803181E3,1.2480351E2,2.2646418E3,7.001765E2,5.8014154E2,9.988568E1,2.4917831E1,4.9313165E2,1.7715103E3,1.4021523E2,5.599613E2,3.8859592E2,1.9154565E2],"tree_param":{"num_deleted":"0","num_feature":"38","num_nodes":"15","size_leaf_vector":"1"}},{"base_weights":[-3.0921328E-1,-5.664075E-1,-1.637843E-1,-7.3019487E-1,-3.0175975E-1,3.3842646E-2,-2.4435051E-1,-2.5358114E-2,-4.5212623E-2,1.8701768E-1,-1.5904443E-2,-6.238095E-3,1.858653E-2,4.0425967E-2,-1.296895E-2],"categories":[],"categories_nodes":[],"categories_segments":[],"categories_sizes":[],"default_left":[0,0,0,0,0,0,0,0,0,0,0,0,0,0,0],"id":37,"left_children":[1,3,5,7,9,11,13,-1,-1,-1,-1,-1,-1,-1,-1],"loss_changes":[1.3545099E2,5.64993E1,3.6888428E1,3.0892273E1,3.432027E1,3.6042587E1,2.62482E1,0E0,0E0,0E0,0E0,0E0,0E0,0E0,0E0],"parents":[2147483647,0,0,1,1,2,2,3,3,4,4,5,5,6,6],"right_children":[2,4,6,8,10,12,14,-1,-1,-1,-1,-1,-1,-1,-1],"split_conditions":[6.8788946E-2,1.5792372E1,-5.3542038E1,1.1250446E5,-3.564127E-10,1.7460054E-1,-2.1475488E-12,-2.5358114E-2,-4.5212623E-2,1.8701768E-1,-1.5904443E-2,-6.238095E-3,1.858653E-2,4.0425967E-2,-1.296895E-2],"split_indices":[17,2,2,3,37,17,37,0,0,0,0,0,0,0,0],"split_type":[0,0,0,0,0,0,0,0,0,0,0,0,0,0,0],"sum_hessian":[3.6228267E3,1.3075327E3,2.315294E3,8.065867E2,5.00946E2,6.706893E2,1.6446046E3,3.552687E2,4.51318E2,1.097953E0,4.9984805E2,4.5686682E2,2.1382245E2,2.2401428E1,1.6222032E3],"tree_param":{"num_deleted":"0","num_feature":"38","num_nodes":"15","size_leaf_vector":"1"}},{"base_weights":[-3.0264375E-1,-4.461696E-1,5.6909276E-3,-2.1128473E-1,-5.2299464E-1,-3.412653E-2,6.314462E-1,-1.5989607E-2,1.1738663E-2,-3.0268794E-2,-1.5544504E-2,2.294898E-2,-4.163037E-3,-1.0995562E-2,5.069626E-2],"categories":[],"categories_nodes":[],"categories_segments":[],"categories_sizes":[],"default_left":[0,0,0,0,0,0,0,0,0,0,0,0,0,0,0],"id":38,"left_children":[1,3,5,7,9,11,13,-1,-1,-1,-1,-1,-1,-1,-1],"loss_changes":[1.5807968E2,4.3873535E1,2.83158E1,2.9232609E1,3.1893616E1,2.592864E1,2.2361326E1,0E0,0E0,0E0,0E0,0E0,0E0,0E0,0E0],"parents":[2147483647,0,0,1,1,2,2,3,3,4,4,5,5,6,6],"right_children":[2,4,6,8,10,12,14,-1,-1,-1,-1,-1,-1,-1,-1],"split_conditions":[4.534732E-3,1.0934542E5,1E0,1.0848802E5,3E0,1.01824805E5,1.0469759E5,-1.5989607E-2,1.1738663E-2,-3.0268794E-2,-1.5544504E-2,2.294898E-2,-4.163037E-3,-1.0995562E-2,5.069626E-2],"split_indices":[19,4,20,4,21,3,3,0,0,0,0,0,0,0,0],"split_type":[0,0,0,0,0,0,0,0,0,0,0,0,0,0,0],"sum_hessian":[3.5710417E3,2.4364556E3,1.1345863E3,6.01421E2,1.8350345E3,1.0675992E3,6.698699E1,4.8397342E2,1.1744756E2,1.3203555E3,5.146791E2,9.5982895E1,9.716164E2,2.0897163E1,4.6089825E1],"tree_param":{"num_deleted":"0","num_feature":"38","num_nodes":"15","size_leaf_vector":"1"}},{"base_weights":[-2.839744E-1,-4.8709264E-1,-7.594523E-2,-6.057145E-1,-3.3627945E-1,3.2260455E-2,-3.3654898E-1,-3.7543576E-2,-2.0275012E-2,-1.9940874E-2,1.3944983E-2,5.1664796E-2,2.9173295E-4,-2.0421527E-2,2.516683E-2],"categories":[],"categories_nodes":[],"categories_segments":[],"categories_sizes":[],"default_left":[0,0,0,0,0,0,0,0,0,0,0,0,0,0,0],"id":39,"left_children":[1,3,5,7,9,11,13,-1,-1,-1,-1,-1,-1,-1,-1],"loss_changes":[1.4859647E2,3.1633087E1,4.90476E1,2.8608917E1,3.0340355E1,3.2522873E1,3.1012691E1,0E0,0E0,0E0,0E0,0E0,0E0,0E0,0E0],"parents":[2147483647,0,0,1,1,2,2,3,3,4,4,5,5,6,6],"right_children":[2,4,6,8,10,12,14,-1,-1,-1,-1,-1,-1,-1,-1],"split_conditions":[3.276919E-3,6.603522E-2,1.1193295E5,1.0221188E1,1.17820234E5,-4.5175138E-1,7.06202E1,-3.7543576E-2,-2.0275012E-2,-1.9940874E-2,1.3944983E-2,5.1664796E-2,2.9173295E-4,-2.0421527E-2,2.516683E-2],"split_indices":[19,17,5,2,4,22,0,0,0,0,0,0,0,0,0],"split_type":[0,0,0,0,0,0,0,0,0,0,0,0,0,0,0],"sum_hessian":[3.5165762E3,1.7786112E3,1.737965E3,9.938689E2,7.8474225E2,1.2286793E3,5.0928564E2,5.7455865E2,4.1931024E2,7.126475E2,7.209477E1,3.062107E1,1.1980583E3,4.6960797E2,3.967766E1],"tree_param":{"num_deleted":"0","num_feature":"38","num_nodes":"15","size_leaf_vector":"1"}},{"base_weights":[-2.7572963E-1,-4.795773E-1,-7.397911E-2,-2.1454678E-1,-5.385429E-1,1.9710021E-2,-3.096054E-1,-1.8612463E-2,5.1374834E-2,-3.362342E-2,-1.8875597E-2,5.3743917E-2,-4.5518958E-4,-1.949206E-2,9.445916E-3],"categories":[],"categories_nodes":[],"categories_segments":[],"categories_sizes":[],"default_left":[0,0,0,0,0,0,0,0,0,0,0,0,0,0,0],"id":40,"left_children":[1,3,5,7,9,11,13,-1,-1,-1,-1,-1,-1,-1,-1],"loss_changes":[1.436372E2,2.703769E1,3.8791557E1,6.2646614E1,3.0383667E1,3.825832E1,2.0069473E1,0E0,0E0,0E0,0E0,0E0,0E0,0E0,0E0],"parents":[2147483647,0,0,1,1,2,2,3,3,4,4,5,5,6,6],"right_children":[2,4,6,8,10,12,14,-1,-1,-1,-1,-1,-1,-1,-1],"split_conditions":[3.2561678E-3,1.0883384E5,1.1197896E5,1.08637664E5,7.5973773E0,-4.5175138E-1,6.673947E1,-1.8612463E-2,5.1374834E-2,-3.362342E-2,-1.8875597E-2,5.3743917E-2,-4.5518958E-4,-1.949206E-2,9.445916E-3],"split_indices":[19,5,5,3,2,22,0,0,0,0,0,0,0,0,0],"split_type":[0,0,0,0,0,0,0,0,0,0,0,0,0,0,0],"sum_hessian":[3.4924443E3,1.7365083E3,1.755936E3,3.1687958E2,1.4196287E3,1.2570338E3,4.9890228E2,2.817997E2,3.507986E1,7.7330994E2,6.463187E2,3.2448753E1,1.224585E3,4.2992517E2,6.8977104E1],"tree_param":{"num_deleted":"0","num_feature":"38","num_nodes":"15","size_leaf_vector":"1"}},{"base_weights":[-2.61977E-1,-4.321846E-1,-2.3502307E-2,-1.0519624E-1,-5.038075E-1,1.6580664E-1,-1.4288817E-1,-3.2423414E-2,2.5829885E-2,-3.0658443E-2,-1.6442789E-2,4.4873647E-2,2.9280453E-3,-2.6753666E-3,-1.916459E-2],"categories":[],"categories_nodes":[],"categories_segments":[],"categories_sizes":[],"default_left":[0,0,0,0,0,0,0,0,0,0,0,0,0,0,0],"id":41,"left_children":[1,3,5,7,9,11,13,-1,-1,-1,-1,-1,-1,-1,-1],"loss_changes":[1.3906187E2,4.6768677E1,3.229804E1,1.2210889E2,3.1171478E1,4.331988E1,1.8808477E1,0E0,0E0,0E0,0E0,0E0,0E0,0E0,0E0],"parents":[2147483647,0,0,1,1,2,2,3,3,4,4,5,5,6,6],"right_children":[2,4,6,8,10,12,14,-1,-1,-1,-1,-1,-1,-1,-1],"split_conditions":[9.618702E-2,1.08951875E5,-4.8903767E1,1.0763761E5,1.829627E1,1.7419727E1,1.11368805E5,-3.2423414E-2,2.5829885E-2,-3.0658443E-2,-1.6442789E-2,4.4873647E-2,2.9280453E-3,-2.6753666E-3,-1.916459E-2],"split_indices":[17,5,1,4,1,9,5,0,0,0,0,0,0,0,0],"split_type":[0,0,0,0,0,0,0,0,0,0,0,0,0,0,0],"sum_hessian":[3.4252463E3,1.998229E3,1.4270172E3,3.5948758E2,1.6387415E3,5.5174E2,8.752772E2,1.9183508E2,1.676525E2,1.0068565E3,6.318849E2,6.959196E1,4.82148E2,6.389438E2,2.3633345E2],"tree_param":{"num_deleted":"0","num_feature":"38","num_nodes":"15","size_leaf_vector":"1"}},{"base_weights":[-2.4944443E-1,-1.388479E-1,-4.6933907E-1,5.3131573E-2,-2.40033E-1,-5.136825E-1,5.5825835E-1,5.4065734E-2,2.6441223E-4,1.0493815E-1,-1.2381717E-2,1.5946968E-3,-2.8233334E-2,-4.377049E-3,1.3039109E-1],"categories":[],"categories_nodes":[],"categories_segments":[],"categories_sizes":[],"default_left":[0,0,0,0,0,0,0,0,0,0,0,0,0,0,0],"id":42,"left_children":[1,3,5,7,9,11,13,-1,-1,-1,-1,-1,-1,-1,-1],"loss_changes":[8.242955E1,4.3882923E1,5.199292E1,3.837833E1,2.6814934E1,3.029013E1,6.2993477E1,0E0,0E0,0E0,0E0,0E0,0E0,0E0,0E0],"parents":[2147483647,0,0,1,1,2,2,3,3,4,4,5,5,6,6],"right_children":[2,4,6,8,10,12,14,-1,-1,-1,-1,-1,-1,-1,-1],"split_conditions":[1.125785E5,-1.0929165E-1,7.06202E1,1.1828104E1,-7.079455E1,-8.905361E1,1.3705055E2,5.4065734E-2,2.6441223E-4,1.0493815E-1,-1.2381717E-2,1.5946968E-3,-2.8233334E-2,-4.377049E-3,1.3039109E-1],"split_indices":[5,24,0,9,30,1,2,0,0,0,0,0,0,0,0],"split_type":[0,0,0,0,0,0,0,0,0,0,0,0,0,0,0],"sum_hessian":[3.39111E3,2.2573848E3,1.1337253E3,7.7929517E2,1.4780896E3,1.0873055E3,4.6419815E1,3.3689323E1,7.4560583E2,3.8971627E0,1.4741925E3,9.295705E1,9.9434845E2,3.6025715E1,1.0394097E1],"tree_param":{"num_deleted":"0","num_feature":"38","num_nodes":"15","size_leaf_vector":"1"}},{"base_weights":[-2.517633E-1,-4.4218206E-1,-7.063019E-2,-6.4295727E-1,-3.670015E-1,3.498314E-1,-1.1186407E-1,-3.9533403E-2,-1.8915705E-2,2.1422727E-2,-2.0600025E-2,2.5716027E-2,-1.1637134E-2,4.931385E-4,-1.2827403E-2],"categories":[],"categories_nodes":[],"categories_segments":[],"categories_sizes":[],"default_left":[0,0,0,0,0,0,0,0,0,0,0,0,0,0,0],"id":43,"left_children":[1,3,5,7,9,11,13,-1,-1,-1,-1,-1,-1,-1,-1],"loss_changes":[1.15901855E2,2.4495117E1,2.9925308E1,1.7097763E1,4.2929398E1,1.4895803E1,2.7664108E1,0E0,0E0,0E0,0E0,0E0,0E0,0E0,0E0],"parents":[2147483647,0,0,1,1,2,2,3,3,4,4,5,5,6,6],"right_children":[2,4,6,8,10,12,14,-1,-1,-1,-1,-1,-1,-1,-1],"split_conditions":[3.2561678E-3,1.5402103E-3,-2.743969E-1,9.75553E0,1.1318149E1,7.892315E1,1.1071912E5,-3.9533403E-2,-1.8915705E-2,2.1422727E-2,-2.0600025E-2,2.5716027E-2,-1.1637134E-2,4.931385E-4,-1.2827403E-2],"split_indices":[19,19,22,2,9,37,4,0,0,0,0,0,0,0,0],"split_type":[0,0,0,0,0,0,0,0,0,0,0,0,0,0,0],"sum_hessian":[3.3602412E3,1.6374293E3,1.7228119E3,4.4403888E2,1.1933904E3,1.5319539E2,1.5696165E3,2.8370248E2,1.6033638E2,6.343932E1,1.129951E3,1.1955603E2,3.3639355E1,8.529428E2,7.1667365E2],"tree_param":{"num_deleted":"0","num_feature":"38","num_nodes":"15","size_leaf_vector":"1"}}]},"name":"gbtree"},"learner_model_param":{"base_score":"1.362067E-1","boost_from_average":"1","num_class":"0","num_feature":"38","num_target":"1"},"objective":{"name":"binary:logistic","reg_loss_param":{"scale_pos_weight":"1"}}},"version":[2,1,4]}